{"learner":{"attributes":{"best_iteration":"25","best_score":"0.00010404373323904"},"feature_names":[],"feature_types":[],"gradient_booster":{"model":{"gbtree_model_param":{"num_parallel_tree":"1","num_trees":"36"},"iteration_indptr":[0,1,2,3,4,5,6,7,8,9,10,11,12,13,14,15,16,17,18,19,20,21,22,23,24,25,26,27,28,29,30,31,32,33,34,35,36],"tree_info":[0,0,0,0,0,0,0,0,0,0,0,0,0,0,0,0,0,0,0,0,0,0,0,0,0,0,0,0,0,0,0,0,0,0,0,0],"trees":[{"base_weights":[3.250446E-11,-2.699989E-2,1.6810826E-3,-4.0815894E-2,-2.004931E-2,1.176116E-3,3.0695224E-2,-5.9813462E-2,-3.580378E-2,-2.4162047E-2,-1.7279515E-2,-8.926759E-3,1.6042474E-3,2.3806967E-2,5.021341E-2,-6.458773E-2,-1.3231028E-2,-1.1458082E-2,-9.998217E-3,-8.341647E-3,-2.2906052E-2,-1.8732412E-2,-1.4347908E-2,-1.0559277E-2,-6.2387264E-3,4.552151E-4,1.1426296E-2,2.0352306E-2,9.168346E-3,4.524412E-2,2.3090003E-2,-6.6345766E-2,-1.15645565E-2,-7.342109E-3,-6.6214614E-3,-5.8850218E-3,-5.337028E-3,-4.5625833E-3,-4.038842E-3,-1.1532211E-2,-9.574867E-3,-7.1112635E-3,-5.1267967E-3,9.138481E-3,1.2583817E-2,5.3945114E-3,6.789489E-3,1.1693188E-2,5.012574E-2,-2.0886574E-2,-1.6797658E-2,-3.6995395E-3,-3.3275292E-3,-2.9777263E-3,-2.6436779E-3,-2.2863473E-3,-1.9679656E-3,-1.6524186E-3,-1.3340489E-3,2.2578004E-3,2.988155E-3,3.3316119E-3,3.917001E-3,1.1689512E-2,1.599144E-2],"categories":[],"categories_nodes":[],"categories_segments":[],"categories_sizes":[],"default_left":[0,0,0,0,0,0,0,1,0,0,0,0,0,0,1,1,0,0,0,0,0,0,0,0,0,0,0,0,0,0,0,0,0,0,0,0,0,0,0,0,0,0,0,0,0,0,0,0,0,0,0,0,0,0,0,0,0,0,0,0,0,0,0,0,0],"id":0,"left_children":[1,3,5,7,9,11,13,15,17,19,21,23,25,27,29,31,-1,-1,-1,-1,33,35,37,39,41,-1,43,45,-1,47,-1,49,-1,-1,-1,-1,-1,-1,-1,51,53,55,57,59,61,-1,-1,-1,63,-1,-1,-1,-1,-1,-1,-1,-1,-1,-1,-1,-1,-1,-1,-1,-1],"loss_changes":[2.2464852E0,2.7776265E-1,6.8260586E-1,9.0219855E-2,2.159071E-2,1.9810268E-1,1.05958164E-1,1.2227297E-2,3.2839775E-3,2.9096007E-3,4.663527E-3,8.105069E-3,3.746801E-2,1.3168067E-2,2.4037361E-2,4.4006705E-3,0E0,0E0,0E0,0E0,2.2125244E-4,2.9349327E-4,9.083748E-5,9.977221E-4,6.485041E-4,0E0,9.045601E-4,1.7219782E-3,0E0,3.461063E-3,0E0,8.844137E-4,0E0,0E0,0E0,0E0,0E0,0E0,0E0,6.6421926E-5,6.7997724E-5,6.049499E-5,5.691033E-5,1.0133162E-4,3.186986E-5,0E0,0E0,0E0,1.3291091E-3,0E0,0E0,0E0,0E0,0E0,0E0,0E0,0E0,0E0,0E0,0E0,0E0,0E0,0E0,0E0,0E0],"parents":[2147483647,0,0,1,1,2,2,3,3,4,4,5,5,6,6,7,7,8,8,9,9,10,10,11,11,12,12,13,13,14,14,15,15,20,20,21,21,22,22,23,23,24,24,26,26,27,27,29,29,31,31,39,39,40,40,41,41,42,42,43,43,44,44,48,48],"right_children":[2,4,6,8,10,12,14,16,18,20,22,24,26,28,30,32,-1,-1,-1,-1,34,36,38,40,42,-1,44,46,-1,48,-1,50,-1,-1,-1,-1,-1,-1,-1,52,54,56,58,60,62,-1,-1,-1,64,-1,-1,-1,-1,-1,-1,-1,-1,-1,-1,-1,-1,-1,-1,-1,-1],"split_conditions":[-1.425355E-2,-3.1887323E-2,1.428805E-2,-4.273581E-2,-2.2434752E-2,0E0,3.4027714E-2,-4.986309E-2,-3.661262E-2,-2.7621558E-2,-1.7975595E-2,-9.672854E-3,5.845149E-3,2.5420664E-2,9.867552E-2,1.6999999E-1,-1.3231028E-2,-1.1458082E-2,-9.998217E-3,-8.341647E-3,-2.4803007E-2,-2.0280028E-2,-1.594833E-2,-1.1892551E-2,-7.686087E-3,4.552151E-4,9.469386E-3,1.8831067E-2,9.168346E-3,4.243179E-2,2.3090003E-2,-1.3042417E-1,-1.15645565E-2,-7.342109E-3,-6.6214614E-3,-5.8850218E-3,-5.337028E-3,-4.5625833E-3,-4.038842E-3,-1.3441052E-2,-1.0909048E-2,-8.592267E-3,-6.4693973E-3,2.6448177E-2,1.0658809E-2,5.3945114E-3,6.789489E-3,1.1693188E-2,1.9E-1,-2.0886574E-2,-1.6797658E-2,-3.6995395E-3,-3.3275292E-3,-2.9777263E-3,-2.6436779E-3,-2.2863473E-3,-1.9679656E-3,-1.6524186E-3,-1.3340489E-3,2.2578004E-3,2.988155E-3,3.3316119E-3,3.917001E-3,1.1689512E-2,1.599144E-2],"split_indices":[0,0,0,0,0,0,0,28,0,0,0,0,0,0,34,15,0,0,0,0,0,0,0,0,0,0,30,0,0,30,0,4,0,0,0,0,0,0,0,0,0,0,0,10,0,0,0,0,9,0,0,0,0,0,0,0,0,0,0,0,0,0,0,0,0],"split_type":[0,0,0,0,0,0,0,0,0,0,0,0,0,0,0,0,0,0,0,0,0,0,0,0,0,0,0,0,0,0,0,0,0,0,0,0,0,0,0,0,0,0,0,0,0,0,0,0,0,0,0,0,0,0,0,0,0,0,0,0,0,0,0,0,0],"sum_hessian":[4.9492E4,2.9E3,4.6592E4,9.69E2,1.931E3,4.5796E4,7.96E2,2E2,7.69E2,7.74E2,1.157E3,1.861E3,4.3935E4,5.9E2,2.06E2,1.51E2,4.9E1,3.84E2,3.85E2,1.93E2,5.81E2,7.7E2,3.87E2,1.156E3,7.05E2,4.3551E4,3.84E2,3.93E2,1.97E2,1.76E2,3E1,1.4E2,1.1E1,1.92E2,3.89E2,3.87E2,3.83E2,1.88E2,1.99E2,5.76E2,5.8E2,3.92E2,3.13E2,1.32E2,2.52E2,1.97E2,1.96E2,8.1E1,9.5E1,1.02E2,3.8E1,1.95E2,3.81E2,3.89E2,1.91E2,1.97E2,1.95E2,1.96E2,1.17E2,4.8E1,8.4E1,6.7E1,1.85E2,2.4E1,7.1E1],"tree_param":{"num_deleted":"0","num_feature":"36","num_nodes":"65","size_leaf_vector":"1"}},{"base_weights":[-9.938199E-7,-1.8943379E-2,1.1784078E-3,-2.8657656E-2,-1.4056321E-2,8.231297E-4,2.1591822E-2,-4.2180266E-2,-2.5090512E-2,-1.6414072E-2,-1.1666835E-2,-6.2594125E-3,1.1232679E-3,1.6701005E-2,3.5451148E-2,-4.553541E-2,-9.341105E-3,-8.497718E-3,-2.3996789E-2,-1.8388769E-2,-1.5083054E-2,-1.27251195E-2,-1.0065705E-2,-7.402426E-3,-4.377364E-3,3.1865368E-4,8.03086E-3,1.4277537E-2,2.143911E-2,3.1780597E-2,1.7334433E-2,-4.6709295E-2,-8.384304E-3,-7.4281814E-3,-6.709865E-3,-6.0740984E-3,-5.2665924E-3,-4.827478E-3,-4.3612574E-3,-3.9437125E-3,-3.548757E-3,-3.1134477E-3,-2.659619E-3,-2.5200301E-3,-6.8822033E-3,-4.9887095E-3,-3.5982686E-3,1.7684436E-3,8.643915E-3,1.3281081E-2,5.157488E-3,5.654851E-3,6.8999594E-3,2.930577E-2,1.2166027E-2,-1.424294E-2,-7.572353E-3,-2.1844755E-3,-1.9416786E-3,-1.6039071E-3,-1.380588E-3,-1.1592094E-3,-9.372258E-4,2.4460242E-3,2.9371872E-3,3.3591513E-3,4.230306E-3,7.503634E-3,9.3970625E-3],"categories":[],"categories_nodes":[],"categories_segments":[],"categories_sizes":[],"default_left":[0,0,0,0,0,0,0,1,0,0,0,0,0,0,1,1,0,0,0,0,0,0,1,0,0,0,0,1,0,1,0,1,0,0,0,0,0,0,0,0,0,0,0,0,0,0,0,0,1,0,0,0,0,0,0,0,0,0,0,0,0,0,0,0,0,0,0,0,0],"id":1,"left_children":[1,3,5,7,9,11,13,15,17,19,21,23,25,27,29,31,-1,-1,33,35,37,39,41,43,45,-1,47,49,51,53,-1,55,-1,-1,-1,-1,-1,-1,-1,-1,-1,-1,-1,-1,57,59,61,-1,63,65,-1,-1,-1,67,-1,-1,-1,-1,-1,-1,-1,-1,-1,-1,-1,-1,-1,-1,-1],"loss_changes":[1.1057295E0,1.3731992E-1,3.378951E-1,4.5731723E-2,1.0693014E-2,9.73596E-2,5.3431302E-2,6.0295463E-3,2.0448565E-3,2.2721589E-3,1.5036762E-3,3.9731488E-3,1.8531471E-2,6.4801574E-3,1.5130311E-2,1.8327534E-3,0E0,0E0,1.7103553E-4,2.4238229E-4,8.793175E-5,6.1534345E-5,5.351007E-5,5.426854E-4,3.1831488E-4,0E0,4.5320764E-4,9.157583E-4,3.6672503E-4,2.7195811E-3,0E0,1.1238754E-3,0E0,0E0,0E0,0E0,0E0,0E0,0E0,0E0,0E0,0E0,0E0,0E0,7.828325E-5,2.9755756E-5,2.749823E-5,0E0,8.722395E-5,3.5129488E-4,0E0,0E0,0E0,4.6410412E-4,0E0,0E0,0E0,0E0,0E0,0E0,0E0,0E0,0E0,0E0,0E0,0E0,0E0,0E0,0E0],"parents":[2147483647,0,0,1,1,2,2,3,3,4,4,5,5,6,6,7,7,8,8,9,9,10,10,11,11,12,12,13,13,14,14,15,15,18,18,19,19,20,20,21,21,22,22,23,23,24,24,26,26,27,27,28,28,29,29,31,31,44,44,45,45,46,46,48,48,49,49,53,53],"right_children":[2,4,6,8,10,12,14,16,18,20,22,24,26,28,30,32,-1,-1,34,36,38,40,42,44,46,-1,48,50,52,54,-1,56,-1,-1,-1,-1,-1,-1,-1,-1,-1,-1,-1,-1,58,60,62,-1,64,66,-1,-1,-1,68,-1,-1,-1,-1,-1,-1,-1,-1,-1,-1,-1,-1,-1,-1,-1],"split_conditions":[-1.425355E-2,-3.1887323E-2,1.428805E-2,-4.273581E-2,-2.1088844E-2,0E0,3.4027714E-2,-4.986309E-2,-3.9703842E-2,-2.4803007E-2,-1.7975595E-2,-9.672854E-3,5.845149E-3,2.5420664E-2,3.034993E-1,1.6999999E-1,-9.341105E-3,-8.497718E-3,-3.5360597E-2,-2.8736314E-2,-2.3575328E-2,-1.9548515E-2,-1.5221226E-2,-1.2566373E-2,-7.686087E-3,3.1865368E-4,8.527519E-3,2.0836338E-2,2.8465621E-2,8.021385E-2,1.7334433E-2,-4.9612448E-2,-8.384304E-3,-7.4281814E-3,-6.709865E-3,-6.0740984E-3,-5.2665924E-3,-4.827478E-3,-4.3612574E-3,-3.9437125E-3,-3.548757E-3,-3.1134477E-3,-2.659619E-3,-2.5200301E-3,-1.1477593E-2,-8.592267E-3,-6.4693973E-3,1.7684436E-3,1.1246977E-2,1.617547E-2,5.157488E-3,5.654851E-3,6.8999594E-3,-1.0093067E-1,1.2166027E-2,-1.424294E-2,-7.572353E-3,-2.1844755E-3,-1.9416786E-3,-1.6039071E-3,-1.380588E-3,-1.1592094E-3,-9.372258E-4,2.4460242E-3,2.9371872E-3,3.3591513E-3,4.230306E-3,7.503634E-3,9.3970625E-3],"split_indices":[0,0,0,0,0,0,0,28,0,0,0,0,0,0,12,15,0,0,0,28,0,0,28,0,0,0,30,30,30,34,0,16,0,0,0,0,0,0,0,0,0,0,0,0,0,0,0,0,30,30,0,0,0,4,0,0,0,0,0,0,0,0,0,0,0,0,0,0,0],"split_type":[0,0,0,0,0,0,0,0,0,0,0,0,0,0,0,0,0,0,0,0,0,0,0,0,0,0,0,0,0,0,0,0,0,0,0,0,0,0,0,0,0,0,0,0,0,0,0,0,0,0,0,0,0,0,0,0,0,0,0,0,0,0,0,0,0,0,0,0,0],"sum_hessian":[4.9492E4,2.9E3,4.6592E4,9.69E2,1.931E3,4.5796E4,7.96E2,2E2,7.69E2,9.69E2,9.62E2,1.861E3,4.3935E4,5.9E2,2.06E2,1.51E2,4.9E1,1.88E2,5.81E2,3.85E2,5.84E2,5.75E2,3.87E2,1.156E3,7.05E2,4.3551E4,3.84E2,3.93E2,1.97E2,1.79E2,2.7E1,1.4E2,1.1E1,3.86E2,1.95E2,1.12E2,2.73E2,1.95E2,3.89E2,3.82E2,1.93E2,3.01E2,8.6E1,3.91E2,7.65E2,3.92E2,3.13E2,8.8E1,2.96E2,2.97E2,9.6E1,7.9E1,1.18E2,1.43E2,3.6E1,1.34E2,6E0,3.79E2,3.86E2,1.97E2,1.95E2,1.96E2,1.17E2,2.13E2,8.3E1,8.8E1,2.09E2,5E1,9.3E1],"tree_param":{"num_deleted":"0","num_feature":"36","num_nodes":"69","size_leaf_vector":"1"}},{"base_weights":[-1.2720067E-6,-1.2845125E-2,8.5575995E-4,-2.012446E-2,-9.5194075E-3,6.0496846E-4,1.5204241E-2,-2.9722905E-2,-1.7592754E-2,-1.1511016E-2,-7.842915E-3,-4.1787815E-3,7.8645756E-4,1.1733515E-2,2.5039963E-2,-3.2871526E-2,-6.8353475E-3,-5.9618917E-3,-1.6822044E-2,-4.1515995E-3,-1.0915037E-2,-8.920592E-3,-6.764725E-3,-4.9871667E-3,-3.071352E-3,2.2305979E-4,5.6401775E-3,1.0026629E-2,1.5070787E-2,2.2407899E-2,1.2319829E-2,-6.910947E-3,-3.4271777E-2,-5.1456853E-3,-4.423785E-3,-3.4854736E-3,-3.0562351E-3,-2.763688E-3,-2.4896176E-3,-2.2719582E-3,-1.9082286E-3,-5.281905E-3,-4.5356005E-3,-3.499691E-3,-2.5254646E-3,4.8042703E-3,6.508679E-3,9.409203E-3,3.770827E-3,4.1610696E-3,5.178523E-3,2.1358002E-2,1.0978943E-2,-9.174904E-3,-1.14026945E-2,-1.680139E-3,-1.5308574E-3,-1.4006103E-3,-1.1845388E-3,-1.1251653E-3,-9.6852484E-4,-8.26198E-4,-6.642154E-4,1.0439496E-3,1.5702742E-3,1.7985423E-3,2.1182671E-3,2.4111504E-3,3.0172996E-3,5.2966825E-3,6.8260613E-3],"categories":[],"categories_nodes":[],"categories_segments":[],"categories_sizes":[],"default_left":[0,0,0,0,0,0,0,1,0,0,0,0,0,0,1,0,0,0,1,0,0,0,0,0,0,0,0,1,1,1,0,0,1,0,0,0,0,0,0,0,0,0,1,0,1,0,0,0,0,0,0,0,0,0,0,0,0,0,0,0,0,0,0,0,0,0,0,0,0,0,0],"id":2,"left_children":[1,3,5,7,9,11,13,15,17,19,21,23,25,27,29,31,-1,-1,33,-1,35,37,39,41,43,-1,45,47,49,51,-1,-1,53,-1,-1,-1,-1,-1,-1,-1,-1,55,57,59,61,63,65,67,-1,-1,-1,69,-1,-1,-1,-1,-1,-1,-1,-1,-1,-1,-1,-1,-1,-1,-1,-1,-1,-1,-1],"loss_changes":[5.4480976E-1,7.475954E-2,1.6695297E-1,2.304849E-2,7.0115775E-3,3.959488E-2,2.6913434E-2,3.6421567E-3,1.0188818E-3,1.1945665E-3,1.2851804E-3,1.477031E-3,9.149687E-3,3.2154322E-3,7.811427E-3,1.0834336E-3,0E0,0E0,1.4610589E-4,0E0,2.7918816E-4,2.8036535E-5,1.4223158E-4,1.0407902E-4,1.562424E-4,0E0,2.4823472E-4,5.0030276E-4,2.8138608E-4,1.8997416E-3,0E0,0E0,4.50477E-4,0E0,0E0,0E0,0E0,0E0,0E0,0E0,0E0,4.2747706E-6,1.180917E-5,1.4635734E-5,1.6248785E-5,9.568129E-5,1.041498E-5,2.047643E-4,0E0,0E0,0E0,4.76636E-4,0E0,0E0,0E0,0E0,0E0,0E0,0E0,0E0,0E0,0E0,0E0,0E0,0E0,0E0,0E0,0E0,0E0,0E0,0E0],"parents":[2147483647,0,0,1,1,2,2,3,3,4,4,5,5,6,6,7,7,8,8,9,9,10,10,11,11,12,12,13,13,14,14,15,15,18,18,20,20,21,21,22,22,23,23,24,24,26,26,27,27,28,28,29,29,32,32,41,41,42,42,43,43,44,44,45,45,46,46,47,47,51,51],"right_children":[2,4,6,8,10,12,14,16,18,20,22,24,26,28,30,32,-1,-1,34,-1,36,38,40,42,44,-1,46,48,50,52,-1,-1,54,-1,-1,-1,-1,-1,-1,-1,-1,56,58,60,62,64,66,68,-1,-1,-1,70,-1,-1,-1,-1,-1,-1,-1,-1,-1,-1,-1,-1,-1,-1,-1,-1,-1,-1,-1],"split_conditions":[-1.3441052E-2,-3.1887323E-2,1.428805E-2,-4.273581E-2,-2.1088844E-2,0E0,3.4027714E-2,-6.1877675E-2,-3.9703842E-2,-2.7621558E-2,-1.7975595E-2,-9.672854E-3,5.845149E-3,2.5420664E-2,3.034993E-1,4.9829695E-2,-6.8353475E-3,-5.9618917E-3,-3.394281E-2,-4.1515995E-3,-2.3575328E-2,-1.9548515E-2,-1.594833E-2,-1.1477593E-2,-7.686087E-3,2.2305979E-4,1.0658809E-2,2.1656604E-2,3.0024035E-2,9.867552E-2,1.2319829E-2,-6.910947E-3,7.283279E-2,-5.1456853E-3,-4.423785E-3,-3.4854736E-3,-3.0562351E-3,-2.763688E-3,-2.4896176E-3,-2.2719582E-3,-1.9082286E-3,-1.2566373E-2,-1.0397583E-2,-8.592267E-3,-6.778699E-3,2.6448177E-2,1.1681156E-2,1.7065164E-2,3.770827E-3,4.1610696E-3,5.178523E-3,-1.0093067E-1,1.0978943E-2,-9.174904E-3,-1.14026945E-2,-1.680139E-3,-1.5308574E-3,-1.4006103E-3,-1.1845388E-3,-1.1251653E-3,-9.6852484E-4,-8.26198E-4,-6.642154E-4,1.0439496E-3,1.5702742E-3,1.7985423E-3,2.1182671E-3,2.4111504E-3,3.0172996E-3,5.2966825E-3,6.8260613E-3],"split_indices":[0,0,0,0,0,0,0,28,0,0,0,0,0,0,12,24,0,0,28,0,0,0,0,0,0,0,0,30,30,34,0,0,22,0,0,0,0,0,0,0,0,0,28,0,28,10,30,30,0,0,0,4,0,0,0,0,0,0,0,0,0,0,0,0,0,0,0,0,0,0,0],"split_type":[0,0,0,0,0,0,0,0,0,0,0,0,0,0,0,0,0,0,0,0,0,0,0,0,0,0,0,0,0,0,0,0,0,0,0,0,0,0,0,0,0,0,0,0,0,0,0,0,0,0,0,0,0,0,0,0,0,0,0,0,0,0,0,0,0,0,0,0,0,0,0],"sum_hessian":[4.9492E4,3.095E3,4.6397E4,9.69E2,2.126E3,4.5601E4,7.96E2,2E2,7.69E2,9.69E2,1.157E3,1.666E3,4.3935E4,5.9E2,2.06E2,1.35E2,6.5E1,1.88E2,5.81E2,1.93E2,7.76E2,5.75E2,5.82E2,9.61E2,7.05E2,4.3551E4,3.84E2,3.93E2,1.97E2,1.79E2,2.7E1,1.9E1,1.16E2,4.95E2,8.6E1,3.87E2,3.89E2,3.82E2,1.93E2,1.88E2,3.94E2,5.75E2,3.86E2,3.92E2,3.13E2,1.99E2,1.85E2,3.2E2,7.3E1,1.32E2,6.5E1,1.69E2,1E1,6.3E1,5.3E1,1.96E2,3.79E2,3.09E2,7.7E1,1.97E2,1.95E2,1.76E2,1.37E2,5.1E1,1.48E2,1.02E2,8.3E1,1.07E2,2.13E2,5E1,1.19E2],"tree_param":{"num_deleted":"0","num_feature":"36","num_nodes":"71","size_leaf_vector":"1"}},{"base_weights":[-1.2671694E-6,-9.333272E-3,5.797675E-4,-1.4138518E-2,-6.91587E-3,4.0344786E-4,1.07106725E-2,-2.0976799E-2,-1.2335098E-2,-8.363416E-3,-5.9411167E-3,-3.070737E-3,5.5067404E-4,8.244829E-3,1.7699093E-2,-2.3212189E-2,-1.605271E-2,-1.3303248E-2,-3.40125E-3,-9.708465E-3,-7.900697E-3,-6.4164205E-3,-4.9813213E-3,-3.7587935E-3,-2.3263297E-3,1.5614339E-4,3.9650877E-3,7.041988E-3,1.05967205E-2,1.6432963E-2,1.0598863E-2,-2.4008136E-2,-3.8960194E-3,-5.148508E-3,-3.793188E-3,-4.103524E-3,-3.5320178E-3,-3.1581428E-3,-2.6343784E-3,-8.595296E-3,-2.297099E-3,-1.9814554E-3,-1.7465824E-3,-1.8006574E-3,-4.749544E-3,-1.2291549E-3,-1.0564689E-3,-2.7923472E-3,-1.9656084E-3,3.0885546E-3,4.4102017E-3,6.118182E-3,7.934738E-3,2.3388986E-3,1.1109549E-2,3.950117E-3,1.9596796E-2,-7.906341E-3,-6.0622287E-3,-2.736062E-3,-2.2099225E-3,-1.458263E-3,-1.2368158E-3,-8.6944463E-4,-7.288438E-4,-5.155211E-4,-6.8323576E-4,7.704168E-4,1.0335416E-3,1.2635611E-3,1.6362595E-3,1.5033345E-3,1.9758085E-3,2.1392202E-3,2.6668645E-3,3.1246836E-3,3.7752076E-3,4.856308E-3,7.3391674E-3],"categories":[],"categories_nodes":[],"categories_segments":[],"categories_sizes":[],"default_left":[0,0,0,0,0,0,0,1,0,0,0,0,0,0,0,1,0,1,0,1,0,0,0,0,0,0,0,0,0,0,0,0,0,0,0,0,0,0,0,0,0,0,0,0,1,0,0,1,0,0,1,1,0,0,1,0,0,0,0,0,0,0,0,0,0,0,0,0,0,0,0,0,0,0,0,0,0,0,0],"id":3,"left_children":[1,3,5,7,9,11,13,15,17,19,21,23,25,27,29,31,33,35,-1,37,39,41,43,45,47,-1,49,51,53,55,-1,57,-1,-1,-1,-1,-1,-1,-1,59,-1,-1,-1,-1,61,-1,-1,63,65,67,69,71,73,-1,75,-1,77,-1,-1,-1,-1,-1,-1,-1,-1,-1,-1,-1,-1,-1,-1,-1,-1,-1,-1,-1,-1,-1,-1],"loss_changes":[2.683673E-1,3.3600837E-2,8.322371E-2,1.1703566E-2,2.6763603E-3,2.342644E-2,1.3588265E-2,1.8398315E-3,5.928576E-4,4.0564314E-4,4.9630925E-4,9.4496086E-4,4.527824E-3,1.5972853E-3,4.0401667E-3,7.951036E-4,3.2506883E-5,5.993247E-5,0E0,5.4821372E-5,3.2704324E-5,4.7914684E-5,6.32992E-5,6.311759E-5,1.452989E-4,0E0,1.3658917E-4,2.763979E-4,1.9773655E-4,1.7568581E-3,0E0,5.8215857E-4,0E0,0E0,0E0,0E0,0E0,0E0,0E0,2.5060028E-5,0E0,0E0,0E0,0E0,2.3613684E-6,0E0,0E0,7.893657E-6,3.5324832E-5,1.5837606E-5,2.9413495E-5,6.9548376E-5,8.7842345E-5,0E0,3.7755817E-5,0E0,1.2134537E-3,0E0,0E0,0E0,0E0,0E0,0E0,0E0,0E0,0E0,0E0,0E0,0E0,0E0,0E0,0E0,0E0,0E0,0E0,0E0,0E0,0E0,0E0],"parents":[2147483647,0,0,1,1,2,2,3,3,4,4,5,5,6,6,7,7,8,8,9,9,10,10,11,11,12,12,13,13,14,14,15,15,16,16,17,17,19,19,20,20,21,21,22,22,23,23,24,24,26,26,27,27,28,28,29,29,31,31,39,39,44,44,47,47,48,48,49,49,50,50,51,51,52,52,54,54,56,56],"right_children":[2,4,6,8,10,12,14,16,18,20,22,24,26,28,30,32,34,36,-1,38,40,42,44,46,48,-1,50,52,54,56,-1,58,-1,-1,-1,-1,-1,-1,-1,60,-1,-1,-1,-1,62,-1,-1,64,66,68,70,72,74,-1,76,-1,78,-1,-1,-1,-1,-1,-1,-1,-1,-1,-1,-1,-1,-1,-1,-1,-1,-1,-1,-1,-1,-1,-1],"split_conditions":[-1.425355E-2,-3.1887323E-2,1.428805E-2,-4.273581E-2,-2.2434752E-2,0E0,3.4027714E-2,-6.1877675E-2,-3.661262E-2,-2.7621558E-2,-1.7975595E-2,-1.0909048E-2,5.845149E-3,2.5420664E-2,8.723254E-2,1.6999999E-1,-4.499499E-2,-3.821723E-2,-3.40125E-3,-2.9623114E-2,-2.5737872E-2,-1.9548515E-2,-6.739319E-2,-1.2566373E-2,-8.592267E-3,1.5614339E-4,9.469386E-3,1.8831067E-2,2.5973942E-2,4.479997E-2,1.0598863E-2,-1.3974942E-1,-3.8960194E-3,-5.148508E-3,-3.793188E-3,-4.103524E-3,-3.5320178E-3,-3.1581428E-3,-2.6343784E-3,-2.4803007E-2,-2.297099E-3,-1.9814554E-3,-1.7465824E-3,-1.8006574E-3,-1.4559931E-2,-1.2291549E-3,-1.0564689E-3,-9.174511E-3,2.2212002E-2,7.5953244E-3,1.29137095E-2,1.5312915E-2,2.2010362E-2,2.3388986E-3,3.131762E-2,3.950117E-3,2.5675324E-1,-7.906341E-3,-6.0622287E-3,-2.736062E-3,-2.2099225E-3,-1.458263E-3,-1.2368158E-3,-8.6944463E-4,-7.288438E-4,-5.155211E-4,-6.8323576E-4,7.704168E-4,1.0335416E-3,1.2635611E-3,1.6362595E-3,1.5033345E-3,1.9758085E-3,2.1392202E-3,2.6668645E-3,3.1246836E-3,3.7752076E-3,4.856308E-3,7.3391674E-3],"split_indices":[0,0,0,0,0,0,0,28,0,0,0,0,0,0,0,15,28,28,0,28,28,0,4,0,0,0,30,0,30,30,0,4,0,0,0,0,0,0,0,0,0,0,0,0,28,0,0,28,10,30,30,30,30,0,30,0,12,0,0,0,0,0,0,0,0,0,0,0,0,0,0,0,0,0,0,0,0,0,0],"split_type":[0,0,0,0,0,0,0,0,0,0,0,0,0,0,0,0,0,0,0,0,0,0,0,0,0,0,0,0,0,0,0,0,0,0,0,0,0,0,0,0,0,0,0,0,0,0,0,0,0,0,0,0,0,0,0,0,0,0,0,0,0,0,0,0,0,0,0,0,0,0,0,0,0,0,0,0,0,0,0],"sum_hessian":[4.9492E4,2.9E3,4.6592E4,9.69E2,1.931E3,4.5796E4,7.96E2,2E2,7.69E2,7.74E2,1.157E3,1.861E3,4.3935E4,5.9E2,2.06E2,1.35E2,6.5E1,3.84E2,3.85E2,1.93E2,5.81E2,7.7E2,3.87E2,9.65E2,8.96E2,4.3551E4,3.84E2,3.93E2,1.97E2,1.94E2,1.2E1,1.24E2,1.1E1,4.6E1,1.9E1,3.02E2,8.2E1,9.7E1,9.6E1,1.42E2,4.39E2,5.77E2,1.93E2,6.7E1,3.2E2,3.91E2,5.74E2,3.88E2,5.08E2,1.32E2,2.52E2,1.97E2,1.96E2,3.3E1,1.64E2,9.8E1,9.6E1,7.3E1,5.1E1,9.5E1,4.7E1,2.66E2,5.4E1,2.95E2,9.3E1,2.87E2,2.21E2,5.7E1,7.5E1,2.16E2,3.6E1,6.2E1,1.35E2,1.11E2,8.5E1,1.17E2,4.7E1,5.9E1,3.7E1],"tree_param":{"num_deleted":"0","num_feature":"36","num_nodes":"79","size_leaf_vector":"1"}},{"base_weights":[-1.1912333E-6,-6.332237E-3,4.2126054E-4,-9.935976E-3,-4.685805E-3,2.9660747E-4,7.5530144E-3,-1.4817123E-2,-8.648903E-3,-5.6792055E-3,-3.8496358E-3,-2.048623E-3,3.8558242E-4,5.801032E-3,1.2518564E-2,-1.6923144E-2,-1.2138E-2,-2.958244E-3,-8.240484E-3,-6.3925693E-3,-5.1987995E-3,-4.3542176E-3,-3.3445093E-3,-2.4436202E-3,-1.5074955E-3,1.0930144E-4,2.787779E-3,4.9504205E-3,7.464364E-3,1.1585873E-2,7.6637925E-3,-1.0687952E-2,-1.772111E-2,-1.3056854E-2,-2.832707E-3,-8.473203E-3,-2.1268204E-3,-6.7180702E-3,-1.548263E-3,-1.6060112E-3,-1.440878E-3,-1.329441E-3,-1.0806501E-3,-1.3012065E-3,-3.2307776E-3,-2.6762672E-3,-2.286452E-3,-1.7237866E-3,-1.2319862E-3,2.3338967E-3,3.2365713E-3,4.462964E-3,5.940089E-3,1.802848E-3,8.009884E-3,6.2855566E-3,1.0912081E-2,-4.098911E-3,-1.6007986E-3,-5.9501105E-3,-4.68987E-3,-4.1749547E-3,-2.8501898E-3,-2.5461153E-3,-1.0340601E-3,-2.2424872E-3,-1.9176413E-3,-9.263193E-4,-1.0502585E-3,-7.044464E-4,-8.208416E-4,-6.9553364E-4,-4.9321196E-4,-4.912334E-4,-5.747549E-4,-4.0026745E-4,-2.548885E-4,7.629786E-4,5.07864E-4,9.199068E-4,1.1586486E-3,1.0589802E-3,1.4232986E-3,1.6516207E-3,1.9904831E-3,5.630273E-4,2.412086E-3,2.8622337E-3,4.1400176E-3],"categories":[],"categories_nodes":[],"categories_segments":[],"categories_sizes":[],"default_left":[0,0,0,0,0,0,0,0,0,0,0,0,0,0,0,0,1,0,1,1,1,1,0,0,0,0,1,1,0,0,0,0,0,1,0,1,0,0,0,0,0,0,0,0,0,0,1,1,0,1,0,0,0,0,0,0,1,0,0,0,0,0,0,0,0,0,0,0,0,0,0,0,0,0,0,0,0,0,0,0,0,0,0,0,0,0,0,0,0],"id":4,"left_children":[1,3,5,7,9,11,13,15,17,19,21,23,25,27,29,31,33,-1,35,37,39,41,43,45,47,-1,49,51,53,55,-1,57,59,61,-1,63,-1,65,-1,-1,-1,-1,-1,-1,67,69,71,73,75,77,79,81,83,-1,85,-1,87,-1,-1,-1,-1,-1,-1,-1,-1,-1,-1,-1,-1,-1,-1,-1,-1,-1,-1,-1,-1,-1,-1,-1,-1,-1,-1,-1,-1,-1,-1,-1,-1],"loss_changes":[1.3237473E-1,1.8322974E-2,4.124535E-2,5.9657767E-3,1.7449297E-3,9.51641E-3,6.8609267E-3,9.286888E-4,2.9986352E-4,2.9918924E-4,2.80587E-4,3.5262713E-4,2.2411686E-3,7.992219E-4,2.2191927E-3,3.5789981E-4,1.04586594E-4,0E0,9.583682E-5,1.2008287E-4,1.0084361E-5,1.7501414E-5,5.1818322E-5,2.9056333E-5,3.9947103E-5,0E0,7.087039E-5,1.6356353E-4,1.09010376E-4,1.0019634E-3,0E0,1.6593176E-4,1.1344813E-4,6.955583E-5,0E0,4.0903687E-6,0E0,2.6720576E-5,0E0,0E0,0E0,0E0,0E0,0E0,9.551179E-6,1.07917E-6,8.129282E-6,3.3800025E-6,1.1141208E-5,2.1864893E-5,8.49599E-6,5.3608324E-5,1.8319115E-6,0E0,1.1201948E-5,0E0,5.9702806E-4,0E0,0E0,0E0,0E0,0E0,0E0,0E0,0E0,0E0,0E0,0E0,0E0,0E0,0E0,0E0,0E0,0E0,0E0,0E0,0E0,0E0,0E0,0E0,0E0,0E0,0E0,0E0,0E0,0E0,0E0,0E0,0E0],"parents":[2147483647,0,0,1,1,2,2,3,3,4,4,5,5,6,6,7,7,8,8,9,9,10,10,11,11,12,12,13,13,14,14,15,15,16,16,18,18,19,19,20,20,21,21,22,22,23,23,24,24,26,26,27,27,28,28,29,29,31,31,32,32,33,33,35,35,37,37,44,44,45,45,46,46,47,47,48,48,49,49,50,50,51,51,52,52,54,54,56,56],"right_children":[2,4,6,8,10,12,14,16,18,20,22,24,26,28,30,32,34,-1,36,38,40,42,44,46,48,-1,50,52,54,56,-1,58,60,62,-1,64,-1,66,-1,-1,-1,-1,-1,-1,68,70,72,74,76,78,80,82,84,-1,86,-1,88,-1,-1,-1,-1,-1,-1,-1,-1,-1,-1,-1,-1,-1,-1,-1,-1,-1,-1,-1,-1,-1,-1,-1,-1,-1,-1,-1,-1,-1,-1,-1,-1],"split_conditions":[-1.3441052E-2,-3.1887323E-2,1.428805E-2,-4.273581E-2,-2.1088844E-2,0E0,3.4027714E-2,-6.1877675E-2,-3.9703842E-2,-2.4803007E-2,-1.7975595E-2,-9.672854E-3,5.845149E-3,2.5420664E-2,8.723254E-2,-2.3192957E-2,-4.6799254E-2,-2.958244E-3,-3.4452897E-2,-2.6269114E-2,-2.2973463E-2,-1.863586E-2,-6.901223E-2,-1.1892551E-2,-7.686087E-3,1.0930144E-4,1.0099483E-2,1.9737419E-2,2.7537663E-2,-9.867552E-2,7.6637925E-3,-7.999998E-2,-7.285002E-2,-4.755087E-2,-2.832707E-3,9.582822E-2,-2.1268204E-3,-3.0146109E-2,-1.548263E-3,-1.6060112E-3,-1.440878E-3,-1.329441E-3,-1.0806501E-3,-1.3012065E-3,4.5938797E-2,-7.999998E-2,-1.0089649E-2,9.087621E-3,-2.0154862E-2,-3.0448865E-2,1.2143609E-2,1.5728362E-2,2.3056595E-2,1.802848E-3,5.124596E-2,6.2855566E-3,4.8555087E-2,-4.098911E-3,-1.6007986E-3,-5.9501105E-3,-4.68987E-3,-4.1749547E-3,-2.8501898E-3,-2.5461153E-3,-1.0340601E-3,-2.2424872E-3,-1.9176413E-3,-9.263193E-4,-1.0502585E-3,-7.044464E-4,-8.208416E-4,-6.9553364E-4,-4.9321196E-4,-4.912334E-4,-5.747549E-4,-4.0026745E-4,-2.548885E-4,7.629786E-4,5.07864E-4,9.199068E-4,1.1586486E-3,1.0589802E-3,1.4232986E-3,1.6516207E-3,1.9904831E-3,5.630273E-4,2.412086E-3,2.8622337E-3,4.1400176E-3],"split_indices":[0,0,0,0,0,0,0,28,0,0,0,0,0,0,0,30,28,0,28,28,28,28,4,0,0,0,30,30,30,20,0,1,28,16,0,20,0,28,0,0,0,0,0,0,10,33,28,34,4,6,30,30,30,0,14,0,30,0,0,0,0,0,0,0,0,0,0,0,0,0,0,0,0,0,0,0,0,0,0,0,0,0,0,0,0,0,0,0,0],"split_type":[0,0,0,0,0,0,0,0,0,0,0,0,0,0,0,0,0,0,0,0,0,0,0,0,0,0,0,0,0,0,0,0,0,0,0,0,0,0,0,0,0,0,0,0,0,0,0,0,0,0,0,0,0,0,0,0,0,0,0,0,0,0,0,0,0,0,0,0,0,0,0,0,0,0,0,0,0,0,0,0,0,0,0,0,0,0,0,0,0],"sum_hessian":[4.9492E4,3.095E3,4.6397E4,9.69E2,2.126E3,4.5601E4,7.96E2,2E2,7.69E2,9.69E2,1.157E3,1.666E3,4.3935E4,5.9E2,2.06E2,1.09E2,9.1E1,1.88E2,5.81E2,3.85E2,5.84E2,5.75E2,5.82E2,9.61E2,7.05E2,4.3551E4,3.84E2,3.93E2,1.97E2,1.94E2,1.2E1,1.4E1,9.5E1,6.5E1,2.6E1,4.78E2,1.03E2,3.01E2,8.4E1,4.11E2,1.73E2,5.17E2,5.8E1,5.6E1,5.26E2,3.81E2,5.8E2,3.92E2,3.13E2,1.94E2,1.9E2,2.67E2,1.26E2,5.7E1,1.4E2,1.1E1,1.83E2,8E0,6E0,4.3E1,5.2E1,5E1,1.5E1,4.76E2,2E0,8.4E1,2.17E2,3.52E2,1.74E2,6.5E1,3.16E2,5.5E2,3E1,2.77E2,1.15E2,2.45E2,6.8E1,1.44E2,5E1,1.54E2,3.6E1,6.5E1,2.02E2,8.3E1,4.3E1,1E0,1.39E2,1.27E2,5.6E1],"tree_param":{"num_deleted":"0","num_feature":"36","num_nodes":"89","size_leaf_vector":"1"}},{"base_weights":[-1.2061939E-6,-4.605989E-3,2.8549944E-4,-7.433401E-3,-3.5736193E-3,1.977552E-4,5.3270776E-3,-1.0502323E-2,-6.3476847E-3,-4.5448286E-3,-3.0135363E-3,-1.5067281E-3,2.699864E-4,4.0791696E-3,8.86421E-3,-1.1653976E-2,-7.970092E-3,-6.802879E-3,-1.7826528E-3,-5.2004643E-3,-4.1704564E-3,-3.3244432E-3,-2.5952342E-3,-1.8492466E-3,-1.1361823E-3,7.651176E-5,1.9601453E-3,3.4808386E-3,5.2491855E-3,7.785975E-3,1.5479143E-2,-1.2063882E-2,-1.584832E-3,-1.6858398E-3,-2.5014135E-3,-1.7929319E-3,-7.07594E-3,-1.1448045E-3,-5.3841667E-3,-1.327295E-3,-1.1468816E-3,-1.069841E-3,-9.54129E-4,-2.8640728E-3,-2.3059698E-3,-1.7653812E-3,-6.217639E-4,-1.3155575E-3,-8.686841E-4,1.6233601E-3,2.3117415E-3,2.7374798E-3,3.8282536E-3,4.8602223E-3,2.0277076E-3,7.396293E-3,5.356215E-3,3.366309E-3,5.3914245E-3,-2.337663E-3,-3.7699223E-3,-2.3062087E-3,-1.950477E-3,-1.6317824E-3,-1.0041019E-3,-7.5723557E-4,-8.88492E-4,-5.5026595E-4,-7.062831E-4,-5.374561E-4,-4.2659734E-4,-4.3262856E-4,-3.6183704E-4,-2.1074945E-4,-3.2324565E-4,3.6319692E-4,5.583891E-4,6.226476E-4,7.947034E-4,6.6988193E-4,8.817451E-4,1.1124134E-3,1.6777647E-3,1.1329189E-3,1.533043E-3,1.7627793E-3,2.738482E-3],"categories":[],"categories_nodes":[],"categories_segments":[],"categories_sizes":[],"default_left":[0,0,0,0,0,0,0,1,0,0,0,0,0,0,1,1,0,0,0,0,1,0,0,1,0,0,0,0,1,1,0,0,0,0,0,0,0,0,0,0,0,0,0,0,0,1,0,0,0,1,0,0,1,0,0,1,0,0,0,0,0,0,0,0,0,0,0,0,0,0,0,0,0,0,0,0,0,0,0,0,0,0,0,0,0,0,0],"id":5,"left_children":[1,3,5,7,9,11,13,15,17,19,21,23,25,27,29,31,33,35,-1,37,39,41,43,45,47,-1,49,51,53,55,57,59,-1,-1,-1,-1,61,-1,63,-1,-1,-1,-1,65,67,69,-1,71,73,75,77,79,81,83,-1,85,-1,-1,-1,-1,-1,-1,-1,-1,-1,-1,-1,-1,-1,-1,-1,-1,-1,-1,-1,-1,-1,-1,-1,-1,-1,-1,-1,-1,-1,-1,-1],"loss_changes":[6.534282E-2,8.4412545E-3,2.0610267E-2,2.5156178E-3,1.1433028E-3,5.638791E-3,3.481811E-3,4.932843E-4,6.571412E-5,1.6878173E-4,1.6720407E-4,2.3422157E-4,1.1094622E-3,3.9546285E-4,1.3558958E-3,2.9144436E-4,1.02291815E-5,1.728721E-5,0E0,5.0156843E-5,2.7108006E-5,1.5528873E-5,3.8577244E-5,1.4431309E-5,4.1897525E-5,0E0,4.1836058E-5,9.1272406E-5,8.342974E-5,5.741501E-4,9.548897E-5,1.7470308E-4,0E0,0E0,0E0,0E0,1.779478E-5,0E0,9.074807E-6,0E0,0E0,0E0,0E0,2.375804E-6,2.1766173E-6,3.81656E-6,0E0,5.669077E-6,1.1839118E-5,1.7386163E-5,9.322423E-6,6.5629138E-6,3.567664E-5,2.4312176E-5,0E0,4.0718075E-4,0E0,0E0,0E0,0E0,0E0,0E0,0E0,0E0,0E0,0E0,0E0,0E0,0E0,0E0,0E0,0E0,0E0,0E0,0E0,0E0,0E0,0E0,0E0,0E0,0E0,0E0,0E0,0E0,0E0,0E0,0E0],"parents":[2147483647,0,0,1,1,2,2,3,3,4,4,5,5,6,6,7,7,8,8,9,9,10,10,11,11,12,12,13,13,14,14,15,15,16,16,17,17,19,19,20,20,21,21,22,22,23,23,24,24,26,26,27,27,28,28,29,29,30,30,31,31,36,36,38,38,43,43,44,44,45,45,47,47,48,48,49,49,50,50,51,51,52,52,53,53,55,55],"right_children":[2,4,6,8,10,12,14,16,18,20,22,24,26,28,30,32,34,36,-1,38,40,42,44,46,48,-1,50,52,54,56,58,60,-1,-1,-1,-1,62,-1,64,-1,-1,-1,-1,66,68,70,-1,72,74,76,78,80,82,84,-1,86,-1,-1,-1,-1,-1,-1,-1,-1,-1,-1,-1,-1,-1,-1,-1,-1,-1,-1,-1,-1,-1,-1,-1,-1,-1,-1,-1,-1,-1,-1,-1],"split_conditions":[-1.425355E-2,-3.5360597E-2,1.428805E-2,-4.273581E-2,-2.3575328E-2,0E0,3.4027714E-2,-6.1877675E-2,-3.9131258E-2,-2.911012E-2,-1.9548515E-2,-1.0909048E-2,5.845149E-3,2.5420664E-2,3.034993E-1,-6.1877675E-2,-1.688114E-1,-6.993165E-2,-1.7826528E-3,-5.4862496E-2,-2.5351403E-2,-2.1678587E-2,-1.6475024E-2,1.3069994E-2,-2.68041E-2,7.651176E-5,1.0658809E-2,1.7674094E-2,3.2476783E-2,1.0974953E-1,1.1752732E-1,-2.3192957E-2,-1.584832E-3,-1.6858398E-3,-2.5014135E-3,-1.7929319E-3,-4.1356575E-2,-1.1448045E-3,1.070228E-1,-1.327295E-3,-1.1468816E-3,-1.069841E-3,-9.54129E-4,1.8486252E-2,1.4403478E-2,-1.1203817E-2,-6.217639E-4,-9.414299E-3,2.2212002E-2,7.955874E-3,1.197091E-2,1.5062607E-2,2.1507561E-2,2.5973942E-2,2.0277076E-3,-1.00909606E-1,5.356215E-3,3.366309E-3,5.3914245E-3,-2.337663E-3,-3.7699223E-3,-2.3062087E-3,-1.950477E-3,-1.6317824E-3,-1.0041019E-3,-7.5723557E-4,-8.88492E-4,-5.5026595E-4,-7.062831E-4,-5.374561E-4,-4.2659734E-4,-4.3262856E-4,-3.6183704E-4,-2.1074945E-4,-3.2324565E-4,3.6319692E-4,5.583891E-4,6.226476E-4,7.947034E-4,6.6988193E-4,8.817451E-4,1.1124134E-3,1.6777647E-3,1.1329189E-3,1.533043E-3,1.7627793E-3,2.738482E-3],"split_indices":[0,0,0,0,0,0,0,28,28,28,0,0,0,0,12,16,4,28,0,28,28,28,28,34,4,0,0,30,30,34,34,30,0,0,0,0,28,0,10,0,0,0,0,22,24,28,0,28,10,30,30,30,20,30,0,6,0,0,0,0,0,0,0,0,0,0,0,0,0,0,0,0,0,0,0,0,0,0,0,0,0,0,0,0,0,0,0],"split_type":[0,0,0,0,0,0,0,0,0,0,0,0,0,0,0,0,0,0,0,0,0,0,0,0,0,0,0,0,0,0,0,0,0,0,0,0,0,0,0,0,0,0,0,0,0,0,0,0,0,0,0,0,0,0,0,0,0,0,0,0,0,0,0,0,0,0,0,0,0,0,0,0,0,0,0,0,0,0,0,0,0,0,0,0,0,0,0],"sum_hessian":[4.9492E4,2.9E3,4.6592E4,7.74E2,2.126E3,4.5796E4,7.96E2,2E2,5.74E2,7.75E2,1.351E3,1.861E3,4.3935E4,5.9E2,2.06E2,1.35E2,6.5E1,2.63E2,3.11E2,2.77E2,4.98E2,7.71E2,5.8E2,9.65E2,8.96E2,4.3551E4,3.84E2,3.93E2,1.97E2,1.79E2,2.7E1,1.26E2,9E0,1.1E1,5.4E1,7.1E1,1.92E2,3.5E1,2.42E2,2.81E2,2.17E2,2.79E2,4.92E2,2.96E2,2.84E2,7.08E2,2.57E2,5.34E2,3.62E2,1.99E2,1.85E2,1.28E2,2.65E2,1.6E2,3.7E1,1.74E2,5E0,1.2E1,1.5E1,1.5E1,1.11E2,8.7E1,1.05E2,2.34E2,8E0,7.2E1,2.24E2,3E1,2.54E2,6.54E2,5.4E1,2.42E2,2.92E2,2.04E2,1.58E2,7.5E1,1.24E2,1.13E2,7.2E1,4E1,8.8E1,2.51E2,1.4E1,3.3E1,1.27E2,9.5E1,7.9E1],"tree_param":{"num_deleted":"0","num_feature":"36","num_nodes":"87","size_leaf_vector":"1"}},{"base_weights":[-9.1993707E-7,-3.1257959E-3,2.0759372E-4,-5.2288156E-3,-2.4225374E-3,1.4543894E-4,3.7636478E-3,-7.410728E-3,-4.4570016E-3,-3.1894406E-3,-2.0362805E-3,-1.0039561E-3,1.8904546E-4,3.388592E-3,1.0105202E-2,-8.852478E-3,-6.087254E-3,-4.701716E-3,-1.1966729E-3,-3.699597E-3,-2.942815E-3,-2.2658727E-3,-1.6527597E-3,-1.1956476E-3,-7.4133393E-4,5.3558757E-5,1.3781767E-3,3.1403268E-3,8.252875E-3,6.878834E-3,1.3311279E-2,-9.757019E-3,-1.2544494E-3,3.247204E-3,-6.2940097E-3,-1.5604629E-3,-4.4775386E-3,-8.1090344E-4,-3.8499592E-3,-3.1504834E-3,-8.1086E-4,-2.4540129E-3,-2.1345522E-3,-7.167812E-4,-1.6027951E-3,-4.4120572E-4,-1.1409989E-3,-8.2016014E-4,-5.0816307E-4,1.0592358E-3,1.5772487E-3,2.4476072E-3,3.9679073E-3,6.9922665E-3,4.017161E-3,8.409573E-4,2.3411508E-3,1.2370571E-3,4.218415E-3,-5.586893E-3,-2.5861845E-3,-7.0870225E-4,2.169944E-3,-2.8737443E-3,-1.7556077E-3,-1.2701382E-3,-1.4955685E-3,-1.1676714E-3,-7.363414E-4,-7.085198E-4,-9.6378225E-4,-8.592354E-4,-7.138737E-4,-6.515779E-4,-4.644773E-4,-4.6281423E-4,-5.4935116E-4,-3.5231785E-4,-2.7272376E-4,-2.553214E-4,-1.1273508E-4,-1.7394479E-4,-3.845489E-5,2.1726223E-4,3.359886E-4,-1.2751594E-4,4.8412822E-4,6.520172E-4,9.21173E-4,1.1042873E-3,1.5944577E-3,1.3663514E-3,2.3808675E-3],"categories":[],"categories_nodes":[],"categories_segments":[],"categories_sizes":[],"default_left":[0,0,0,0,0,0,1,0,1,0,0,0,0,1,0,1,0,0,0,0,1,0,0,0,1,0,0,0,0,0,0,0,0,0,0,0,1,0,0,0,0,0,1,0,1,0,1,0,0,0,0,1,1,0,0,0,0,0,0,0,0,0,0,0,0,0,0,0,0,0,0,0,0,0,0,0,0,0,0,0,0,0,0,0,0,0,0,0,0,0,0,0,0],"id":6,"left_children":[1,3,5,7,9,11,13,15,17,19,21,23,25,27,29,31,33,35,-1,37,39,41,43,45,47,-1,49,51,53,55,57,59,-1,61,63,-1,65,-1,67,69,-1,71,73,-1,75,-1,77,79,81,83,85,87,89,91,-1,-1,-1,-1,-1,-1,-1,-1,-1,-1,-1,-1,-1,-1,-1,-1,-1,-1,-1,-1,-1,-1,-1,-1,-1,-1,-1,-1,-1,-1,-1,-1,-1,-1,-1,-1,-1,-1,-1],"loss_changes":[3.224927E-2,4.5662113E-3,1.0254608E-2,1.2720954E-3,6.813323E-4,2.285813E-3,1.8613711E-3,3.2964442E-4,4.7110952E-5,8.674711E-5,1.3247365E-4,8.3034625E-5,5.4918346E-4,8.8463817E-4,3.6356924E-4,3.563594E-4,2.2887299E-4,1.839269E-5,0E0,2.690591E-5,1.7795246E-5,1.86041E-5,1.7624581E-5,1.2781238E-5,1.2559467E-5,0E0,2.2773864E-5,4.024771E-4,1.3952679E-4,6.860378E-5,8.674455E-5,6.253328E-4,0E0,8.416512E-5,9.78522E-5,0E0,1.156237E-5,0E0,3.072666E-6,5.985843E-6,0E0,5.089678E-6,9.2585105E-6,0E0,4.7078356E-6,0E0,5.1823445E-6,6.9054367E-6,4.8537077E-6,2.2610184E-6,1.7866201E-5,6.0633058E-5,1.0643713E-4,3.518979E-5,0E0,0E0,0E0,0E0,0E0,0E0,0E0,0E0,0E0,0E0,0E0,0E0,0E0,0E0,0E0,0E0,0E0,0E0,0E0,0E0,0E0,0E0,0E0,0E0,0E0,0E0,0E0,0E0,0E0,0E0,0E0,0E0,0E0,0E0,0E0,0E0,0E0,0E0,0E0],"parents":[2147483647,0,0,1,1,2,2,3,3,4,4,5,5,6,6,7,7,8,8,9,9,10,10,11,11,12,12,13,13,14,14,15,15,16,16,17,17,19,19,20,20,21,21,22,22,23,23,24,24,26,26,27,27,28,28,29,29,30,30,31,31,33,33,34,34,36,36,38,38,39,39,41,41,42,42,44,44,46,46,47,47,48,48,49,49,50,50,51,51,52,52,53,53],"right_children":[2,4,6,8,10,12,14,16,18,20,22,24,26,28,30,32,34,36,-1,38,40,42,44,46,48,-1,50,52,54,56,58,60,-1,62,64,-1,66,-1,68,70,-1,72,74,-1,76,-1,78,80,82,84,86,88,90,92,-1,-1,-1,-1,-1,-1,-1,-1,-1,-1,-1,-1,-1,-1,-1,-1,-1,-1,-1,-1,-1,-1,-1,-1,-1,-1,-1,-1,-1,-1,-1,-1,-1,-1,-1,-1,-1,-1,-1],"split_conditions":[-1.3441052E-2,-3.5360597E-2,1.428805E-2,-4.273581E-2,-2.3575328E-2,0E0,2.610257E-1,-6.714329E-2,-3.7666235E-2,-3.1267338E-2,-1.7975595E-2,-9.672854E-3,5.845149E-3,8.021385E-2,1.1752732E-1,1.09999985E-1,-7.9647005E-2,6.4143896E-2,-1.1966729E-3,-5.4862496E-2,-2.6674233E-2,-2.1088844E-2,-7.0806675E-2,-4.908436E-2,-7.2711227E-3,5.3558757E-5,9.891635E-3,2.5420664E-2,1.3347982E-1,-4.4449914E-2,-1.7624608E-1,-1.688114E-1,-1.2544494E-3,-2.1535018E-1,-6.993165E-2,-1.5604629E-3,4.1112006E-2,-8.1090344E-4,1.070228E-1,2.534658E-2,-8.1086E-4,-9.27892E-2,-1.8422684E-2,-7.167812E-4,1.6474968E-2,-4.4120572E-4,-1.0617094E-2,-6.4693973E-3,-5.832189E-3,1.2282727E-2,3.0495081E-2,2.0035505E-2,-5.832189E-3,3.4027714E-2,4.017161E-3,8.409573E-4,2.3411508E-3,1.2370571E-3,4.218415E-3,-5.586893E-3,-2.5861845E-3,-7.0870225E-4,2.169944E-3,-2.8737443E-3,-1.7556077E-3,-1.2701382E-3,-1.4955685E-3,-1.1676714E-3,-7.363414E-4,-7.085198E-4,-9.6378225E-4,-8.592354E-4,-7.138737E-4,-6.515779E-4,-4.644773E-4,-4.6281423E-4,-5.4935116E-4,-3.5231785E-4,-2.7272376E-4,-2.553214E-4,-1.1273508E-4,-1.7394479E-4,-3.845489E-5,2.1726223E-4,3.359886E-4,-1.2751594E-4,4.8412822E-4,6.520172E-4,9.21173E-4,1.1042873E-3,1.5944577E-3,1.3663514E-3,2.3808675E-3],"split_indices":[0,0,0,0,0,0,12,16,28,28,0,0,0,34,34,13,28,10,0,28,28,0,4,4,28,0,30,0,10,32,6,4,0,6,28,0,34,0,10,24,0,4,28,0,34,0,28,0,28,34,14,30,16,0,0,0,0,0,0,0,0,0,0,0,0,0,0,0,0,0,0,0,0,0,0,0,0,0,0,0,0,0,0,0,0,0,0,0,0,0,0,0,0],"split_type":[0,0,0,0,0,0,0,0,0,0,0,0,0,0,0,0,0,0,0,0,0,0,0,0,0,0,0,0,0,0,0,0,0,0,0,0,0,0,0,0,0,0,0,0,0,0,0,0,0,0,0,0,0,0,0,0,0,0,0,0,0,0,0,0,0,0,0,0,0,0,0,0,0,0,0,0,0,0,0,0,0,0,0,0,0,0,0,0,0,0,0,0,0],"sum_hessian":[4.9492E4,3.095E3,4.6397E4,7.74E2,2.321E3,4.5601E4,7.96E2,2E2,5.74E2,7.75E2,1.546E3,1.666E3,4.3935E4,7.53E2,4.3E1,9.3E1,1.07E2,3.71E2,2.03E2,2.48E2,5.27E2,9.64E2,5.82E2,9.61E2,7.05E2,4.3551E4,3.84E2,7.18E2,3.5E1,2.3E1,2E1,7.7E1,1.6E1,2E0,1.05E2,1.08E2,2.63E2,3.5E1,2.13E2,2.76E2,2.51E2,3.89E2,5.75E2,3.4E1,5.48E2,1.55E2,8.06E2,5.25E2,1.8E2,1.5E2,2.34E2,3.93E2,3.25E2,3E1,5E0,5E0,1.8E1,2E0,1.8E1,7E0,7E1,1E0,1E0,1E1,9.5E1,1.84E2,7.9E1,2.05E2,8E0,2.3E1,2.53E2,5.4E1,3.35E2,5.38E2,3.7E1,4.4E2,1.08E2,7.01E2,1.05E2,4.9E2,3.5E1,1.51E2,2.9E1,2.5E1,1.25E2,4E0,2.3E2,2.76E2,1.17E2,2.71E2,5.4E1,1E1,2E1],"tree_param":{"num_deleted":"0","num_feature":"36","num_nodes":"93","size_leaf_vector":"1"}},{"base_weights":[-8.0044384E-7,-2.275038E-3,1.4079946E-4,-3.6835498E-3,-1.7607588E-3,1.0273108E-4,3.0587593E-3,-5.250175E-3,-3.129506E-3,-2.239307E-3,-1.4847869E-3,-7.385811E-4,1.3822426E-4,2.7206065E-3,7.2699497E-3,-6.2970263E-3,-4.2904136E-3,-3.3320375E-3,-2.8201246E-3,-2.1020276E-3,-2.7021815E-3,-1.6374409E-3,-1.2793932E-3,-9.066978E-4,-5.56709E-4,3.74915E-5,1.1297007E-3,2.4897335E-3,5.99269E-3,4.9477713E-3,9.57768E-3,-6.9346954E-3,-3.0008387E-3,2.7601235E-3,-4.4494816E-3,-3.388914E-3,-6.740644E-4,-8.73185E-4,-7.2264916E-4,-2.2933776E-3,-1.913773E-3,-2.971848E-3,-2.030455E-3,-1.5908573E-3,-1.9727643E-3,-1.4370583E-3,-1.1369277E-3,-9.693004E-4,-8.1175327E-4,-6.521744E-4,-4.144757E-4,9.505462E-4,1.6630796E-3,1.9595625E-3,3.0083784E-3,5.0961124E-3,3.1596753E-3,6.307178E-4,5.585903E-3,9.896457E-4,3.0194973E-3,-4.120334E-3,-1.8212564E-3,-1.0138913E-3,-4.2473807E-4,-6.023968E-4,1.8444523E-3,-2.0899966E-3,-1.234412E-3,-8.994717E-4,-1.0842565E-3,-7.258476E-4,-5.515956E-4,-6.867876E-4,-5.487642E-4,-9.19275E-4,-6.3252944E-4,-4.0838585E-4,-6.463254E-4,-4.889738E-4,-3.89075E-4,-6.15609E-4,-3.8596042E-4,-2.7961074E-4,-4.4465202E-4,-3.5659774E-4,-2.7946924E-4,-3.0831282E-4,-2.5673409E-4,-2.493357E-4,-1.7536154E-4,-1.773793E-4,-2.2660334E-4,-1.3268657E-4,-2.7303004E-5,2.092965E-4,3.137921E-4,4.375807E-4,6.342593E-4,3.8653152E-4,6.314258E-4,9.3864894E-4,-7.362664E-6,9.937102E-4,1.726903E-3,1.3289542E-3,2.2057146E-3],"categories":[],"categories_nodes":[],"categories_segments":[],"categories_sizes":[],"default_left":[0,0,0,0,0,0,1,0,1,0,0,0,0,1,0,1,0,1,0,0,1,0,0,0,0,0,1,0,0,0,0,0,0,0,0,0,0,0,0,0,0,1,0,1,0,0,1,1,1,1,1,0,0,0,1,0,0,0,0,0,0,0,0,0,0,0,0,0,0,0,0,0,0,0,0,0,0,0,0,0,0,0,0,0,0,0,0,0,0,0,0,0,0,0,0,0,0,0,0,0,0,0,0,0,0,0,0],"id":7,"left_children":[1,3,5,7,9,11,13,15,17,19,21,23,25,27,29,31,33,35,37,39,41,43,45,47,49,-1,51,53,55,57,59,61,63,65,67,69,-1,-1,-1,71,73,75,77,79,81,83,85,87,89,91,93,95,97,99,101,103,-1,-1,105,-1,-1,-1,-1,-1,-1,-1,-1,-1,-1,-1,-1,-1,-1,-1,-1,-1,-1,-1,-1,-1,-1,-1,-1,-1,-1,-1,-1,-1,-1,-1,-1,-1,-1,-1,-1,-1,-1,-1,-1,-1,-1,-1,-1,-1,-1,-1,-1],"loss_changes":[1.593864E-2,2.0949058E-3,5.1753283E-3,6.5625366E-4,2.775793E-4,1.3735221E-3,8.3463686E-4,1.7493311E-4,2.6632566E-5,4.3629203E-5,4.0296E-5,5.6427205E-5,5.797508E-4,4.0585687E-4,1.8840609E-4,1.7676642E-4,1.3340451E-4,1.34937E-5,1.6980339E-6,1.7332379E-5,2.5484595E-5,8.92044E-6,1.141656E-5,4.9548107E-6,1.1909462E-5,0E0,5.4033473E-5,1.3763923E-4,9.284902E-5,3.1833653E-5,3.1052274E-5,3.7478446E-4,5.4221455E-6,6.080929E-5,6.0659135E-5,1.7590355E-5,0E0,0E0,0E0,1.24116195E-5,5.6560384E-6,3.2724347E-6,1.4636753E-6,5.7270518E-6,2.2554887E-6,4.815869E-6,2.1860178E-6,2.9463554E-6,1.2302189E-6,2.915389E-6,3.2254757E-6,9.840442E-6,1.0291522E-5,2.2720196E-5,9.5790485E-5,1.8618768E-5,0E0,0E0,6.230839E-6,0E0,0E0,0E0,0E0,0E0,0E0,0E0,0E0,0E0,0E0,0E0,0E0,0E0,0E0,0E0,0E0,0E0,0E0,0E0,0E0,0E0,0E0,0E0,0E0,0E0,0E0,0E0,0E0,0E0,0E0,0E0,0E0,0E0,0E0,0E0,0E0,0E0,0E0,0E0,0E0,0E0,0E0,0E0,0E0,0E0,0E0,0E0,0E0],"parents":[2147483647,0,0,1,1,2,2,3,3,4,4,5,5,6,6,7,7,8,8,9,9,10,10,11,11,12,12,13,13,14,14,15,15,16,16,17,17,18,18,19,19,20,20,21,21,22,22,23,23,24,24,26,26,27,27,28,28,29,29,30,30,31,31,32,32,33,33,34,34,35,35,39,39,40,40,41,41,42,42,43,43,44,44,45,45,46,46,47,47,48,48,49,49,50,50,51,51,52,52,53,53,54,54,55,55,58,58],"right_children":[2,4,6,8,10,12,14,16,18,20,22,24,26,28,30,32,34,36,38,40,42,44,46,48,50,-1,52,54,56,58,60,62,64,66,68,70,-1,-1,-1,72,74,76,78,80,82,84,86,88,90,92,94,96,98,100,102,104,-1,-1,106,-1,-1,-1,-1,-1,-1,-1,-1,-1,-1,-1,-1,-1,-1,-1,-1,-1,-1,-1,-1,-1,-1,-1,-1,-1,-1,-1,-1,-1,-1,-1,-1,-1,-1,-1,-1,-1,-1,-1,-1,-1,-1,-1,-1,-1,-1,-1,-1],"split_conditions":[-1.425355E-2,-3.5360597E-2,1.8831067E-2,-4.273581E-2,-2.3575328E-2,0E0,2.610257E-1,-6.714329E-2,-3.821723E-2,8.749536E-2,-1.9548515E-2,-1.0909048E-2,5.845149E-3,8.021385E-2,1.1752732E-1,1.09999985E-1,-7.9647005E-2,-3.7822843E-2,-3.554066E-2,-2.6269114E-2,5.9999973E-2,6.868056E-2,-1.6664958E-2,-1.1892551E-2,-2.68041E-2,3.74915E-5,1.5312915E-2,2.9454809E-2,1.4638092E-1,-4.4449914E-2,-1.7624608E-1,-1.688114E-1,6.005968E-3,-2.1535018E-1,-6.993165E-2,-2.1535018E-1,-6.740644E-4,-8.73185E-4,-7.2264916E-4,8.293496E-2,-7.000002E-2,-3.0626167E-2,-1.2826677E-1,-1.9985102E-2,8.86358E-2,-3.6569882E-2,-1.4833485E-2,-6.817088E-2,-1.1040959E-2,-7.999998E-2,-5.832189E-3,9.164174E-3,1.8226659E-2,1.9737419E-2,7.7568345E-2,3.4027714E-2,3.1596753E-3,6.307178E-4,7.7568345E-2,9.896457E-4,3.0194973E-3,-4.120334E-3,-1.8212564E-3,-1.0138913E-3,-4.2473807E-4,-6.023968E-4,1.8444523E-3,-2.0899966E-3,-1.234412E-3,-8.994717E-4,-1.0842565E-3,-7.258476E-4,-5.515956E-4,-6.867876E-4,-5.487642E-4,-9.19275E-4,-6.3252944E-4,-4.0838585E-4,-6.463254E-4,-4.889738E-4,-3.89075E-4,-6.15609E-4,-3.8596042E-4,-2.7961074E-4,-4.4465202E-4,-3.5659774E-4,-2.7946924E-4,-3.0831282E-4,-2.5673409E-4,-2.493357E-4,-1.7536154E-4,-1.773793E-4,-2.2660334E-4,-1.3268657E-4,-2.7303004E-5,2.092965E-4,3.137921E-4,4.375807E-4,6.342593E-4,3.8653152E-4,6.314258E-4,9.3864894E-4,-7.362664E-6,9.937102E-4,1.726903E-3,1.3289542E-3,2.2057146E-3],"split_indices":[0,0,0,0,0,0,12,16,28,10,0,0,0,34,34,13,28,16,28,28,7,10,28,0,4,0,30,30,10,32,6,4,30,6,28,6,0,0,0,10,7,28,4,28,10,28,28,6,28,29,28,30,30,30,30,0,0,0,30,0,0,0,0,0,0,0,0,0,0,0,0,0,0,0,0,0,0,0,0,0,0,0,0,0,0,0,0,0,0,0,0,0,0,0,0,0,0,0,0,0,0,0,0,0,0,0,0],"split_type":[0,0,0,0,0,0,0,0,0,0,0,0,0,0,0,0,0,0,0,0,0,0,0,0,0,0,0,0,0,0,0,0,0,0,0,0,0,0,0,0,0,0,0,0,0,0,0,0,0,0,0,0,0,0,0,0,0,0,0,0,0,0,0,0,0,0,0,0,0,0,0,0,0,0,0,0,0,0,0,0,0,0,0,0,0,0,0,0,0,0,0,0,0,0,0,0,0,0,0,0,0,0,0,0,0,0,0],"sum_hessian":[4.9492E4,2.9E3,4.6592E4,7.74E2,2.126E3,4.5993E4,5.99E2,2E2,5.74E2,7.75E2,1.351E3,1.861E3,4.4132E4,5.56E2,4.3E1,9.3E1,1.07E2,3.41E2,2.33E2,6.02E2,1.73E2,7.71E2,5.8E2,9.65E2,8.96E2,4.3551E4,5.81E2,5.21E2,3.5E1,2.3E1,2E1,7.7E1,1.6E1,2E0,1.05E2,3.22E2,1.9E1,1.86E2,4.7E1,2.93E2,3.09E2,1.21E2,5.2E1,6.82E2,8.9E1,2.71E2,3.09E2,5.76E2,3.89E2,5.34E2,3.62E2,4.37E2,1.44E2,2.6E2,2.61E2,3.1E1,4E0,5E0,1.8E1,2E0,1.8E1,7E0,7E1,1.2E1,4E0,1E0,1E0,1E1,9.5E1,1.23E2,1.99E2,2.26E2,6.7E1,5.2E1,2.57E2,1.07E2,1.4E1,1E1,4.2E1,5.98E2,8.4E1,7.8E1,1.1E1,2.4E1,2.47E2,2.43E2,6.6E1,3.75E2,2.01E2,3.56E2,3.3E1,3.4E2,1.94E2,3.33E2,2.9E1,1.22E2,3.15E2,1.02E2,4.2E1,4.8E1,2.12E2,2.51E2,1E1,1E1,2.1E1,1.3E1,5E0],"tree_param":{"num_deleted":"0","num_feature":"36","num_nodes":"107","size_leaf_vector":"1"}},{"base_weights":[-6.813826E-7,-1.5458526E-3,1.024233E-4,-2.5961827E-3,-1.1946245E-3,7.536307E-5,2.1678049E-3,-3.7221992E-3,-2.1980514E-3,-1.5124128E-3,-9.659111E-4,-4.920547E-4,9.679397E-5,1.918481E-3,5.2747503E-3,-4.486431E-3,-3.02257E-3,-2.4594513E-3,-2.0727061E-3,-1.7387843E-3,-1.3585109E-3,-1.0773817E-3,-8.1683777E-4,-5.684191E-4,-3.1720518E-4,2.6244308E-5,7.935308E-4,1.7193037E-3,4.043185E-3,4.0061735E-3,7.991651E-3,-4.93046E-3,-2.185213E-3,2.3461059E-3,-3.1459988E-3,-1.9714057E-3,-2.756541E-3,-2.1326232E-3,-1.5033572E-3,-1.8755868E-3,-4.2378923E-4,-6.389449E-4,-1.3301185E-3,-1.1068578E-3,-2.2205929E-4,-3.8057048E-4,-7.8655104E-4,-2.2550146E-4,-5.4168014E-4,-3.002385E-4,-2.216897E-4,6.842827E-4,1.2560837E-3,1.4854247E-3,2.4147693E-3,-1.7850236E-5,5.1412447E-3,2.8527498E-3,1.5856138E-3,1.263059E-3,2.9486357E-3,-3.038746E-3,-1.2825747E-3,-7.331218E-4,-3.228007E-4,-5.120371E-4,1.5677848E-3,-1.0863115E-3,-5.639707E-4,-2.053585E-4,-6.171674E-4,-9.125453E-4,-6.830635E-4,-6.7116274E-4,-5.322268E-4,-5.750183E-4,-3.728942E-4,-3.2418067E-4,-5.77362E-4,-4.278831E-4,-3.646335E-4,-3.7366836E-4,-3.1408307E-4,-2.4254108E-4,-1.1412013E-4,-1.6519488E-4,-8.000681E-5,-7.7521065E-5,-1.2292976E-4,1.746226E-4,2.589085E-4,3.1725317E-4,4.395211E-4,4.325356E-4,1.9684732E-3,1.1148698E-4,7.5390335E-4,3.056904E-4,-6.261072E-4,1.2984148E-3,2.264422E-3,4.7303832E-4,9.58746E-4],"categories":[],"categories_nodes":[],"categories_segments":[],"categories_sizes":[],"default_left":[0,0,0,0,0,0,1,0,0,0,0,0,0,1,0,1,0,0,0,1,0,1,0,0,1,0,1,1,0,0,0,0,0,0,0,0,0,1,0,0,0,0,0,0,0,0,1,0,1,0,0,1,0,1,0,0,0,0,0,0,0,0,0,0,0,0,0,0,0,0,0,0,0,0,0,0,0,0,0,0,0,0,0,0,0,0,0,0,0,0,0,0,0,0,0,0,0,0,0,0,0,0,0],"id":8,"left_children":[1,3,5,7,9,11,13,15,17,19,21,23,25,27,29,31,33,35,37,39,41,43,45,47,49,-1,51,53,55,57,59,61,63,65,67,69,71,73,75,77,-1,-1,79,81,-1,-1,83,-1,85,87,-1,89,91,93,95,97,99,101,-1,-1,-1,-1,-1,-1,-1,-1,-1,-1,-1,-1,-1,-1,-1,-1,-1,-1,-1,-1,-1,-1,-1,-1,-1,-1,-1,-1,-1,-1,-1,-1,-1,-1,-1,-1,-1,-1,-1,-1,-1,-1,-1,-1,-1],"loss_changes":[7.885105E-3,1.1390308E-3,2.5930067E-3,3.392524E-4,1.6730791E-4,5.5697607E-4,4.5466167E-4,9.390991E-5,1.3742363E-5,3.143144E-5,2.1603191E-5,2.2077933E-5,2.862953E-4,2.2876682E-4,1.1963432E-4,8.527574E-5,7.8946934E-5,2.0809355E-5,1.0268763E-5,1.4707097E-5,9.912532E-6,6.843533E-6,6.9784874E-6,5.271897E-6,3.4204786E-6,0E0,2.8550712E-5,7.952971E-5,2.0967686E-4,3.213709E-5,4.8930408E-5,2.2238225E-4,2.2454478E-6,4.3934713E-5,5.694595E-5,6.543356E-6,8.126139E-6,9.342562E-6,2.0304578E-6,8.466886E-6,0E0,0E0,4.4854823E-6,4.571397E-6,0E0,0E0,4.5799243E-6,0E0,2.3566536E-6,2.1439118E-6,0E0,8.138944E-6,3.0155934E-6,7.582485E-5,2.455787E-5,2.5725536E-5,3.9748847E-5,3.2779499E-6,0E0,0E0,0E0,0E0,0E0,0E0,0E0,0E0,0E0,0E0,0E0,0E0,0E0,0E0,0E0,0E0,0E0,0E0,0E0,0E0,0E0,0E0,0E0,0E0,0E0,0E0,0E0,0E0,0E0,0E0,0E0,0E0,0E0,0E0,0E0,0E0,0E0,0E0,0E0,0E0,0E0,0E0,0E0,0E0,0E0],"parents":[2147483647,0,0,1,1,2,2,3,3,4,4,5,5,6,6,7,7,8,8,9,9,10,10,11,11,12,12,13,13,14,14,15,15,16,16,17,17,18,18,19,19,20,20,21,21,22,22,23,23,24,24,26,26,27,27,28,28,29,29,30,30,31,31,32,32,33,33,34,34,35,35,36,36,37,37,38,38,39,39,42,42,43,43,46,46,48,48,49,49,51,51,52,52,53,53,54,54,55,55,56,56,57,57],"right_children":[2,4,6,8,10,12,14,16,18,20,22,24,26,28,30,32,34,36,38,40,42,44,46,48,50,-1,52,54,56,58,60,62,64,66,68,70,72,74,76,78,-1,-1,80,82,-1,-1,84,-1,86,88,-1,90,92,94,96,98,100,102,-1,-1,-1,-1,-1,-1,-1,-1,-1,-1,-1,-1,-1,-1,-1,-1,-1,-1,-1,-1,-1,-1,-1,-1,-1,-1,-1,-1,-1,-1,-1,-1,-1,-1,-1,-1,-1,-1,-1,-1,-1,-1,-1,-1,-1],"split_conditions":[-1.3441052E-2,-3.5360597E-2,1.8831067E-2,-4.273581E-2,-2.2434752E-2,0E0,2.610257E-1,-6.714329E-2,-4.06164E-2,-2.7621558E-2,-1.7975595E-2,-8.592267E-3,5.845149E-3,4.8555087E-2,2.6710898E-1,1.09999985E-1,-7.9647005E-2,-6.993165E-2,1.1884412E-1,-3.0626167E-2,-8.0858305E-2,-1.883015E-2,-7.0806675E-2,-4.9788233E-2,1.10000014E-1,2.6244308E-5,1.6027547E-2,6.0677927E-2,-1.965787E-1,7.7568345E-2,-8.835901E-2,-1.688114E-1,6.005968E-3,-2.1535018E-1,-4.6799254E-2,7.405869E-2,-4.18486E-2,-3.5945527E-2,-8.0858305E-2,-3.5286078E-1,-4.2378923E-4,-6.389449E-4,-2.414145E-2,0E0,-2.2205929E-4,-3.8057048E-4,-1.3745737E-2,-2.2550146E-4,-9.0085305E-3,2.4123428E-2,-2.216897E-4,1.0994467E-2,1.7969E-2,4.9890462E-2,1.0218731E-1,-2.3288117E-1,8.368494E-2,-4.4449914E-2,1.5856138E-3,1.263059E-3,2.9486357E-3,-3.038746E-3,-1.2825747E-3,-7.331218E-4,-3.228007E-4,-5.120371E-4,1.5677848E-3,-1.0863115E-3,-5.639707E-4,-2.053585E-4,-6.171674E-4,-9.125453E-4,-6.830635E-4,-6.7116274E-4,-5.322268E-4,-5.750183E-4,-3.728942E-4,-3.2418067E-4,-5.77362E-4,-4.278831E-4,-3.646335E-4,-3.7366836E-4,-3.1408307E-4,-2.4254108E-4,-1.1412013E-4,-1.6519488E-4,-8.000681E-5,-7.7521065E-5,-1.2292976E-4,1.746226E-4,2.589085E-4,3.1725317E-4,4.395211E-4,4.325356E-4,1.9684732E-3,1.1148698E-4,7.5390335E-4,3.056904E-4,-6.261072E-4,1.2984148E-3,2.264422E-3,4.7303832E-4,9.58746E-4],"split_indices":[0,0,0,0,0,0,12,16,28,0,0,0,0,30,34,13,28,28,10,28,16,28,4,4,7,0,30,34,6,30,4,4,30,6,28,10,28,28,16,8,0,0,28,11,0,0,28,0,28,10,0,30,30,20,12,8,34,32,0,0,0,0,0,0,0,0,0,0,0,0,0,0,0,0,0,0,0,0,0,0,0,0,0,0,0,0,0,0,0,0,0,0,0,0,0,0,0,0,0,0,0,0,0],"split_type":[0,0,0,0,0,0,0,0,0,0,0,0,0,0,0,0,0,0,0,0,0,0,0,0,0,0,0,0,0,0,0,0,0,0,0,0,0,0,0,0,0,0,0,0,0,0,0,0,0,0,0,0,0,0,0,0,0,0,0,0,0,0,0,0,0,0,0,0,0,0,0,0,0,0,0,0,0,0,0,0,0,0,0,0,0,0,0,0,0,0,0,0,0,0,0,0,0,0,0,0,0,0,0],"sum_hessian":[4.9492E4,3.095E3,4.6397E4,7.74E2,2.321E3,4.5798E4,5.99E2,2E2,5.74E2,9.69E2,1.352E3,1.666E3,4.4132E4,5.56E2,4.3E1,9.3E1,1.07E2,1.8E2,3.94E2,3.88E2,5.81E2,7.7E2,5.82E2,1.158E3,5.08E2,4.3551E4,5.81E2,5.1E2,4.6E1,3.1E1,1.2E1,7.7E1,1.6E1,2E0,1.05E2,7.1E1,1.09E2,3.54E2,4E1,2.7E2,1.18E2,1.8E1,5.63E2,7.06E2,6.4E1,3.4E1,5.48E2,1.44E2,1.014E3,4.9E2,1.8E1,4.72E2,1.09E2,3.84E2,1.26E2,1E1,3.6E1,1.8E1,1.3E1,5E0,7E0,7E0,7E1,1.2E1,4E0,1E0,1E0,7.5E1,3E1,5E0,6.6E1,6.5E1,4.4E1,2.7E2,8.4E1,1.3E1,2.7E1,1.7E1,2.53E2,3E2,2.63E2,2.07E2,4.99E2,5.19E2,2.9E1,9.81E2,3.3E1,3.57E2,1.33E2,3.03E2,1.69E2,5.9E1,5E1,3.82E2,2E0,6E0,1.2E2,7E0,3E0,2.9E1,7E0,5E0,1.3E1],"tree_param":{"num_deleted":"0","num_feature":"36","num_nodes":"103","size_leaf_vector":"1"}},{"base_weights":[-4.948124E-7,-1.1253783E-3,6.954334E-5,-1.830929E-3,-8.6777273E-4,5.0354764E-5,1.5403597E-3,-2.6352499E-3,-1.5465821E-3,-1.1041136E-3,-7.314796E-4,-3.6276333E-4,6.7783345E-5,1.354622E-3,3.8566233E-3,-3.3184558E-3,-2.1933129E-3,-1.510201E-3,-6.5384223E-4,-1.0283166E-3,-1.3604442E-3,-8.3641964E-4,-6.5131544E-4,-4.499413E-4,-2.6847495E-4,1.8371196E-5,5.575166E-4,1.2099046E-3,2.899216E-3,2.8986158E-3,5.918132E-3,-3.7452646E-3,-1.591762E-3,1.99419E-3,-2.2776152E-3,-1.8625396E-3,-1.4467454E-3,-1.0034895E-3,-6.2336726E-4,-1.7032404E-3,-1.0641802E-3,-8.664649E-4,-1.4279381E-4,-5.91542E-4,-8.1346295E-4,-4.279724E-4,-5.93004E-4,-3.1339293E-4,-1.7191269E-4,1.1252891E-3,5.1127264E-4,1.021846E-3,1.7948225E-3,-4.1624022E-5,3.6951627E-3,2.0722807E-3,1.143908E-3,2.4231332E-3,1.0677397E-3,-2.2410743E-3,-9.3721756E-4,-5.3620274E-4,-2.2947016E-4,-4.3523146E-4,1.332617E-3,-4.6798115E-4,-8.0582977E-4,-6.178423E-4,-3.9516416E-4,-3.047067E-4,-4.4377276E-4,-3.315998E-4,-2.6797215E-4,-4.755231E-4,-6.868825E-4,-2.048618E-4,-3.681466E-4,-3.3898716E-4,-2.5038022E-4,-2.11974E-4,-1.6005817E-4,-2.9584276E-4,-2.2258346E-4,-1.4414944E-4,-1.1803563E-4,-2.0601682E-4,-1.2082172E-4,-8.6850334E-5,-1.3919812E-4,-8.6646105E-5,-3.3492204E-5,2.3769947E-4,4.2212917E-4,2.5116827E-4,1.3378804E-4,2.5844542E-4,4.7304676E-4,4.4444614E-4,1.45514E-3,2.254468E-4,-4.852334E-4,9.218741E-4,1.6700106E-3,3.5477898E-4,6.916662E-4],"categories":[],"categories_nodes":[],"categories_segments":[],"categories_sizes":[],"default_left":[0,0,0,0,0,0,1,0,1,0,0,0,0,1,0,1,0,0,0,1,0,1,0,0,0,0,0,1,0,0,0,0,0,0,1,0,0,0,0,0,1,0,0,0,0,0,0,0,0,0,0,1,1,0,0,0,0,0,0,0,0,0,0,0,0,0,0,0,0,0,0,0,0,0,0,0,0,0,0,0,0,0,0,0,0,0,0,0,0,0,0,0,0,0,0,0,0,0,0,0,0,0,0,0,0],"id":9,"left_children":[1,3,5,7,9,11,13,15,17,19,21,23,25,27,29,31,33,35,-1,37,39,41,43,45,47,-1,49,51,53,55,57,59,61,63,65,67,69,71,-1,73,75,77,-1,79,81,83,85,87,89,91,93,95,97,99,101,103,-1,-1,-1,-1,-1,-1,-1,-1,-1,-1,-1,-1,-1,-1,-1,-1,-1,-1,-1,-1,-1,-1,-1,-1,-1,-1,-1,-1,-1,-1,-1,-1,-1,-1,-1,-1,-1,-1,-1,-1,-1,-1,-1,-1,-1,-1,-1,-1,-1],"loss_changes":[3.8993724E-3,5.25679E-4,1.3149107E-3,1.7317175E-4,6.770657E-5,3.311842E-4,2.5290647E-4,5.3410302E-5,9.9480385E-6,1.3678102E-5,1.0828779E-5,1.5184603E-5,1.4144772E-4,1.2099813E-4,6.9742964E-5,5.078502E-5,4.8668997E-5,9.535113E-6,0E0,1.3627694E-5,1.585856E-5,5.8903825E-6,6.9914386E-6,2.7822825E-6,3.8367507E-6,0E0,1.4705685E-5,5.4375385E-5,1.10169116E-4,1.627786E-5,3.7461927E-5,1.1781539E-4,1.3820681E-6,3.1742828E-5,3.186852E-5,5.878741E-6,5.0533563E-6,5.648413E-6,0E0,1.8444844E-6,5.1277966E-6,3.5571866E-6,0E0,3.4071127E-6,1.8000283E-6,1.3358658E-6,1.9701838E-6,2.0641273E-6,1.9900326E-6,2.919809E-6,1.11226545E-5,3.326134E-5,1.1057942E-4,1.4963341E-5,2.5982852E-5,1.2167075E-6,0E0,0E0,0E0,0E0,0E0,0E0,0E0,0E0,0E0,0E0,0E0,0E0,0E0,0E0,0E0,0E0,0E0,0E0,0E0,0E0,0E0,0E0,0E0,0E0,0E0,0E0,0E0,0E0,0E0,0E0,0E0,0E0,0E0,0E0,0E0,0E0,0E0,0E0,0E0,0E0,0E0,0E0,0E0,0E0,0E0,0E0,0E0,0E0,0E0],"parents":[2147483647,0,0,1,1,2,2,3,3,4,4,5,5,6,6,7,7,8,8,9,9,10,10,11,11,12,12,13,13,14,14,15,15,16,16,17,17,19,19,20,20,21,21,22,22,23,23,24,24,26,26,27,27,28,28,29,29,30,30,31,31,32,32,33,33,34,34,35,35,36,36,37,37,39,39,40,40,41,41,43,43,44,44,45,45,46,46,47,47,48,48,49,49,50,50,51,51,52,52,53,53,54,54,55,55],"right_children":[2,4,6,8,10,12,14,16,18,20,22,24,26,28,30,32,34,36,-1,38,40,42,44,46,48,-1,50,52,54,56,58,60,62,64,66,68,70,72,-1,74,76,78,-1,80,82,84,86,88,90,92,94,96,98,100,102,104,-1,-1,-1,-1,-1,-1,-1,-1,-1,-1,-1,-1,-1,-1,-1,-1,-1,-1,-1,-1,-1,-1,-1,-1,-1,-1,-1,-1,-1,-1,-1,-1,-1,-1,-1,-1,-1,-1,-1,-1,-1,-1,-1,-1,-1,-1,-1,-1,-1],"split_conditions":[-1.425355E-2,-3.5360597E-2,1.8831067E-2,-4.273581E-2,-2.3575328E-2,0E0,2.610257E-1,-7.245471E-2,-4.2618904E-2,8.749536E-2,-2.0280028E-2,-1.0909048E-2,5.845149E-3,4.8555087E-2,2.6710898E-1,1.09999985E-1,-7.9647005E-2,5.0000012E-2,-6.5384223E-4,2.8857918E-2,-3.999999E-2,-2.0456284E-2,5.61415E-2,4.1292187E-2,-7.2711227E-3,1.8371196E-5,-5.3541414E-2,9.75695E-2,-1.965787E-1,7.7568345E-2,1.4256005E-1,-1.688114E-1,-1.4317259E-1,-2.1535018E-1,2.4666987E-2,-3.9703842E-2,3.5757683E-2,-2.5351403E-2,-6.2336726E-4,-3.0146109E-2,-9E-2,-9.27892E-2,-1.4279381E-4,-6.603064E-2,5.8806185E-2,2.8341938E-2,4.2786937E-2,-6.0000002E-2,3.3E-1,1.8226659E-2,-7.999998E-2,5.7637073E-2,-5.4352317E-2,-2.3288117E-1,8.368494E-2,-4.4449914E-2,1.143908E-3,2.4231332E-3,1.0677397E-3,-2.2410743E-3,-9.3721756E-4,-5.3620274E-4,-2.2947016E-4,-4.3523146E-4,1.332617E-3,-4.6798115E-4,-8.0582977E-4,-6.178423E-4,-3.9516416E-4,-3.047067E-4,-4.4377276E-4,-3.315998E-4,-2.6797215E-4,-4.755231E-4,-6.868825E-4,-2.048618E-4,-3.681466E-4,-3.3898716E-4,-2.5038022E-4,-2.11974E-4,-1.6005817E-4,-2.9584276E-4,-2.2258346E-4,-1.4414944E-4,-1.1803563E-4,-2.0601682E-4,-1.2082172E-4,-8.6850334E-5,-1.3919812E-4,-8.6646105E-5,-3.3492204E-5,2.3769947E-4,4.2212917E-4,2.5116827E-4,1.3378804E-4,2.5844542E-4,4.7304676E-4,4.4444614E-4,1.45514E-3,2.254468E-4,-4.852334E-4,9.218741E-4,1.6700106E-3,3.5477898E-4,6.916662E-4],"split_indices":[0,0,0,0,0,0,12,16,8,10,0,0,0,30,34,13,28,13,0,20,7,28,10,10,28,0,4,22,6,30,22,4,18,6,34,0,22,28,0,28,29,4,0,4,10,10,10,1,19,30,1,34,8,8,34,32,0,0,0,0,0,0,0,0,0,0,0,0,0,0,0,0,0,0,0,0,0,0,0,0,0,0,0,0,0,0,0,0,0,0,0,0,0,0,0,0,0,0,0,0,0,0,0,0,0],"split_type":[0,0,0,0,0,0,0,0,0,0,0,0,0,0,0,0,0,0,0,0,0,0,0,0,0,0,0,0,0,0,0,0,0,0,0,0,0,0,0,0,0,0,0,0,0,0,0,0,0,0,0,0,0,0,0,0,0,0,0,0,0,0,0,0,0,0,0,0,0,0,0,0,0,0,0,0,0,0,0,0,0,0,0,0,0,0,0,0,0,0,0,0,0,0,0,0,0,0,0,0,0,0,0,0,0],"sum_hessian":[4.9492E4,2.9E3,4.6592E4,7.74E2,2.126E3,4.5993E4,5.99E2,2E2,5.74E2,7.75E2,1.351E3,1.861E3,4.4132E4,5.56E2,4.3E1,7.6E1,1.24E2,5.46E2,2.8E1,6.02E2,1.73E2,5.81E2,7.7E2,9.65E2,8.96E2,4.3551E4,5.81E2,5.1E2,4.6E1,3.1E1,1.2E1,6E1,1.6E1,2E0,1.22E2,7.9E1,4.67E2,5.9E2,1.2E1,7.8E1,9.5E1,5.35E2,4.6E1,5.66E2,2.04E2,8.4E2,1.25E2,6.1E2,2.86E2,4.2E1,5.39E2,3.88E2,1.22E2,1E1,3.6E1,1.8E1,1.3E1,5E0,7E0,7E0,5.3E1,1.2E1,4E0,1E0,1E0,4.6E1,7.6E1,5.6E1,2.3E1,3.5E1,4.32E2,3.02E2,2.88E2,6.8E1,1E1,3E1,6.5E1,5.4E1,4.81E2,1.86E2,3.8E2,5.6E1,1.48E2,3.28E2,5.12E2,8.2E1,4.3E1,5.29E2,8.1E1,9.6E1,1.9E2,2.1E1,2.1E1,8.8E1,4.51E2,3.03E2,8.5E1,1.12E2,1E1,7E0,3E0,2.9E1,7E0,5E0,1.3E1],"tree_param":{"num_deleted":"0","num_feature":"36","num_nodes":"105","size_leaf_vector":"1"}},{"base_weights":[-3.5738262E-7,-7.91666E-4,4.8911534E-5,-1.2903422E-3,-6.0959463E-4,3.5251116E-5,1.0959922E-3,-1.8661694E-3,-1.0868091E-3,-7.766923E-4,-5.132356E-4,-2.6511992E-4,4.709546E-5,9.571456E-4,2.8287543E-3,-2.1704328E-3,-1.2908856E-3,-1.1797375E-3,-9.46346E-4,-7.218503E-4,-9.6228434E-4,-5.4386177E-4,-3.6906803E-4,-3.1557446E-4,-1.9776278E-4,4.24969E-5,3.920566E-4,9.18316E-4,4.369943E-3,2.0974786E-3,4.4112206E-3,-2.3947123E-3,-8.9228153E-4,-6.915748E-4,-1.477849E-3,-6.194773E-4,-1.2296675E-3,-1.0094305E-3,-7.50886E-4,-7.0345786E-4,-4.5074231E-4,-1.2069822E-3,-7.5089454E-4,-4.459221E-4,-5.7994795E-4,-4.7697624E-5,-4.0536092E-4,-2.8557435E-4,-3.9810108E-4,-1.8201707E-4,-1.3212021E-4,-9.429304E-5,1.2859963E-5,2.5968734E-4,5.3488166E-4,7.615618E-4,1.570682E-3,2.9022509E-4,1.4570896E-3,4.5170166E-4,8.2524744E-4,1.8173502E-3,7.874575E-4,-6.561141E-4,-1.0434169E-3,4.301146E-5,-3.0265306E-4,-3.5534234E-4,1.7213599E-4,-4.7319147E-4,-2.8370263E-4,-9.194325E-5,-3.1903118E-4,-2.9063338E-4,-4.0016684E-4,-3.4135193E-4,-2.5847767E-4,-1.3471699E-4,-2.661502E-4,-2.0720418E-4,-4.6448052E-4,-3.1652264E-4,-4.4786942E-4,-1.5604781E-4,-2.6989213E-4,-1.5114693E-4,3.6153615E-5,-2.0804192E-4,-1.63356E-4,-1.2883736E-4,-3.450971E-5,-8.089995E-5,-1.22129E-4,-1.338022E-5,-1.240064E-4,-4.8239763E-5,-9.8191515E-5,-1.2608594E-4,-1.9768659E-6,8.9475325E-5,-1.8794679E-4,1.3470885E-4,1.9880994E-4,1.6872604E-4,3.5429368E-4,3.1707025E-4,8.1773195E-4],"categories":[],"categories_nodes":[],"categories_segments":[],"categories_sizes":[],"default_left":[0,0,0,0,0,0,1,1,1,0,1,0,0,1,0,1,0,0,0,1,0,0,0,1,0,0,1,1,0,0,0,1,0,0,1,0,0,0,0,1,0,0,0,0,0,0,1,1,0,1,0,0,0,0,0,1,0,0,0,0,0,0,0,0,0,0,0,0,0,0,0,0,0,0,0,0,0,0,0,0,0,0,0,0,0,0,0,0,0,0,0,0,0,0,0,0,0,0,0,0,0,0,0,0,0,0,0],"id":10,"left_children":[1,3,5,7,9,11,13,15,17,19,21,23,25,27,29,31,33,35,37,39,41,43,45,47,49,51,53,55,57,59,61,63,65,67,69,71,73,75,77,79,-1,81,83,85,87,-1,89,91,93,95,-1,97,-1,99,101,103,105,-1,-1,-1,-1,-1,-1,-1,-1,-1,-1,-1,-1,-1,-1,-1,-1,-1,-1,-1,-1,-1,-1,-1,-1,-1,-1,-1,-1,-1,-1,-1,-1,-1,-1,-1,-1,-1,-1,-1,-1,-1,-1,-1,-1,-1,-1,-1,-1,-1,-1],"loss_changes":[1.9296181E-3,2.6260875E-4,6.6640705E-4,8.8801724E-5,3.3848977E-5,1.6364522E-4,1.4164532E-4,3.2380864E-5,6.3889893E-6,7.203722E-6,5.7687867E-6,5.8679143E-6,7.017819E-5,6.979925E-5,4.166519E-5,3.512943E-5,7.045506E-6,8.805306E-6,2.1273736E-6,7.600698E-6,8.09411E-6,3.675028E-6,1.7653692E-6,2.3522152E-6,2.7852202E-6,2.2120948E-6,1.0864183E-5,5.5251934E-5,5.2439136E-6,8.231102E-6,2.2337888E-5,1.7140352E-5,2.6797115E-6,1.2529861E-5,1.366483E-6,3.8428616E-6,7.218361E-6,2.322835E-6,2.1107662E-6,5.3101394E-6,0E0,1.8560531E-6,2.8268514E-6,1.0031028E-5,2.8801733E-6,0E0,1.3777899E-6,1.3091667E-6,1.3997014E-6,2.1237574E-6,0E0,3.3709402E-6,0E0,1.0575832E-5,2.7640272E-6,3.667074E-5,6.002633E-5,0E0,0E0,0E0,0E0,0E0,0E0,0E0,0E0,0E0,0E0,0E0,0E0,0E0,0E0,0E0,0E0,0E0,0E0,0E0,0E0,0E0,0E0,0E0,0E0,0E0,0E0,0E0,0E0,0E0,0E0,0E0,0E0,0E0,0E0,0E0,0E0,0E0,0E0,0E0,0E0,0E0,0E0,0E0,0E0,0E0,0E0,0E0,0E0,0E0,0E0],"parents":[2147483647,0,0,1,1,2,2,3,3,4,4,5,5,6,6,7,7,8,8,9,9,10,10,11,11,12,12,13,13,14,14,15,15,16,16,17,17,18,18,19,19,20,20,21,21,22,22,23,23,24,24,25,25,26,26,27,27,28,28,29,29,30,30,31,31,32,32,33,33,34,34,35,35,36,36,37,37,38,38,39,39,41,41,42,42,43,43,44,44,46,46,47,47,48,48,49,49,51,51,53,53,54,54,55,55,56,56],"right_children":[2,4,6,8,10,12,14,16,18,20,22,24,26,28,30,32,34,36,38,40,42,44,46,48,50,52,54,56,58,60,62,64,66,68,70,72,74,76,78,80,-1,82,84,86,88,-1,90,92,94,96,-1,98,-1,100,102,104,106,-1,-1,-1,-1,-1,-1,-1,-1,-1,-1,-1,-1,-1,-1,-1,-1,-1,-1,-1,-1,-1,-1,-1,-1,-1,-1,-1,-1,-1,-1,-1,-1,-1,-1,-1,-1,-1,-1,-1,-1,-1,-1,-1,-1,-1,-1,-1,-1,-1,-1],"split_conditions":[-1.425355E-2,-3.5360597E-2,1.8831067E-2,-4.273581E-2,-2.3575328E-2,-6.4693973E-3,2.610257E-1,-6.714329E-2,-3.821723E-2,8.749536E-2,-1.6664958E-2,-3.505869E-2,5.845149E-3,1.0974953E-1,2.6710898E-1,-4.986309E-2,7.0453204E-2,3.8404103E-2,1.0966124E-1,2.8857918E-2,-3.999999E-2,4.331321E-2,-1.1113674E-1,-7.999998E-2,3.504331E-2,0E0,1.0994467E-2,-5.832189E-3,-1.0971991E-1,7.7568345E-2,1.4256005E-1,1.2886591E-1,-7.999998E-2,-4.499499E-2,-7.106714E-2,1.070228E-1,-2.3754896E-1,-3.5945527E-2,-1.4474806E-1,-5.0000012E-2,-4.5074231E-4,-7.999998E-2,6.70963E-2,4.182833E-2,-8.420127E-2,-4.7697624E-5,4.804108E-2,1.394389E-2,-2.6674233E-2,-6.0000002E-2,-1.3212021E-4,-2.5583427E-2,1.2859963E-5,5.6337047E-2,1.6027547E-2,5.7637073E-2,8.399223E-2,2.9022509E-4,1.4570896E-3,4.5170166E-4,8.2524744E-4,1.8173502E-3,7.874575E-4,-6.561141E-4,-1.0434169E-3,4.301146E-5,-3.0265306E-4,-3.5534234E-4,1.7213599E-4,-4.7319147E-4,-2.8370263E-4,-9.194325E-5,-3.1903118E-4,-2.9063338E-4,-4.0016684E-4,-3.4135193E-4,-2.5847767E-4,-1.3471699E-4,-2.661502E-4,-2.0720418E-4,-4.6448052E-4,-3.1652264E-4,-4.4786942E-4,-1.5604781E-4,-2.6989213E-4,-1.5114693E-4,3.6153615E-5,-2.0804192E-4,-1.63356E-4,-1.2883736E-4,-3.450971E-5,-8.089995E-5,-1.22129E-4,-1.338022E-5,-1.240064E-4,-4.8239763E-5,-9.8191515E-5,-1.2608594E-4,-1.9768659E-6,8.9475325E-5,-1.8794679E-4,1.3470885E-4,1.9880994E-4,1.6872604E-4,3.5429368E-4,3.1707025E-4,8.1773195E-4],"split_indices":[0,0,0,0,0,0,12,16,28,10,28,4,0,34,34,28,26,24,10,20,7,10,6,29,10,0,30,16,4,30,22,26,1,28,32,10,6,28,4,33,0,29,22,10,4,0,22,34,28,29,0,4,0,10,30,34,10,0,0,0,0,0,0,0,0,0,0,0,0,0,0,0,0,0,0,0,0,0,0,0,0,0,0,0,0,0,0,0,0,0,0,0,0,0,0,0,0,0,0,0,0,0,0,0,0,0,0],"split_type":[0,0,0,0,0,0,0,0,0,0,0,0,0,0,0,0,0,0,0,0,0,0,0,0,0,0,0,0,0,0,0,0,0,0,0,0,0,0,0,0,0,0,0,0,0,0,0,0,0,0,0,0,0,0,0,0,0,0,0,0,0,0,0,0,0,0,0,0,0,0,0,0,0,0,0,0,0,0,0,0,0,0,0,0,0,0,0,0,0,0,0,0,0,0,0,0,0,0,0,0,0,0,0,0,0,0,0],"sum_hessian":[4.9492E4,2.9E3,4.6592E4,7.74E2,2.126E3,4.5993E4,5.99E2,2E2,5.74E2,7.75E2,1.351E3,1.744E3,4.4249E4,5.56E2,4.3E1,1.29E2,7.1E1,3.41E2,2.33E2,6.02E2,1.73E2,1.112E3,2.39E2,9.95E2,7.49E2,4.3668E4,5.81E2,5.51E2,5E0,3.1E1,1.2E1,1.09E2,2E1,1.8E1,5.3E1,2.9E1,3.12E2,1.73E2,6E1,5.9E2,1.2E1,7.8E1,9.5E1,3.03E2,8.09E2,3.6E1,2.03E2,7.33E2,2.62E2,7.05E2,4.4E1,1.17E2,4.3551E4,3.03E2,2.78E2,4.46E2,1.05E2,1E0,4E0,1.8E1,1.3E1,5E0,7E0,9.4E1,1.5E1,2E0,1.8E1,1.3E1,5E0,4.3E1,1E1,1.8E1,1.1E1,9.2E1,2.2E2,8.9E1,8.4E1,2E1,4E1,5.83E2,7E0,5.4E1,2.4E1,3.9E1,5.6E1,2.75E2,2.8E1,1.88E2,6.21E2,1.87E2,1.6E1,6.51E2,8.2E1,1.1E1,2.51E2,6.17E2,8.8E1,2.4E1,9.3E1,2.91E2,1.2E1,1.69E2,1.09E2,3.04E2,1.42E2,7.4E1,3.1E1],"tree_param":{"num_deleted":"0","num_feature":"36","num_nodes":"107","size_leaf_vector":"1"}},{"base_weights":[-2.7489853E-7,-5.2083744E-4,3.68164E-5,-9.0969354E-4,-4.0094694E-4,2.8730372E-5,9.533886E-4,-1.3207435E-3,-7.644227E-4,-5.089966E-4,-3.0768345E-4,2.4390945E-5,3.675983E-4,6.0177606E-4,1.4194042E-3,-1.100832E-3,-1.8704992E-3,-7.1758183E-4,-9.87849E-4,-4.7937498E-4,-6.9074007E-4,-2.7093603E-4,-4.1313452E-4,-1.586884E-4,3.0545896E-5,2.7904086E-4,7.2637165E-4,7.978146E-4,2.2647205E-4,1.3488076E-4,1.7442118E-3,1.1752279E-3,-1.1898783E-3,-1.4795462E-3,-1.3187419E-3,-7.634771E-4,-2.5798142E-4,-3.4993084E-4,-1.9585258E-4,-5.941651E-4,-4.3830724E-4,-1.0762382E-3,-5.7110674E-4,-1.3706998E-4,-2.5950503E-4,-6.17412E-5,-4.547494E-4,-1.9223547E-4,-9.235649E-5,9.002062E-6,1.4777103E-4,2.4723055E-4,4.7170668E-4,5.112783E-4,1.400514E-3,3.9624455E-4,6.8943313E-4,2.7948432E-4,6.522419E-5,9.198475E-4,-1.0253958E-3,7.0997706E-4,2.3237772E-3,-1.0306696E-4,8.425593E-4,-3.307035E-4,-8.9269655E-4,-5.465278E-4,-2.1242643E-4,-2.2148776E-4,-4.130563E-4,-3.7247046E-5,-1.846958E-4,-2.089129E-4,-1.0045616E-4,-1.4528121E-4,-7.683171E-5,-2.897639E-4,-5.235679E-4,-1.8755862E-5,-1.8736883E-4,-7.036045E-5,-1.01571226E-4,-1.4081111E-4,-4.6914745E-5,6.5492124E-5,-5.8756174E-5,5.0424493E-5,-3.1095715E-5,1.921655E-5,1.7558328E-4,-6.7723435E-5,8.6860695E-5,1.7186112E-4,-2.790466E-5,5.2250496E-5,4.8186575E-4,3.713195E-5,2.3426114E-4,5.431523E-5,-1.045134E-4,5.20737E-4,9.888291E-5,-4.4498875E-4,-2.7398952E-5,4.139812E-4,-1.7848397E-4,4.949455E-4,9.168374E-4],"categories":[],"categories_nodes":[],"categories_segments":[],"categories_sizes":[],"default_left":[0,0,0,0,0,0,0,1,1,0,0,0,1,1,0,0,1,1,0,0,0,0,0,0,0,0,0,0,0,0,0,0,1,1,0,1,0,0,0,0,1,0,0,0,1,0,1,0,0,0,1,0,0,0,1,0,0,0,0,0,0,0,0,0,0,0,0,0,0,0,0,0,0,0,0,0,0,0,0,0,0,0,0,0,0,0,0,0,0,0,0,0,0,0,0,0,0,0,0,0,0,0,0,0,0,0,0,0,0],"id":11,"left_children":[1,3,5,7,9,11,13,15,17,19,21,23,25,27,29,31,33,35,37,39,41,43,45,47,49,51,53,55,57,59,61,63,65,67,-1,69,71,-1,-1,73,75,77,79,-1,81,-1,83,85,87,-1,89,91,-1,93,95,-1,97,-1,99,101,103,105,107,-1,-1,-1,-1,-1,-1,-1,-1,-1,-1,-1,-1,-1,-1,-1,-1,-1,-1,-1,-1,-1,-1,-1,-1,-1,-1,-1,-1,-1,-1,-1,-1,-1,-1,-1,-1,-1,-1,-1,-1,-1,-1,-1,-1,-1,-1],"loss_changes":[9.556469E-4,1.5310885E-4,3.423954E-4,4.5268447E-5,2.5217509E-5,6.733813E-5,6.534404E-5,2.2241293E-5,5.3087715E-6,5.940674E-6,5.1348907E-6,5.096189E-5,1.8193328E-5,1.6888487E-5,7.194429E-5,3.0988886E-5,4.878368E-5,9.9068275E-6,5.0418093E-6,4.4773333E-6,6.81042E-6,2.0220687E-6,2.9089679E-6,3.2555727E-6,2.7600654E-6,1.8782845E-5,1.5814348E-5,7.70529E-6,9.149155E-6,3.3731234E-5,8.106831E-5,1.5848702E-5,1.8760227E-5,1.191019E-5,0E0,5.7031866E-6,2.0774967E-6,0E0,0E0,6.710994E-6,6.1066967E-6,1.0459771E-6,3.3593315E-6,0E0,1.7981365E-6,0E0,1.1873308E-6,1.49263E-6,1.4765947E-6,0E0,7.287758E-6,9.189587E-6,0E0,3.3286215E-6,6.531416E-6,0E0,6.52382E-6,0E0,3.272784E-6,1.0023068E-5,6.2801646E-6,4.5407585E-5,3.839229E-5,0E0,0E0,0E0,0E0,0E0,0E0,0E0,0E0,0E0,0E0,0E0,0E0,0E0,0E0,0E0,0E0,0E0,0E0,0E0,0E0,0E0,0E0,0E0,0E0,0E0,0E0,0E0,0E0,0E0,0E0,0E0,0E0,0E0,0E0,0E0,0E0,0E0,0E0,0E0,0E0,0E0,0E0,0E0,0E0,0E0,0E0],"parents":[2147483647,0,0,1,1,2,2,3,3,4,4,5,5,6,6,7,7,8,8,9,9,10,10,11,11,12,12,13,13,14,14,15,15,16,16,17,17,18,18,19,19,20,20,21,21,22,22,23,23,24,24,25,25,26,26,27,27,28,28,29,29,30,30,31,31,32,32,33,33,35,35,36,36,39,39,40,40,41,41,42,42,44,44,46,46,47,47,48,48,50,50,51,51,53,53,54,54,56,56,58,58,59,59,60,60,61,61,62,62],"right_children":[2,4,6,8,10,12,14,16,18,20,22,24,26,28,30,32,34,36,38,40,42,44,46,48,50,52,54,56,58,60,62,64,66,68,-1,70,72,-1,-1,74,76,78,80,-1,82,-1,84,86,88,-1,90,92,-1,94,96,-1,98,-1,100,102,104,106,108,-1,-1,-1,-1,-1,-1,-1,-1,-1,-1,-1,-1,-1,-1,-1,-1,-1,-1,-1,-1,-1,-1,-1,-1,-1,-1,-1,-1,-1,-1,-1,-1,-1,-1,-1,-1,-1,-1,-1,-1,-1,-1,-1,-1,-1,-1],"split_conditions":[-1.2566373E-2,-3.5360597E-2,2.5420664E-2,-4.273581E-2,-2.1088844E-2,1.0658809E-2,4.0027816E-2,7.392642E-2,4.1112006E-2,9.1547675E-2,5.6723744E-2,0E0,-3.900957E-2,-2.702559E-2,-1.3428634E-1,-1.688114E-1,-5.9999973E-2,3.95833E-2,-1.1793809E-1,-9.715473E-2,9.605968E-2,-1.3428634E-1,-1.5764447E-1,-2.8048206E-2,5.845149E-3,9.1547675E-2,2.3562076E-2,-1.0867378E-1,8.165428E-2,1.8999997E-1,8.927981E-2,-2.1535018E-1,3.7116487E-2,1.09999985E-1,-1.3187419E-3,3.925053E-2,1.999998E-2,-3.4993084E-4,-1.9585258E-4,7.4471906E-2,1.1125913E-1,-3.1267338E-2,9.8247625E-2,-1.3706998E-4,8.000001E-2,-6.17412E-5,-1.5199955E-2,-7.000002E-2,-1.5221226E-2,9.002062E-6,1.0099483E-2,-6.999999E-2,4.7170668E-4,-1.2530228E-2,4.3870438E-2,3.9624455E-4,-1.0093067E-1,2.7948432E-4,3.4027714E-2,7.999998E-2,2.2114158E-1,4.479997E-2,7.7568345E-2,-1.0306696E-4,8.425593E-4,-3.307035E-4,-8.9269655E-4,-5.465278E-4,-2.1242643E-4,-2.2148776E-4,-4.130563E-4,-3.7247046E-5,-1.846958E-4,-2.089129E-4,-1.0045616E-4,-1.4528121E-4,-7.683171E-5,-2.897639E-4,-5.235679E-4,-1.8755862E-5,-1.8736883E-4,-7.036045E-5,-1.01571226E-4,-1.4081111E-4,-4.6914745E-5,6.5492124E-5,-5.8756174E-5,5.0424493E-5,-3.1095715E-5,1.921655E-5,1.7558328E-4,-6.7723435E-5,8.6860695E-5,1.7186112E-4,-2.790466E-5,5.2250496E-5,4.8186575E-4,3.713195E-5,2.3426114E-4,5.431523E-5,-1.045134E-4,5.20737E-4,9.888291E-5,-4.4498875E-4,-2.7398952E-5,4.139812E-4,-1.7848397E-4,4.949455E-4,9.168374E-4],"split_indices":[0,0,0,0,0,0,30,22,34,10,10,0,6,32,6,4,29,34,4,4,10,6,6,4,0,10,30,4,12,9,10,6,34,13,0,34,5,0,0,10,14,28,10,0,7,0,18,13,28,0,30,7,0,4,12,0,4,0,0,13,12,30,30,0,0,0,0,0,0,0,0,0,0,0,0,0,0,0,0,0,0,0,0,0,0,0,0,0,0,0,0,0,0,0,0,0,0,0,0,0,0,0,0,0,0,0,0,0,0],"split_type":[0,0,0,0,0,0,0,0,0,0,0,0,0,0,0,0,0,0,0,0,0,0,0,0,0,0,0,0,0,0,0,0,0,0,0,0,0,0,0,0,0,0,0,0,0,0,0,0,0,0,0,0,0,0,0,0,0,0,0,0,0,0,0,0,0,0,0,0,0,0,0,0,0,0,0,0,0,0,0,0,0,0,0,0,0,0,0,0,0,0,0,0,0,0,0,0,0,0,0,0,0,0,0,0,0,0,0,0,0],"sum_hessian":[4.9492E4,3.291E3,4.6201E4,7.74E2,2.517E3,4.5798E4,4.03E2,2E2,5.74E2,1.164E3,1.353E3,4.522E4,5.78E2,2.31E2,1.72E2,1.45E2,5.5E1,4.78E2,9.6E1,1.004E3,1.6E2,1.006E3,3.47E2,1.47E3,4.375E4,4.65E2,1.13E2,1.51E2,8E1,3.5E1,1.37E2,5E0,1.4E2,4.9E1,6E0,4.34E2,4.4E1,6.1E1,3.5E1,2.61E2,7.43E2,3.6E1,1.24E2,5.6E1,9.5E2,5.9E1,2.88E2,9.75E2,4.95E2,4.3551E4,1.99E2,4.55E2,1E1,8.7E1,2.6E1,2.4E1,1.27E2,1.4E1,6.6E1,2.1E1,1.4E1,5E1,8.7E1,3E0,2E0,1.35E2,5E0,3.3E1,1.6E1,4.19E2,1.5E1,3.3E1,1.1E1,1.86E2,7.5E1,5.92E2,1.51E2,3.3E1,3E0,1.2E1,1.12E2,7.25E2,2.25E2,2.74E2,1.4E1,8E0,9.67E2,2E1,4.75E2,1.68E2,3.1E1,3.7E1,4.18E2,7.9E1,8E0,4E0,2.2E1,1.8E1,1.09E2,5.2E1,1.4E1,8E0,1.3E1,9E0,5E0,3.3E1,1.7E1,4.7E1,4E1],"tree_param":{"num_deleted":"0","num_feature":"36","num_nodes":"109","size_leaf_vector":"1"}},{"base_weights":[-2.3250921E-7,-3.9216233E-4,2.4170055E-5,-6.994504E-4,-3.144085E-4,1.8485509E-5,6.74034E-4,-8.381405E-4,-4.6889784E-4,-4.131069E-4,-2.4817005E-4,-1.3050182E-4,2.4334502E-5,4.2510935E-4,1.003956E-3,-9.3827915E-4,-3.9641326E-4,-2.667911E-4,-5.8088196E-4,-3.9376048E-4,-9.797298E-4,-2.2276306E-4,-2.4404656E-4,-1.8367526E-4,-1.0574456E-4,2.1232216E-5,2.5933766E-4,6.4557337E-4,2.2449023E-4,6.435335E-5,1.224974E-3,-1.5299434E-3,-8.059165E-4,-6.1767775E-4,-6.992165E-5,-1.5621484E-4,4.924723E-5,-2.991431E-4,-3.6444573E-4,-1.6415115E-4,-4.3023907E-4,-1.1620537E-4,-3.6454832E-4,-4.0229992E-4,-2.3268496E-4,-5.07307E-5,-1.0452429E-4,-8.998514E-5,-5.478417E-5,6.2552303E-6,1.0441357E-4,1.9638186E-4,5.1440834E-4,5.508722E-4,9.455225E-4,1.1995597E-4,5.308514E-4,5.781985E-4,-1.6779182E-3,4.0663348E-4,1.6750896E-3,-1.0907304E-3,-3.3913605E-4,-2.5413785E-4,2.909759E-4,-9.9216566E-5,-3.010013E-4,4.623195E-5,-1.5329574E-4,-2.3985245E-5,1.582752E-4,-1.2926501E-4,-3.2944183E-5,-1.0016842E-4,-2.9890676E-5,-6.0862098E-5,-1.3671548E-4,-6.570168E-5,-1.4535061E-4,-7.367766E-5,-3.001474E-5,-4.595992E-5,-1.9983854E-5,-9.60602E-5,5.348901E-5,5.1931E-5,3.4305916E-4,1.1534626E-4,3.5578775E-4,1.874808E-4,3.760034E-5,3.278022E-4,1.4887238E-4,1.4354881E-4,2.620804E-6,1.7480232E-4,-4.411638E-5,6.6688706E-5,6.299136E-4,-5.9627474E-4,-1.4978518E-4,2.9343987E-4,-2.0863682E-4,3.2508597E-4,1.0700667E-3],"categories":[],"categories_nodes":[],"categories_segments":[],"categories_sizes":[],"default_left":[0,0,0,1,0,0,0,1,0,0,0,0,0,0,0,0,0,0,0,0,0,0,0,0,0,0,1,0,1,0,0,0,1,1,1,0,0,0,0,0,0,0,0,0,0,0,0,0,0,0,1,0,0,0,1,0,0,0,0,0,0,0,0,0,0,0,0,0,0,0,0,0,0,0,0,0,0,0,0,0,0,0,0,0,0,0,0,0,0,0,0,0,0,0,0,0,0,0,0,0,0,0,0,0,0],"id":12,"left_children":[1,3,5,7,9,11,13,15,17,19,21,23,25,27,29,31,33,35,37,39,41,-1,43,45,47,49,51,53,55,57,59,61,63,65,67,-1,69,-1,71,73,75,-1,-1,77,79,-1,-1,81,-1,-1,83,85,87,89,91,93,95,97,99,101,103,-1,-1,-1,-1,-1,-1,-1,-1,-1,-1,-1,-1,-1,-1,-1,-1,-1,-1,-1,-1,-1,-1,-1,-1,-1,-1,-1,-1,-1,-1,-1,-1,-1,-1,-1,-1,-1,-1,-1,-1,-1,-1,-1,-1],"loss_changes":[4.7336513E-4,6.9093134E-5,1.7211057E-4,1.8312596E-5,1.50451815E-5,4.0254345E-5,3.275201E-5,1.5729194E-5,4.8694965E-6,9.798037E-6,2.650304E-6,2.2777458E-6,3.2397733E-5,1.011627E-5,3.584793E-5,2.1948013E-5,4.9414402E-6,6.525896E-6,1.2429959E-5,7.4676354E-6,3.7132395E-6,0E0,2.385852E-6,1.2686869E-6,1.4287871E-6,1.3897297E-6,9.196665E-6,2.6037487E-6,3.8754256E-6,3.1408938E-5,5.088754E-5,4.0476487E-5,1.8677936E-5,4.205538E-6,2.944259E-6,0E0,2.328787E-6,0E0,1.5598107E-6,1.33562E-6,4.402973E-6,0E0,0E0,1.2650044E-6,2.182147E-6,0E0,0E0,1.4554453E-6,0E0,0E0,6.331455E-6,1.007653E-5,9.490332E-6,2.6321304E-6,1.1105822E-6,3.7043628E-6,1.1747497E-6,1.4154038E-5,1.9274776E-6,3.280226E-5,9.683962E-5,0E0,0E0,0E0,0E0,0E0,0E0,0E0,0E0,0E0,0E0,0E0,0E0,0E0,0E0,0E0,0E0,0E0,0E0,0E0,0E0,0E0,0E0,0E0,0E0,0E0,0E0,0E0,0E0,0E0,0E0,0E0,0E0,0E0,0E0,0E0,0E0,0E0,0E0,0E0,0E0,0E0,0E0,0E0,0E0],"parents":[2147483647,0,0,1,1,2,2,3,3,4,4,5,5,6,6,7,7,8,8,9,9,10,10,11,11,12,12,13,13,14,14,15,15,16,16,17,17,18,18,19,19,20,20,22,22,23,23,24,24,25,25,26,26,27,27,28,28,29,29,30,30,31,31,32,32,33,33,34,34,36,36,38,38,39,39,40,40,43,43,44,44,47,47,50,50,51,51,52,52,53,53,54,54,55,55,56,56,57,57,58,58,59,59,60,60],"right_children":[2,4,6,8,10,12,14,16,18,20,22,24,26,28,30,32,34,36,38,40,42,-1,44,46,48,50,52,54,56,58,60,62,64,66,68,-1,70,-1,72,74,76,-1,-1,78,80,-1,-1,82,-1,-1,84,86,88,90,92,94,96,98,100,102,104,-1,-1,-1,-1,-1,-1,-1,-1,-1,-1,-1,-1,-1,-1,-1,-1,-1,-1,-1,-1,-1,-1,-1,-1,-1,-1,-1,-1,-1,-1,-1,-1,-1,-1,-1,-1,-1,-1,-1,-1,-1,-1,-1,-1],"split_conditions":[-1.425355E-2,-3.661262E-2,2.5420664E-2,-4.18486E-2,-8.26249E-2,-6.4693973E-3,4.0027816E-2,1.09999985E-1,-3.9703842E-2,-8.31891E-2,-4.6799254E-2,-7.049448E-2,1.0658809E-2,-2.8101701E-2,4.5999998E-1,-8.501039E-2,1.5758848E-1,-4.06164E-2,-3.9131258E-2,2.9279057E-2,-5.4862496E-2,-2.2276306E-4,0E0,4.2078666E-2,-6.0000002E-2,5.845149E-3,-3.900957E-2,3.5879843E-2,1.10000014E-1,-1.1853622E-1,8.927981E-2,-1.688114E-1,4.3124158E-2,3.925053E-2,8.700608E-2,-1.5621484E-4,-1.19390704E-1,-2.991431E-4,-3.7226446E-2,-9E-2,-5.799982E-2,-1.1620537E-4,-3.6454832E-4,2.0524329E-2,-4.2967327E-2,-5.07307E-5,-1.0452429E-4,-4.0757865E-2,-5.478417E-5,6.2552303E-6,6.005968E-3,9.1547675E-2,2.4272079E-2,3.4027714E-2,7.866723E-2,-1.1238824E-1,3.4027714E-2,-1.0481156E-1,1.10000014E-1,4.479997E-2,2.6710898E-1,-1.0907304E-3,-3.3913605E-4,-2.5413785E-4,2.909759E-4,-9.9216566E-5,-3.010013E-4,4.623195E-5,-1.5329574E-4,-2.3985245E-5,1.582752E-4,-1.2926501E-4,-3.2944183E-5,-1.0016842E-4,-2.9890676E-5,-6.0862098E-5,-1.3671548E-4,-6.570168E-5,-1.4535061E-4,-7.367766E-5,-3.001474E-5,-4.595992E-5,-1.9983854E-5,-9.60602E-5,5.348901E-5,5.1931E-5,3.4305916E-4,1.1534626E-4,3.5578775E-4,1.874808E-4,3.760034E-5,3.278022E-4,1.4887238E-4,1.4354881E-4,2.620804E-6,1.7480232E-4,-4.411638E-5,6.6688706E-5,6.299136E-4,-5.9627474E-4,-1.4978518E-4,2.9343987E-4,-2.0863682E-4,3.2508597E-4,1.0700667E-3],"split_indices":[0,0,0,28,4,0,30,13,0,4,28,6,0,32,21,16,12,28,28,24,28,0,5,10,1,0,6,30,7,6,10,4,34,34,22,0,4,0,28,7,28,0,0,22,4,0,0,4,0,0,30,10,30,0,34,6,0,8,7,30,34,0,0,0,0,0,0,0,0,0,0,0,0,0,0,0,0,0,0,0,0,0,0,0,0,0,0,0,0,0,0,0,0,0,0,0,0,0,0,0,0,0,0,0,0],"split_type":[0,0,0,0,0,0,0,0,0,0,0,0,0,0,0,0,0,0,0,0,0,0,0,0,0,0,0,0,0,0,0,0,0,0,0,0,0,0,0,0,0,0,0,0,0,0,0,0,0,0,0,0,0,0,0,0,0,0,0,0,0,0,0,0,0,0,0,0,0,0,0,0,0,0,0,0,0,0,0,0,0,0,0,0,0,0,0,0,0,0,0,0,0,0,0,0,0,0,0,0,0,0,0,0,0],"sum_hessian":[4.9492E4,2.9E3,4.6592E4,5.84E2,2.316E3,4.6189E4,4.03E2,3.63E2,2.21E2,9.28E2,1.388E3,1.744E3,4.4445E4,2.31E2,1.72E2,2.95E2,6.8E1,8E1,1.41E2,8.99E2,2.9E1,1E1,1.378E3,5.52E2,1.192E3,4.3867E4,5.78E2,1.09E2,1.22E2,3.3E1,1.39E2,5.2E1,2.43E2,4E1,2.8E1,4.4E1,3.6E1,4.7E1,9.4E1,1.24E2,7.75E2,9E0,2E1,9E1,1.288E3,5.09E2,4.3E1,9.91E2,2.01E2,4.3668E4,1.99E2,4.65E2,1.13E2,8.5E1,2.4E1,9.2E1,3E1,2.6E1,7E0,5E1,8.9E1,7E0,4.5E1,2.38E2,5E0,2.4E1,1.6E1,1.9E1,9E0,2.9E1,7E0,7.4E1,2E1,3.3E1,9.1E1,7.9E1,6.96E2,2.9E1,6.1E1,1.173E3,1.15E2,2.66E2,7.25E2,2.9E1,1.7E2,4.55E2,1E1,9.6E1,1.7E1,7.2E1,1.3E1,1.7E1,7E0,2.1E1,7.1E1,2.8E1,2E0,2.2E1,4E0,5E0,2E0,3.3E1,1.7E1,6.9E1,2E1],"tree_param":{"num_deleted":"0","num_feature":"36","num_nodes":"105","size_leaf_vector":"1"}},{"base_weights":[-1.7824577E-7,-2.5058087E-4,1.8741937E-5,-4.2912213E-4,-1.814279E-4,1.4675797E-5,4.777869E-4,-6.547934E-4,-3.6965584E-4,-7.021154E-4,-1.7569058E-4,1.2511011E-5,1.8303265E-4,3.0179476E-4,7.1103766E-4,-7.7912427E-4,-1.5059668E-4,-4.006321E-4,-4.39799E-5,-2.8455054E-4,-1.2167339E-4,-1.6088148E-4,-3.1727183E-4,-7.272045E-5,4.504796E-6,-1.7432857E-4,2.1347382E-4,5.387166E-4,1.8963117E-4,-6.325947E-5,9.078758E-4,-5.8034353E-4,-1.0954805E-3,4.134781E-5,-3.750244E-4,-3.8455654E-4,-2.0893742E-4,5.3022213E-5,-3.8092243E-5,-1.7060932E-4,1.195029E-4,-6.152478E-4,-2.6528948E-4,1.1942519E-5,-8.1322905E-5,9.569366E-6,-6.9617014E-4,1.6803812E-4,3.9751068E-4,6.8799255E-4,3.212922E-4,2.4391145E-4,-1.4193534E-4,4.7020122E-4,-8.4145117E-4,1.2033199E-3,2.0392447E-4,-3.9202548E-4,-1.5621296E-4,-2.520737E-4,-8.0441433E-4,-3.9219543E-5,2.0609425E-4,-1.8447869E-4,-1.2041505E-5,-1.9288006E-4,-1.0892984E-4,-1.07851054E-4,-4.7848796E-5,2.0797028E-5,1.3312654E-4,-1.4567922E-4,-3.4180508E-4,-5.9624534E-5,-1.515501E-4,1.7842995E-6,-2.8300588E-5,-7.9417776E-5,3.8962957E-5,-5.680938E-5,-3.0933664E-4,7.0790586E-5,-1.7547658E-5,6.2187035E-5,2.2690263E-4,1.1397701E-4,2.4708445E-4,-6.884113E-5,1.3716512E-4,5.4781787E-5,2.1910676E-4,1.2644492E-4,-8.481992E-5,1.7655805E-4,-3.0219555E-4,-1.1908249E-4,-4.3261758E-4,1.0037833E-5,4.200728E-4,-6.252381E-5,3.7564055E-4],"categories":[],"categories_nodes":[],"categories_segments":[],"categories_sizes":[],"default_left":[0,0,0,0,0,0,0,0,1,1,0,0,0,0,0,0,0,1,1,0,0,0,0,0,0,0,1,0,0,0,1,0,1,0,1,0,0,0,0,0,0,0,0,0,0,0,0,0,0,0,0,0,0,0,0,0,0,0,0,0,0,0,0,0,0,0,0,0,0,0,0,0,0,0,0,0,0,0,0,0,0,0,0,0,0,0,0,0,0,0,0,0,0,0,0,0,0,0,0,0,0],"id":13,"left_children":[1,3,5,7,9,11,13,15,17,19,21,23,25,27,29,31,33,35,37,-1,-1,39,41,43,-1,45,47,49,51,53,55,57,59,61,63,65,-1,-1,-1,67,69,71,73,-1,75,77,79,81,83,85,87,89,91,93,95,97,99,-1,-1,-1,-1,-1,-1,-1,-1,-1,-1,-1,-1,-1,-1,-1,-1,-1,-1,-1,-1,-1,-1,-1,-1,-1,-1,-1,-1,-1,-1,-1,-1,-1,-1,-1,-1,-1,-1,-1,-1,-1,-1,-1,-1],"loss_changes":[2.3448585E-4,4.2851476E-5,8.588561E-5,1.2775199E-5,7.3689007E-6,1.662203E-5,1.6369733E-5,1.2482793E-5,7.750314E-6,1.5880041E-6,5.1529496E-6,9.616397E-6,6.3358602E-6,6.063012E-6,2.6424568E-5,9.488816E-6,1.7816906E-6,3.0753363E-6,1.2681021E-6,0E0,0E0,6.154616E-6,3.4613204E-6,1.2481173E-6,0E0,4.4210788E-6,4.398429E-6,2.1807136E-6,2.8962259E-6,1.53405E-5,2.8455608E-5,3.694713E-6,2.2438391E-5,2.6451164E-6,1.5017906E-6,3.4754994E-6,0E0,0E0,0E0,4.5064226E-6,1.2058182E-6,1.7570374E-6,3.1078998E-6,0E0,1.3576009E-6,1.1893706E-6,1.8418082E-6,6.6307794E-6,7.010214E-6,1.4836751E-6,2.5005122E-6,3.9522074E-6,1.9437118E-6,4.4390595E-6,3.432223E-6,2.2299253E-5,1.841404E-5,0E0,0E0,0E0,0E0,0E0,0E0,0E0,0E0,0E0,0E0,0E0,0E0,0E0,0E0,0E0,0E0,0E0,0E0,0E0,0E0,0E0,0E0,0E0,0E0,0E0,0E0,0E0,0E0,0E0,0E0,0E0,0E0,0E0,0E0,0E0,0E0,0E0,0E0,0E0,0E0,0E0,0E0,0E0,0E0],"parents":[2147483647,0,0,1,1,2,2,3,3,4,4,5,5,6,6,7,7,8,8,9,9,10,10,11,11,12,12,13,13,14,14,15,15,16,16,17,17,18,18,21,21,22,22,23,23,25,25,26,26,27,27,28,28,29,29,30,30,31,31,32,32,33,33,34,34,35,35,39,39,40,40,41,41,42,42,44,44,45,45,46,46,47,47,48,48,49,49,50,50,51,51,52,52,53,53,54,54,55,55,56,56],"right_children":[2,4,6,8,10,12,14,16,18,20,22,24,26,28,30,32,34,36,38,-1,-1,40,42,44,-1,46,48,50,52,54,56,58,60,62,64,66,-1,-1,-1,68,70,72,74,-1,76,78,80,82,84,86,88,90,92,94,96,98,100,-1,-1,-1,-1,-1,-1,-1,-1,-1,-1,-1,-1,-1,-1,-1,-1,-1,-1,-1,-1,-1,-1,-1,-1,-1,-1,-1,-1,-1,-1,-1,-1,-1,-1,-1,-1,-1,-1,-1,-1,-1,-1,-1,-1],"split_conditions":[-1.1892551E-2,-3.1887323E-2,2.5420664E-2,-4.273581E-2,-1.2426877E-1,1.0658809E-2,4.0027816E-2,-9.8461874E-2,-3.349583E-2,-3.1632993E-2,7.60543E-2,0E0,1.4999998E-1,-3.2757647E-2,-1.3428634E-1,7.452793E-2,-9.27892E-2,-5.170692E-2,-5.0000012E-2,-2.8455054E-4,-1.2167339E-4,7.4471906E-2,2.7704421E-2,7.1964534E-3,4.504796E-6,1.9737419E-2,-3.900957E-2,9.9667534E-2,3.4027714E-2,1.8999997E-1,-6.7319475E-2,3.1423636E-2,-8.767518E-2,-4.499499E-2,-4.499499E-2,0E0,-2.0893742E-4,5.3022213E-5,-3.8092243E-5,-9.715473E-2,-2.4803007E-2,-2.6674233E-2,9.1547675E-2,1.1942519E-5,-2.000001E-2,-7.498824E-2,1.428805E-2,-3.2571897E-2,2.2010362E-2,-1.1819124E-1,1.05076544E-1,3.1818036E-2,-1.0966117E-1,2.6977348E-1,-8.1825204E-2,4.5999998E-1,-5.6667138E-2,-3.9202548E-4,-1.5621296E-4,-2.520737E-4,-8.0441433E-4,-3.9219543E-5,2.0609425E-4,-1.8447869E-4,-1.2041505E-5,-1.9288006E-4,-1.0892984E-4,-1.07851054E-4,-4.7848796E-5,2.0797028E-5,1.3312654E-4,-1.4567922E-4,-3.4180508E-4,-5.9624534E-5,-1.515501E-4,1.7842995E-6,-2.8300588E-5,-7.9417776E-5,3.8962957E-5,-5.680938E-5,-3.0933664E-4,7.0790586E-5,-1.7547658E-5,6.2187035E-5,2.2690263E-4,1.1397701E-4,2.4708445E-4,-6.884113E-5,1.3716512E-4,5.4781787E-5,2.1910676E-4,1.2644492E-4,-8.481992E-5,1.7655805E-4,-3.0219555E-4,-1.1908249E-4,-4.3261758E-4,1.0037833E-5,4.200728E-4,-6.252381E-5,3.7564055E-4],"split_indices":[0,0,0,0,4,0,30,4,28,28,10,0,9,32,6,22,4,8,7,0,0,10,22,24,0,30,6,10,0,9,6,24,16,28,28,5,0,0,0,4,28,28,10,0,15,6,0,4,30,8,10,30,8,12,4,21,8,0,0,0,0,0,0,0,0,0,0,0,0,0,0,0,0,0,0,0,0,0,0,0,0,0,0,0,0,0,0,0,0,0,0,0,0,0,0,0,0,0,0,0,0],"split_type":[0,0,0,0,0,0,0,0,0,0,0,0,0,0,0,0,0,0,0,0,0,0,0,0,0,0,0,0,0,0,0,0,0,0,0,0,0,0,0,0,0,0,0,0,0,0,0,0,0,0,0,0,0,0,0,0,0,0,0,0,0,0,0,0,0,0,0,0,0,0,0,0,0,0,0,0,0,0,0,0,0,0,0,0,0,0,0,0,0,0,0,0,0,0,0,0,0,0,0,0,0],"sum_hessian":[4.9492E4,3.476E3,4.6016E4,9.69E2,2.507E3,4.5613E4,4.03E2,2E2,7.69E2,2.6E1,2.481E3,4.5035E4,5.78E2,2.31E2,1.72E2,1.6E2,4E1,7.02E2,6.7E1,1.3E1,1.3E1,2.248E3,2.33E2,1.285E3,4.375E4,4.5E1,5.33E2,7.3E1,1.58E2,3.5E1,1.37E2,1E2,6E1,2.2E1,1.8E1,6.68E2,3.4E1,1.8E1,4.9E1,2.173E3,7.5E1,3.3E1,2E2,9.1E1,1.194E3,3.4E1,1.1E1,4.29E2,1.04E2,4.2E1,3.1E1,1.36E2,2.2E1,2.1E1,1.4E1,9.6E1,4.1E1,6E0,9.4E1,5.3E1,7E0,1.8E1,4E0,1E1,8E0,4.9E1,6.19E2,1.19E2,2.054E3,6.6E1,9E0,2.8E1,5E0,1.58E2,4.2E1,1.55E2,1.039E3,1E1,2.4E1,5E0,6E0,3.3E2,9.9E1,6.9E1,3.5E1,1.4E1,2.8E1,6E0,2.5E1,1.22E2,1.4E1,4E0,1.8E1,2E1,1E0,9E0,5E0,1.4E1,8.2E1,3E1,1.1E1],"tree_param":{"num_deleted":"0","num_feature":"36","num_nodes":"101","size_leaf_vector":"1"}},{"base_weights":[-1.752369E-7,-2.0403229E-4,1.1596475E-5,-3.9592324E-4,-1.7168587E-4,8.767016E-6,3.3645827E-4,-4.5140338E-4,1.4408799E-4,-1.7757162E-4,4.527979E-5,-6.176883E-5,1.204626E-5,7.6090166E-4,2.687987E-4,-4.950245E-4,-1.0738358E-4,1.3010576E-7,1.1401815E-4,-2.5807094E-4,-1.5744874E-4,-5.4878656E-5,-1.9493572E-4,3.0735716E-6,1.1285092E-4,-5.2048754E-6,1.3994973E-3,-1.536157E-3,3.0474606E-4,-6.143929E-4,-2.691501E-4,7.0538E-5,-1.6297167E-4,-3.4884753E-4,-2.0535052E-4,8.754232E-5,-1.6671195E-4,-6.0922313E-5,6.580681E-5,-1.2122121E-4,-7.922776E-6,-1.4844097E-4,1.3728028E-4,-6.26109E-4,2.1237181E-4,7.8409427E-4,2.748316E-3,-2.206497E-5,-1.0385349E-3,8.904524E-4,2.6390926E-4,-1.5672384E-4,-3.8474303E-4,3.2642142E-6,-1.05492036E-4,-1.256153E-4,5.5541354E-5,-9.5195304E-5,-1.9289755E-4,5.537261E-5,-6.73156E-5,-5.7709465E-5,5.5967423E-5,-5.049423E-5,2.4751053E-4,-8.0419326E-5,-1.7218643E-5,2.1544286E-6,1.2916067E-4,-2.1257962E-5,-2.4098973E-4,5.8729733E-5,4.6296E-6,7.683971E-6,-3.363912E-4,1.049327E-5,2.2126772E-4,1.0774937E-4,3.00377E-4,1.4366135E-4,9.984956E-4,-5.2312764E-5,4.5341437E-4,4.7121634E-5,1.3372164E-4],"categories":[],"categories_nodes":[],"categories_segments":[],"categories_sizes":[],"default_left":[0,0,0,1,1,0,0,1,1,0,0,0,0,1,0,1,0,0,0,0,0,0,0,0,0,0,0,0,0,0,0,0,0,0,0,0,0,0,0,0,0,0,0,0,0,0,0,0,0,0,1,0,0,0,0,0,0,0,0,0,0,0,0,0,0,0,0,0,0,0,0,0,0,0,0,0,0,0,0,0,0,0,0,0,0],"id":14,"left_children":[1,3,5,7,9,11,13,15,17,19,-1,21,23,25,27,29,31,-1,-1,33,35,37,39,-1,41,43,45,47,49,51,53,55,-1,57,59,61,63,65,67,-1,-1,69,71,73,75,77,79,-1,-1,81,83,-1,-1,-1,-1,-1,-1,-1,-1,-1,-1,-1,-1,-1,-1,-1,-1,-1,-1,-1,-1,-1,-1,-1,-1,-1,-1,-1,-1,-1,-1,-1,-1,-1,-1],"loss_changes":[1.1877302E-4,1.6703285E-5,4.3007458E-5,1.17194395E-5,4.420741E-6,1.0730716E-5,1.1397406E-5,5.244139E-6,1.2540784E-6,3.6413476E-6,0E0,1.8803576E-6,8.046831E-6,2.6915059E-5,2.3177327E-5,8.273833E-6,3.21779E-6,0E0,0E0,2.0963216E-6,4.1471867E-6,1.4343264E-6,3.5490516E-6,0E0,4.986503E-6,3.6454187E-6,2.274707E-5,1.9460427E-5,7.99292E-6,1.1865901E-5,2.544797E-6,1.7595792E-6,0E0,1.3262325E-6,2.1864234E-6,1.892807E-6,2.9273906E-6,1.3492945E-6,2.0068503E-6,0E0,0E0,3.3469878E-6,5.070946E-6,2.2878276E-6,1.8375058E-6,1.6705162E-6,1.02527265E-5,0E0,0E0,1.4809562E-5,6.204631E-6,0E0,0E0,0E0,0E0,0E0,0E0,0E0,0E0,0E0,0E0,0E0,0E0,0E0,0E0,0E0,0E0,0E0,0E0,0E0,0E0,0E0,0E0,0E0,0E0,0E0,0E0,0E0,0E0,0E0,0E0,0E0,0E0,0E0,0E0],"parents":[2147483647,0,0,1,1,2,2,3,3,4,4,5,5,6,6,7,7,8,8,9,9,11,11,12,12,13,13,14,14,15,15,16,16,19,19,20,20,21,21,22,22,24,24,25,25,26,26,27,27,28,28,29,29,30,30,31,31,33,33,34,34,35,35,36,36,37,37,38,38,41,41,42,42,43,43,44,44,45,45,46,46,49,49,50,50],"right_children":[2,4,6,8,10,12,14,16,18,20,-1,22,24,26,28,30,32,-1,-1,34,36,38,40,-1,42,44,46,48,50,52,54,56,-1,58,60,62,64,66,68,-1,-1,70,72,74,76,78,80,-1,-1,82,84,-1,-1,-1,-1,-1,-1,-1,-1,-1,-1,-1,-1,-1,-1,-1,-1,-1,-1,-1,-1,-1,-1,-1,-1,-1,-1,-1,-1,-1,-1,-1,-1,-1,-1],"split_conditions":[-1.594833E-2,-3.9703842E-2,2.5420664E-2,-4.06164E-2,-1.6064402E-2,0E0,7.487714E-2,1.09999985E-1,-1.6122955E-1,-7.1622506E-2,4.527979E-5,4.621782E-2,5.845149E-3,9.757306E-2,7.728982E-2,-6.285642E-2,-2.1535018E-1,1.3010576E-7,1.1401815E-4,1.7000002E-1,-5.799982E-2,4.2786937E-2,4.7940213E-2,3.0735716E-6,2.5532085E-2,-2.4903359E-2,6.049374E-2,3.8501836E-2,-8.654029E-2,-4.06164E-2,7.0453204E-2,-2.3192957E-2,-1.6297167E-4,1.1323157E-1,1.7000002E-1,-9E-2,1.297369E-1,-4.209909E-2,-1.4185116E-2,-1.2122121E-4,-7.922776E-6,1.2143609E-2,5.6337047E-2,2.5973942E-2,3.131762E-2,6.561463E-2,-1.0971991E-1,-2.206497E-5,-1.0385349E-3,1.1752732E-1,3.652734E-2,-1.5672384E-4,-3.8474303E-4,3.2642142E-6,-1.05492036E-4,-1.256153E-4,5.5541354E-5,-9.5195304E-5,-1.9289755E-4,5.537261E-5,-6.73156E-5,-5.7709465E-5,5.5967423E-5,-5.049423E-5,2.4751053E-4,-8.0419326E-5,-1.7218643E-5,2.1544286E-6,1.2916067E-4,-2.1257962E-5,-2.4098973E-4,5.8729733E-5,4.6296E-6,7.683971E-6,-3.363912E-4,1.049327E-5,2.2126772E-4,1.0774937E-4,3.00377E-4,1.4366135E-4,9.984956E-4,-5.2312764E-5,4.5341437E-4,4.7121634E-5,1.3372164E-4],"split_indices":[0,0,0,28,28,0,26,13,6,32,0,10,0,14,26,16,6,0,0,17,28,10,10,0,10,32,30,30,20,28,26,30,0,10,23,7,10,16,28,0,0,30,10,30,30,22,4,0,0,34,30,0,0,0,0,0,0,0,0,0,0,0,0,0,0,0,0,0,0,0,0,0,0,0,0,0,0,0,0,0,0,0,0,0,0],"split_type":[0,0,0,0,0,0,0,0,0,0,0,0,0,0,0,0,0,0,0,0,0,0,0,0,0,0,0,0,0,0,0,0,0,0,0,0,0,0,0,0,0,0,0,0,0,0,0,0,0,0,0,0,0,0,0,0,0,0,0,0,0,0,0,0,0,0,0,0,0,0,0,0,0,0,0,0,0,0,0,0,0,0,0,0,0],"sum_hessian":[4.9492E4,2.701E3,4.6791E4,3.88E2,2.313E3,4.6388E4,4.03E2,3.52E2,3.6E1,2.272E3,4.1E1,2.06E3,4.4328E4,5.4E1,3.49E2,3.12E2,4E1,2.3E1,1.3E1,4.52E2,1.82E3,1.96E3,1E2,4.3551E4,7.77E2,2.5E1,2.9E1,6E0,3.43E2,2.03E2,1.09E2,2.9E1,1.1E1,1.64E2,2.88E2,6.6E1,1.754E3,1.867E3,9.3E1,4.4E1,5.6E1,6.6E1,7.11E2,6E0,1.9E1,2.1E1,8E0,4E0,2E0,2.1E1,3.22E2,1.8E2,2.3E1,2.5E1,8.4E1,5E0,2.4E1,1.5E2,1.4E1,1.3E1,2.75E2,1.7E1,4.9E1,1.752E3,2E0,3E1,1.837E3,8.1E1,1.2E1,6E1,6E0,4.8E2,2.31E2,3E0,3E0,1.5E1,4E0,8E0,1.3E1,2E0,6E0,8E0,1.3E1,2.04E2,1.18E2],"tree_param":{"num_deleted":"0","num_feature":"36","num_nodes":"85","size_leaf_vector":"1"}},{"base_weights":[-1.25476E-7,-1.6331999E-4,7.217125E-6,-3.355996E-4,-1.4530263E-4,4.282691E-6,1.7866078E-4,-7.7268603E-4,-2.633351E-4,-1.7490787E-4,-9.6032185E-5,-5.631996E-5,2.1536475E-6,1.1860274E-4,3.0807755E-4,-4.900518E-5,-1.1720085E-3,7.839414E-4,-2.9895833E-4,-3.206749E-4,-1.5308447E-4,-2.7777685E-4,-7.624542E-5,-4.9590864E-5,-5.3721837E-5,-4.0053437E-4,1.3807928E-4,9.028861E-4,1.8138063E-4,-7.749265E-4,3.2008113E-4,-5.4774055E-4,-9.46045E-5,-5.558446E-4,1.1224308E-3,-6.233111E-4,-1.8678409E-4,-1.426337E-4,-7.161539E-5,6.0420876E-5,-1.5946255E-4,-9.43671E-5,8.118958E-5,-1.0629017E-4,6.479338E-5,-1.63613E-4,-4.4112887E-5,-7.023159E-5,-2.5590017E-4,4.9818475E-5,2.732013E-4,6.9760496E-4,5.6648575E-4,3.181343E-5,7.4153463E-4,-3.7701245E-4,1.0056273E-4,-3.2751635E-5,3.215682E-4,3.421912E-4,-3.7953735E-4,-4.4820225E-4,-5.8862715E-5,2.0209915E-5,-6.881158E-5,-5.8058507E-5,-2.6116248E-5,-8.027562E-5,-2.5810032E-5,4.7315098E-5,-2.8988547E-5,-1.7366263E-5,-8.6429514E-5,1.6814377E-6,-1.8056338E-5,3.643047E-5,-9.397721E-5,5.678422E-5,2.0478018E-4,2.3724188E-4,2.0619109E-5,-1.0024522E-4,5.638094E-5,1.28034635E-5,5.885598E-4],"categories":[],"categories_nodes":[],"categories_segments":[],"categories_sizes":[],"default_left":[0,0,0,0,0,0,0,0,0,0,0,1,0,0,0,0,1,0,1,1,0,1,1,0,0,0,0,0,1,0,1,0,0,0,0,0,0,0,0,0,0,0,0,0,1,0,0,0,0,0,0,1,0,0,0,0,0,0,0,0,0,0,0,0,0,0,0,0,0,0,0,0,0,0,0,0,0,0,0,0,0,0,0,0,0],"id":15,"left_children":[1,3,5,7,9,11,13,15,17,19,21,23,-1,25,27,29,31,33,35,37,39,41,43,45,-1,47,49,51,53,55,57,-1,-1,59,-1,61,63,-1,-1,-1,65,-1,-1,67,69,71,73,-1,-1,75,77,79,-1,81,83,-1,-1,-1,-1,-1,-1,-1,-1,-1,-1,-1,-1,-1,-1,-1,-1,-1,-1,-1,-1,-1,-1,-1,-1,-1,-1,-1,-1,-1,-1],"loss_changes":[5.930727E-5,6.5659115E-6,2.3827091E-5,6.1452756E-6,2.7998794E-6,8.173535E-6,6.1581577E-6,8.0340615E-6,6.725846E-6,3.7841746E-6,2.5932136E-6,1.7455773E-6,0E0,5.57591E-6,1.8827059E-5,3.1952434E-6,9.505651E-6,2.5854115E-5,6.0324755E-6,1.86529E-6,2.406112E-6,1.5172368E-6,2.7909082E-6,1.2513733E-6,0E0,1.3063791E-6,6.271379E-6,7.5832177E-6,1.7486567E-5,2.5606312E-6,2.6987655E-6,0E0,0E0,7.459451E-6,0E0,1.5697537E-5,1.3900649E-6,0E0,0E0,0E0,2.5287336E-6,0E0,0E0,1.7478642E-6,1.7552284E-6,1.1941597E-6,1.5380115E-6,0E0,0E0,8.35874E-6,7.017057E-6,2.172903E-6,0E0,9.547281E-6,3.7441074E-5,0E0,0E0,0E0,0E0,0E0,0E0,0E0,0E0,0E0,0E0,0E0,0E0,0E0,0E0,0E0,0E0,0E0,0E0,0E0,0E0,0E0,0E0,0E0,0E0,0E0,0E0,0E0,0E0,0E0,0E0],"parents":[2147483647,0,0,1,1,2,2,3,3,4,4,5,5,6,6,7,7,8,8,9,9,10,10,11,11,13,13,14,14,15,15,16,16,17,17,18,18,19,19,20,20,21,21,22,22,23,23,25,25,26,26,27,27,28,28,29,29,30,30,33,33,35,35,36,36,40,40,43,43,44,44,45,45,46,46,49,49,50,50,51,51,53,53,54,54],"right_children":[2,4,6,8,10,12,14,16,18,20,22,24,-1,26,28,30,32,34,36,38,40,42,44,46,-1,48,50,52,54,56,58,-1,-1,60,-1,62,64,-1,-1,-1,66,-1,-1,68,70,72,74,-1,-1,76,78,80,-1,82,84,-1,-1,-1,-1,-1,-1,-1,-1,-1,-1,-1,-1,-1,-1,-1,-1,-1,-1,-1,-1,-1,-1,-1,-1,-1,-1,-1,-1,-1,-1],"split_conditions":[-2.0280028E-2,-4.273581E-2,1.428805E-2,-8.495902E-2,1.09999985E-1,-8.592267E-3,9.1547675E-2,-1.9083531E-1,-7.9647005E-2,-7.000002E-2,-2.3192957E-2,5.0805315E-2,2.1536475E-6,-6.999999E-2,1.00384556E-1,-2.3192957E-2,-7.9647005E-2,-1.7195773E-1,4.6572413E-2,-4.18486E-2,-1.1806978E-1,1.8297613E-1,-1.3156897E-1,-1.3428634E-1,-5.3721837E-5,1.9010361E-2,-1.2748713E-2,5.408553E-2,1.9E-1,-7.9647005E-2,-2.1957138E-1,-5.4774055E-4,-9.46045E-5,-1.1224246E-1,1.1224308E-3,-6.597335E-2,7.0453204E-2,-1.426337E-4,-7.161539E-5,6.0420876E-5,-7.544374E-2,-9.43671E-5,8.118958E-5,-9E-2,-4.9612448E-2,-1.5179074E-1,-5.379636E-2,-7.023159E-5,-2.5590017E-4,4.479997E-2,4.137311E-2,-5.019037E-2,5.6648575E-4,1.0774691E-1,2.6710898E-1,-3.7701245E-4,1.0056273E-4,-3.2751635E-5,3.215682E-4,3.421912E-4,-3.7953735E-4,-4.4820225E-4,-5.8862715E-5,2.0209915E-5,-6.881158E-5,-5.8058507E-5,-2.6116248E-5,-8.027562E-5,-2.5810032E-5,4.7315098E-5,-2.8988547E-5,-1.7366263E-5,-8.6429514E-5,1.6814377E-6,-1.8056338E-5,3.643047E-5,-9.397721E-5,5.678422E-5,2.0478018E-4,2.3724188E-4,2.0619109E-5,-1.0024522E-4,5.638094E-5,1.28034635E-5,5.885598E-4],"split_indices":[0,0,0,18,13,0,10,20,28,7,30,22,0,7,10,30,28,6,22,28,18,12,6,6,0,30,16,30,9,28,6,0,0,16,0,28,26,0,0,0,4,0,0,7,16,6,4,0,0,30,30,8,0,10,34,0,0,0,0,0,0,0,0,0,0,0,0,0,0,0,0,0,0,0,0,0,0,0,0,0,0,0,0,0,0],"split_type":[0,0,0,0,0,0,0,0,0,0,0,0,0,0,0,0,0,0,0,0,0,0,0,0,0,0,0,0,0,0,0,0,0,0,0,0,0,0,0,0,0,0,0,0,0,0,0,0,0,0,0,0,0,0,0,0,0,0,0,0,0,0,0,0,0,0,0,0,0,0,0,0,0,0,0,0,0,0,0,0,0,0,0,0,0],"sum_hessian":[4.9492E4,2.13E3,4.7362E4,2E2,1.93E3,4.6566E4,7.96E2,2.7E1,1.73E2,1.204E3,7.26E2,2.123E3,4.4443E4,5.45E2,2.51E2,1E1,1.7E1,5E0,1.68E2,1.55E2,1.049E3,7E1,6.56E2,2.014E3,1.09E2,1.9E1,5.26E2,4.3E1,2.08E2,3E0,7E0,9E0,8E0,4E0,1E0,4.2E1,1.26E2,5.2E1,1.03E2,1.8E1,1.031E3,6.6E1,4E0,5.41E2,1.15E2,9.1E1,1.923E3,1.5E1,4E0,3.19E2,2.07E2,3.7E1,6E0,1.65E2,4.3E1,2E0,1E0,5E0,2E0,1E0,3E0,1.3E1,2.9E1,1.8E1,1.08E2,7E2,3.31E2,5.9E1,4.82E2,7.3E1,4.2E1,5E1,4.1E1,4.7E2,1.453E3,2.67E2,5.2E1,1.73E2,3.4E1,3.2E1,5E0,4.9E1,1.16E2,2.8E1,1.5E1],"tree_param":{"num_deleted":"0","num_feature":"36","num_nodes":"85","size_leaf_vector":"1"}},{"base_weights":[-7.471708E-8,-1.2094279E-4,4.85354E-6,-2.0226148E-4,-1.004696E-4,2.777548E-6,1.2664332E-4,-2.4655915E-4,4.9684135E-5,-1.5602533E-4,-7.33405E-5,-3.7363756E-5,1.5732348E-6,1.3665711E-4,-6.013103E-4,-4.2696737E-4,-1.8639902E-4,-2.014936E-5,7.477659E-5,-1.3703397E-4,-1.7697556E-4,-1.45018E-4,-4.0448507E-5,-7.911132E-6,-8.092555E-5,1.1901575E-4,8.072527E-4,-2.0308746E-4,-3.7422852E-4,-4.9712544E-4,-5.5386336E-5,-2.3810333E-4,3.615045E-5,-1.2472685E-4,-1.8444678E-4,2.9031564E-5,-1.9943759E-4,7.9987745E-5,-6.626062E-5,-8.972498E-5,-6.628047E-5,6.6133114E-5,2.1357939E-4,1.7555796E-3,-1.2824922E-4,1.1907731E-5,-2.8538203E-4,-1.2828193E-4,-2.4684472E-4,-5.654759E-5,-3.0361293E-4,-2.8907538E-5,1.4718663E-4,-1.1935456E-4,-3.24298E-5,-5.893171E-5,4.911999E-5,-4.5604756E-5,-1.2362756E-4,-6.8356065E-5,3.697527E-5,-1.10537985E-5,-4.2786472E-5,-1.3585796E-5,-5.4754593E-5,3.9806182E-5,-2.4499872E-5,4.8364178E-5,2.192357E-4,3.82768E-5,7.305188E-4,-8.954812E-5,2.361294E-4],"categories":[],"categories_nodes":[],"categories_segments":[],"categories_sizes":[],"default_left":[0,0,0,1,0,0,1,0,0,0,0,1,0,1,0,1,1,0,0,0,0,0,1,0,0,0,1,0,0,0,0,1,0,0,0,0,0,0,1,0,0,0,0,0,0,0,0,0,0,0,0,0,0,0,0,0,0,0,0,0,0,0,0,0,0,0,0,0,0,0,0,0,0],"id":16,"left_children":[1,3,5,7,9,11,13,15,17,19,21,23,-1,25,27,29,31,-1,-1,33,-1,35,37,-1,39,41,43,45,-1,47,-1,49,51,53,-1,55,57,59,61,-1,63,65,67,69,71,-1,-1,-1,-1,-1,-1,-1,-1,-1,-1,-1,-1,-1,-1,-1,-1,-1,-1,-1,-1,-1,-1,-1,-1,-1,-1,-1,-1],"loss_changes":[2.9482031E-5,3.2078242E-6,1.2023199E-5,4.3537275E-6,2.3261891E-6,4.6298637E-6,5.8919604E-6,3.5128833E-6,1.392599E-6,4.1051935E-6,2.4554856E-6,1.2942176E-6,0E0,9.214311E-6,2.5769518E-6,1.3024282E-6,2.8852992E-6,0E0,0E0,2.7928536E-6,0E0,3.11251E-6,2.2342474E-6,0E0,1.7214181E-6,3.826469E-6,1.7968385E-5,1.4909143E-6,0E0,1.0745844E-6,0E0,7.603666E-6,2.9379096E-6,2.1232113E-6,0E0,2.4314945E-6,2.4584642E-6,1.7194925E-6,1.3222073E-6,0E0,1.2411629E-6,4.8701468E-6,7.330221E-6,1.07512315E-5,1.949105E-6,0E0,0E0,0E0,0E0,0E0,0E0,0E0,0E0,0E0,0E0,0E0,0E0,0E0,0E0,0E0,0E0,0E0,0E0,0E0,0E0,0E0,0E0,0E0,0E0,0E0,0E0,0E0,0E0],"parents":[2147483647,0,0,1,1,2,2,3,3,4,4,5,5,6,6,7,7,8,8,9,9,10,10,11,11,13,13,14,14,15,15,16,16,19,19,21,21,22,22,24,24,25,25,26,26,27,27,29,29,31,31,32,32,33,33,35,35,36,36,37,37,38,38,40,40,41,41,42,42,43,43,44,44],"right_children":[2,4,6,8,10,12,14,16,18,20,22,24,-1,26,28,30,32,-1,-1,34,-1,36,38,-1,40,42,44,46,-1,48,-1,50,52,54,-1,56,58,60,62,-1,64,66,68,70,72,-1,-1,-1,-1,-1,-1,-1,-1,-1,-1,-1,-1,-1,-1,-1,-1,-1,-1,-1,-1,-1,-1,-1,-1,-1,-1,-1,-1],"split_conditions":[-2.1088844E-2,-3.9703842E-2,1.428805E-2,-4.1356575E-2,3.981509E-2,-6.4693973E-3,3.9770473E-2,6.0000002E-2,-2.3754896E-1,3.930991E-2,-1.1793809E-1,7.654903E-2,1.5732348E-6,7.7568345E-2,-2.3288117E-1,4.080653E-2,1.8458758E-1,-2.014936E-5,7.477659E-5,1.9999999E-1,-1.7697556E-4,-7.305443E-2,-6.597335E-2,-7.911132E-6,7.900502E-2,1.10000014E-1,-5.0000012E-2,1.9975312E-1,-3.7422852E-4,-4.1356575E-2,-5.5386336E-5,8.601487E-2,6.005968E-3,1.4999998E-1,-1.8444678E-4,1.1818105E-1,-5.0000012E-2,-7.3673405E-2,-6.0000002E-2,-8.972498E-5,-5.4085553E-2,-4.420547E-2,7.7568345E-2,-7.733264E-2,2.6710898E-1,1.1907731E-5,-2.8538203E-4,-1.2828193E-4,-2.4684472E-4,-5.654759E-5,-3.0361293E-4,-2.8907538E-5,1.4718663E-4,-1.1935456E-4,-3.24298E-5,-5.893171E-5,4.911999E-5,-4.5604756E-5,-1.2362756E-4,-6.8356065E-5,3.697527E-5,-1.10537985E-5,-4.2786472E-5,-1.3585796E-5,-5.4754593E-5,3.9806182E-5,-2.4499872E-5,4.8364178E-5,2.192357E-4,3.82768E-5,7.305188E-4,-8.954812E-5,2.361294E-4],"split_indices":[0,0,0,28,22,0,28,13,6,22,4,12,0,30,8,34,14,0,0,17,0,18,28,0,12,7,13,12,0,28,0,22,30,23,0,12,33,16,33,0,4,4,30,18,34,0,0,0,0,0,0,0,0,0,0,0,0,0,0,0,0,0,0,0,0,0,0,0,0,0,0,0,0],"split_type":[0,0,0,0,0,0,0,0,0,0,0,0,0,0,0,0,0,0,0,0,0,0,0,0,0,0,0,0,0,0,0,0,0,0,0,0,0,0,0,0,0,0,0,0,0,0,0,0,0,0,0,0,0,0,0,0,0,0,0,0,0,0,0,0,0,0,0,0,0,0,0,0,0],"sum_hessian":[4.9492E4,1.938E3,4.7554E4,3.88E2,1.55E3,4.6758E4,7.96E2,3.3E2,5.8E1,5.07E2,1.043E3,2.706E3,4.4052E4,7.86E2,1E1,8.1E1,2.49E2,3.7E1,2.1E1,4.87E2,2E1,3.27E2,7.16E2,2.162E3,5.44E2,7.67E2,1.9E1,7E0,3E0,6.2E1,1.9E1,2.02E2,4.7E1,4.76E2,1.1E1,7.8E1,2.49E2,1.26E2,5.9E2,3.3E1,5.11E2,4.93E2,2.74E2,9E0,1E1,6E0,1E0,5.3E1,9E0,1.91E2,1.1E1,3.7E1,1E1,2.6E1,4.5E2,2.9E1,4.9E1,2.05E2,4.4E1,1.5E1,1.11E2,4.27E2,1.63E2,4.34E2,7.7E1,3.4E2,1.53E2,2.5E2,2.4E1,3E0,6E0,9E0,1E0],"tree_param":{"num_deleted":"0","num_feature":"36","num_nodes":"73","size_leaf_vector":"1"}},{"base_weights":[-7.267894E-8,-6.1389896E-5,4.839605E-6,-9.9989666E-5,-3.623079E-5,1.060667E-6,1.0312199E-4,-9.341223E-5,-4.077694E-4,1.2898743E-4,-3.8107806E-5,6.54315E-5,3.6212706E-4,-7.514833E-5,-1.8327101E-4,-6.1303567E-6,-1.7183911E-4,-8.093942E-5,-2.4894704E-5,-1.749596E-4,1.1826612E-4,7.0479924E-5,1.4513988E-3,1.9232313E-5,-9.475825E-5,-1.349768E-4,-5.1522144E-4,1.8202254E-5,-1.0520692E-4,-1.9325313E-4,-1.7954919E-5,3.7148595E-6,-1.5397203E-3,1.3411904E-4,-5.6255347E-4,3.8858467E-5,-8.033402E-4,1.7540519E-3,-1.334345E-4,-2.5742747E-5,2.8954548E-5,-3.7571954E-5,-3.1624954E-6,-7.713624E-5,-1.7350028E-5,-6.344695E-5,-2.859584E-4,-1.6838728E-4,-2.7390905E-5,-1.95308E-5,-1.10827E-4,9.769223E-6,-9.663037E-6,1.7650584E-4,-1.0811253E-4,-1.2411922E-5,-8.3443435E-4,3.303821E-5,1.832536E-4,-7.5364485E-5,-2.9002727E-4,-4.8699978E-5,-4.089542E-4,6.259696E-4,2.8888194E-4],"categories":[],"categories_nodes":[],"categories_segments":[],"categories_sizes":[],"default_left":[0,0,0,0,0,0,1,1,0,0,0,1,0,0,1,0,0,0,0,1,1,1,1,0,1,0,0,0,0,0,0,0,0,0,0,0,0,0,0,0,0,0,0,0,0,0,0,0,0,0,0,0,0,0,0,0,0,0,0,0,0,0,0,0,0],"id":17,"left_children":[1,3,5,7,9,-1,11,13,15,-1,17,19,21,23,25,-1,-1,27,29,31,33,35,37,39,41,43,45,-1,47,49,51,53,55,57,59,-1,61,63,-1,-1,-1,-1,-1,-1,-1,-1,-1,-1,-1,-1,-1,-1,-1,-1,-1,-1,-1,-1,-1,-1,-1,-1,-1,-1,-1],"loss_changes":[1.4907963E-5,3.5614166E-6,5.872538E-6,2.8932436E-6,1.9624838E-6,0E0,5.833523E-6,2.3150496E-6,1.9059225E-6,0E0,1.2521045E-6,6.6887023E-6,2.4041612E-5,2.1876144E-6,3.7619338E-6,0E0,0E0,1.8002931E-6,1.976919E-6,2.317127E-5,4.7272206E-6,3.2515077E-6,9.9623285E-6,1.664334E-6,2.5092595E-6,1.9638755E-6,3.7891987E-6,0E0,2.776996E-6,1.4885613E-6,1.1741871E-6,1.8305196E-5,2.035085E-5,4.7593385E-6,1.0155788E-6,0E0,1.2141568E-6,1.6735357E-6,0E0,0E0,0E0,0E0,0E0,0E0,0E0,0E0,0E0,0E0,0E0,0E0,0E0,0E0,0E0,0E0,0E0,0E0,0E0,0E0,0E0,0E0,0E0,0E0,0E0,0E0,0E0],"parents":[2147483647,0,0,1,1,2,2,3,3,4,4,6,6,7,7,8,8,10,10,11,11,12,12,13,13,14,14,17,17,18,18,19,19,20,20,21,21,22,22,23,23,24,24,25,25,26,26,28,28,29,29,30,30,31,31,32,32,33,33,34,34,36,36,37,37],"right_children":[2,4,6,8,10,-1,12,14,16,-1,18,20,22,24,26,-1,-1,28,30,32,34,36,38,40,42,44,46,-1,48,50,52,54,56,58,60,-1,62,64,-1,-1,-1,-1,-1,-1,-1,-1,-1,-1,-1,-1,-1,-1,-1,-1,-1,-1,-1,-1,-1,-1,-1,-1,-1,-1,-1],"split_conditions":[-1.1477593E-2,-8.26249E-2,1.8831067E-2,-8.31891E-2,-3.9703842E-2,1.060667E-6,-5.4352317E-2,9E-2,-5.4862496E-2,1.2898743E-4,3.445268E-2,1.9339157E-2,6.049374E-2,1.2115427E-1,7.392642E-2,-6.1303567E-6,-1.7183911E-4,3.2110583E-2,-3.9131258E-2,-6.2738076E-2,3.9770473E-2,4.9890462E-2,-7.999998E-2,1.1041011E-1,-2.000001E-2,7.464256E-2,-6.0000002E-2,1.8202254E-5,1.4999998E-1,-7.000002E-2,3.8002983E-2,-2.9442653E-2,3.4027714E-2,7.7568345E-2,-2.3288117E-1,3.8858467E-5,2.1840583E-1,-3.4737226E-2,-1.334345E-4,-2.5742747E-5,2.8954548E-5,-3.7571954E-5,-3.1624954E-6,-7.713624E-5,-1.7350028E-5,-6.344695E-5,-2.859584E-4,-1.6838728E-4,-2.7390905E-5,-1.95308E-5,-1.10827E-4,9.769223E-6,-9.663037E-6,1.7650584E-4,-1.0811253E-4,-1.2411922E-5,-8.3443435E-4,3.303821E-5,1.832536E-4,-7.5364485E-5,-2.9002727E-4,-4.8699978E-5,-4.089542E-4,6.259696E-4,2.8888194E-4],"split_indices":[0,4,0,4,0,0,8,7,28,0,10,30,30,14,22,0,0,12,28,6,28,20,29,14,7,12,29,0,23,29,10,20,0,30,8,0,12,8,0,0,0,0,0,0,0,0,0,0,0,0,0,0,0,0,0,0,0,0,0,0,0,0,0,0,0],"split_type":[0,0,0,0,0,0,0,0,0,0,0,0,0,0,0,0,0,0,0,0,0,0,0,0,0,0,0,0,0,0,0,0,0,0,0,0,0,0,0,0,0,0,0,0,0,0,0,0,0,0,0,0,0,0,0,0,0,0,0,0,0,0,0,0,0],"sum_hessian":[4.9492E4,3.67E3,4.5822E4,1.447E3,2.223E3,4.5223E4,5.99E2,1.418E3,2.9E1,8E0,2.215E3,5.24E2,7.5E1,1.18E3,2.38E2,9E0,2E1,5.21E2,1.694E3,9.4E1,4.3E2,6E1,1.5E1,2.03E2,9.77E2,2.09E2,2.9E1,7.6E1,4.45E2,6.6E1,1.628E3,8.4E1,1E1,4.21E2,9E0,5.7E1,3E0,1.3E1,2E0,8.6E1,1.17E2,7.17E2,2.6E2,8E1,1.29E2,1.8E1,1.1E1,1.2E1,4.33E2,3.9E1,2.7E1,3.58E2,1.27E3,3.2E1,5.2E1,5E0,5E0,4.02E2,1.9E1,6E0,3E0,2E0,1E0,8E0,5E0],"tree_param":{"num_deleted":"0","num_feature":"36","num_nodes":"65","size_leaf_vector":"1"}},{"base_weights":[-7.9187224E-8,-4.3201E-5,3.3754154E-6,-9.571007E-5,-3.2910815E-5,6.3466985E-7,6.0901675E-5,-1.2439245E-4,-8.4017694E-5,2.3976601E-5,-3.5878034E-5,7.192067E-5,-1.9375196E-4,-2.4343614E-4,-5.6207202E-5,-1.4006368E-4,-2.8646644E-5,1.0613964E-4,-3.8617322E-6,-2.0020203E-5,-1.6022936E-4,-4.8601834E-4,-8.345074E-7,1.10718946E-4,-6.571701E-5,-1.4496118E-5,-6.5697684E-5,4.9228893E-5,-3.372134E-5,6.925354E-5,3.2591834E-4,1.7247118E-4,-5.8703696E-5,-3.3201705E-4,-1.1819364E-4,2.8199906E-5,-1.1402356E-4,-8.809291E-5,-1.388421E-5,-3.1631982E-5,-8.32867E-6,-1.4044573E-4,2.2786546E-5,2.1010722E-4,1.2756166E-5,1.3095113E-5,2.578353E-4,9.092877E-6,-6.612574E-5],"categories":[],"categories_nodes":[],"categories_segments":[],"categories_sizes":[],"default_left":[0,0,0,0,0,0,1,0,0,0,0,1,0,1,0,0,0,0,1,0,0,0,0,0,0,0,0,0,0,0,0,1,0,0,0,0,0,0,0,0,0,0,0,0,0,0,0,0,0],"id":18,"left_children":[1,3,5,7,9,-1,11,-1,13,-1,15,17,19,21,23,25,27,29,31,-1,-1,33,35,-1,37,-1,-1,-1,39,41,43,45,47,-1,-1,-1,-1,-1,-1,-1,-1,-1,-1,-1,-1,-1,-1,-1,-1],"loss_changes":[7.373055E-6,1.9803933E-6,3.3208664E-6,2.2063314E-6,1.0310368E-6,0E0,2.7694543E-6,0E0,2.5621835E-6,0E0,2.2509348E-6,2.4432006E-6,1.736789E-6,5.060767E-6,2.0301966E-6,1.3942049E-6,2.7442468E-6,5.2387286E-6,2.853235E-6,0E0,0E0,2.0205407E-6,1.6182004E-6,0E0,2.13941E-6,0E0,0E0,0E0,1.1633888E-6,2.0415862E-6,9.838934E-6,6.1572937E-6,3.245516E-6,0E0,0E0,0E0,0E0,0E0,0E0,0E0,0E0,0E0,0E0,0E0,0E0,0E0,0E0,0E0,0E0],"parents":[2147483647,0,0,1,1,2,2,3,3,4,4,6,6,8,8,10,10,11,11,12,12,13,13,14,14,15,15,16,16,17,17,18,18,21,21,22,22,24,24,28,28,29,29,30,30,31,31,32,32],"right_children":[2,4,6,8,10,-1,12,-1,14,-1,16,18,20,22,24,26,28,30,32,-1,-1,34,36,-1,38,-1,-1,-1,40,42,44,46,48,-1,-1,-1,-1,-1,-1,-1,-1,-1,-1,-1,-1,-1,-1,-1,-1],"split_conditions":[-1.1477593E-2,-1.1793809E-1,1.0658809E-2,0E0,-1.106818E-1,6.3466985E-7,-5.995391E-3,-1.2439245E-4,3.1999996E-1,2.3976601E-5,-7.1622506E-2,5.732591E-2,1.9737419E-2,-7.999998E-2,1.0024546E-1,-7.487717E-2,-7.060554E-2,9.056365E-2,-1.5160623E-1,-2.0020203E-5,-1.6022936E-4,-2.3192957E-2,8.106381E-2,1.10718946E-4,1.4620201E-1,-1.4496118E-5,-6.5697684E-5,4.9228893E-5,-1.6367994E-1,-1.965787E-1,-7.999998E-2,-1.7686859E-1,4.479997E-2,-3.3201705E-4,-1.1819364E-4,2.8199906E-5,-1.1402356E-4,-8.809291E-5,-1.388421E-5,-3.1631982E-5,-8.32867E-6,-1.4044573E-4,2.2786546E-5,2.1010722E-4,1.2756166E-5,1.3095113E-5,2.578353E-4,9.092877E-6,-6.612574E-5],"split_indices":[0,4,0,5,4,0,32,0,25,0,32,26,30,29,12,32,32,34,8,0,0,30,10,0,14,0,0,0,6,6,1,8,30,0,0,0,0,0,0,0,0,0,0,0,0,0,0,0,0],"split_type":[0,0,0,0,0,0,0,0,0,0,0,0,0,0,0,0,0,0,0,0,0,0,0,0,0,0,0,0,0,0,0,0,0,0,0,0,0,0,0,0,0,0,0,0,0,0,0,0,0],"sum_hessian":[4.9492E4,3.67E3,4.5822E4,6E2,3.07E3,4.4841E4,9.81E2,2E1,5.8E2,7.8E1,2.992E3,9.41E2,4E1,8.5E1,4.95E2,1.93E2,2.799E3,6.48E2,2.93E2,3E1,1E1,4.2E1,4.3E1,1E1,4.85E2,9E1,1.03E2,7.1E1,2.728E3,5.56E2,9.2E1,6.9E1,2.24E2,4E0,3.8E1,3.5E1,8E0,3.7E1,4.48E2,2.08E2,2.52E3,6E0,5.5E2,3.9E1,5.3E1,5.9E1,1E1,1.45E2,7.9E1],"tree_param":{"num_deleted":"0","num_feature":"36","num_nodes":"49","size_leaf_vector":"1"}},{"base_weights":[-6.672993E-8,-2.658489E-5,2.7562949E-6,-3.9325012E-5,5.810886E-6,7.0153953E-7,9.2618815E-5,-1.1238939E-4,-3.287111E-5,-1.5516338E-6,3.8030434E-5,1.4374506E-4,-9.2894246E-4,1.8619644E-3,-1.4080189E-4,4.7090245E-5,-3.574241E-5,-1.6640679E-5,3.6616673E-4,-1.13220936E-4,-6.2702E-4,9.702668E-4,9.794124E-5,-2.4842416E-4,-4.047364E-5,-9.1319365E-5,-3.3544453E-5,2.2020043E-4,-1.17528456E-4,5.7927874E-4,2.5715792E-5,-1.4194458E-4,-3.557949E-5,6.314989E-5,-2.1458729E-5,-2.6118498E-5,