{"learner":{"attributes":{"best_iteration":"22","best_score":"6.67048100431e-06"},"feature_names":[],"feature_types":[],"gradient_booster":{"model":{"gbtree_model_param":{"num_parallel_tree":"1","num_trees":"33"},"iteration_indptr":[0,1,2,3,4,5,6,7,8,9,10,11,12,13,14,15,16,17,18,19,20,21,22,23,24,25,26,27,28,29,30,31,32,33],"tree_info":[0,0,0,0,0,0,0,0,0,0,0,0,0,0,0,0,0,0,0,0,0,0,0,0,0,0,0,0,0,0,0,0,0],"trees":[{"base_weights":[1.8287365E-9,-7.211001E-3,6.936594E-3,-2.0787688E-2,-1.2162009E-3,1.7836714E-3,1.6514104E-2,-2.4493057E-2,-4.213661E-3,4.7815917E-3,7.726928E-3,-1.3019006E-2,-7.2137606E-3],"categories":[],"categories_nodes":[],"categories_segments":[],"categories_sizes":[],"default_left":[0,0,0,0,0,0,0,0,0,0,0,0,0],"id":0,"left_children":[1,3,5,7,-1,-1,9,11,-1,-1,-1,-1,-1],"loss_changes":[2.4756792E0,1.0400376E0,2.393446E-1,1.1402428E-1,0E0,0E0,1.216805E-2,2.3919702E-2,0E0,0E0,0E0,0E0,0E0],"parents":[2147483647,0,0,1,1,2,2,3,3,6,6,7,7],"right_children":[2,4,6,8,-1,-1,10,12,-1,-1,-1,-1,-1],"split_conditions":[-6.0000002E-2,-7.000002E-2,-5.0000012E-2,-7.999998E-2,-1.2162009E-3,1.7836714E-3,-3.999999E-2,-9E-2,-4.213661E-3,4.7815917E-3,7.726928E-3,-1.3019006E-2,-7.2137606E-3],"split_indices":[1,1,1,1,0,0,1,1,0,0,0,0,0],"split_type":[0,0,0,0,0,0,0,0,0,0,0,0,0],"sum_hessian":[4.9492E4,2.4266E4,2.5226E4,4.577E3,1.9689E4,2.2862E4,2.364E3,2.952E3,1.625E3,2.228E3,1.36E2,6.6E1,2.886E3],"tree_param":{"num_deleted":"0","num_feature":"36","num_nodes":"13","size_leaf_vector":"1"}},{"base_weights":[-2.2639028E-7,-5.048756E-3,4.856184E-3,-1.455672E-2,-8.513586E-4,1.248594E-3,1.1565161E-2,-1.7151987E-2,-2.95034E-3,3.3477575E-3,5.4257694E-3,-9.171599E-3,-5.0503807E-3],"categories":[],"categories_nodes":[],"categories_segments":[],"categories_sizes":[],"default_left":[0,0,0,0,0,0,0,0,0,0,0,0,0],"id":1,"left_children":[1,3,5,7,-1,-1,9,11,-1,-1,-1,-1,-1],"loss_changes":[1.2134807E0,5.100778E-1,1.1744404E-1,5.5936992E-2,0E0,0E0,6.058842E-3,1.2063146E-2,0E0,0E0,0E0,0E0,0E0],"parents":[2147483647,0,0,1,1,2,2,3,3,6,6,7,7],"right_children":[2,4,6,8,-1,-1,10,12,-1,-1,-1,-1,-1],"split_conditions":[-6.0000002E-2,-7.000002E-2,-5.0000012E-2,-7.999998E-2,-8.513586E-4,1.248594E-3,-3.999999E-2,-9E-2,-2.95034E-3,3.3477575E-3,5.4257694E-3,-9.171599E-3,-5.0503807E-3],"split_indices":[1,1,1,1,0,0,1,1,0,0,0,0,0],"split_type":[0,0,0,0,0,0,0,0,0,0,0,0,0],"sum_hessian":[4.9492E4,2.4266E4,2.5226E4,4.577E3,1.9689E4,2.2862E4,2.364E3,2.952E3,1.625E3,2.228E3,1.36E2,6.6E1,2.886E3],"tree_param":{"num_deleted":"0","num_feature":"36","num_nodes":"13","size_leaf_vector":"1"}},{"base_weights":[-3.1964575E-7,-3.5348742E-3,3.3997293E-3,-1.0193453E-2,-5.9596496E-4,8.740333E-4,8.099321E-3,-1.2011205E-2,-2.0657822E-3,2.3438805E-3,3.8099198E-3,-6.4611863E-3,-3.5357906E-3],"categories":[],"categories_nodes":[],"categories_segments":[],"categories_sizes":[],"default_left":[0,0,0,0,0,0,0,0,0,0,0,0,0],"id":2,"left_children":[1,3,5,7,-1,-1,9,11,-1,-1,-1,-1,-1],"loss_changes":[5.9480196E-1,2.5016376E-1,5.762872E-2,2.7441353E-2,0E0,0E0,3.0166507E-3,6.082177E-3,0E0,0E0,0E0,0E0,0E0],"parents":[2147483647,0,0,1,1,2,2,3,3,6,6,7,7],"right_children":[2,4,6,8,-1,-1,10,12,-1,-1,-1,-1,-1],"split_conditions":[-6.0000002E-2,-7.000002E-2,-5.0000012E-2,-7.999998E-2,-5.9596496E-4,8.740333E-4,-3.999999E-2,-9E-2,-2.0657822E-3,2.3438805E-3,3.8099198E-3,-6.4611863E-3,-3.5357906E-3],"split_indices":[1,1,1,1,0,0,1,1,0,0,0,0,0],"split_type":[0,0,0,0,0,0,0,0,0,0,0,0,0],"sum_hessian":[4.9492E4,2.4266E4,2.5226E4,4.577E3,1.9689E4,2.2862E4,2.364E3,2.952E3,1.625E3,2.228E3,1.36E2,6.6E1,2.886E3],"tree_param":{"num_deleted":"0","num_feature":"36","num_nodes":"13","size_leaf_vector":"1"}},{"base_weights":[-3.38376E-7,-2.4749334E-3,2.3800873E-3,-7.1380497E-3,-4.1718464E-4,6.118342E-4,5.672125E-3,-8.411227E-3,-1.4464277E-3,1.6410315E-3,2.6752863E-3,-4.5517604E-3,-2.4754202E-3],"categories":[],"categories_nodes":[],"categories_segments":[],"categories_sizes":[],"default_left":[0,0,0,0,0,0,0,0,0,0,0,0,0],"id":3,"left_children":[1,3,5,7,-1,-1,9,11,-1,-1,-1,-1,-1],"loss_changes":[2.9154885E-1,1.2269133E-1,2.8277978E-2,1.3462141E-2,0E0,0E0,1.5018508E-3,3.065914E-3,0E0,0E0,0E0,0E0,0E0],"parents":[2147483647,0,0,1,1,2,2,3,3,6,6,7,7],"right_children":[2,4,6,8,-1,-1,10,12,-1,-1,-1,-1,-1],"split_conditions":[-6.0000002E-2,-7.000002E-2,-5.0000012E-2,-7.999998E-2,-4.1718464E-4,6.118342E-4,-3.999999E-2,-9E-2,-1.4464277E-3,1.6410315E-3,2.6752863E-3,-4.5517604E-3,-2.4754202E-3],"split_indices":[1,1,1,1,0,0,1,1,0,0,0,0,0],"split_type":[0,0,0,0,0,0,0,0,0,0,0,0,0],"sum_hessian":[4.9492E4,2.4266E4,2.5226E4,4.577E3,1.9689E4,2.2862E4,2.364E3,2.952E3,1.625E3,2.228E3,1.36E2,6.6E1,2.886E3],"tree_param":{"num_deleted":"0","num_feature":"36","num_nodes":"13","size_leaf_vector":"1"}},{"base_weights":[-3.15851E-7,-1.7328175E-3,1.6662565E-3,-4.9984874E-3,-2.9203465E-4,4.2829197E-4,3.972313E-3,-5.8902404E-3,-1.0127667E-3,1.1489427E-3,1.8785582E-3,-3.2066132E-3,-1.733052E-3],"categories":[],"categories_nodes":[],"categories_segments":[],"categories_sizes":[],"default_left":[0,0,0,0,0,0,0,0,0,0,0,0,0],"id":4,"left_children":[1,3,5,7,-1,-1,9,11,-1,-1,-1,-1,-1],"loss_changes":[1.4290598E-1,6.01736E-2,1.3875812E-2,6.604284E-3,0E0,0E0,7.476434E-4,1.5451312E-3,0E0,0E0,0E0,0E0,0E0],"parents":[2147483647,0,0,1,1,2,2,3,3,6,6,7,7],"right_children":[2,4,6,8,-1,-1,10,12,-1,-1,-1,-1,-1],"split_conditions":[-6.0000002E-2,-7.000002E-2,-5.0000012E-2,-7.999998E-2,-2.9203465E-4,4.2829197E-4,-3.999999E-2,-9E-2,-1.0127667E-3,1.1489427E-3,1.8785582E-3,-3.2066132E-3,-1.733052E-3],"split_indices":[1,1,1,1,0,0,1,1,0,0,0,0,0],"split_type":[0,0,0,0,0,0,0,0,0,0,0,0,0],"sum_hessian":[4.9492E4,2.4266E4,2.5226E4,4.577E3,1.9689E4,2.2862E4,2.364E3,2.952E3,1.625E3,2.228E3,1.36E2,6.6E1,2.886E3],"tree_param":{"num_deleted":"0","num_feature":"36","num_nodes":"13","size_leaf_vector":"1"}},{"base_weights":[-2.7874245E-7,-1.2132314E-3,1.1665156E-3,-3.5002436E-3,-2.0442922E-4,2.9980973E-4,2.781899E-3,-4.1248435E-3,-7.0912414E-4,8.0441457E-4,1.319104E-3,-2.2589879E-3,-1.2133173E-3],"categories":[],"categories_nodes":[],"categories_segments":[],"categories_sizes":[],"default_left":[0,0,0,0,0,0,0,0,0,0,0,0,0],"id":5,"left_children":[1,3,5,7,-1,-1,9,11,-1,-1,-1,-1,-1],"loss_changes":[7.0047185E-2,2.951198E-2,6.808795E-3,3.239967E-3,0E0,0E0,3.7215836E-4,7.785298E-4,0E0,0E0,0E0,0E0,0E0],"parents":[2147483647,0,0,1,1,2,2,3,3,6,6,7,7],"right_children":[2,4,6,8,-1,-1,10,12,-1,-1,-1,-1,-1],"split_conditions":[-6.0000002E-2,-7.000002E-2,-5.0000012E-2,-7.999998E-2,-2.0442922E-4,2.9980973E-4,-3.999999E-2,-9E-2,-7.0912414E-4,8.0441457E-4,1.319104E-3,-2.2589879E-3,-1.2133173E-3],"split_indices":[1,1,1,1,0,0,1,1,0,0,0,0,0],"split_type":[0,0,0,0,0,0,0,0,0,0,0,0,0],"sum_hessian":[4.9492E4,2.4266E4,2.5226E4,4.577E3,1.9689E4,2.2862E4,2.364E3,2.952E3,1.625E3,2.228E3,1.36E2,6.6E1,2.886E3],"tree_param":{"num_deleted":"0","num_feature":"36","num_nodes":"13","size_leaf_vector":"1"}},{"base_weights":[-2.3539909E-7,-8.4944256E-4,8.1665564E-4,-2.4510825E-3,-1.431036E-4,2.0987025E-4,1.9482285E-3,-2.888564E-3,-4.965178E-4,5.631989E-4,9.2626165E-4,-1.5914069E-3,-8.494474E-4],"categories":[],"categories_nodes":[],"categories_segments":[],"categories_sizes":[],"default_left":[0,0,0,0,0,0,0,0,0,0,0,0,0],"id":6,"left_children":[1,3,5,7,-1,-1,9,11,-1,-1,-1,-1,-1],"loss_changes":[3.433447E-2,1.4474086E-2,3.3410583E-3,1.5894864E-3,0E0,0E0,1.852382E-4,3.9218366E-4,0E0,0E0,0E0,0E0,0E0],"parents":[2147483647,0,0,1,1,2,2,3,3,6,6,7,7],"right_children":[2,4,6,8,-1,-1,10,12,-1,-1,-1,-1,-1],"split_conditions":[-6.0000002E-2,-7.000002E-2,-5.0000012E-2,-7.999998E-2,-1.431036E-4,2.0987025E-4,-3.999999E-2,-9E-2,-4.965178E-4,5.631989E-4,9.2626165E-4,-1.5914069E-3,-8.494474E-4],"split_indices":[1,1,1,1,0,0,1,1,0,0,0,0,0],"split_type":[0,0,0,0,0,0,0,0,0,0,0,0,0],"sum_hessian":[4.9492E4,2.4266E4,2.5226E4,4.577E3,1.9689E4,2.2862E4,2.364E3,2.952E3,1.625E3,2.228E3,1.36E2,6.6E1,2.886E3],"tree_param":{"num_deleted":"0","num_feature":"36","num_nodes":"13","size_leaf_vector":"1"}},{"base_weights":[-1.9361468E-7,-5.947371E-4,5.7172484E-4,-1.7164001E-3,-1.001748E-4,1.4691151E-4,1.3643883E-3,-2.0228205E-3,-3.4765515E-4,3.943145E-4,6.5041194E-4,-1.1211105E-3,-5.947012E-4],"categories":[],"categories_nodes":[],"categories_segments":[],"categories_sizes":[],"default_left":[0,0,0,0,0,0,0,0,0,0,0,0,0],"id":7,"left_children":[1,3,5,7,-1,-1,9,11,-1,-1,-1,-1,-1],"loss_changes":[1.6829466E-2,7.098821E-3,1.6394434E-3,7.797824E-4,0E0,0E0,9.219488E-5,1.9752141E-4,0E0,0E0,0E0,0E0,0E0],"parents":[2147483647,0,0,1,1,2,2,3,3,6,6,7,7],"right_children":[2,4,6,8,-1,-1,10,12,-1,-1,-1,-1,-1],"split_conditions":[-6.0000002E-2,-7.000002E-2,-5.0000012E-2,-7.999998E-2,-1.001748E-4,1.4691151E-4,-3.999999E-2,-9E-2,-3.4765515E-4,3.943145E-4,6.5041194E-4,-1.1211105E-3,-5.947012E-4],"split_indices":[1,1,1,1,0,0,1,1,0,0,0,0,0],"split_type":[0,0,0,0,0,0,0,0,0,0,0,0,0],"sum_hessian":[4.9492E4,2.4266E4,2.5226E4,4.577E3,1.9689E4,2.2862E4,2.364E3,2.952E3,1.625E3,2.228E3,1.36E2,6.6E1,2.886E3],"tree_param":{"num_deleted":"0","num_feature":"36","num_nodes":"13","size_leaf_vector":"1"}},{"base_weights":[-1.55739E-7,-4.164072E-4,4.002555E-4,-1.2019342E-3,-7.0124406E-5,1.0284026E-4,9.555134E-4,-1.4165586E-3,-2.4342386E-4,2.7607323E-4,4.567122E-4,-7.897971E-4,-4.1635364E-4],"categories":[],"categories_nodes":[],"categories_segments":[],"categories_sizes":[],"default_left":[0,0,0,0,0,0,0,0,0,0,0,0,0],"id":8,"left_children":[1,3,5,7,-1,-1,9,11,-1,-1,-1,-1,-1],"loss_changes":[8.249252E-3,3.4816386E-3,8.044671E-4,3.825575E-4,0E0,0E0,4.5882072E-5,9.945966E-5,0E0,0E0,0E0,0E0,0E0],"parents":[2147483647,0,0,1,1,2,2,3,3,6,6,7,7],"right_children":[2,4,6,8,-1,-1,10,12,-1,-1,-1,-1,-1],"split_conditions":[-6.0000002E-2,-7.000002E-2,-5.0000012E-2,-7.999998E-2,-7.0124406E-5,1.0284026E-4,-3.999999E-2,-9E-2,-2.4342386E-4,2.7607323E-4,4.567122E-4,-7.897971E-4,-4.1635364E-4],"split_indices":[1,1,1,1,0,0,1,1,0,0,0,0,0],"split_type":[0,0,0,0,0,0,0,0,0,0,0,0,0],"sum_hessian":[4.9492E4,2.4266E4,2.5226E4,4.577E3,1.9689E4,2.2862E4,2.364E3,2.952E3,1.625E3,2.228E3,1.36E2,6.6E1,2.886E3],"tree_param":{"num_deleted":"0","num_feature":"36","num_nodes":"13","size_leaf_vector":"1"}},{"base_weights":[-1.2269771E-7,-2.915472E-4,2.8021183E-4,-8.416702E-4,-4.9088016E-5,7.19895E-5,6.691686E-4,-9.919998E-4,-1.7044116E-4,1.9328823E-4,3.2069837E-4,-5.563939E-4,-2.914909E-4],"categories":[],"categories_nodes":[],"categories_segments":[],"categories_sizes":[],"default_left":[0,0,0,0,0,0,0,0,0,0,0,0,0],"id":9,"left_children":[1,3,5,7,-1,-1,9,11,-1,-1,-1,-1,-1],"loss_changes":[4.0434785E-3,1.7075799E-3,3.947497E-4,1.8768385E-4,0E0,0E0,2.283242E-5,5.007186E-5,0E0,0E0,0E0,0E0,0E0],"parents":[2147483647,0,0,1,1,2,2,3,3,6,6,7,7],"right_children":[2,4,6,8,-1,-1,10,12,-1,-1,-1,-1,-1],"split_conditions":[-6.0000002E-2,-7.000002E-2,-5.0000012E-2,-7.999998E-2,-4.9088016E-5,7.19895E-5,-3.999999E-2,-9E-2,-1.7044116E-4,1.9328823E-4,3.2069837E-4,-5.563939E-4,-2.914909E-4],"split_indices":[1,1,1,1,0,0,1,1,0,0,0,0,0],"split_type":[0,0,0,0,0,0,0,0,0,0,0,0,0],"sum_hessian":[4.9492E4,2.4266E4,2.5226E4,4.577E3,1.9689E4,2.2862E4,2.364E3,2.952E3,1.625E3,2.228E3,1.36E2,6.6E1,2.886E3],"tree_param":{"num_deleted":"0","num_feature":"36","num_nodes":"13","size_leaf_vector":"1"}},{"base_weights":[-9.793766E-8,-2.0413027E-4,1.9617006E-4,-5.893933E-4,-3.4363435E-5,5.0393075E-5,4.6863675E-4,-6.946887E-4,-1.19340744E-4,1.3532823E-4,2.251909E-4,-3.9196684E-4,-2.0407447E-4],"categories":[],"categories_nodes":[],"categories_segments":[],"categories_sizes":[],"default_left":[0,0,0,0,0,0,0,0,0,0,0,0,0],"id":10,"left_children":[1,3,5,7,-1,-1,9,11,-1,-1,-1,-1,-1],"loss_changes":[1.981988E-3,8.374831E-4,1.9370735E-4,9.2078466E-5,0E0,0E0,1.1361146E-5,2.5202986E-5,0E0,0E0,0E0,0E0,0E0],"parents":[2147483647,0,0,1,1,2,2,3,3,6,6,7,7],"right_children":[2,4,6,8,-1,-1,10,12,-1,-1,-1,-1,-1],"split_conditions":[-6.0000002E-2,-7.000002E-2,-5.0000012E-2,-7.999998E-2,-3.4363435E-5,5.0393075E-5,-3.999999E-2,-9E-2,-1.19340744E-4,1.3532823E-4,2.251909E-4,-3.9196684E-4,-2.0407447E-4],"split_indices":[1,1,1,1,0,0,1,1,0,0,0,0,0],"split_type":[0,0,0,0,0,0,0,0,0,0,0,0,0],"sum_hessian":[4.9492E4,2.4266E4,2.5226E4,4.577E3,1.9689E4,2.2862E4,2.364E3,2.952E3,1.625E3,2.228E3,1.36E2,6.6E1,2.886E3],"tree_param":{"num_deleted":"0","num_feature":"36","num_nodes":"13","size_leaf_vector":"1"}},{"base_weights":[-7.5551895E-8,-1.4292337E-4,1.3733626E-4,-4.1273254E-4,-2.4055335E-5,3.5276134E-5,3.2819784E-4,-4.8648688E-4,-8.3559746E-5,9.474786E-5,1.58127E-4,-2.7613164E-4,-1.4287424E-4],"categories":[],"categories_nodes":[],"categories_segments":[],"categories_sizes":[],"default_left":[0,0,0,0,0,0,0,0,0,0,0,0,0],"id":11,"left_children":[1,3,5,7,-1,-1,9,11,-1,-1,-1,-1,-1],"loss_changes":[9.7151665E-4,4.1074742E-4,9.505096E-5,4.517677E-5,0E0,0E0,5.652895E-6,1.2683042E-5,0E0,0E0,0E0,0E0,0E0],"parents":[2147483647,0,0,1,1,2,2,3,3,6,6,7,7],"right_children":[2,4,6,8,-1,-1,10,12,-1,-1,-1,-1,-1],"split_conditions":[-6.0000002E-2,-7.000002E-2,-5.0000012E-2,-7.999998E-2,-2.4055335E-5,3.5276134E-5,-3.999999E-2,-9E-2,-8.3559746E-5,9.474786E-5,1.58127E-4,-2.7613164E-4,-1.4287424E-4],"split_indices":[1,1,1,1,0,0,1,1,0,0,0,0,0],"split_type":[0,0,0,0,0,0,0,0,0,0,0,0,0],"sum_hessian":[4.9492E4,2.4266E4,2.5226E4,4.577E3,1.9689E4,2.2862E4,2.364E3,2.952E3,1.625E3,2.228E3,1.36E2,6.6E1,2.886E3],"tree_param":{"num_deleted":"0","num_feature":"36","num_nodes":"13","size_leaf_vector":"1"}},{"base_weights":[-5.625698E-8,-1.00066274E-4,9.614794E-5,-2.8902426E-4,-1.6838323E-5,2.4694165E-5,2.2984429E-4,-3.4068455E-4,-5.850768E-5,6.63359E-5,1.1103504E-4,-1.9452802E-4,-1.00027384E-4],"categories":[],"categories_nodes":[],"categories_segments":[],"categories_sizes":[],"default_left":[0,0,0,0,0,0,0,0,0,0,0,0,0],"id":12,"left_children":[1,3,5,7,-1,-1,9,11,-1,-1,-1,-1,-1],"loss_changes":[4.7620074E-4,2.0146141E-4,4.6640023E-5,2.2164342E-5,0E0,0E0,2.8124923E-6,6.381364E-6,0E0,0E0,0E0,0E0,0E0],"parents":[2147483647,0,0,1,1,2,2,3,3,6,6,7,7],"right_children":[2,4,6,8,-1,-1,10,12,-1,-1,-1,-1,-1],"split_conditions":[-6.0000002E-2,-7.000002E-2,-5.0000012E-2,-7.999998E-2,-1.6838323E-5,2.4694165E-5,-3.999999E-2,-9E-2,-5.850768E-5,6.63359E-5,1.1103504E-4,-1.9452802E-4,-1.00027384E-4],"split_indices":[1,1,1,1,0,0,1,1,0,0,0,0,0],"split_type":[0,0,0,0,0,0,0,0,0,0,0,0,0],"sum_hessian":[4.9492E4,2.4266E4,2.5226E4,4.577E3,1.9689E4,2.2862E4,2.364E3,2.952E3,1.625E3,2.228E3,1.36E2,6.6E1,2.886E3],"tree_param":{"num_deleted":"0","num_feature":"36","num_nodes":"13","size_leaf_vector":"1"}},{"base_weights":[-4.329505E-8,-7.006193E-5,6.7310815E-5,-2.023956E-4,-1.1787086E-5,1.7286004E-5,1.6096562E-4,-2.385822E-4,-4.096565E-5,4.6443958E-5,7.796739E-5,-1.3704087E-4,-7.003057E-5],"categories":[],"categories_nodes":[],"categories_segments":[],"categories_sizes":[],"default_left":[0,0,0,0,0,0,0,0,0,0,0,0,0],"id":13,"left_children":[1,3,5,7,-1,-1,9,11,-1,-1,-1,-1,-1],"loss_changes":[2.3341583E-4,9.881029E-5,2.288651E-5,1.0875199E-5,0E0,0E0,1.3991885E-6,3.2101088E-6,0E0,0E0,0E0,0E0,0E0],"parents":[2147483647,0,0,1,1,2,2,3,3,6,6,7,7],"right_children":[2,4,6,8,-1,-1,10,12,-1,-1,-1,-1,-1],"split_conditions":[-6.0000002E-2,-7.000002E-2,-5.0000012E-2,-7.999998E-2,-1.1787086E-5,1.7286004E-5,-3.999999E-2,-9E-2,-4.096565E-5,4.6443958E-5,7.796739E-5,-1.3704087E-4,-7.003057E-5],"split_indices":[1,1,1,1,0,0,1,1,0,0,0,0,0],"split_type":[0,0,0,0,0,0,0,0,0,0,0,0,0],"sum_hessian":[4.9492E4,2.4266E4,2.5226E4,4.577E3,1.9689E4,2.2862E4,2.364E3,2.952E3,1.625E3,2.228E3,1.36E2,6.6E1,2.886E3],"tree_param":{"num_deleted":"0","num_feature":"36","num_nodes":"13","size_leaf_vector":"1"}},{"base_weights":[-3.268964E-8,-4.9054743E-5,4.7123856E-5,-1.4173359E-4,-8.25122E-6,1.2100627E-5,3.3818793E-5,-1.6708022E-4,-2.868422E-5,-9.654291E-5,-4.9029437E-5],"categories":[],"categories_nodes":[],"categories_segments":[],"categories_sizes":[],"default_left":[0,0,0,0,0,0,0,0,0,0,0],"id":14,"left_children":[1,3,5,7,-1,-1,-1,9,-1,-1,-1],"loss_changes":[1.144158E-4,4.8464382E-5,1.1230506E-5,5.3355907E-6,0E0,0E0,0E0,1.6145859E-6,0E0,0E0,0E0],"parents":[2147483647,0,0,1,1,2,2,3,3,7,7],"right_children":[2,4,6,8,-1,-1,-1,10,-1,-1,-1],"split_conditions":[-6.0000002E-2,-7.000002E-2,-5.0000012E-2,-7.999998E-2,-8.25122E-6,1.2100627E-5,3.3818793E-5,-9E-2,-2.868422E-5,-9.654291E-5,-4.9029437E-5],"split_indices":[1,1,1,1,0,0,0,1,0,0,0],"split_type":[0,0,0,0,0,0,0,0,0,0,0],"sum_hessian":[4.9492E4,2.4266E4,2.5226E4,4.577E3,1.9689E4,2.2862E4,2.364E3,2.952E3,1.625E3,6.6E1,2.886E3],"tree_param":{"num_deleted":"0","num_feature":"36","num_nodes":"11","size_leaf_vector":"1"}},{"base_weights":[-2.6384656E-8,-3.4348242E-5,3.2989377E-5,-9.924958E-5,-5.7770076E-6,8.470862E-6,2.3677625E-5,-3.5100795E-5,-2.0084093E-5],"categories":[],"categories_nodes":[],"categories_segments":[],"categories_sizes":[],"default_left":[0,0,0,0,0,0,0,0,0],"id":15,"left_children":[1,3,5,7,-1,-1,-1,-1,-1],"loss_changes":[5.6084737E-5,2.376669E-5,5.505881E-6,2.6175148E-6,0E0,0E0,0E0,0E0,0E0],"parents":[2147483647,0,0,1,1,2,2,3,3],"right_children":[2,4,6,8,-1,-1,-1,-1,-1],"split_conditions":[-6.0000002E-2,-7.000002E-2,-5.0000012E-2,-7.999998E-2,-5.7770076E-6,8.470862E-6,2.3677625E-5,-3.5100795E-5,-2.0084093E-5],"split_indices":[1,1,1,1,0,0,0,0,0],"split_type":[0,0,0,0,0,0,0,0,0],"sum_hessian":[4.9492E4,2.4266E4,2.5226E4,4.577E3,1.9689E4,2.2862E4,2.364E3,2.952E3,1.625E3],"tree_param":{"num_deleted":"0","num_feature":"36","num_nodes":"9","size_leaf_vector":"1"}},{"base_weights":[-2.0369004E-8,-2.4048517E-5,2.30934E-5,-6.948652E-5,-4.044836E-6,5.9295803E-6,1.6577245E-5,-2.4574454E-5,-1.40617685E-5],"categories":[],"categories_nodes":[],"categories_segments":[],"categories_sizes":[],"default_left":[0,0,0,0,0,0,0,0,0],"id":16,"left_children":[1,3,5,7,-1,-1,-1,-1,-1],"loss_changes":[2.7488031E-5,1.1649305E-5,2.6993666E-6,1.2828241E-6,0E0,0E0,0E0,0E0,0E0],"parents":[2147483647,0,0,1,1,2,2,3,3],"right_children":[2,4,6,8,-1,-1,-1,-1,-1],"split_conditions":[-6.0000002E-2,-7.000002E-2,-5.0000012E-2,-7.999998E-2,-4.044836E-6,5.9295803E-6,1.6577245E-5,-2.4574454E-5,-1.40617685E-5],"split_indices":[1,1,1,1,0,0,0,0,0],"split_type":[0,0,0,0,0,0,0,0,0],"sum_hessian":[4.9492E4,2.4266E4,2.5226E4,4.577E3,1.9689E4,2.2862E4,2.364E3,2.952E3,1.625E3],"tree_param":{"num_deleted":"0","num_feature":"36","num_nodes":"9","size_leaf_vector":"1"}},{"base_weights":[-1.5078195E-8,-1.6835513E-5,1.6165264E-5,-1.4595443E-5,-2.8311977E-6,4.150459E-6,1.16060855E-5],"categories":[],"categories_nodes":[],"categories_segments":[],"categories_sizes":[],"default_left":[0,0,0,0,0,0,0],"id":17,"left_children":[1,3,5,-1,-1,-1,-1],"loss_changes":[1.3470307E-5,5.7115176E-6,1.3234921E-6,0E0,0E0,0E0,0E0],"parents":[2147483647,0,0,1,1,2,2],"right_children":[2,4,6,-1,-1,-1,-1],"split_conditions":[-6.0000002E-2,-7.000002E-2,-5.0000012E-2,-1.4595443E-5,-2.8311977E-6,4.150459E-6,1.16060855E-5],"split_indices":[1,1,1,0,0,0,0],"split_type":[0,0,0,0,0,0,0],"sum_hessian":[4.9492E4,2.4266E4,2.5226E4,4.577E3,1.9689E4,2.2862E4,2.364E3],"tree_param":{"num_deleted":"0","num_feature":"36","num_nodes":"7","size_leaf_vector":"1"}},{"base_weights":[-1.0246072E-8,-1.17855125E-5,1.1316919E-5,-1.2828122E-5,-2.2481008E-6,3.2538655E-6,2.923236E-5],"categories":[],"categories_nodes":[],"categories_segments":[],"categories_sizes":[],"default_left":[0,0,0,0,0,0,0],"id":18,"left_children":[1,3,5,-1,-1,-1,-1],"loss_changes":[6.6015286E-6,3.2257196E-6,1.0216136E-6,0E0,0E0,0E0,0E0],"parents":[2147483647,0,0,1,1,2,2],"right_children":[2,4,6,-1,-1,-1,-1],"split_conditions":[-6.0000002E-2,-7.999998E-2,-3.999999E-2,-1.2828122E-5,-2.2481008E-6,3.2538655E-6,2.923236E-5],"split_indices":[1,1,1,0,0,0,0],"split_type":[0,0,0,0,0,0,0],"sum_hessian":[4.9492E4,2.4266E4,2.5226E4,2.952E3,2.1314E4,2.509E4,1.36E2],"tree_param":{"num_deleted":"0","num_feature":"36","num_nodes":"7","size_leaf_vector":"1"}},{"base_weights":[-5.008703E-9,-8.248529E-6,2.3774428E-6,-8.980455E-6,-1.5731098E-6],"categories":[],"categories_nodes":[],"categories_segments":[],"categories_sizes":[],"default_left":[0,0,0,0,0],"id":19,"left_children":[1,3,-1,-1,-1],"loss_changes":[3.235404E-6,1.5811709E-6,0E0,0E0,0E0],"parents":[2147483647,0,0,1,1],"right_children":[2,4,-1,-1,-1],"split_conditions":[-6.0000002E-2,-7.999998E-2,2.3774428E-6,-8.980455E-6,-1.5731098E-6],"split_indices":[1,1,0,0,0],"split_type":[0,0,0,0,0],"sum_hessian":[4.9492E4,2.4266E4,2.5226E4,2.952E3,2.1314E4],"tree_param":{"num_deleted":"0","num_feature":"36","num_nodes":"5","size_leaf_vector":"1"}},{"base_weights":[-3.906764E-9,-5.59202E-6,5.6866736E-7],"categories":[],"categories_nodes":[],"categories_segments":[],"categories_sizes":[],"default_left":[0,0,0],"id":20,"left_children":[1,-1,-1],"loss_changes":[1.7520242E-6,0E0,0E0],"parents":[2147483647,0,0],"right_children":[2,-1,-1],"split_conditions":[-7.000002E-2,-5.59202E-6,5.6866736E-7],"split_indices":[1,0,0],"split_type":[0,0,0],"sum_hessian":[4.9492E4,4.577E3,4.4915E4],"tree_param":{"num_deleted":"0","num_feature":"36","num_nodes":"3","size_leaf_vector":"1"}},{"base_weights":[-2.2246516E-9,-1.553909E-6,1.4934664E-6],"categories":[],"categories_nodes":[],"categories_segments":[],"categories_sizes":[],"default_left":[0,0,0],"id":21,"left_children":[1,-1,-1],"loss_changes":[1.2762581E-6,0E0,0E0],"parents":[2147483647,0,0],"right_children":[2,-1,-1],"split_conditions":[-6.0000002E-2,-1.553909E-6,1.4934664E-6],"split_indices":[1,0,0],"split_type":[0,0,0],"sum_hessian":[4.9492E4,2.4266E4,2.5226E4],"tree_param":{"num_deleted":"0","num_feature":"36","num_nodes":"3","size_leaf_vector":"1"}},{"base_weights":[-1.5008646E-10,-3.750569E-5,5.079517E-8],"categories":[],"categories_nodes":[],"categories_segments":[],"categories_sizes":[],"default_left":[0,0,0],"id":22,"left_children":[1,-1,-1],"loss_changes":[1.0486096E-6,0E0,0E0],"parents":[2147483647,0,0],"right_children":[2,-1,-1],"split_conditions":[-9E-2,-3.750569E-5,5.079517E-8],"split_indices":[1,0,0],"split_type":[0,0,0],"sum_hessian":[4.9492E4,6.6E1,4.9426E4],"tree_param":{"num_deleted":"0","num_feature":"36","num_nodes":"3","size_leaf_vector":"1"}},{"base_weights":[-2.2181785E-9],"categories":[],"categories_nodes":[],"categories_segments":[],"categories_sizes":[],"default_left":[0],"id":23,"left_children":[-1],"loss_changes":[0E0],"parents":[2147483647],"right_children":[-1],"split_conditions":[-6.654536E-10],"split_indices":[0],"split_type":[0],"sum_hessian":[4.9492E4],"tree_param":{"num_deleted":"0","num_feature":"36","num_nodes":"1","size_leaf_vector":"1"}},{"base_weights":[-2.2181785E-9],"categories":[],"categories_nodes":[],"categories_segments":[],"categories_sizes":[],"default_left":[0],"id":24,"left_children":[-1],"loss_changes":[0E0],"parents":[2147483647],"right_children":[-1],"split_conditions":[-6.654536E-10],"split_indices":[0],"split_type":[0],"sum_hessian":[4.9492E4],"tree_param":{"num_deleted":"0","num_feature":"36","num_nodes":"1","size_leaf_vector":"1"}},{"base_weights":[-2.2181785E-9],"categories":[],"categories_nodes":[],"categories_segments":[],"categories_sizes":[],"default_left":[0],"id":25,"left_children":[-1],"loss_changes":[0E0],"parents":[2147483647],"right_children":[-1],"split_conditions":[-6.654536E-10],"split_indices":[0],"split_type":[0],"sum_hessian":[4.9492E4],"tree_param":{"num_deleted":"0","num_feature":"36","num_nodes":"1","size_leaf_vector":"1"}},{"base_weights":[-2.2181785E-9],"categories":[],"categories_nodes":[],"categories_segments":[],"categories_sizes":[],"default_left":[0],"id":26,"left_children":[-1],"loss_changes":[0E0],"parents":[2147483647],"right_children":[-1],"split_conditions":[-6.654536E-10],"split_indices":[0],"split_type":[0],"sum_hessian":[4.9492E4],"tree_param":{"num_deleted":"0","num_feature":"36","num_nodes":"1","size_leaf_vector":"1"}},{"base_weights":[-2.2181785E-9],"categories":[],"categories_nodes":[],"categories_segments":[],"categories_sizes":[],"default_left":[0],"id":27,"left_children":[-1],"loss_changes":[0E0],"parents":[2147483647],"right_children":[-1],"split_conditions":[-6.654536E-10],"split_indices":[0],"split_type":[0],"sum_hessian":[4.9492E4],"tree_param":{"num_deleted":"0","num_feature":"36","num_nodes":"1","size_leaf_vector":"1"}},{"base_weights":[-2.2181785E-9],"categories":[],"categories_nodes":[],"categories_segments":[],"categories_sizes":[],"default_left":[0],"id":28,"left_children":[-1],"loss_changes":[0E0],"parents":[2147483647],"right_children":[-1],"split_conditions":[-6.654536E-10],"split_indices":[0],"split_type":[0],"sum_hessian":[4.9492E4],"tree_param":{"num_deleted":"0","num_feature":"36","num_nodes":"1","size_leaf_vector":"1"}},{"base_weights":[-2.2181785E-9],"categories":[],"categories_nodes":[],"categories_segments":[],"categories_sizes":[],"default_left":[0],"id":29,"left_children":[-1],"loss_changes":[0E0],"parents":[2147483647],"right_children":[-1],"split_conditions":[-6.654536E-10],"split_indices":[0],"split_type":[0],"sum_hessian":[4.9492E4],"tree_param":{"num_deleted":"0","num_feature":"36","num_nodes":"1","size_leaf_vector":"1"}},{"base_weights":[-2.2181785E-9],"categories":[],"categories_nodes":[],"categories_segments":[],"categories_sizes":[],"default_left":[0],"id":30,"left_children":[-1],"loss_changes":[0E0],"parents":[2147483647],"right_children":[-1],"split_conditions":[-6.654536E-10],"split_indices":[0],"split_type":[0],"sum_hessian":[4.9492E4],"tree_param":{"num_deleted":"0","num_feature":"36","num_nodes":"1","size_leaf_vector":"1"}},{"base_weights":[-2.2181785E-9],"categories":[],"categories_nodes":[],"categories_segments":[],"categories_sizes":[],"default_left":[0],"id":31,"left_children":[-1],"loss_changes":[0E0],"parents":[2147483647],"right_children":[-1],"split_conditions":[-6.654536E-10],"split_indices":[0],"split_type":[0],"sum_hessian":[4.9492E4],"tree_param":{"num_deleted":"0","num_feature":"36","num_nodes":"1","size_leaf_vector":"1"}},{"base_weights":[-2.2181785E-9],"categories":[],"categories_nodes":[],"categories_segments":[],"categories_sizes":[],"default_left":[0],"id":32,"left_children":[-1],"loss_changes":[0E0],"parents":[2147483647],"right_children":[-1],"split_conditions":[-6.654536E-10],"split_indices":[0],"split_type":[0],"sum_hessian":[4.9492E4],"tree_param":{"num_deleted":"0","num_feature":"36","num_nodes":"1","size_leaf_vector":"1"}}]},"name":"gbtree"},"learner_model_param":{"base_score":"-6.5945804E-2","boost_from_average":"1","num_class":"0","num_feature":"36","num_target":"1"},"objective":{"name":"reg:squarederror","reg_loss_param":{"scale_pos_weight":"1"}}},"version":[2,0,3]}