{"learner":{"attributes":{"best_iteration":"99","best_score":"0.00211742283130874"},"feature_names":[],"feature_types":[],"gradient_booster":{"model":{"gbtree_model_param":{"num_parallel_tree":"1","num_trees":"100"},"iteration_indptr":[0,1,2,3,4,5,6,7,8,9,10,11,12,13,14,15,16,17,18,19,20,21,22,23,24,25,26,27,28,29,30,31,32,33,34,35,36,37,38,39,40,41,42,43,44,45,46,47,48,49,50,51,52,53,54,55,56,57,58,59,60,61,62,63,64,65,66,67,68,69,70,71,72,73,74,75,76,77,78,79,80,81,82,83,84,85,86,87,88,89,90,91,92,93,94,95,96,97,98,99,100],"tree_info":[0,0,0,0,0,0,0,0,0,0,0,0,0,0,0,0,0,0,0,0,0,0,0,0,0,0,0,0,0,0,0,0,0,0,0,0,0,0,0,0,0,0,0,0,0,0,0,0,0,0,0,0,0,0,0,0,0,0,0,0,0,0,0,0,0,0,0,0,0,0,0,0,0,0,0,0,0,0,0,0,0,0,0,0,0,0,0,0,0,0,0,0,0,0,0,0,0,0,0,0],"trees":[{"base_weights":[4.0910226E-9,-2.1101665E-2,9.462439E-3,-1.1334152E-2,-5.338195E-3,1.228287E-3,1.8871125E-2,4.5058425E-3,-9.141559E-3,3.6607736E-3,2.2924274E-2,2.872518E-3,1.2125956E-2,-1.2793291E-2,1.1816596E-2,6.6606775E-3,3.936275E-2,-1.0161088E-3,3.6226115E-3,6.606291E-4,1.7758036E-2,-3.7329976E-2,-9.9890465E-3,6.349283E-4,3.655532E-3,9.577363E-3,1.26194535E-2,6.114342E-4,-5.628875E-3,6.6128094E-4,2.2824723E-3,7.369699E-4,5.8119777E-3,-4.6713003E-3,-1.1308387E-2,-3.355798E-3,7.7011758E-3],"categories":[],"categories_nodes":[],"categories_segments":[],"categories_sizes":[],"default_left":[0,0,1,0,0,1,0,0,1,0,0,0,0,0,1,0,0,0,0,0,0,0,0,0,0,0,0,0,0,0,0,0,0,0,0,0,0],"id":0,"left_children":[1,3,5,-1,-1,7,9,11,13,-1,15,17,19,21,23,-1,25,27,29,-1,31,33,35,-1,-1,-1,-1,-1,-1,-1,-1,-1,-1,-1,-1,-1,-1],"loss_changes":[9.882624E0,8.446717E-1,2.6472912E0,0E0,0E0,6.194338E-1,4.3077278E-1,1.72319E-1,3.3513862E-1,0E0,1.1684179E-1,3.3270165E-2,1.3656089E-1,2.561391E-1,2.2977144E-3,0E0,7.0182085E-3,1.0004223E-1,5.403143E-2,0E0,3.848347E-2,2.4440289E-3,1.431461E-1,0E0,0E0,0E0,0E0,0E0,0E0,0E0,0E0,0E0,0E0,0E0,0E0,0E0,0E0],"parents":[2147483647,0,0,1,1,2,2,5,5,6,6,7,7,8,8,10,10,11,11,12,12,13,13,14,14,16,16,17,17,18,18,20,20,21,21,22,22],"right_children":[2,4,6,-1,-1,8,10,12,14,-1,16,18,20,22,24,-1,26,28,30,-1,32,34,36,-1,-1,-1,-1,-1,-1,-1,-1,-1,-1,-1,-1,-1,-1],"split_conditions":[1.6999999E-1,1.4999998E-1,1.8E-1,-1.1334152E-2,-5.338195E-3,-6.0000002E-2,1.8999997E-1,-6.999999E-2,1.10000014E-1,3.6607736E-3,1.9999999E-1,-7.000002E-2,-5.832189E-3,0E0,9.000003E-2,6.6606775E-3,-7.999998E-2,-7.999998E-2,1E-5,6.606291E-4,0E0,-5.9999973E-2,-5.0000012E-2,6.349283E-4,3.655532E-3,9.577363E-3,1.26194535E-2,6.114342E-4,-5.628875E-3,6.6128094E-4,2.2824723E-3,7.369699E-4,5.8119777E-3,-4.6713003E-3,-1.1308387E-2,-3.355798E-3,7.7011758E-3],"split_indices":[23,23,23,0,0,35,23,1,7,0,23,1,16,11,13,0,1,1,16,0,11,1,35,0,0,0,0,0,0,0,0,0,0,0,0,0,0],"split_type":[0,0,0,0,0,0,0,0,0,0,0,0,0,0,0,0,0,0,0,0,0,0,0,0,0,0,0,0,0,0,0,0,0,0,0,0,0],"sum_hessian":[4.9492E4,1.5322E4,3.417E4,2.534E3,1.2788E4,1.8223E4,1.5947E4,1.3847E4,4.376E3,6.03E3,9.917E3,1.1404E4,2.443E3,3.727E3,6.49E2,9.502E3,4.15E2,1.844E3,9.56E3,8.85E2,1.558E3,3.81E2,3.346E3,2.4E1,6.25E2,1.14E2,3.01E2,1.574E3,2.7E2,7.052E3,2.508E3,1.49E2,1.409E3,7E0,3.74E2,3.238E3,1.08E2],"tree_param":{"num_deleted":"0","num_feature":"36","num_nodes":"37","size_leaf_vector":"1"}},{"base_weights":[2.766721E-7,-1.4772255E-2,6.624593E-3,-7.935247E-3,-3.7368622E-3,8.596791E-4,1.3211824E-2,3.1319489E-3,-6.4877905E-3,2.5627255E-3,1.6049894E-2,2.0105785E-3,8.213864E-3,-9.041605E-3,2.5606223E-3,4.662682E-3,2.7607284E-2,2.7110684E-3,-1.7614188E-4,1.6210858E-3,1.2032767E-2,-7.924918E-3,-7.068045E-3,6.7291385E-3,8.8461535E-3,4.6423372E-4,1.6545014E-3,-3.2148282E-3,5.754709E-4,4.6551906E-4,1.2471813E-3,3.1874148E-4,3.9668875E-3,-4.5357013E-4,-4.0292554E-3],"categories":[],"categories_nodes":[],"categories_segments":[],"categories_sizes":[],"default_left":[0,0,1,0,0,1,0,0,1,0,0,1,0,0,0,0,0,0,0,0,0,0,0,0,0,0,0,0,0,0,0,0,0,0,0],"id":1,"left_children":[1,3,5,-1,-1,7,9,11,13,-1,15,17,19,21,-1,-1,23,25,27,29,31,-1,33,-1,-1,-1,-1,-1,-1,-1,-1,-1,-1,-1,-1],"loss_changes":[4.84338E0,4.1412878E-1,1.2976261E0,0E0,0E0,3.0427793E-1,2.1120763E-1,7.930949E-2,1.6524474E-1,0E0,5.7757616E-2,1.7470386E-2,6.3326284E-2,1.2600109E-1,0E0,0E0,3.3870637E-3,2.817487E-2,6.1123174E-2,1.5607965E-4,2.0785347E-2,0E0,1.1685562E-1,0E0,0E0,0E0,0E0,0E0,0E0,0E0,0E0,0E0,0E0,0E0,0E0],"parents":[2147483647,0,0,1,1,2,2,5,5,6,6,7,7,8,8,10,10,11,11,12,12,13,13,16,16,17,17,18,18,19,19,20,20,22,22],"right_children":[2,4,6,-1,-1,8,10,12,14,-1,16,18,20,22,-1,-1,24,26,28,30,32,-1,34,-1,-1,-1,-1,-1,-1,-1,-1,-1,-1,-1,-1],"split_conditions":[1.6999999E-1,1.4999998E-1,1.8E-1,-7.935247E-3,-3.7368622E-3,-5.9999973E-2,1.8999997E-1,-6.999999E-2,1.10000014E-1,2.5627255E-3,1.9999999E-1,3.999999E-2,-5.832189E-3,0E0,2.5606223E-3,4.662682E-3,-7.999998E-2,1E-5,7.999998E-2,1.999998E-2,0E0,-7.924918E-3,-6.0000002E-2,6.7291385E-3,8.8461535E-3,4.6423372E-4,1.6545014E-3,-3.2148282E-3,5.754709E-4,4.6551906E-4,1.2471813E-3,3.1874148E-4,3.9668875E-3,-4.5357013E-4,-4.0292554E-3],"split_indices":[23,23,23,0,0,35,23,1,7,0,23,13,16,11,0,0,1,16,13,11,11,0,31,0,0,0,0,0,0,0,0,0,0,0,0],"split_type":[0,0,0,0,0,0,0,0,0,0,0,0,0,0,0,0,0,0,0,0,0,0,0,0,0,0,0,0,0,0,0,0,0,0,0],"sum_hessian":[4.9492E4,1.5322E4,3.417E4,2.534E3,1.2788E4,1.8223E4,1.5947E4,1.3919E4,4.304E3,6.03E3,9.917E3,1.1404E4,2.515E3,3.679E3,6.25E2,9.502E3,4.15E2,8.637E3,2.767E3,9.23E2,1.592E3,3.74E2,3.305E3,1.14E2,3.01E2,6.105E3,2.532E3,4.58E2,2.309E3,9E2,2.3E1,1.56E2,1.436E3,1.765E3,1.54E3],"tree_param":{"num_deleted":"0","num_feature":"36","num_nodes":"35","size_leaf_vector":"1"}},{"base_weights":[3.325398E-7,-1.0341336E-2,4.637756E-3,-5.555614E-3,-2.6158893E-3,6.01538E-4,9.249707E-3,2.2204625E-3,-4.5205704E-3,1.7940333E-3,1.123697E-2,1.4073603E-3,6.01392E-3,-1.1785868E-2,-1.317953E-3,3.2640258E-3,1.9362543E-2,-9.875653E-4,1.8693653E-3,1.0710519E-3,8.819159E-3,1.849088E-2,-1.3571615E-2,4.400925E-3,-6.629577E-3,4.727951E-3,6.2010963E-3,2.5012105E-4,-3.470694E-3,1.1918679E-3,3.330747E-4,3.2316532E-4,7.791035E-5,3.1883065E-3,8.9361094E-4,8.023732E-3,4.89859E-3,-5.516271E-3,-3.7066254E-3,-5.519353E-3,1.8909564E-3,-2.618161E-3,2.3289816E-3],"categories":[],"categories_nodes":[],"categories_segments":[],"categories_sizes":[],"default_left":[0,0,1,0,0,1,0,0,0,0,0,0,0,0,1,0,0,0,1,0,1,0,0,0,0,0,0,0,0,0,0,0,0,0,0,0,0,0,0,0,0,0,0],"id":2,"left_children":[1,3,5,-1,-1,7,9,11,13,-1,15,17,19,21,23,-1,25,27,29,31,33,35,37,39,41,-1,-1,-1,-1,-1,-1,-1,-1,-1,-1,-1,-1,-1,-1,-1,-1,-1,-1],"loss_changes":[2.3736675E0,2.0304143E-1,6.36082E-1,0E0,0E0,1.5112904E-1,1.035558E-1,4.2705253E-2,1.0182837E-1,0E0,2.8550386E-2,1.2621107E-2,3.3878885E-2,7.2646156E-2,9.234344E-2,0E0,1.634255E-3,3.5566397E-2,1.5262809E-2,4.1525345E-6,1.6435482E-2,9.019617E-4,7.1821213E-3,6.360856E-2,4.7648467E-2,0E0,0E0,0E0,0E0,0E0,0E0,0E0,0E0,0E0,0E0,0E0,0E0,0E0,0E0,0E0,0E0,0E0,0E0],"parents":[2147483647,0,0,1,1,2,2,5,5,6,6,7,7,8,8,10,10,11,11,12,12,13,13,14,14,16,16,17,17,18,18,19,19,20,20,21,21,22,22,23,23,24,24],"right_children":[2,4,6,-1,-1,8,10,12,14,-1,16,18,20,22,24,-1,26,28,30,32,34,36,38,40,42,-1,-1,-1,-1,-1,-1,-1,-1,-1,-1,-1,-1,-1,-1,-1,-1,-1,-1],"split_conditions":[1.6999999E-1,1.4999998E-1,1.8E-1,-5.555614E-3,-2.6158893E-3,-6.0000002E-2,1.8999997E-1,-6.999999E-2,7.999998E-2,1.7940333E-3,1.9999999E-1,-7.000002E-2,-5.832189E-3,-1.999998E-2,0E0,3.2640258E-3,-7.999998E-2,-7.999998E-2,1.6999999E-1,1.999998E-2,6.0000002E-2,3.2641407E-2,0E0,0E0,1.999998E-2,4.727951E-3,6.2010963E-3,2.5012105E-4,-3.470694E-3,1.1918679E-3,3.330747E-4,3.2316532E-4,7.791035E-5,3.1883065E-3,8.9361094E-4,8.023732E-3,4.89859E-3,-5.516271E-3,-3.7066254E-3,-5.519353E-3,1.8909564E-3,-2.618161E-3,2.3289816E-3],"split_indices":[23,23,23,0,0,35,23,1,13,0,23,1,16,7,28,0,1,1,17,11,13,10,11,11,5,0,0,0,0,0,0,0,0,0,0,0,0,0,0,0,0,0,0],"split_type":[0,0,0,0,0,0,0,0,0,0,0,0,0,0,0,0,0,0,0,0,0,0,0,0,0,0,0,0,0,0,0,0,0,0,0,0,0,0,0,0,0,0,0],"sum_hessian":[4.9492E4,1.5322E4,3.417E4,2.534E3,1.2788E4,1.8223E4,1.5947E4,1.3847E4,4.376E3,6.03E3,9.917E3,1.1404E4,2.443E3,1.338E3,3.038E3,9.502E3,4.15E2,1.844E3,9.56E3,8.85E2,1.558E3,7.4E1,1.264E3,1.463E3,1.575E3,1.14E2,3.01E2,1.574E3,2.7E2,2.534E3,7.026E3,8.78E2,7E0,1.189E3,3.69E2,1.3E1,6.1E1,2.52E2,1.012E3,1.12E2,1.351E3,1.375E3,2E2],"tree_param":{"num_deleted":"0","num_feature":"36","num_nodes":"43","size_leaf_vector":"1"}},{"base_weights":[4.411527E-7,-7.2394726E-3,3.2469719E-3,-3.889587E-3,-1.8311854E-3,4.2121907E-4,6.475795E-3,1.1969216E-3,-5.805357E-3,1.2559105E-3,7.867311E-3,2.732206E-3,1.331303E-4,-7.3285084E-3,4.4821114E-3,2.2849215E-3,1.3580048E-2,5.25751E-3,8.294974E-4,-6.524916E-3,8.974452E-4,-8.2907835E-3,4.793318E-3,4.1753408E-3,6.8857647E-3,3.321901E-3,4.3469258E-3,-4.2335484E-3,1.7186678E-3,2.3039583E-4,3.115115E-4,3.302844E-4,-3.2450894E-3,1.3144256E-4,2.3474642E-3,-1.0519041E-2,-2.446113E-3,3.425819E-3,-3.6510157E-3,1.9261972E-3,1.2294836E-3,2.4528848E-3,9.758592E-4],"categories":[],"categories_nodes":[],"categories_segments":[],"categories_sizes":[],"default_left":[0,0,1,0,0,1,0,0,1,0,0,1,0,0,0,0,0,0,1,0,0,0,1,0,0,0,0,0,0,0,0,0,0,0,0,0,0,0,0,0,0,0,0],"id":3,"left_children":[1,3,5,-1,-1,7,9,11,13,-1,15,17,19,21,23,-1,25,27,29,31,33,35,37,39,41,-1,-1,-1,-1,-1,-1,-1,-1,-1,-1,-1,-1,-1,-1,-1,-1,-1,-1],"loss_changes":[1.1633368E0,9.95478E-2,3.117685E-1,0E0,0E0,8.8028334E-2,5.077374E-2,2.6467634E-2,3.166932E-2,0E0,1.4112651E-2,3.1866662E-2,4.8726443E-2,2.0557657E-2,1.6370323E-4,0E0,7.8831613E-4,2.6102379E-2,4.781992E-5,3.2284256E-2,2.7325004E-2,5.695969E-3,1.4751054E-2,1.4175195E-5,1.0467658E-4,0E0,0E0,0E0,0E0,0E0,0E0,0E0,0E0,0E0,0E0,0E0,0E0,0E0,0E0,0E0,0E0,0E0,0E0],"parents":[2147483647,0,0,1,1,2,2,5,5,6,6,7,7,8,8,10,10,11,11,12,12,13,13,14,14,16,16,17,17,18,18,19,19,20,20,21,21,22,22,23,23,24,24],"right_children":[2,4,6,-1,-1,8,10,12,14,-1,16,18,20,22,24,-1,26,28,30,32,34,36,38,40,42,-1,-1,-1,-1,-1,-1,-1,-1,-1,-1,-1,-1,-1,-1,-1,-1,-1,-1],"split_conditions":[1.6999999E-1,1.4999998E-1,1.8E-1,-3.889587E-3,-1.8311854E-3,-5.9999973E-2,1.8999997E-1,-7.999998E-2,1.10000014E-1,1.2559105E-3,1.9999999E-1,1.6999999E-1,0E0,1.999998E-2,5.845149E-3,2.2849215E-3,-7.999998E-2,-5.994813E-3,5.9999973E-2,1.999998E-2,-5.0000012E-2,-7.000002E-2,9.000003E-2,1.6999999E-1,1.999998E-2,3.321901E-3,4.3469258E-3,-4.2335484E-3,1.7186678E-3,2.3039583E-4,3.115115E-4,3.302844E-4,-3.2450894E-3,1.3144256E-4,2.3474642E-3,-1.0519041E-2,-2.446113E-3,3.425819E-3,-3.6510157E-3,1.9261972E-3,1.2294836E-3,2.4528848E-3,9.758592E-4],"split_indices":[23,23,23,0,0,29,23,29,7,0,23,17,11,5,0,0,1,30,13,13,1,35,7,15,5,0,0,0,0,0,0,0,0,0,0,0,0,0,0,0,0,0,0],"split_type":[0,0,0,0,0,0,0,0,0,0,0,0,0,0,0,0,0,0,0,0,0,0,0,0,0,0,0,0,0,0,0,0,0,0,0,0,0,0,0,0,0,0,0],"sum_hessian":[4.9492E4,1.5322E4,3.417E4,2.534E3,1.2788E4,1.8223E4,1.5947E4,1.6205E4,2.018E3,6.03E3,9.917E3,6.632E3,9.573E3,1.758E3,2.6E2,9.502E3,4.15E2,2.849E3,3.783E3,9.85E2,8.588E3,1.629E3,1.29E2,2.33E2,2.7E1,1.14E2,3.01E2,6.7E1,2.782E3,2.926E3,8.57E2,3.55E2,6.3E2,8.055E3,5.33E2,7E0,1.622E3,9.3E1,3.6E1,5E0,2.28E2,1.9E1,8E0],"tree_param":{"num_deleted":"0","num_feature":"36","num_nodes":"43","size_leaf_vector":"1"}},{"base_weights":[2.389849E-7,-5.068001E-3,2.272945E-3,-2.72317E-3,-1.2818717E-3,2.9435722E-4,4.533762E-3,8.3769456E-4,-4.067019E-3,8.791986E-4,5.508128E-3,1.5100363E-3,-6.317641E-4,-5.1374524E-3,3.162709E-3,1.5995192E-3,9.524471E-3,1.2454926E-3,1.0791649E-2,-8.365853E-3,1.3309714E-3,-5.8115004E-3,3.3535906E-3,2.9362277E-3,4.9424926E-3,2.3339964E-3,3.047167E-3,3.2151834E-4,1.9218094E-3,-3.3892205E-3,3.4028643E-3,1.1311785E-3,-3.0138975E-3,6.223174E-4,-4.7839325E-4,-3.8333987E-3,-1.608709E-3,2.409006E-3,-2.5853114E-3,1.4446474E-3,8.622503E-4,1.7538138E-3,7.156293E-4],"categories":[],"categories_nodes":[],"categories_segments":[],"categories_sizes":[],"default_left":[0,0,1,0,0,1,0,1,1,0,0,1,0,0,0,0,0,0,0,0,1,0,1,0,0,0,0,0,0,0,0,0,0,0,0,0,0,0,0,0,0,0,0],"id":4,"left_children":[1,3,5,-1,-1,7,9,11,13,-1,15,17,19,21,23,-1,25,27,29,31,33,35,37,39,41,-1,-1,-1,-1,-1,-1,-1,-1,-1,-1,-1,-1,-1,-1,-1,-1,-1,-1],"loss_changes":[5.701026E-1,4.8806667E-2,1.5285325E-1,0E0,0E0,4.3188795E-2,2.4894714E-2,1.6012132E-2,1.5641175E-2,0E0,6.9758594E-3,2.7288068E-2,7.724682E-2,1.0086898E-2,9.069359E-5,0E0,3.801696E-4,9.688478E-3,3.878411E-3,2.1044679E-2,8.831475E-3,5.031612E-3,7.34698E-3,1.3450161E-5,5.0746952E-5,0E0,0E0,0E0,0E0,0E0,0E0,0E0,0E0,0E0,0E0,0E0,0E0,0E0,0E0,0E0,0E0,0E0,0E0],"parents":[2147483647,0,0,1,1,2,2,5,5,6,6,7,7,8,8,10,10,11,11,12,12,13,13,14,14,16,16,17,17,18,18,19,19,20,20,21,21,22,22,23,23,24,24],"right_children":[2,4,6,-1,-1,8,10,12,14,-1,16,18,20,22,24,-1,26,28,30,32,34,36,38,40,42,-1,-1,-1,-1,-1,-1,-1,-1,-1,-1,-1,-1,-1,-1,-1,-1,-1,-1],"split_conditions":[1.6999999E-1,1.4999998E-1,1.8E-1,-2.72317E-3,-1.2818717E-3,-5.9999973E-2,1.8999997E-1,3.999999E-2,1.10000014E-1,8.791986E-4,1.9999999E-1,-5.0000012E-2,7.999998E-2,1.999998E-2,5.845149E-3,1.5995192E-3,-7.999998E-2,2.000001E-2,-5.994813E-3,-6.817313E-3,0E0,7.999998E-2,9.000003E-2,1.6999999E-1,1.999998E-2,2.3339964E-3,3.047167E-3,3.2151834E-4,1.9218094E-3,-3.3892205E-3,3.4028643E-3,1.1311785E-3,-3.0138975E-3,6.223174E-4,-4.7839325E-4,-3.8333987E-3,-1.608709E-3,2.409006E-3,-2.5853114E-3,1.4446474E-3,8.622503E-4,1.7538138E-3,7.156293E-4],"split_indices":[23,23,23,0,0,29,23,13,7,0,23,33,13,5,0,0,1,5,30,16,28,7,7,15,5,0,0,0,0,0,0,0,0,0,0,0,0,0,0,0,0,0,0],"split_type":[0,0,0,0,0,0,0,0,0,0,0,0,0,0,0,0,0,0,0,0,0,0,0,0,0,0,0,0,0,0,0,0,0,0,0,0,0,0,0,0,0,0,0],"sum_hessian":[4.9492E4,1.5322E4,3.417E4,2.534E3,1.2788E4,1.8223E4,1.5947E4,1.6205E4,2.018E3,6.03E3,9.917E3,1.1118E4,5.087E3,1.758E3,2.6E2,9.502E3,4.15E2,1.0811E4,3.07E2,1.029E3,4.058E3,1.629E3,1.29E2,2.33E2,2.7E1,1.14E2,3.01E2,1.046E4,3.51E2,7E0,3E2,1.25E2,9.04E2,3.236E3,8.22E2,9.7E1,1.532E3,9.3E1,3.6E1,5E0,2.28E2,1.9E1,8E0],"tree_param":{"num_deleted":"0","num_feature":"36","num_nodes":"43","size_leaf_vector":"1"}},{"base_weights":[2.379206E-7,-3.5478608E-3,1.5912806E-3,-1.9065408E-3,-8.9734007E-4,2.0603013E-4,3.1741254E-3,5.8641535E-4,-2.8473272E-3,6.154828E-4,3.8563923E-3,1.5816446E-3,-1.03154576E-4,-3.5994065E-3,2.2321923E-3,1.1197135E-3,6.6800634E-3,2.1201068E-4,3.4221062E-3,-3.5962171E-3,2.97854E-4,-4.0713837E-3,2.3461522E-3,2.0652125E-3,3.5479441E-3,1.6398854E-3,2.1360435E-3,8.367125E-5,-1.3188724E-5,-1.1641461E-4,1.4306623E-3,-3.67852E-4,-2.7191646E-3,3.6232336E-4,-3.620749E-4,-2.4752351E-3,-1.0756444E-3,2.980995E-3,-7.5663516E-4,6.966144E-4,5.392492E-4,1.2539788E-3,5.247951E-4],"categories":[],"categories_nodes":[],"categories_segments":[],"categories_sizes":[],"default_left":[0,0,1,0,0,1,0,0,1,0,0,0,0,0,0,0,0,1,0,0,1,0,0,0,0,0,0,0,0,0,0,0,0,0,0,0,0,0,0,0,0,0,0],"id":5,"left_children":[1,3,5,-1,-1,7,9,11,13,-1,15,17,19,21,23,-1,25,27,29,31,33,35,37,39,41,-1,-1,-1,-1,-1,-1,-1,-1,-1,-1,-1,-1,-1,-1,-1,-1,-1,-1],"loss_changes":[2.7940238E-1,2.3929104E-2,7.4923925E-2,0E0,0E0,2.116797E-2,1.2205958E-2,1.1122018E-2,7.72102E-3,0E0,3.448099E-3,1.6719464E-2,1.3411834E-2,4.945606E-3,5.00154E-5,0E0,1.8328987E-4,6.514788E-5,1.4523704E-2,1.2766071E-2,1.1761311E-2,3.2805894E-3,4.8288973E-3,1.191569E-5,2.4515728E-5,0E0,0E0,0E0,0E0,0E0,0E0,0E0,0E0,0E0,0E0,0E0,0E0,0E0,0E0,0E0,0E0,0E0,0E0],"parents":[2147483647,0,0,1,1,2,2,5,5,6,6,7,7,8,8,10,10,11,11,12,12,13,13,14,14,16,16,17,17,18,18,19,19,20,20,21,21,22,22,23,23,24,24],"right_children":[2,4,6,-1,-1,8,10,12,14,-1,16,18,20,22,24,-1,26,28,30,32,34,36,38,40,42,-1,-1,-1,-1,-1,-1,-1,-1,-1,-1,-1,-1,-1,-1,-1,-1,-1,-1],"split_conditions":[1.6999999E-1,1.4999998E-1,1.8E-1,-1.9065408E-3,-8.9734007E-4,-5.9999973E-2,1.8999997E-1,-7.999998E-2,1.10000014E-1,6.154828E-4,1.9999999E-1,1E-5,0E0,1.999998E-2,5.845149E-3,1.1197135E-3,-7.999998E-2,8.000001E-2,-1.999998E-2,-6.0000002E-2,0E0,-7.000002E-2,-6.0000002E-2,1.999998E-2,1.999998E-2,1.6398854E-3,2.1360435E-3,8.367125E-5,-1.3188724E-5,-1.1641461E-4,1.4306623E-3,-3.67852E-4,-2.7191646E-3,3.6232336E-4,-3.620749E-4,-2.4752351E-3,-1.0756444E-3,2.980995E-3,-7.5663516E-4,6.966144E-4,5.392492E-4,1.2539788E-3,5.247951E-4],"split_indices":[23,23,23,0,0,29,23,29,7,0,23,16,11,5,0,0,1,13,11,1,28,31,31,5,5,0,0,0,0,0,0,0,0,0,0,0,0,0,0,0,0,0,0],"split_type":[0,0,0,0,0,0,0,0,0,0,0,0,0,0,0,0,0,0,0,0,0,0,0,0,0,0,0,0,0,0,0,0,0,0,0,0,0,0,0,0,0,0,0],"sum_hessian":[4.9492E4,1.5322E4,3.417E4,2.534E3,1.2788E4,1.8223E4,1.5947E4,1.6205E4,2.018E3,6.03E3,9.917E3,6.632E3,9.573E3,1.758E3,2.6E2,9.502E3,4.15E2,3.803E3,2.829E3,9.85E2,8.588E3,1.629E3,1.29E2,2.33E2,2.7E1,1.14E2,3.01E2,3.015E3,7.88E2,7.39E2,2.09E3,6.88E2,2.97E2,5.352E3,3.236E3,1.68E2,1.461E3,5E1,7.9E1,1.15E2,1.18E2,1.9E1,8E0],"tree_param":{"num_deleted":"0","num_feature":"36","num_nodes":"43","size_leaf_vector":"1"}},{"base_weights":[2.1880106E-7,-2.4836909E-3,1.1140564E-3,-1.3348032E-3,-6.281611E-4,1.4421936E-4,2.222233E-3,1.0820515E-3,-5.861249E-4,4.3087013E-4,2.6999642E-3,1.3661219E-4,3.6599769E-3,-4.113565E-3,2.257226E-4,7.838335E-4,4.6851253E-3,1.795995E-4,-2.1038787E-3,3.0945658E-3,9.5862355E-3,-1.6861947E-2,-3.5055792E-3,1.1093527E-3,-1.4221974E-3,1.152197E-3,1.4973542E-3,1.3412449E-5,1.00058496E-4,-6.749616E-4,-4.4609737E-4,1.8256175E-3,5.831549E-4,3.6930898E-3,1.671066E-3,-4.491071E-3,-8.571308E-3,-9.691318E-3,-9.989073E-4,7.7613356E-4,-1.5421168E-4,1.5733243E-4,-8.956156E-4],"categories":[],"categories_nodes":[],"categories_segments":[],"categories_sizes":[],"default_left":[0,0,1,0,0,0,0,0,0,0,0,0,0,0,1,0,0,1,1,0,0,0,0,0,1,0,0,0,0,0,0,0,0,0,0,0,0,0,0,0,0,0,0],"id":6,"left_children":[1,3,5,-1,-1,7,9,11,13,-1,15,17,19,21,23,-1,25,27,29,31,33,35,37,39,41,-1,-1,-1,-1,-1,-1,-1,-1,-1,-1,-1,-1,-1,-1,-1,-1,-1,-1],"loss_changes":[1.3693367E-1,1.1731967E-2,3.672498E-2,0E0,0E0,1.2482987E-2,5.9845373E-3,1.9446494E-2,2.9342847E-2,0E0,1.7043427E-3,5.6274777E-4,7.1443412E-3,1.4799248E-2,1.2131321E-2,0E0,8.834805E-5,1.1896086E-4,6.5611966E-6,6.7199226E-3,1.9662455E-3,1.499353E-3,9.167133E-3,1.3011007E-2,8.850499E-3,0E0,0E0,0E0,0E0,0E0,0E0,0E0,0E0,0E0,0E0,0E0,0E0,0E0,0E0,0E0,0E0,0E0,0E0],"parents":[2147483647,0,0,1,1,2,2,5,5,6,6,7,7,8,8,10,10,11,11,12,12,13,13,14,14,16,16,17,17,18,18,19,19,20,20,21,21,22,22,23,23,24,24],"right_children":[2,4,6,-1,-1,8,10,12,14,-1,16,18,20,22,24,-1,26,28,30,32,34,36,38,40,42,-1,-1,-1,-1,-1,-1,-1,-1,-1,-1,-1,-1,-1,-1,-1,-1,-1,-1],"split_conditions":[1.6999999E-1,1.4999998E-1,1.8E-1,-1.3348032E-3,-6.281611E-4,1.999998E-2,1.8999997E-1,1E-5,8.000001E-2,4.3087013E-4,1.9999999E-1,-6.0000002E-2,-6.0000002E-2,-1.999998E-2,0E0,7.838335E-4,-7.999998E-2,0E0,0E0,-7.999998E-2,1.0994467E-2,-7.999998E-2,-5.994813E-3,-7.000002E-2,-5.9999973E-2,1.152197E-3,1.4973542E-3,1.3412449E-5,1.00058496E-4,-6.749616E-4,-4.4609737E-4,1.8256175E-3,5.831549E-4,3.6930898E-3,1.671066E-3,-4.491071E-3,-8.571308E-3,-9.691318E-3,-9.989073E-4,7.7613356E-4,-1.5421168E-4,1.5733243E-4,-8.956156E-4],"split_indices":[23,23,23,0,0,13,23,16,13,0,23,1,33,11,28,0,1,28,28,35,30,29,30,29,33,0,0,0,0,0,0,0,0,0,0,0,0,0,0,0,0,0,0],"split_type":[0,0,0,0,0,0,0,0,0,0,0,0,0,0,0,0,0,0,0,0,0,0,0,0,0,0,0,0,0,0,0,0,0,0,0,0,0,0,0,0,0,0,0],"sum_hessian":[4.9492E4,1.5322E4,3.417E4,2.534E3,1.2788E4,1.8223E4,1.5947E4,7.978E3,1.0245E4,6.03E3,9.917E3,5.838E3,2.14E3,1.916E3,8.329E3,9.502E3,4.15E2,5.729E3,1.09E2,1.955E3,1.85E2,8.6E1,1.83E3,5.422E3,2.907E3,1.14E2,3.01E2,3.054E3,2.675E3,8.6E1,2.3E1,5.42E2,1.413E3,1.09E2,7.6E1,7.6E1,1E1,1E1,1.82E3,2.838E3,2.584E3,1.295E3,1.612E3],"tree_param":{"num_deleted":"0","num_feature":"36","num_nodes":"43","size_leaf_vector":"1"}},{"base_weights":[-1.5309601E-7,-1.7387142E-3,7.7945454E-4,-9.345207E-4,-4.3972835E-4,1.00017336E-4,1.5558079E-3,1.2774879E-4,-2.0092484E-2,3.0163146E-4,1.8903234E-3,7.6174447E-3,1.0968434E-4,-7.6344996E-3,-2.3230147E-3,5.48709E-4,3.2859524E-3,4.027605E-6,3.6094324E-3,8.095421E-4,1.0496343E-3,-5.6525958E-5,5.646881E-4,-1.448669E-4,1.7145284E-3],"categories":[],"categories_nodes":[],"categories_segments":[],"categories_sizes":[],"default_left":[0,0,1,0,0,0,0,0,0,0,0,0,0,0,0,0,0,1,1,0,0,0,0,0,0],"id":7,"left_children":[1,3,5,-1,-1,7,9,11,13,-1,15,-1,17,-1,-1,-1,19,21,23,-1,-1,-1,-1,-1,-1],"loss_changes":[6.708395E-2,5.7519823E-3,1.8024482E-2,0E0,0E0,1.0207413E-2,2.9342398E-3,8.30325E-3,1.4564423E-3,0E0,8.424036E-4,0E0,6.725397E-3,0E0,0E0,0E0,4.2572152E-5,6.382426E-3,4.5956466E-3,0E0,0E0,0E0,0E0,0E0,0E0],"parents":[2147483647,0,0,1,1,2,2,5,5,6,6,7,7,8,8,10,10,12,12,16,16,17,17,18,18],"right_children":[2,4,6,-1,-1,8,10,12,14,-1,16,-1,18,-1,-1,-1,20,22,24,-1,-1,-1,-1,-1,-1],"split_conditions":[1.6999999E-1,1.4999998E-1,1.8E-1,-9.345207E-4,-4.3972835E-4,-3.999999E-2,1.8999997E-1,-9E-2,2.696731E-2,3.0163146E-4,1.9999999E-1,7.6174447E-3,-5.0000012E-2,-7.6344996E-3,-2.3230147E-3,5.48709E-4,-7.999998E-2,1.8E-1,-6.999999E-2,8.095421E-4,1.0496343E-3,-5.6525958E-5,5.646881E-4,-1.448669E-4,1.7145284E-3],"split_indices":[23,23,23,0,0,1,23,35,34,0,23,0,1,0,0,0,1,9,33,0,0,0,0,0,0],"split_type":[0,0,0,0,0,0,0,0,0,0,0,0,0,0,0,0,0,0,0,0,0,0,0,0,0],"sum_hessian":[4.9492E4,1.5322E4,3.417E4,2.534E3,1.2788E4,1.8223E4,1.5947E4,1.8199E4,2.4E1,6.03E3,9.917E3,1.2E1,1.8187E4,1.6E1,8E0,9.502E3,4.15E2,1.7655E4,5.32E2,1.14E2,3.01E2,1.6015E4,1.64E3,1.81E2,3.51E2],"tree_param":{"num_deleted":"0","num_feature":"36","num_nodes":"25","size_leaf_vector":"1"}},{"base_weights":[-8.50784E-8,-1.2171846E-3,5.456881E-4,-6.542734E-4,-3.0781867E-4,6.999208E-5,1.0892383E-3,-1.4122431E-6,4.182748E-3,2.1115766E-4,1.3234725E-3,4.4899093E-4,-8.6946844E-4,6.569032E-4,6.1916546E-3,3.8411465E-4,2.304635E-3,3.2620874E-4,4.908139E-3,-3.0557108E-3,1.093876E-5,-6.0751603E-4,2.3465923E-3,1.2587715E-2,1.929318E-3,5.687933E-4,7.357856E-4,7.804773E-5,1.8972234E-3,2.3770735E-3,5.053804E-4,-3.5692893E-3,-7.780593E-4,2.1309721E-5,-5.599826E-3,-5.534245E-4,1.236194E-4,3.5327242E-3,5.084412E-4,5.8749237E-4,4.5145154E-3,3.927581E-4,8.5939036E-4],"categories":[],"categories_nodes":[],"categories_segments":[],"categories_sizes":[],"default_left":[0,0,1,0,0,1,0,1,1,0,0,1,0,0,0,0,0,0,0,0,0,0,0,0,0,0,0,0,0,0,0,0,0,0,0,0,0,0,0,0,0,0,0],"id":8,"left_children":[1,3,5,-1,-1,7,9,11,13,-1,15,17,19,21,23,-1,25,27,29,31,33,35,37,39,41,-1,-1,-1,-1,-1,-1,-1,-1,-1,-1,-1,-1,-1,-1,-1,-1,-1,-1],"loss_changes":[3.2876898E-2,2.8201044E-3,8.835337E-3,0E0,0E0,5.3518214E-3,1.4386792E-3,7.004321E-3,2.1987744E-3,0E0,4.1636825E-4,6.4562093E-3,1.1779708E-2,2.449838E-4,5.373623E-3,0E0,2.050749E-5,4.546239E-3,3.0582924E-3,7.149227E-3,4.8993514E-3,8.4016385E-5,2.8118733E-4,2.0368109E-3,6.585117E-5,0E0,0E0,0E0,0E0,0E0,0E0,0E0,0E0,0E0,0E0,0E0,0E0,0E0,0E0,0E0,0E0,0E0,0E0],"parents":[2147483647,0,0,1,1,2,2,5,5,6,6,7,7,8,8,10,10,11,11,12,12,13,13,14,14,16,16,17,17,18,18,19,19,20,20,21,21,22,22,23,23,24,24],"right_children":[2,4,6,-1,-1,8,10,12,14,-1,16,18,20,22,24,-1,26,28,30,32,34,36,38,40,42,-1,-1,-1,-1,-1,-1,-1,-1,-1,-1,-1,-1,-1,-1,-1,-1,-1,-1],"split_conditions":[1.6999999E-1,1.4999998E-1,1.8E-1,-6.542734E-4,-3.0781867E-4,1.8E-1,1.8999997E-1,3.999999E-2,-4.0639937E-2,2.1115766E-4,1.9999999E-1,-5.0000012E-2,7.999998E-2,-6.0000002E-2,1.00000024E-1,3.8411465E-4,-7.999998E-2,2.000004E-2,-2.6124468E-2,-1.999998E-2,-5.0000012E-2,-2.5106382E-2,1.00000024E-1,-6.0000002E-2,6.005968E-3,5.687933E-4,7.357856E-4,7.804773E-5,1.8972234E-3,2.3770735E-3,5.053804E-4,-3.5692893E-3,-7.780593E-4,2.1309721E-5,-5.599826E-3,-5.534245E-4,1.236194E-4,3.5327242E-3,5.084412E-4,5.8749237E-4,4.5145154E-3,3.927581E-4,8.5939036E-4],"split_indices":[23,23,23,0,0,15,23,13,32,0,23,33,13,1,7,0,1,5,32,11,1,28,7,1,30,0,0,0,0,0,0,0,0,0,0,0,0,0,0,0,0,0,0],"split_type":[0,0,0,0,0,0,0,0,0,0,0,0,0,0,0,0,0,0,0,0,0,0,0,0,0,0,0,0,0,0,0,0,0,0,0,0,0,0,0,0,0,0,0],"sum_hessian":[4.9492E4,1.5322E4,3.417E4,2.534E3,1.2788E4,1.8223E4,1.5947E4,1.7913E4,3.1E2,6.03E3,9.917E3,1.1794E4,6.119E3,1.13E2,1.97E2,9.502E3,4.15E2,1.1479E4,3.15E2,1.756E3,4.363E3,6.5E1,4.8E1,7.8E1,1.19E2,1.14E2,3.01E2,1.1355E4,1.24E2,1.62E2,1.53E2,8.6E1,1.67E3,4.35E3,1.3E1,2.9E1,3.6E1,2E0,4.6E1,1.5E1,6.3E1,7.3E1,4.6E1],"tree_param":{"num_deleted":"0","num_feature":"36","num_nodes":"43","size_leaf_vector":"1"}},{"base_weights":[5.7036765E-8,-8.5209537E-4,3.821802E-4,-4.5806676E-4,-2.1548191E-4,-2.912495E-3,4.3208522E-4,-3.3678487E-4,-9.270632E-3,4.4156925E-4,-1.2346176E-2,-2.615259E-4,-1.9258581E-4,-1.1479739E-2,-8.5762533E-4,7.013604E-4,3.591432E-6,-1.649949E-2,-3.1292322E-3,8.882169E-4,-2.3616703E-4,3.2747412E-4,-1.280838E-2,1.3234469E-4,1.206852E-3,5.678568E-4,-1.3527932E-3,-5.6596547E-3,-3.1273142E-3,-6.357625E-3,2.1750212E-4,-8.653754E-5,8.874914E-5,-1.704207E-3,6.291528E-4,-2.460122E-3,-4.9233497E-3,-5.500073E-5,1.478115E-4,3.9866913E-4,-8.9399476E-4,-2.1263346E-4,2.4405164E-4,-6.628435E-4,3.981916E-4,-2.62099E-3,-1.0736146E-3],"categories":[],"categories_nodes":[],"categories_segments":[],"categories_sizes":[],"default_left":[0,0,0,0,0,0,0,0,0,1,0,0,0,0,0,0,1,1,1,0,0,0,0,0,1,0,0,0,0,0,0,0,0,0,0,0,0,0,0,0,0,0,0,0,0,0,0],"id":9,"left_children":[1,3,5,-1,-1,7,9,11,13,15,17,-1,19,21,-1,23,25,27,29,-1,31,33,35,37,39,41,43,-1,-1,45,-1,-1,-1,-1,-1,-1,-1,-1,-1,-1,-1,-1,-1,-1,-1,-1,-1],"loss_changes":[1.6116591E-2,1.3826098E-3,5.6196805E-3,0E0,0E0,8.349003E-3,4.0849387E-3,2.7911767E-5,2.0493688E-3,3.8274224E-3,9.0539036E-4,0E0,4.0277642E-5,1.7141374E-3,0E0,6.072916E-3,9.586914E-3,4.7694426E-5,1.165963E-4,0E0,8.0137215E-6,1.3950533E-4,1.4923718E-3,1.1301693E-3,5.717255E-3,2.7747133E-3,8.452214E-3,0E0,0E0,1.7893472E-6,0E0,0E0,0E0,0E0,0E0,0E0,0E0,0E0,0E0,0E0,0E0,0E0,0E0,0E0,0E0,0E0,0E0],"parents":[2147483647,0,0,1,1,2,2,5,5,6,6,7,7,8,8,9,9,10,10,12,12,13,13,15,15,16,16,17,17,18,18,20,20,21,21,22,22,23,23,24,24,25,25,26,26,29,29],"right_children":[2,4,6,-1,-1,8,10,12,14,16,18,-1,20,22,-1,24,26,28,30,-1,32,34,36,38,40,42,44,-1,-1,46,-1,-1,-1,-1,-1,-1,-1,-1,-1,-1,-1,-1,-1,-1,-1,-1,-1],"split_conditions":[1.6999999E-1,1.4999998E-1,-5.994813E-3,-4.5806676E-4,-2.1548191E-4,-7.2420766E-3,-3.999999E-2,-7.999998E-2,1.999998E-2,0E0,2.696731E-2,-2.615259E-4,-7.999998E-2,-1.999998E-2,-8.5762533E-4,1.8999997E-1,-5.9999973E-2,9.000003E-2,9.000003E-2,8.882169E-4,1.5758848E-1,-4.273581E-2,-6.085577E-2,1.8E-1,-1.1318265E-2,-1.999998E-2,1.999998E-2,-5.6596547E-3,-3.1273142E-3,-1.2596321E-1,2.1750212E-4,-8.653754E-5,8.874914E-5,-1.704207E-3,6.291528E-4,-2.460122E-3,-4.9233497E-3,-5.500073E-5,1.478115E-4,3.9866913E-4,-8.9399476E-4,-2.1263346E-4,2.4405164E-4,-6.628435E-4,3.981916E-4,-2.62099E-3,-1.0736146E-3],"split_indices":[23,23,30,0,0,16,1,29,11,28,34,0,1,11,0,23,35,7,13,0,12,0,6,23,32,11,5,0,0,6,0,0,0,0,0,0,0,0,0,0,0,0,0,0,0,0,0],"split_type":[0,0,0,0,0,0,0,0,0,0,0,0,0,0,0,0,0,0,0,0,0,0,0,0,0,0,0,0,0,0,0,0,0,0,0,0,0,0,0,0,0,0,0,0,0,0,0],"sum_hessian":[4.9492E4,1.5322E4,3.417E4,2.534E3,1.2788E4,5.09E2,3.3661E4,3.63E2,1.46E2,3.3637E4,2.4E1,7.6E1,2.87E2,1.08E2,3.8E1,2.1113E4,1.2524E4,1.6E1,8E0,3E0,2.84E2,1.1E1,9.7E1,9.933E3,1.118E4,8.845E3,3.679E3,1E1,6E0,4E0,4E0,2.59E2,2.5E1,2E0,9E0,4.4E1,5.3E1,5.295E3,4.638E3,1.0864E4,3.16E2,1.427E3,7.418E3,2.788E3,8.91E2,1E0,3E0],"tree_param":{"num_deleted":"0","num_feature":"36","num_nodes":"47","size_leaf_vector":"1"}},{"base_weights":[-4.0725456E-7,-5.965084E-4,2.668971E-4,-3.2070244E-4,-1.5084124E-4,-2.0317498E-3,3.0254724E-4,-2.3314229E-4,-6.490742E-3,-4.2691897E-3,3.0729047E-4,-1.8408576E-4,-1.3371515E-4,-1.4155013E-2,-5.2710767E-3,8.649601E-4,1.7681607E-4,6.8836886E-4,-1.6629812E-4,-8.8582194E-5,-4.46068E-3,-7.5718854E-3,-2.4222545E-3,2.277969E-3,3.8814748E-4,-1.1708121E-3,2.9679554E-4,-6.0988266E-5,6.212443E-5,-3.6491456E-3,-1.4611692E-3,-3.4109817E-3,-2.4811053E-4,-2.8016357E-4,1.3267162E-3,-1.0390205E-7,1.8282955E-4,-7.150673E-5,-1.8786432E-3,9.186276E-5,-2.739865E-3],"categories":[],"categories_nodes":[],"categories_segments":[],"categories_sizes":[],"default_left":[0,0,0,0,0,0,0,0,0,0,0,0,0,0,1,1,0,0,0,0,0,0,0,0,0,0,0,0,0,0,0,0,0,0,0,0,0,0,0,0,0],"id":10,"left_children":[1,3,5,-1,-1,7,9,11,13,-1,15,-1,17,19,21,23,25,-1,27,-1,-1,29,31,33,35,37,39,-1,-1,-1,-1,-1,-1,-1,-1,-1,-1,-1,-1,-1,-1],"loss_changes":[7.886395E-3,6.77892E-4,2.8008276E-3,0E0,0E0,4.1849143E-3,2.3240114E-3,1.4028439E-5,1.327564E-3,0E0,2.4475476E-3,0E0,2.388038E-5,1.9350415E-4,8.403112E-4,4.296232E-3,4.4084396E-3,0E0,4.103291E-6,0E0,0E0,8.3386386E-4,8.4700785E-4,1.1086186E-2,4.100657E-4,1.058056E-2,2.2250994E-3,0E0,0E0,0E0,0E0,0E0,0E0,0E0,0E0,0E0,0E0,0E0,0E0,0E0,0E0],"parents":[2147483647,0,0,1,1,2,2,5,5,6,6,7,7,8,8,10,10,12,12,13,13,14,14,15,15,16,16,18,18,21,21,22,22,23,23,24,24,25,25,26,26],"right_children":[2,4,6,-1,-1,8,10,12,14,-1,16,-1,18,20,22,24,26,-1,28,-1,-1,30,32,34,36,38,40,-1,-1,-1,-1,-1,-1,-1,-1,-1,-1,-1,-1,-1,-1],"split_conditions":[1.6999999E-1,1.4999998E-1,0E0,-3.2070244E-4,-1.5084124E-4,-7.2420766E-3,-9E-2,-7.999998E-2,1.5000004E-1,-4.2691897E-3,-7.999998E-2,-1.8408576E-4,-7.999998E-2,-3.5360597E-2,-7.000002E-2,1.6999999E-1,0E0,6.8836886E-4,1.5758848E-1,-8.8582194E-5,-4.46068E-3,-7.999998E-2,6.0000002E-2,-1.999998E-2,1.8E-1,9.9996105E-6,-3.999999E-2,-6.0988266E-5,6.212443E-5,-3.6491456E-3,-1.4611692E-3,-3.4109817E-3,-2.4811053E-4,-2.8016357E-4,1.3267162E-3,-1.0390205E-7,1.8282955E-4,-7.150673E-5,-1.8786432E-3,9.186276E-5,-2.739865E-3],"split_indices":[23,23,30,0,0,16,1,29,15,0,35,0,1,0,7,17,11,0,12,0,0,1,13,11,17,6,1,0,0,0,0,0,0,0,0,0,0,0,0,0,0],"split_type":[0,0,0,0,0,0,0,0,0,0,0,0,0,0,0,0,0,0,0,0,0,0,0,0,0,0,0,0,0,0,0,0,0,0,0,0,0,0,0,0,0],"sum_hessian":[4.9492E4,1.5322E4,3.417E4,2.534E3,1.2788E4,5.21E2,3.3649E4,3.72E2,1.49E2,1E1,3.3639E4,7.6E1,2.96E2,1.9E1,1.3E2,6.377E3,2.7262E4,3E0,2.93E2,1E0,1.8E1,7.1E1,5.9E1,1.608E3,4.769E3,2.228E3,2.5034E4,2.67E2,2.6E1,2.5E1,4.6E1,8E0,5.1E1,6.44E2,9.64E2,1.731E3,3.038E3,1.884E3,3.44E2,2.501E4,2.4E1],"tree_param":{"num_deleted":"0","num_feature":"36","num_nodes":"41","size_leaf_vector":"1"}},{"base_weights":[-7.0775656E-7,4.6227052E-4,-2.0230738E-4,2.269813E-4,1.6770656E-3,-4.08584E-4,3.4641294E-4,-7.652745E-5,4.9390626E-4,3.4711945E-3,1.0125272E-3,5.464042E-3,-4.1823258E-4,4.4993064E-3,3.357707E-4,4.2770924E-5,-7.3416746E-4,4.0099342E-4,5.9666875E-4,9.433365E-3,2.1643417E-3,-3.4450335E-4,1.9269E-3,-4.6531603E-4,2.9249457E-3,6.3728066E-3,-4.4295564E-5,2.9069313E-4,5.0321734E-4,7.79289E-5,-4.5472666E-4,-9.5996125E-5,-7.485084E-4,9.437899E-5,4.329706E-4,8.4885827E-4,5.698733E-4,1.1413832E-2,-2.5801858E-4,4.7033367E-4,3.4637586E-3,9.0544554E-4,-2.2758269E-3,6.4996653E-4,3.8573667E-3,-5.205543E-4,2.0548443E-3,1.1087932E-2,1.1165782E-3,2.0039808E-3,2.1881239E-4,1.127708E-4,-1.6754084E-4,-1.8165674E-4,3.0817624E-4,7.436345E-4,3.0923387E-5,9.663983E-5,-1.2944461E-5,-1.9618969E-4,-2.4324823E-4,1.8499065E-4,1.2273148E-4,1.4370467E-4,3.001299E-4,1.6700414E-4,2.494154E-4,3.6520981E-3,-1.5461111E-3,3.1232645E-3,-1.5658913E-3,2.6754092E-3,-1.3193824E-4,3.7614745E-4,1.3007858E-3,9.083432E-4,-6.219518E-4,-1.1427638E-3,1.6590799E-4,-4.2187521E-4,6.2807824E-4,2.5067008E-3,8.204029E-4,-1.6002917E-4,2.5123507E-3,4.39717E-4,1.2231668E-3,2.2962207E-3,4.5320704E-3,1.4542746E-3,1.2236927E-5,-2.4523723E-4,2.0825733E-4,4.0872823E-4,8.767629E-5,1.4087887E-4,3.1681766E-4,8.255108E-7,4.6688718E-5],"categories":[],"categories_nodes":[],"categories_segments":[],"categories_sizes":[],"default_left":[0,0,1,0,0,0,0,1,1,0,0,0,1,0,1,0,0,0,0,0,0,1,1,1,0,0,0,0,0,0,0,0,0,0,0,0,1,0,0,0,0,0,0,0,0,1,0,0,0,0,0,0,0,0,0,1,0,0,0,0,0,0,0,0,0,0,0,0,0,0,0,0,0,0,0,0,0,0,0,0,0,0,0,0,0,0,0,0,0,0,0,0,0,0,0,0,0,0,0],"id":11,"left_children":[1,3,5,7,9,11,13,15,17,19,21,-1,23,25,27,29,31,33,35,37,39,41,43,45,47,49,51,53,55,57,-1,-1,59,-1,61,63,65,67,69,71,73,75,77,79,81,83,85,87,89,-1,-1,-1,-1,91,93,95,97,-1,-1,-1,-1,-1,-1,-1,-1,-1,-1,-1,-1,-1,-1,-1,-1,-1,-1,-1,-1,-1,-1,-1,-1,-1,-1,-1,-1,-1,-1,-1,-1,-1,-1,-1,-1,-1,-1,-1,-1,-1,-1],"loss_changes":[4.6195844E-3,4.291044E-3,3.9028693E-3,1.0191139E-3,2.900849E-3,4.510319E-3,4.148609E-4,4.6189828E-4,6.366533E-5,5.1065087E-3,2.2081037E-3,0E0,3.944123E-3,2.0458087E-4,7.079053E-5,2.7321457E-4,5.1299576E-6,9.5830765E-6,2.0978157E-5,2.2677733E-3,1.1892323E-3,1.7329385E-3,2.6178705E-3,3.4396797E-3,5.124684E-3,2.459326E-5,1.93837E-6,6.122416E-5,2.2616371E-4,1.4415542E-4,0E0,0E0,4.6133064E-6,0E0,1.0990858E-5,1.6506601E-5,9.452808E-6,1.2964094E-3,1.1659764E-3,1.8184041E-3,5.843758E-4,2.7625451E-3,1.2253445E-3,1.905696E-3,2.1133842E-3,2.7730018E-3,6.254795E-4,7.5380784E-4,1.1477408E-3,0E0,0E0,0E0,0E0,1.4813659E-4,1.1950242E-4,1.12517446E-4,2.363934E-6,0E0,0E0,0E0,0E0,0E0,0E0,0E0,0E0,0E0,0E0,0E0,0E0,0E0,0E0,0E0,0E0,0E0,0E0,0E0,0E0,0E0,0E0,0E0,0E0,0E0,0E0,0E0,0E0,0E0,0E0,0E0,0E0,0E0,0E0,0E0,0E0,0E0,0E0,0E0,0E0,0E0,0E0],"parents":[2147483647,0,0,1,1,2,2,3,3,4,4,5,5,6,6,7,7,8,8,9,9,10,10,12,12,13,13,14,14,15,15,16,16,17,17,18,18,19,19,20,20,21,21,22,22,23,23,24,24,25,25,26,26,27,27,28,28,29,29,32,32,34,34,35,35,36,36,37,37,38,38,39,39,40,40,41,41,42,42,43,43,44,44,45,45,46,46,47,47,48,48,53,53,54,54,55,55,56,56],"right_children":[2,4,6,8,10,12,14,16,18,20,22,-1,24,26,28,30,32,34,36,38,40,42,44,46,48,50,52,54,56,58,-1,-1,60,-1,62,64,66,68,70,72,74,76,78,80,82,84,86,88,90,-1,-1,-1,-1,92,94,96,98,-1,-1,-1,-1,-1,-1,-1,-1,-1,-1,-1,-1,-1,-1,-1,-1,-1,-1,-1,-1,-1,-1,-1,-1,-1,-1,-1,-1,-1,-1,-1,-1,-1,-1,-1,-1,-1,-1,-1,-1,-1,-1],"split_conditions":[3.999999E-2,1.9999999E-1,1.7000002E-1,1.7000002E-1,-4.0860903E-2,-9E-2,1.5E-1,1.8999997E-1,-9.762004E-3,0E0,-6.999999E-2,5.464042E-3,1.8E-1,4.27527E-2,0E0,-6.0000002E-2,-1.999998E-2,-7.999998E-2,-1.999998E-2,1.273928E-1,-6.999999E-2,-1.8711915E-2,-1.999998E-2,1.10000014E-1,1.00000024E-1,3.9770473E-2,3.9770473E-2,-7.999998E-2,2.000004E-2,0E0,-4.5472666E-4,-9.5996125E-5,-6.778699E-3,9.437899E-5,0E0,0E0,-5.0000012E-2,-6.999999E-2,-1.4213091E-1,-7.000002E-2,-1.6160967E-2,7.1042776E-2,1.999998E-2,-6.999999E-2,-5.0000012E-2,-5.0000012E-2,0E0,-7.038256E-3,1.8E-1,2.0039808E-3,2.1881239E-4,1.127708E-4,-1.6754084E-4,1.8E-1,-1.999998E-2,-5.9999973E-2,2.6710898E-1,9.663983E-5,-1.2944461E-5,-1.9618969E-4,-2.4324823E-4,1.8499065E-4,1.2273148E-4,1.4370467E-4,3.001299E-4,1.6700414E-4,2.494154E-4,3.6520981E-3,-1.5461111E-3,3.1232645E-3,-1.5658913E-3,2.6754092E-3,-1.3193824E-4,3.7614745E-4,1.3007858E-3,9.083432E-4,-6.219518E-4,-1.1427638E-3,1.6590799E-4,-4.2187521E-4,6.2807824E-4,2.5067008E-3,8.204029E-4,-1.6002917E-4,2.5123507E-3,4.39717E-4,1.2231668E-3,2.2962207E-3,4.5320704E-3,1.4542746E-3,1.2236927E-5,-2.4523723E-4,2.0825733E-4,4.0872823E-4,8.767629E-5,1.4087887E-4,3.1681766E-4,8.255108E-7,4.6688718E-5],"split_indices":[13,23,23,23,32,35,17,9,28,11,13,0,9,34,28,1,11,35,11,10,33,32,7,7,7,28,28,33,5,11,0,0,28,0,11,28,35,35,4,13,16,10,5,33,13,35,28,28,15,0,0,0,0,23,11,35,34,0,0,0,0,0,0,0,0,0,0,0,0,0,0,0,0,0,0,0,0,0,0,0,0,0,0,0,0,0,0,0,0,0,0,0,0,0,0,0,0,0,0],"split_type":[0,0,0,0,0,0,0,0,0,0,0,0,0,0,0,0,0,0,0,0,0,0,0,0,0,0,0,0,0,0,0,0,0,0,0,0,0,0,0,0,0,0,0,0,0,0,0,0,0,0,0,0,0,0,0,0,0,0,0,0,0,0,0,0,0,0,0,0,0,0,0,0,0,0,0,0,0,0,0,0,0,0,0,0,0,0,0,0,0,0,0,0,0,0,0,0,0,0,0],"sum_hessian":[4.9492E4,1.5013E4,3.4479E4,1.2578E4,2.435E3,2.5059E4,9.42E3,5.886E3,6.692E3,6.57E2,1.778E3,1.2E1,2.5047E4,2.3E1,9.397E3,4.983E3,9.03E2,3.517E3,3.175E3,1.17E2,5.4E2,7.16E2,1.062E3,2.47E4,3.47E2,1.6E1,7E0,7.406E3,1.991E3,4.874E3,1.09E2,3.1E1,8.72E2,9.53E2,2.564E3,3.02E2,2.873E3,9.7E1,2E1,2.35E2,3.05E2,4.35E2,2.81E2,6.4E2,4.22E2,2.4171E4,5.29E2,6.2E1,2.85E2,1.5E1,1E0,4E0,3E0,2.64E2,7.142E3,1.319E3,6.72E2,1.615E3,3.259E3,3.51E2,5.21E2,2.92E2,2.272E3,8.9E1,2.13E2,2.738E3,1.35E2,9.3E1,4E0,6E0,1.4E1,2.2E1,2.13E2,8.7E1,2.18E2,2.54E2,1.81E2,1.82E2,9.9E1,2.64E2,3.76E2,8.3E1,3.39E2,2.4137E4,3.4E1,4.11E2,1.18E2,3.5E1,2.7E1,6.3E1,2.22E2,1.53E2,1.11E2,1.05E2,7.037E3,7.04E2,6.15E2,5.49E2,1.23E2],"tree_param":{"num_deleted":"0","num_feature":"36","num_nodes":"99","size_leaf_vector":"1"}},{"base_weights":[1.4905376E-7,3.6069576E-4,-1.3791831E-4,1.7557388E-4,1.4620443E-3,-8.4983575E-4,-7.1985673E-6,-1.40956145E-5,3.4177199E-4,2.595666E-3,2.643142E-4,-2.781588E-4,-4.421334E-3,3.3826818E-4,-2.2778772E-4,8.313278E-6,-1.1185808E-3,2.9747517E-4,4.6621592E-4,7.939081E-3,1.8619304E-3,-8.026318E-3,5.6810834E-4,-1.7652143E-4,-6.210803E-5,-2.149472E-3,-9.361491E-3,2.4675426E-5,1.2398522E-3,-1.0473941E-3,-1.4137059E-5,7.949582E-5,-2.663842E-4,-3.1949996E-4,-4.9857463E-4,2.8911454E-4,4.45752E-4,7.122945E-4,4.283892E-4,1.0220679E-2,-1.4902559E-3,-2.8323295E-4,3.3276519E-3,-1.3976779E-2,-1.2536943E-3,2.9148702E-3,-1.2329308E-4,-8.474924E-5,2.9629115E-3,2.24719E-3,-3.796913E-3,-6.873446E-3,-2.0045565E-2,-2.3417748E-4,2.1054629E-4,-2.8349957E-3,1.8245709E-3,1.5906992E-3,-1.715887E-3,-1.6718058E-4,3.1813985E-4,6.034453E-4,2.0977895E-5,-9.069221E-5,2.4291874E-4,8.236886E-5,1.8670963E-4,1.9304891E-4,2.6217324E-4,1.2322968E-4,2.0835134E-4,3.2157784E-3,1.3386258E-3,-3.7201196E-3,1.6046534E-4,3.0295178E-3,6.978174E-4,-2.4929997E-3,-6.5083727E-3,2.8813183E-3,-1.0025197E-3,1.9548377E-3,-3.6752896E-4,-3.1423284E-4,8.7087933E-4,-4.6138626E-5,8.9625544E-5,1.3398E-3,-1.135692E-5,4.969031E-3,5.786727E-4,-3.8380404E-3,-7.3162664E-4,-8.9983596E-4,-2.6815012E-3,-6.9387304E-3,1.1556745E-3,-5.715011E-5,-1.694384E-4,4.962538E-5,9.9633646E-5,2.1537887E-3,-1.066916E-3,-5.756515E-4,7.1442465E-4,-8.889443E-4,7.475827E-4,-9.617634E-4,-2.1908703E-4,2.0697055E-4,-5.5516743E-5,1.1443122E-4,1.7641927E-5],"categories":[],"categories_nodes":[],"categories_segments":[],"categories_sizes":[],"default_left":[0,0,0,0,0,0,0,0,1,0,0,0,0,0,1,1,0,1,0,0,0,0,0,0,0,0,0,0,0,0,0,0,1,0,0,0,0,0,0,0,0,0,0,0,0,0,0,1,0,0,0,0,0,1,0,0,0,0,0,0,0,0,0,0,0,0,0,0,0,0,0,0,0,0,0,0,0,0,0,0,0,0,0,0,0,0,0,0,0,0,0,0,0,0,0,0,0,0,0,0,0,0,0,0,0,0,0,0,0,0,0,0,0],"id":12,"left_children":[1,3,5,7,9,11,13,15,17,19,21,23,25,27,29,31,33,35,37,39,41,43,45,-1,47,49,51,53,55,57,59,61,63,-1,-1,65,-1,67,69,71,-1,73,75,77,79,81,83,85,87,89,91,93,95,97,99,101,103,105,107,109,111,-1,-1,-1,-1,-1,-1,-1,-1,-1,-1,-1,-1,-1,-1,-1,-1,-1,-1,-1,-1,-1,-1,-1,-1,-1,-1,-1,-1,-1,-1,-1,-1,-1,-1,-1,-1,-1,-1,-1,-1,-1,-1,-1,-1,-1,-1,-1,-1,-1,-1,-1,-1],"loss_changes":[2.4637978E-3,2.7939696E-3,3.3305776E-3,3.6989228E-4,2.6768418E-3,1.1334527E-2,2.3044008E-3,1.3566564E-4,3.433635E-5,3.956841E-3,2.4224597E-3,3.2083073E-4,8.576968E-3,3.3316622E-3,3.23163E-3,1.0508302E-4,1.4032994E-6,4.542264E-5,1.4960591E-5,3.6433893E-3,2.8055792E-3,1.3526853E-3,1.5044675E-3,0E0,1.9359862E-4,3.8184775E-3,6.2685907E-3,4.2075125E-4,7.2507807E-3,6.7324224E-3,7.4453856E-4,7.876687E-5,4.2999847E-5,0E0,0E0,2.2058579E-5,0E0,1.8504434E-6,6.393151E-6,2.5076699E-4,0E0,3.6051478E-3,3.5707229E-3,6.06949E-4,4.1752108E-4,3.1537975E-3,2.0082633E-3,7.4267366E-5,9.4887844E-5,6.241998E-4,4.648577E-3,1.549066E-3,3.4051351E-3,5.2672083E-5,2.786913E-5,2.7851844E-3,5.5493293E-3,3.1757667E-3,4.469334E-3,1.5370076E-4,7.576644E-5,0E0,0E0,0E0,0E0,0E0,0E0,0E0,0E0,0E0,0E0,0E0,0E0,0E0,0E0,0E0,0E0,0E0,0E0,0E0,0E0,0E0,0E0,0E0,0E0,0E0,0E0,0E0,0E0,0E0,0E0,0E0,0E0,0E0,0E0,0E0,0E0,0E0,0E0,0E0,0E0,0E0,0E0,0E0,0E0,0E0,0E0,0E0,0E0,0E0,0E0,0E0,0E0],"parents":[2147483647,0,0,1,1,2,2,3,3,4,4,5,5,6,6,7,7,8,8,9,9,10,10,11,11,12,12,13,13,14,14,15,15,16,16,17,17,18,18,19,19,20,20,21,21,22,22,24,24,25,25,26,26,27,27,28,28,29,29,30,30,31,31,32,32,35,35,37,37,38,38,39,39,41,41,42,42,43,43,44,44,45,45,46,46,47,47,48,48,49,49,50,50,51,51,52,52,53,53,54,54,55,55,56,56,57,57,58,58,59,59,60,60],"right_children":[2,4,6,8,10,12,14,16,18,20,22,24,26,28,30,32,34,36,38,40,42,44,46,-1,48,50,52,54,56,58,60,62,64,-1,-1,66,-1,68,70,72,-1,74,76,78,80,82,84,86,88,90,92,94,96,98,100,102,104,106,108,110,112,-1,-1,-1,-1,-1,-1,-1,-1,-1,-1,-1,-1,-1,-1,-1,-1,-1,-1,-1,-1,-1,-1,-1,-1,-1,-1,-1,-1,-1,-1,-1,-1,-1,-1,-1,-1,-1,-1,-1,-1,-1,-1,-1,-1,-1,-1,-1,-1,-1,-1,-1,-1],"split_conditions":[3.999999E-2,1E-5,9E-2,1.7000002E-1,-3.0442504E-2,1E-5,0E0,-6.0000002E-2,0E0,-1.999998E-2,-7.999998E-2,1.4999998E-1,8.000001E-2,1E-5,1.4999998E-1,9E-2,2.4220653E-1,-9.669336E-3,-1.999998E-2,3.7740022E-2,-6.999999E-2,-7.999998E-2,-7.999998E-2,-1.7652143E-4,1.999998E-2,-7.000002E-2,-7.999998E-2,1.8E-1,-6.4693973E-3,-7.999998E-2,1.7000002E-1,-1.6406448E-1,0E0,-3.1949996E-4,-4.9857463E-4,1.9999999E-1,4.45752E-4,-7.999998E-2,1.9999999E-1,1.1510755E-1,-1.4902559E-3,-7.999998E-2,-6.999999E-2,-5.994813E-3,0E0,1.4542466E-2,1.999998E-2,4.4E-1,4.27527E-2,4.000002E-2,-6.0000002E-2,-1.999998E-2,1.999998E-2,1.8999997E-1,1.8999997E-1,-9E-2,0E0,-1.999998E-2,-7.000002E-2,-7.999998E-2,2.000004E-2,6.034453E-4,2.0977895E-5,-9.069221E-5,2.4291874E-4,8.236886E-5,1.8670963E-4,1.9304891E-4,2.6217324E-4,1.2322968E-4,2.0835134E-4,3.2157784E-3,1.3386258E-3,-3.7201196E-3,1.6046534E-4,3.0295178E-3,6.978174E-4,-2.4929997E-3,-6.5083727E-3,2.8813183E-3,-1.0025197E-3,1.9548377E-3,-3.6752896E-4,-3.1423284E-4,8.7087933E-4,-4.6138626E-5,8.9625544E-5,1.3398E-3,-1.135692E-5,4.969031E-3,5.786727E-4,-3.8380404E-3,-7.3162664E-4,-8.9983596E-4,-2.6815012E-3,-6.9387304E-3,1.1556745E-3,-5.715011E-5,-1.694384E-4,4.962538E-5,9.9633646E-5,2.1537887E-3,-1.066916E-3,-5.756515E-4,7.1442465E-4,-8.889443E-4,7.475827E-4,-9.617634E-4,-2.1908703E-4,2.0697055E-4,-5.5516743E-5,1.1443122E-4,1.7641927E-5],"split_indices":[7,16,7,23,32,16,28,1,28,11,1,23,7,16,23,13,12,32,11,30,33,33,35,0,11,1,29,23,0,29,23,4,28,0,0,23,0,35,23,10,0,1,1,30,5,30,5,27,34,9,35,13,11,9,23,29,11,11,29,35,5,0,0,0,0,0,0,0,0,0,0,0,0,0,0,0,0,0,0,0,0,0,0,0,0,0,0,0,0,0,0,0,0,0,0,0,0,0,0,0,0,0,0,0,0,0,0,0,0,0,0,0,0],"split_type":[0,0,0,0,0,0,0,0,0,0,0,0,0,0,0,0,0,0,0,0,0,0,0,0,0,0,0,0,0,0,0,0,0,0,0,0,0,0,0,0,0,0,0,0,0,0,0,0,0,0,0,0,0,0,0,0,0,0,0,0,0,0,0,0,0,0,0,0,0,0,0,0,0,0,0,0,0,0,0,0,0,0,0,0,0,0,0,0,0,0,0,0,0,0,0,0,0,0,0,0,0,0,0,0,0,0,0,0,0,0,0,0,0],"sum_hessian":[4.9492E4,1.3704E4,3.5788E4,1.1733E4,1.971E3,5.551E3,3.0237E4,5.48E3,6.253E3,1.012E3,9.59E2,4.786E3,7.65E2,1.1783E4,1.8454E4,5.372E3,1.08E2,4.614E3,1.639E3,1.21E2,8.91E2,3.3E1,9.26E2,1.964E3,2.822E3,5.25E2,2.4E2,8.743E3,3.04E3,3.815E3,1.4639E4,4.267E3,1.105E3,1.01E2,7E0,4.583E3,3.1E1,2.16E2,1.423E3,1.03E2,1.8E1,3.62E2,5.29E2,1.7E1,1.6E1,2.1E2,7.16E2,2.802E3,2E1,1.43E2,3.82E2,1.96E2,4.4E1,3.654E3,5.089E3,3.81E2,2.659E3,7.71E2,3.044E3,1.0023E4,4.616E3,2E1,4.247E3,1.07E3,3.5E1,4.393E3,1.9E2,1.55E2,6.1E1,1.337E3,8.6E1,9.4E1,9E0,2.2E1,3.4E2,6.7E1,4.62E2,1.1E1,6E0,2E0,1.4E1,1.12E2,9.8E1,5.49E2,1.67E2,2.375E3,4.27E2,1.3E1,7E0,2E0,1.41E2,4.9E1,3.33E2,6.9E1,1.27E2,3.9E1,5E0,3.229E3,4.25E2,3.713E3,1.376E3,2.5E1,3.56E2,3.44E2,2.315E3,1.27E2,6.44E2,1.211E3,1.833E3,2.04E2,9.819E3,3.71E3,9.06E2],"tree_param":{"num_deleted":"0","num_feature":"36","num_nodes":"113","size_leaf_vector":"1"}},{"base_weights":[-4.371234E-8,2.5246284E-4,-9.673829E-5,1.2302265E-4,1.0225433E-3,-5.9618294E-4,-5.0320364E-6,-9.877594E-6,2.3947663E-4,-4.8207873E-3,1.2369471E-3,-1.9446512E-4,-3.105879E-3,2.3688682E-4,-1.5950328E-4,3.680547E-5,-3.2362647E-4,2.0838289E-4,3.2682918E-4,-5.955082E-3,4.615153E-3,2.354902E-3,-3.7058512E-6,-1.2359263E-4,-4.299426E-5,-1.5027667E-3,-6.5919007E-3,5.292525E-4,-3.6761537E-4,-1.4554741E-5,-7.9059496E-4,-3.7225647E-5,1.8853392E-4,-3.226096E-5,-4.9916224E-4,2.0243422E-4,3.1620494E-4,1.502123E-4,3.0010275E-4,-3.0168518E-4,-7.580068E-3,-1.9993437E-3,3.1733718E-3,1.2704951E-2,-2.0361313E-4,-5.931363E-5,2.1373006E-3,-1.2145125E-3,-5.3779264E-3,-4.8295916E-3,-1.4160412E-2,4.9738E-5,1.7801941E-3,-3.309231E-3,-1.741793E-4,-1.1996523E-4,2.2273046E-4,-4.6582627E-3,-3.713746E-4,-1.4162455E-5,5.8717217E-4,3.5689005E-5,2.721216E-4,4.8554917E-5,-8.190387E-5,-1.7150206E-4,-2.7263077E-5,5.76624E-5,1.3098943E-4,8.4471045E-5,1.3566494E-4,-2.7585449E-3,1.3730163E-3,-4.8587416E-4,-2.4129103E-3,2.2059472E-3,-1.2694035E-3,4.4931774E-4,1.7974757E-3,2.9442406E-3,5.2435366E-3,-4.2256495E-4,6.1325706E-4,-4.373367E-5,3.7827303E-5,9.665717E-4,-8.376315E-6,4.491973E-4,-7.492932E-4,-1.1788433E-3,-4.0687267E-3,-4.909153E-3,8.667559E-4,-5.424942E-5,4.5525136E-5,9.398998E-5,1.1665219E-3,-4.979537E-6,-3.2563852E-3,-1.4458021E-5,-5.2106427E-4,1.3919224E-4,-3.959839E-5,1.1393924E-3,6.587482E-5,-2.0062483E-3,-4.1269758E-4,-1.9710053E-4,1.2849714E-3],"categories":[],"categories_nodes":[],"categories_segments":[],"categories_sizes":[],"default_left":[0,0,0,0,0,0,0,0,1,0,0,0,0,0,0,1,0,1,0,0,0,0,0,0,0,0,0,0,0,0,0,1,1,1,0,0,0,0,1,0,0,0,0,0,0,0,0,0,0,0,0,0,0,0,0,0,0,0,0,0,0,0,0,0,0,0,0,0,0,0,0,0,0,0,0,0,0,0,0,0,0,0,0,0,0,0,0,0,0,0,0,0,0,0,0,0,0,0,0,0,0,0,0,0,0,0,0,0,0],"id":13,"left_children":[1,3,5,7,9,11,13,15,17,19,21,23,25,27,29,31,33,35,37,39,-1,41,43,-1,45,47,49,51,53,55,57,59,61,63,65,67,-1,-1,69,71,73,75,77,79,81,83,85,87,-1,89,91,93,95,97,99,101,103,105,107,-1,-1,-1,-1,-1,-1,-1,-1,-1,-1,-1,-1,-1,-1,-1,-1,-1,-1,-1,-1,-1,-1,-1,-1,-1,-1,-1,-1,-1,-1,-1,-1,-1,-1,-1,-1,-1,-1,-1,-1,-1,-1,-1,-1,-1,-1,-1,-1,-1,-1],"loss_changes":[1.2084461E-3,1.3659797E-3,1.639212E-3,1.816067E-4,2.4765497E-3,5.596866E-3,1.1300169E-3,8.02908E-5,1.6918493E-5,1.6958722E-3,2.6394583E-3,1.5769707E-4,4.270874E-3,2.0828482E-3,1.6881749E-3,5.3609117E-5,3.6296886E-5,2.3001863E-5,7.471055E-6,6.132212E-4,0E0,3.5737283E-3,2.2967062E-3,0E0,1.0057204E-4,2.4684104E-3,3.146083E-3,4.7644777E-3,2.185578E-3,3.754371E-4,5.587253E-3,6.3963125E-5,7.812504E-5,1.2568501E-5,1.3063196E-5,1.0894553E-5,0E0,0E0,3.887035E-6,7.362585E-4,1.3046805E-4,3.350206E-3,3.971949E-3,2.1654647E-5,2.413409E-3,4.495345E-5,4.940659E-5,1.8061947E-3,0E0,1.4952337E-3,1.737819E-3,1.3510823E-4,6.805427E-3,5.887891E-3,7.0985965E-4,7.306617E-5,5.1125593E-5,2.2356128E-3,4.138838E-3,0E0,0E0,0E0,0E0,0E0,0E0,0E0,0E0,0E0,0E0,0E0,0E0,0E0,0E0,0E0,0E0,0E0,0E0,0E0,0E0,0E0,0E0,0E0,0E0,0E0,0E0,0E0,0E0,0E0,0E0,0E0,0E0,0E0,0E0,0E0,0E0,0E0,0E0,0E0,0E0,0E0,0E0,0E0,0E0,0E0,0E0,0E0,0E0,0E0,0E0],"parents":[2147483647,0,0,1,1,2,2,3,3,4,4,5,5,6,6,7,7,8,8,9,9,10,10,11,11,12,12,13,13,14,14,15,15,16,16,17,17,18,18,19,19,21,21,22,22,24,24,25,25,26,26,27,27,28,28,29,29,30,30,31,31,32,32,33,33,34,34,35,35,38,38,39,39,40,40,41,41,42,42,43,43,44,44,45,45,46,46,47,47,49,49,50,50,51,51,52,52,53,53,54,54,55,55,56,56,57,57,58,58],"right_children":[2,4,6,8,10,12,14,16,18,20,22,24,26,28,30,32,34,36,38,40,-1,42,44,-1,46,48,50,52,54,56,58,60,62,64,66,68,-1,-1,70,72,74,76,78,80,82,84,86,88,-1,90,92,94,96,98,100,102,104,106,108,-1,-1,-1,-1,-1,-1,-1,-1,-1,-1,-1,-1,-1,-1,-1,-1,-1,-1,-1,-1,-1,-1,-1,-1,-1,-1,-1,-1,-1,-1,-1,-1,-1,-1,-1,-1,-1,-1,-1,-1,-1,-1,-1,-1,-1,-1,-1,-1,-1,-1],"split_conditions":[3.999999E-2,1E-5,9E-2,1.7000002E-1,-1.8E-1,1E-5,0E0,-6.999999E-2,0E0,-6.0000002E-2,-7.999998E-2,1.4999998E-1,8.000001E-2,-6.999999E-2,1E-5,0E0,0E0,-9.669336E-3,-1.999998E-2,0E0,4.615153E-3,-7.000002E-2,-7.000002E-2,-1.2359263E-4,1.999998E-2,-5.0000012E-2,-7.999998E-2,1E-5,-5.9999973E-2,1.7000002E-1,1.5000004E-1,4.0623382E-1,8.000001E-2,0E0,3.9770473E-2,1.9999999E-1,3.1620494E-4,1.502123E-4,-5.0000012E-2,-1.2712848E-1,6.9847163E-3,-1.6E-1,6.0000002E-2,-6.999999E-2,-6.999999E-2,1.6999999E-1,4.27527E-2,-6.0000002E-2,-5.3779264E-3,1.0658809E-2,1.999998E-2,1.8E-1,-6.0000002E-2,-7.569882E-3,8.810246E-2,-7.999998E-2,1.5E-1,-6.0000002E-2,5.845149E-3,-1.4162455E-5,5.8717217E-4,3.5689005E-5,2.721216E-4,4.8554917E-5,-8.190387E-5,-1.7150206E-4,-2.7263077E-5,5.76624E-5,1.3098943E-4,8.4471045E-5,1.3566494E-4,-2.7585449E-3,1.3730163E-3,-4.8587416E-4,-2.4129103E-3,2.2059472E-3,-1.2694035E-3,4.4931774E-4,1.7974757E-3,2.9442406E-3,5.2435366E-3,-4.2256495E-4,6.1325706E-4,-4.373367E-5,3.7827303E-5,9.665717E-4,-8.376315E-6,4.491973E-4,-7.492932E-4,-1.1788433E-3,-4.0687267E-3,-4.909153E-3,8.667559E-4,-5.424942E-5,4.5525136E-5,9.398998E-5,1.1665219E-3,-4.979537E-6,-3.2563852E-3,-1.4458021E-5,-5.2106427E-4,1.3919224E-4,-3.959839E-5,1.1393924E-3,6.587482E-5,-2.0062483E-3,-4.1269758E-4,-1.9710053E-4,1.2849714E-3],"split_indices":[7,16,7,23,9,16,28,1,28,1,29,23,7,29,16,28,11,32,11,5,0,7,13,0,11,33,29,16,35,23,9,14,13,28,28,23,0,0,35,8,34,9,13,1,33,23,34,1,0,0,11,23,35,16,10,35,17,29,0,0,0,0,0,0,0,0,0,0,0,0,0,0,0,0,0,0,0,0,0,0,0,0,0,0,0,0,0,0,0,0,0,0,0,0,0,0,0,0,0,0,0,0,0,0,0,0,0,0,0],"split_type":[0,0,0,0,0,0,0,0,0,0,0,0,0,0,0,0,0,0,0,0,0,0,0,0,0,0,0,0,0,0,0,0,0,0,0,0,0,0,0,0,0,0,0,0,0,0,0,0,0,0,0,0,0,0,0,0,0,0,0,0,0,0,0,0,0,0,0,0,0,0,0,0,0,0,0,0,0,0,0,0,0,0,0,0,0,0,0,0,0,0,0,0,0,0,0,0,0,0,0,0,0,0,0,0,0,0,0,0,0],"sum_hessian":[4.9492E4,1.3704E4,3.5788E4,1.1733E4,1.971E3,5.551E3,3.0237E4,5.48E3,6.253E3,6.9E1,1.902E3,4.786E3,7.65E2,1.1783E4,1.8454E4,4.771E3,7.09E2,4.614E3,1.639E3,6.6E1,3E0,1E3,9.02E2,1.964E3,2.822E3,5.25E2,2.4E2,7.942E3,3.841E3,1.5008E4,3.446E3,3.207E3,1.564E3,2.67E2,4.42E2,4.583E3,3.1E1,2.16E2,1.423E3,1.5E1,5.1E1,1.58E2,8.42E2,1.3E1,8.89E2,2.802E3,2E1,5.17E2,8E0,1.96E2,4.4E1,5.742E3,2.2E3,2.36E2,3.605E3,1.0392E4,4.616E3,3.36E2,3.11E3,3.192E3,1.5E1,1.427E3,1.37E2,1.48E2,1.19E2,3.75E2,6.7E1,4.393E3,1.9E2,1.271E3,1.52E2,5E0,1E1,4E0,4.7E1,3E1,1.28E2,5.29E2,3.13E2,1E1,3E0,5.79E2,3.1E2,1.911E3,8.91E2,1.3E1,7E0,1.66E2,3.51E2,1.79E2,1.7E1,3.9E1,5E0,1.761E3,3.981E3,1.298E3,9.02E2,1.65E2,7.1E1,3.337E3,2.68E2,2.09E2,1.0183E4,3E0,4.613E3,2.07E2,1.29E2,2.931E3,1.79E2],"tree_param":{"num_deleted":"0","num_feature":"36","num_nodes":"109","size_leaf_vector":"1"}},{"base_weights":[-1.0011263E-7,8.079995E-6,-1.8750184E-3,1.8488624E-4,-6.8997026E-5,-1.1789958E-4,-7.985871E-3,8.413856E-5,7.8483677E-4,2.5864544E-3,-7.994965E-5,-8.3073195E-5,-1.8295348E-5,-4.8628915E-3,-5.8100712E-3,-2.9525825E-5,1.7939584E-4,7.354061E-4,5.500118E-3,6.6685504E-3,1.2270168E-3,-8.743784E-4,-4.672494E-5,-6.95539E-3,-1.0512014E-3,3.376377E-5,-3.7985094E-4,1.3910269E-4,2.194646E-4,2.1054433E-3,2.6426354E-4,1.3261284E-2,4.8472513E-3,2.5531822E-3,5.553067E-5,-1.6385535E-4,-2.8489071E-3,4.966968E-4,-1.3212826E-4,-4.336837E-3,-1.197771E-2,1.2793666E-3,-7.0332666E-4,7.015668E-6,3.2133222E-4,-7.083459E-5,-1.4235702E-4,3.988405E-5,1.2978769E-4,6.1897954E-5,1.00723766E-4,1.3377809E-3,4.1155954E-4,2.930675E-3,5.2227155E-5,4.9330583E-3,1.0611356E-3,-1.10721594E-4,1.5741945E-3,6.048813E-4,1.140694E-3,-7.4898795E-5,9.552282E-5,-4.870029E-3,-6.1873667E-4,2.4588264E-6,5.3036935E-4,-1.4201157E-4,-4.1516606E-7,-6.9262594E-4,-1.8325181E-3,-6.4555705E-3,-1.5632987E-3,8.533336E-5,6.538421E-4],"categories":[],"categories_nodes":[],"categories_segments":[],"categories_sizes":[],"default_left":[1,0,0,0,0,0,0,0,0,1,0,0,0,0,0,1,1,0,0,0,0,0,0,0,0,0,0,1,1,0,0,0,0,0,0,0,0,0,1,0,0,0,0,0,0,0,0,0,0,0,0,0,0,0,0,0,0,0,0,0,0,0,0,0,0,0,0,0,0,0,0,0,0,0,0],"id":14,"left_children":[1,3,5,7,9,11,13,15,17,19,21,-1,-1,23,-1,25,27,29,-1,31,33,35,37,39,41,43,45,47,49,51,53,55,57,59,-1,61,63,65,67,69,71,73,-1,-1,-1,-1,-1,-1,-1,-1,-1,-1,-1,-1,-1,-1,-1,-1,-1,-1,-1,-1,-1,-1,-1,-1,-1,-1,-1,-1,-1,-1,-1,-1,-1],"loss_changes":[7.590909E-4,6.7157205E-4,2.3076197E-3,9.04231E-4,9.983458E-4,1.5035341E-6,1.6118716E-3,1.3871462E-4,1.8524086E-3,7.7427673E-4,9.0210245E-4,0E0,0E0,3.0375068E-4,0E0,1.2954127E-4,1.122251E-5,1.3846498E-3,0E0,3.5597617E-4,1.4737474E-4,1.924378E-3,1.5226856E-3,2.7683482E-4,4.820845E-5,5.3254735E-5,1.2053337E-5,6.226852E-6,5.2670366E-6,9.418493E-4,1.3678863E-3,1.5844987E-4,6.24556E-5,2.38551E-5,0E0,4.1875137E-5,3.7875592E-3,2.7670842E-3,1.264988E-3,5.0568808E-5,4.0434895E-4,4.7532785E-6,0E0,0E0,0E0,0E0,0E0,0E0,0E0,0E0,0E0,0E0,0E0,0E0,0E0,0E0,0E0,0E0,0E0,0E0,0E0,0E0,0E0,0E0,0E0,0E0,0E0,0E0,0E0,0E0,0E0,0E0,0E0,0E0,0E0],"parents":[2147483647,0,0,1,1,2,2,3,3,4,4,5,5,6,6,7,7,8,8,9,9,10,10,13,13,15,15,16,16,17,17,19,19,20,20,21,21,22,22,23,23,24,24,25,25,26,26,27,27,28,28,29,29,30,30,31,31,32,32,33,33,35,35,36,36,37,37,38,38,39,39,40,40,41,41],"right_children":[2,4,6,8,10,12,14,16,18,20,22,-1,-1,24,-1,26,28,30,-1,32,34,36,38,40,42,44,46,48,50,52,54,56,58,60,-1,62,64,66,68,70,72,74,-1,-1,-1,-1,-1,-1,-1,-1,-1,-1,-1,-1,-1,-1,-1,-1,-1,-1,-1,-1,-1,-1,-1,-1,-1,-1,-1,-1,-1,-1,-1,-1,-1],"split_conditions":[-5.995391E-3,3.999999E-2,1E-5,1E-5,6.0000002E-2,-2.2844022E-2,2.2032328E-2,1.7000002E-1,1.999998E-2,1.8999997E-1,-7.999998E-2,-8.3073195E-5,-1.8295348E-5,-7.000002E-2,-5.8100712E-3,1.8999997E-1,-1.1326597E-2,-7.999998E-2,5.500118E-3,-9.1000766E-2,1.7000002E-1,1E-5,-7.999998E-2,9.9996105E-6,-7.000002E-2,1.999998E-2,0E0,-6.999999E-2,4.9999997E-1,-6.999999E-2,-1.6999999E-1,1.7000002E-1,-7.975632E-2,-2.7420582E-2,5.553067E-5,1.8E-1,0E0,1E-5,1.4999998E-1,-1.6329229E-2,0E0,9.9996105E-6,-7.0332666E-4,7.015668E-6,3.2133222E-4,-7.083459E-5,-1.4235702E-4,3.988405E-5,1.2978769E-4,6.1897954E-5,1.00723766E-4,1.3377809E-3,4.1155954E-4,2.930675E-3,5.2227155E-5,4.9330583E-3,1.0611356E-3,-1.10721594E-4,1.5741945E-3,6.048813E-4,1.140694E-3,-7.4898795E-5,9.552282E-5,-4.870029E-3,-6.1873667E-4,2.4588264E-6,5.3036935E-4,-1.4201157E-4,-4.1516606E-7,-6.9262594E-4,-1.8325181E-3,-6.4555705E-3,-1.5632987E-3,8.533336E-5,6.538421E-4],"split_indices":[32,13,16,16,15,4,34,23,11,17,33,0,0,29,0,9,28,35,0,8,23,16,29,6,31,13,28,29,27,7,15,9,8,8,0,23,5,16,23,4,28,6,0,0,0,0,0,0,0,0,0,0,0,0,0,0,0,0,0,0,0,0,0,0,0,0,0,0,0,0,0,0,0,0,0],"split_type":[0,0,0,0,0,0,0,0,0,0,0,0,0,0,0,0,0,0,0,0,0,0,0,0,0,0,0,0,0,0,0,0,0,0,0,0,0,0,0,0,0,0,0,0,0,0,0,0,0,0,0,0,0,0,0,0,0,0,0,0,0,0,0,0,0,0,0,0,0,0,0,0,0,0,0],"sum_hessian":[4.9492E4,4.9278E4,2.14E2,1.496E4,3.4318E4,1.67E2,4.7E1,1.281E4,2.15E3,1.4E2,3.4178E4,4.3E1,1.24E2,3.8E1,9E0,5.841E3,6.969E3,2.145E3,5E0,3.4E1,1.06E2,1.371E3,3.2807E4,2.4E1,1.4E1,4.948E3,8.93E2,3.477E3,3.492E3,5.48E2,1.597E3,6E0,2.8E1,4.6E1,6E1,1.009E3,3.62E2,4.455E3,2.8352E4,1.7E1,7E0,5E0,9E0,4.9E3,4.8E1,3.56E2,5.37E2,3.407E3,7E1,3.14E3,3.52E2,1.29E2,4.19E2,1.4E1,1.583E3,4E0,2E0,2E0,2.6E1,3.4E1,1.2E1,8.57E2,1.52E2,1.9E1,3.43E2,3.219E3,1.236E3,7.853E3,2.0499E4,9E0,8E0,2E0,5E0,3E0,2E0],"tree_param":{"num_deleted":"0","num_feature":"36","num_nodes":"75","size_leaf_vector":"1"}},{"base_weights":[-1.0192993E-7,4.457371E-6,-2.7143129E-3,3.220446E-3,7.431412E-7,-5.0944707E-4,-1.01144165E-2,8.534193E-5,3.940711E-3,3.1132885E-4,-3.2214975E-5,-3.788064E-4,-1.7309462E-3,-1.9280378E-3,-4.3144654E-3,8.113738E-5,1.6957677E-3,-1.3028442E-4,7.654452E-5,-1.5175415E-4,-2.982974E-5,-9.5337484E-4,-6.3894695E-5,-1.24347E-5,1.3962958E-4,1.5300342E-3,4.596764E-3,-1.8093934E-4,2.3111955E-3,1.7996657E-3,7.3113755E-5,-1.1909256E-5,2.0134814E-4,3.2548807E-4,4.0847415E-5,8.65127E-4,6.468263E-5,-5.5796034E-5,3.4306997E-3,1.8427683E-3,4.605794E-4,6.289972E-4,-8.280337E-4,-3.4955356E-6,3.6480767E-5],"categories":[],"categories_nodes":[],"categories_segments":[],"categories_sizes":[],"default_left":[1,0,0,0,0,0,0,0,0,0,1,0,0,0,0,0,0,1,0,0,0,0,0,0,0,0,0,0,0,0,0,0,0,0,0,0,0,0,0,0,0,0,0,0,0],"id":15,"left_children":[1,3,5,7,9,11,13,-1,-1,15,17,19,21,-1,-1,23,25,27,29,-1,-1,-1,-1,31,33,35,-1,37,39,41,43,-1,-1,-1,-1,-1,-1,-1,-1,-1,-1,-1,-1,-1,-1],"loss_changes":[6.1248324E-4,5.9020804E-4,1.349095E-3,1.6555861E-3,5.0522364E-4,9.716843E-6,2.0654872E-4,0E0,0E0,1.5088408E-3,4.7593683E-4,2.079215E-6,1.2501849E-5,0E0,0E0,2.2228556E-5,1.5009858E-3,2.9022812E-3,1.2494688E-4,0E0,0E0,0E0,0E0,2.9155852E-5,8.053372E-6,1.1879955E-3,0E0,1.3500075E-3,1.4086305E-3,6.266408E-5,8.679606E-5,0E0,0E0,0E0,0E0,0E0,0E0,0E0,0E0,0E0,0E0,0E0,0E0,0E0,0E0],"parents":[2147483647,0,0,1,1,2,2,3,3,4,4,5,5,6,6,9,9,10,10,11,11,12,12,15,15,16,16,17,17,18,18,23,23,24,24,25,25,27,27,28,28,29,29,30,30],"right_children":[2,4,6,8,10,12,14,-1,-1,16,18,20,22,-1,-1,24,26,28,30,-1,-1,-1,-1,32,34,36,-1,38,40,42,44,-1,-1,-1,-1,-1,-1,-1,-1,-1,-1,-1,-1,-1,-1],"split_conditions":[-3.999999E-2,-9E-2,-1.7384103E-2,-1.2644272E-2,-1.6367994E-1,1.493934E-1,-3.262582E-2,8.534193E-5,3.940711E-3,1E-5,1.6999999E-1,1.999998E-2,-7.999998E-2,-1.9280378E-3,-4.3144654E-3,1.7000002E-1,-2.3644352E-2,1.8E-1,1.5000004E-1,-1.5175415E-4,-2.982974E-5,-9.5337484E-4,-6.3894695E-5,-1.6517498E-1,1.5E-1,3.7748158E-2,4.596764E-3,2.000001E-2,1.09999985E-1,1.717114E-1,1.8E-1,-1.1909256E-5,2.0134814E-4,3.2548807E-4,4.0847415E-5,8.65127E-4,6.468263E-5,-5.5796034E-5,3.4306997E-3,1.8427683E-3,4.605794E-4,6.289972E-4,-8.280337E-4,-3.4955356E-6,3.6480767E-5],"split_indices":[33,35,16,16,6,12,6,0,0,16,23,5,1,0,0,23,32,9,17,0,0,0,0,6,17,34,0,11,7,12,23,0,0,0,0,0,0,0,0,0,0,0,0,0,0],"split_type":[0,0,0,0,0,0,0,0,0,0,0,0,0,0,0,0,0,0,0,0,0,0,0,0,0,0,0,0,0,0,0,0,0,0,0,0,0,0,0,0,0,0,0,0,0],"sum_hessian":[4.9492E4,4.941E4,8.2E1,5.6E1,4.9354E4,6.4E1,1.8E1,4.4E1,1.2E1,4.734E3,4.462E4,5.9E1,5E0,1.1E1,7E0,4.06E3,6.74E2,2.3463E4,2.1157E4,4E1,1.9E1,2E0,3E0,1.562E3,2.498E3,6.67E2,7E0,2.2987E4,4.76E2,4.1E1,2.1116E4,1.503E3,5.9E1,8E0,2.49E3,3.28E2,3.39E2,2.2978E4,9E0,7.9E1,3.97E2,3.9E1,2E0,7.684E3,1.3432E4],"tree_param":{"num_deleted":"0","num_feature":"36","num_nodes":"45","size_leaf_vector":"1"}},{"base_weights":[9.281244E-8,6.0398756E-6,-1.3630022E-3,1.414671E-4,-4.422221E-5,-5.6397526E-5,-5.9077227E-3,1.8302839E-5,6.7994994E-4,-5.5258797E-4,-1.1652264E-5,-2.2527713E-5,-1.067748E-4,-3.65883E-3,-4.2262897E-3,-4.3630294E-5,8.2580606E-5,-8.236775E-4,1.1797188E-3,-3.028637E-6,-2.555053E-3,1.7170407E-4,-6.420596E-5,-5.9013382E-5,5.517131E-6,-9.962773E-3,-2.6537287E-3,-2.894703E-5,-2.9595196E-4,-2.9770957E-4,8.843443E-5,-1.0965996E-3,8.921534E-3,2.1914374E-3,-2.9609227E-4,-7.100254E-5,7.69599E-5,-1.1964464E-3,-6.333961E-3,5.1367027E-5,9.228636E-4,-3.573318E-4,8.138946E-6,-1.1331082E-3,-5.205864E-3,-3.5214638E-3,2.44336E-4,-1.48386125E-5,4.2225976E-5,-1.02750004E-4,4.4074116E-4,-2.0070552E-4,7.879477E-5,2.4417692E-4,2.3156708E-5,5.928137E-4,-5.4002396E-4,-1.4591552E-3,3.666889E-3,7.593078E-4,-1.3413375E-3,1.8797689E-6,-1.1851692E-3,-1.5954578E-5,-1.6899174E-4,4.6035066E-6,9.102125E-5,1.2873748E-4,-9.4061095E-4,-5.3292853E-3,-1.1419499E-3,1.1880614E-6,3.228251E-5,5.6551315E-4,-4.0690458E-4,8.531671E-5,-2.6787506E-4,-9.919846E-6,2.6020927E-5,2.9407445E-4,-1.1762433E-3,-4.404843E-4,2.8302288E-4],"categories":[],"categories_nodes":[],"categories_segments":[],"categories_sizes":[],"default_left":[1,0,0,0,0,1,0,0,0,0,0,0,0,0,0,1,0,0,1,0,0,0,1,0,0,0,0,1,1,0,0,0,0,0,0,0,1,0,0,0,0,1,0,0,0,0,0,0,0,0,0,0,0,0,0,0,0,0,0,0,0,0,0,0,0,0,0,0,0,0,0,0,0,0,0,0,0,0,0,0,0,0,0],"id":16,"left_children":[1,3,5,7,9,11,13,15,17,19,21,23,-1,25,-1,27,29,31,33,35,37,39,41,-1,-1,43,45,47,49,51,53,55,57,59,61,63,65,67,69,71,73,75,77,-1,-1,79,81,-1,-1,-1,-1,-1,-1,-1,-1,-1,-1,-1,-1,-1,-1,-1,-1,-1,-1,-1,-1,-1,-1,-1,-1,-1,-1,-1,-1,-1,-1,-1,-1,-1,-1,-1,-1],"loss_changes":[4.0121892E-4,3.3544123E-4,1.2763697E-3,8.846546E-4,5.9508474E-4,1.6962805E-6,8.3145127E-4,4.3224485E-5,1.8668622E-3,2.3814165E-3,3.2549768E-4,1.0869625E-6,0E0,2.2066943E-4,0E0,2.0479561E-5,1.1887289E-5,1.6587869E-3,2.7837974E-3,9.243154E-6,2.3848892E-3,6.801548E-4,5.567495E-4,0E0,0E0,1.6302429E-4,8.887678E-5,1.8204255E-5,2.5480245E-5,1.7029075E-5,4.275254E-5,1.3091303E-3,8.331457E-4,2.513676E-3,8.386889E-4,8.032565E-6,1.0892117E-5,1.0855845E-3,3.4858133E-3,1.7295364E-5,2.281097E-3,1.7864424E-3,6.820166E-5,0E0,0E0,5.238247E-5,1.2160397E-5,0E0,0E0,0E0,0E0,0E0,0E0,0E0,0E0,0E0,0E0,0E0,0E0,0E0,0E0,0E0,0E0,0E0,0E0,0E0,0E0,0E0,0E0,0E0,0E0,0E0,0E0,0E0,0E0,0E0,0E0,0E0,0E0,0E0,0E0,0E0,0E0],"parents":[2147483647,0,0,1,1,2,2,3,3,4,4,5,5,6,6,7,7,8,8,9,9,10,10,11,11,13,13,15,15,16,16,17,17,18,18,19,19,20,20,21,21,22,22,25,25,26,26,27,27,28,28,29,29,30,30,31,31,32,32,33,33,34,34,35,35,36,36,37,37,38,38,39,39,40,40,41,41,42,42,45,45,46,46],"right_children":[2,4,6,8,10,12,14,16,18,20,22,24,-1,26,-1,28,30,32,34,36,38,40,42,-1,-1,44,46,48,50,52,54,56,58,60,62,64,66,68,70,72,74,76,78,-1,-1,80,82,-1,-1,-1,-1,-1,-1,-1,-1,-1,-1,-1,-1,-1,-1,-1,-1,-1,-1,-1,-1,-1,-1,-1,-1,-1,-1,-1,-1,-1,-1,-1,-1,-1,-1,-1,-1],"split_conditions":[-5.995391E-3,-7.589524E-2,1E-5,1E-5,-2.4803007E-2,1.8999997E-1,2.2032328E-2,1.7000002E-1,-3.821723E-2,1E-5,-8.379644E-2,1.4999998E-1,-1.067748E-4,-7.999998E-2,-4.2262897E-3,1.8999997E-1,-9E-2,-5.0000012E-2,-1.5764447E-1,3.981509E-2,-6.999999E-2,1E-5,-5.7667337E-2,-5.9013382E-5,5.517131E-6,9.9996105E-6,-6.999999E-2,2.1650457E-1,5.9999973E-2,1.8E-1,1.8E-1,6.999999E-2,1.4157805E-1,1.6081119E-1,3.8501836E-2,7.5396515E-2,-3.1469025E-2,-4.191829E-2,-5.9999973E-2,1.7000002E-1,8.699979E-2,0E0,1.8E-1,-1.1331082E-3,-5.205864E-3,-7.000002E-2,-2.1928675E-2,-1.48386125E-5,4.2225976E-5,-1.02750004E-4,4.4074116E-4,-2.0070552E-4,7.879477E-5,2.4417692E-4,2.3156708E-5,5.928137E-4,-5.4002396E-4,-1.4591552E-3,3.666889E-3,7.593078E-4,-1.3413375E-3,1.8797689E-6,-1.1851692E-3,-1.5954578E-5,-1.6899174E-4,4.6035066E-6,9.102125E-5,1.2873748E-4,-9.4061095E-4,-5.3292853E-3,-1.1419499E-3,1.1880614E-6,3.228251E-5,5.6551315E-4,-4.0690458E-4,8.531671E-5,-2.6787506E-4,-9.919846E-6,2.6020927E-5,2.9407445E-4,-1.1762433E-3,-4.404843E-4,2.8302288E-4],"split_indices":[32,4,16,16,28,9,34,23,28,16,6,23,0,1,0,9,29,33,6,22,29,16,16,0,0,6,29,14,13,23,23,13,12,10,30,10,32,32,35,23,10,28,23,0,0,1,6,0,0,0,0,0,0,0,0,0,0,0,0,0,0,0,0,0,0,0,0,0,0,0,0,0,0,0,0,0,0,0,0,0,0,0,0],"split_type":[0,0,0,0,0,0,0,0,0,0,0,0,0,0,0,0,0,0,0,0,0,0,0,0,0,0,0,0,0,0,0,0,0,0,0,0,0,0,0,0,0,0,0,0,0,0,0,0,0,0,0,0,0,0,0,0,0,0,0,0,0,0,0,0,0,0,0,0,0,0,0,0,0,0,0,0,0,0,0,0,0,0,0],"sum_hessian":[4.9492E4,4.9278E4,2.14E2,1.3338E4,3.594E4,1.67E2,4.7E1,1.0856E4,2.482E3,2.163E3,3.3777E4,1.51E2,1.6E1,3.8E1,9E0,5.529E3,5.327E3,6.19E2,1.863E3,1.698E3,4.65E2,7.524E3,2.6253E4,2.8E1,1.23E2,4E0,3.4E1,5.226E3,3.03E2,8E1,5.247E3,6.03E2,1.6E1,1.105E3,7.58E2,9.18E2,7.8E2,3.43E2,1.22E2,6.486E3,1.038E3,5.196E3,2.1057E4,3E0,1E0,2.6E1,8E0,4.663E3,5.63E2,2.96E2,7E0,4.8E1,3.2E1,7.9E1,5.168E3,1.12E2,4.91E2,3E0,1.3E1,1.052E3,5.3E1,7.01E2,5.7E1,8.87E2,3.1E1,6.14E2,1.66E2,1.87E2,1.56E2,2.1E1,1.01E2,3.52E3,2.966E3,7.3E2,3.08E2,2.364E3,2.832E3,1.3815E4,7.242E3,2E0,2.4E1,2E0,6E0],"tree_param":{"num_deleted":"0","num_feature":"36","num_nodes":"83","size_leaf_vector":"1"}},{"base_weights":[-2.9880752E-7,-2.5959953E-6,2.9127197E-3,2.3351477E-3,-5.2933938E-6,4.8799216E-4,2.9686892E-3,4.7445003E-5,2.9073847E-3,-2.7817592E-4,1.7712973E-5,5.7935133E-5,3.824277E-4,1.731052E-5,-1.588037E-3,2.1186817E-5,-1.8858741E-3,-1.0631198E-5,6.791949E-4,-9.6809014E-4,-5.3414335E-3,5.3642096E-5,-1.7583898E-4,-3.475978E-4,-7.049142E-3,-1.2920728E-5,5.0214203E-5,1.030271E-5,7.7775837E-4,-2.5534902E-3,-1.9305205E-4,-5.7588364E-3,-1.2276594E-3,1.7088354E-5,-8.47271E-4,-3.5989822E-6,-3.5254675E-4,-7.260673E-5,-4.0362554E-4,-2.8084475E-3,-1.0319094E-3],"categories":[],"categories_nodes":[],"categories_segments":[],"categories_sizes":[],"default_left":[0,0,0,0,0,0,0,0,0,0,1,0,0,1,0,1,0,0,0,0,0,1,0,0,1,0,0,0,0,0,0,0,0,0,0,0,0,0,0,0,0],"id":17,"left_children":[1,3,5,7,9,11,-1,-1,-1,13,15,-1,-1,17,19,21,23,25,27,29,31,33,35,37,39,-1,-1,-1,-1,-1,-1,-1,-1,-1,-1,-1,-1,-1,-1,-1,-1],"loss_changes":[3.3120238E-4,3.1186698E-4,6.5550546E-4,9.112818E-4,3.1013362E-4,6.7137594E-6,0E0,0E0,0E0,1.486672E-3,3.013109E-4,0E0,0E0,5.7986497E-5,1.6399518E-3,2.9081333E-4,6.5677986E-4,1.7382166E-5,1.5660582E-4,1.4832162E-3,1.6522226E-3,3.7312513E-4,1.0531001E-3,6.521821E-6,1.2637908E-4,0E0,0E0,0E0,0E0,0E0,0E0,0E0,0E0,0E0,0E0,0E0,0E0,0E0,0E0,0E0,0E0],"parents":[2147483647,0,0,1,1,2,2,3,3,4,4,5,5,9,9,10,10,13,13,14,14,15,15,16,16,17,17,18,18,19,19,20,20,21,21,22,22,23,23,24,24],"right_children":[2,4,6,8,10,12,-1,-1,-1,14,16,-1,-1,18,20,22,24,26,28,30,32,34,36,38,40,-1,-1,-1,-1,-1,-1,-1,-1,-1,-1,-1,-1,-1,-1,-1,-1],"split_conditions":[2.000001E-2,-9E-2,-2.111675E-2,-1.2644272E-2,-1.0909048E-2,-3.6977813E-2,2.9686892E-3,4.7445003E-5,2.9073847E-3,-1.0949622E-2,-3.999999E-2,5.7935133E-5,3.824277E-4,2.2065926E-1,-4.2153586E-2,-4.0138233E-2,-1.7384103E-2,-1.0909048E-2,5.0000012E-2,-9E-2,-4.0552553E-2,-5.995391E-3,1E-5,1.493934E-1,9.000003E-2,-1.2920728E-5,5.0214203E-5,1.030271E-5,7.7775837E-4,-2.5534902E-3,-1.9305205E-4,-5.7588364E-3,-1.2276594E-3,1.7088354E-5,-8.47271E-4,-3.5989822E-6,-3.5254675E-4,-7.260673E-5,-4.0362554E-4,-2.8084475E-3,-1.0319094E-3],"split_indices":[11,35,16,16,0,4,0,0,0,16,33,0,0,14,4,6,16,28,13,7,4,32,16,12,7,0,0,0,0,0,0,0,0,0,0,0,0,0,0,0,0],"split_type":[0,0,0,0,0,0,0,0,0,0,0,0,0,0,0,0,0,0,0,0,0,0,0,0,0,0,0,0,0,0,0,0,0,0,0,0,0,0,0,0,0],"sum_hessian":[4.9492E4,4.9454E4,3.8E1,5.6E1,4.9398E4,2.9E1,9E0,4.4E1,1.2E1,3.84E3,4.5558E4,2.2E1,7E0,3.134E3,7.06E2,4.5476E4,8.2E1,3.008E3,1.26E2,6.07E2,9.9E1,3.9045E4,6.431E3,6.4E1,1.8E1,2.545E3,4.63E2,9.5E1,3.1E1,2.4E1,5.83E2,7E0,9.2E1,3.9001E4,4.4E1,5.526E3,9.05E2,5.9E1,5E0,1E1,8E0],"tree_param":{"num_deleted":"0","num_feature":"36","num_nodes":"41","size_leaf_vector":"1"}},{"base_weights":[-3.7352558E-7,-2.032418E-6,2.829195E-3,1.0020473E-5,-3.3282387E-4,8.754406E-5,2.8360037E-3,1.6081589E-5,-7.8751554E-4,-4.0771454E-5,-3.2147611E-3,6.2419244E-6,4.0977352E-4,-1.8490068E-6,-4.2872746E-3,-3.1293952E-5,-3.6336415E-4,-6.128289E-3,2.5404486E-4,2.8327639E-5,-1.6994306E-4,-3.7737337E-3,5.749395E-4,-1.1478867E-5,9.417696E-4,-8.103732E-3,2.095243E-5,-2.9041954E-5,-6.00713E-4,-5.0535167E-5,-1.6022275E-3,-1.0982872E-2,-5.28114E-3,-3.378446E-4,5.967536E-3,6.9900205E-5,-1.5694053E-6,-2.887541E-4,6.907521E-6,-4.4589367E-5,-5.356452E-3,2.342824E-5,8.732959E-4,3.41026E-4,1.2868643E-5,-4.484452E-3,-1.5478717E-3,-2.4943496E-4,1.8586894E-3,-7.739911E-6,-1.1355612E-4,-2.7172008E-4,1.8656254E-6,3.6253037E-5,-7.481922E-4,-8.158654E-4,-4.0305424E-3,-1.7473429E-4,-1.6602268E-3,-5.181127E-5,-7.152218E-4,2.3485736E-3,2.6298614E-4],"categories":[],"categories_nodes":[],"categories_segments":[],"categories_sizes":[],"default_left":[1,1,0,1,0,0,0,0,0,0,0,0,0,1,0,1,0,0,0,0,1,0,0,0,0,0,0,0,0,0,0,0,0,0,0,0,0,0,0,0,0,0,0,0,0,0,0,0,0,0,0,0,0,0,0,0,0,0,0,0,0,0,0],"id":18,"left_children":[1,3,5,7,9,-1,-1,11,13,15,17,19,21,23,25,27,29,31,33,35,37,39,41,-1,43,45,47,49,51,-1,53,55,57,59,61,-1,-1,-1,-1,-1,-1,-1,-1,-1,-1,-1,-1,-1,-1,-1,-1,-1,-1,-1,-1,-1,-1,-1,-1,-1,-1,-1,-1],"loss_changes":[2.3232341E-4,1.9721997E-4,4.846733E-4,2.3072297E-4,1.4635448E-3,0E0,0E0,1.8349144E-4,9.898638E-4,4.8192787E-6,1.6185907E-3,1.7983142E-4,8.0024346E-4,1.0172475E-5,1.0853526E-3,1.952213E-6,1.0596312E-5,2.9979018E-4,2.5226598E-4,2.8207485E-4,7.8736164E-4,2.2433463E-3,1.29042E-3,0E0,1.8791616E-6,6.281631E-4,1.7357728E-4,1.7250064E-6,1.1163925E-6,0E0,9.520634E-6,2.0662881E-4,8.710497E-5,2.256647E-5,5.9458194E-5,0E0,0E0,0E0,0E0,0E0,0E0,0E0,0E0,0E0,0E0,0E0,0E0,0E0,0E0,0E0,0E0,0E0,0E0,0E0,0E0,0E0,0E0,0E0,0E0,0E0,0E0,0E0,0E0],"parents":[2147483647,0,0,1,1,2,2,3,3,4,4,7,7,8,8,9,9,10,10,11,11,12,12,13,13,14,14,15,15,16,16,17,17,18,18,19,19,20,20,21,21,22,22,24,24,25,25,26,26,27,27,28,28,30,30,31,31,32,32,33,33,34,34],"right_children":[2,4,6,8,10,-1,-1,12,14,16,18,20,22,24,26,28,30,32,34,36,38,40,42,-1,44,46,48,50,52,-1,54,56,58,60,62,-1,-1,-1,-1,-1,-1,-1,-1,-1,-1,-1,-1,-1,-1,-1,-1,-1,-1,-1,-1,-1,-1,-1,-1,-1,-1,-1,-1],"split_conditions":[-5.0000012E-2,-9.964177E-3,-1.4816673E-2,-2.1928675E-2,1E-5,8.754406E-5,2.8360037E-3,5.845149E-3,1E-5,1.999998E-2,1.5000004E-1,-2.5583427E-2,-4.529135E-2,1.09999985E-1,-1.8269775E-2,1.9000003E-1,1.1452209E-1,-9.0085305E-3,0E0,1.2378027E-2,-2.443355E-2,1E-5,1E-5,-1.1478867E-5,3.9770473E-2,-6.0000002E-2,3.653955E-2,5.845149E-3,-8.744453E-3,-5.0535167E-5,-1.10000014E-1,-1.3E-1,0E0,4.051684E-2,-7.000002E-2,6.9900205E-5,-1.5694053E-6,-2.887541E-4,6.907521E-6,-4.4589367E-5,-5.356452E-3,2.342824E-5,8.732959E-4,3.41026E-4,1.2868643E-5,-4.484452E-3,-1.5478717E-3,-2.4943496E-4,1.8586894E-3,-7.739911E-6,-1.1355612E-4,-2.7172008E-4,1.8656254E-6,3.6253037E-5,-7.481922E-4,-8.158654E-4,-4.0305424E-3,-1.7473429E-4,-1.6602268E-3,-5.181127E-5,-7.152218E-4,2.3485736E-3,2.6298614E-4],"split_indices":[29,8,16,6,16,0,0,0,16,11,15,4,32,13,4,15,12,28,28,34,16,16,16,0,28,1,12,0,28,0,9,9,11,14,29,0,0,0,0,0,0,0,0,0,0,0,0,0,0,0,0,0,0,0,0,0,0,0,0,0,0,0,0],"split_type":[0,0,0,0,0,0,0,0,0,0,0,0,0,0,0,0,0,0,0,0,0,0,0,0,0,0,0,0,0,0,0,0,0,0,0,0,0,0,0,0,0,0,0,0,0,0,0,0,0,0,0,0,0,0,0,0,0,0,0,0,0,0,0],"sum_hessian":[4.9492E4,4.9464E4,2.8E1,4.7726E4,1.738E3,2.1E1,7E0,4.7367E4,3.59E2,1.579E3,1.59E2,4.6213E4,1.154E3,2.94E2,6.5E1,1.535E3,4.4E1,8.6E1,7.3E1,4.1066E4,5.147E3,4.3E1,1.111E3,2.84E2,1E1,3.4E1,3.1E1,1.53E3,5E0,3.9E1,5E0,1.1E1,7.5E1,6.7E1,6E0,5.784E3,3.5282E4,1.007E3,4.14E3,3.5E1,8E0,9.17E2,1.94E2,8E0,2E0,9E0,2.5E1,2.8E1,3E0,1.517E3,1.3E1,3E0,2E0,2E0,3E0,3E0,8E0,4E0,7.1E1,6.3E1,4E0,4E0,2E0],"tree_param":{"num_deleted":"0","num_feature":"36","num_nodes":"63","size_leaf_vector":"1"}},{"base_weights":[-5.054596E-7,-2.2000759E-6,2.1484112E-3,-2.8025086E-5,1.3494593E-4,3.5580795E-4,2.1934141E-3,-6.930819E-5,2.4631098E-4,1.2398057E-3,-6.167098E-5,4.1759078E-5,2.8022658E-4,-1.33794265E-5,-3.0521062E-4,1.3690567E-5,1.60461E-3,5.0696384E-5,2.6871285E-3,9.938465E-4,-1.11489004E-4,-3.9664134E-5,5.679836E-5,1.2713518E-4,-1.1533349E-3,2.0538248E-5,-3.5869278E-4,4.898331E-4,3.2019818E-3,-7.572963E-4,7.224784E-5,4.0200204E-3,-5.3911546E-4,2.3287746E-5,6.0887947E-3,-8.314717E-6,-7.3120807E-4,3.226673E-5,-1.6523896E-5,3.907098E-6,6.217451E-5,3.218701E-4,-4.0715205E-4,9.4106996E-5,-6.900526E-4,-1.154769E-5,2.0042777E-5,-1.5633256E-4,5.6127905E-5,1.8492157E-3,-2.4415423E-5,-1.5847662E-3,1.0795078E-3,2.0827354E-6,-4.8537983E-4,8.352422E-5,1.2863199E-5,6.436787E-4,2.3123096E-3,-3.9565293E-3,1.233298E-4,-1.15477005E-5,2.0211848E-4,2.434208E-3,3.6271722E-6,1.6209153E-5,-2.7426098E-5,4.9240695E-4,-4.8796824E-4],"categories":[],"categories_nodes":[],"categories_segments":[],"categories_sizes":[],"default_left":[0,0,0,1,1,0,0,0,0,0,0,0,0,0,0,0,0,0,0,0,0,0,1,0,0,1,0,0,0,1,0,0,0,0,0,1,0,0,0,0,0,0,0,0,0,0,0,0,0,0,0,0,0,0,0,0,0,0,0,0,0,0,0,0,0,0,0,0,0],"id":19,"left_children":[1,3,5,7,9,11,-1,13,15,17,19,-1,-1,21,23,25,27,29,31,33,35,37,39,41,43,45,47,49,51,53,55,57,59,61,63,65,67,-1,-1,-1,-1,-1,-1,-1,-1,-1,-1,-1,-1,-1,-1,-1,-1,-1,-1,-1,-1,-1,-1,-1,-1,-1,-1,-1,-1,-1,-1,-1,-1],"loss_changes":[1.802379E-4,1.7516337E-4,3.5834959E-4,4.7137076E-4,1.7025401E-3,3.6278363E-6,0E0,4.7729234E-4,1.7201086E-3,2.0375573E-3,3.5000342E-4,0E0,0E0,5.3945805E-5,2.5423595E-3,1.1862141E-5,1.415879E-3,1.1390853E-5,2.2984927E-3,1.4833423E-3,4.0632676E-4,4.8291182E-5,5.2480373E-5,6.4491425E-3,3.9393213E-3,1.24741555E-5,7.543609E-6,1.5238728E-3,1.1187345E-3,1.1192672E-5,3.833119E-6,2.5963024E-3,1.8924936E-3,1.0192553E-5,5.9062534E-4,2.8237502E-5,1.9293936E-3,0E0,0E0,0E0,0E0,0E0,0E0,0E0,0E0,0E0,0E0,0E0,0E0,0E0,0E0,0E0,0E0,0E0,0E0,0E0,0E0,0E0,0E0,0E0,0E0,0E0,0E0,0E0,0E0,0E0,0E0,0E0,0E0],"parents":[2147483647,0,0,1,1,2,2,3,3,4,4,5,5,7,7,8,8,9,9,10,10,13,13,14,14,15,15,16,16,17,17,18,18,19,19,20,20,21,21,22,22,23,23,24,24,25,25,26,26,27,27,28,28,29,29,30,30,31,31,32,32,33,33,34,34,35,35,36,36],"right_children":[2,4,6,8,10,12,-1,14,16,18,20,-1,-1,22,24,26,28,30,32,34,36,38,40,42,44,46,48,50,52,54,56,58,60,62,64,66,68,-1,-1,-1,-1,-1,-1,-1,-1,-1,-1,-1,-1,-1,-1,-1,-1,-1,-1,-1,-1,-1,-1,-1,-1,-1,-1,-1,-1,-1,-1,-1,-1],"split_conditions":[2.000001E-2,1.999998E-2,-2.111675E-2,1.09999985E-1,-7.000002E-2,-3.6977813E-2,2.1934141E-3,1E-5,1E-5,1E-5,-7.000002E-2,4.1759078E-5,2.8022658E-4,1.7000002E-1,9.469386E-3,-5.832189E-3,0E0,-6.1877675E-2,-6.999999E-2,1E-5,1E-5,-1.999998E-2,0E0,-7.000002E-2,-6.0000002E-2,1.999998E-2,0E0,-7.999998E-2,-9E-2,-6.282619E-2,4.4E-1,-6.0000002E-2,-3.6569882E-2,-2.4288012E-2,-1.768562E-2,1.8E-1,8.9999974E-2,3.226673E-5,-1.6523896E-5,3.907098E-6,6.217451E-5,3.218701E-4,-4.0715205E-4,9.4106996E-5,-6.900526E-4,-1.154769E-5,2.0042777E-5,-1.5633256E-4,5.6127905E-5,1.8492157E-3,-2.4415423E-5,-1.5847662E-3,1.0795078E-3,2.0827354E-6,-4.8537983E-4,8.352422E-5,1.2863199E-5,6.436787E-4,2.3123096E-3,-3.9565293E-3,1.233298E-4,-1.15477005E-5,2.0211848E-4,2.434208E-3,3.6271722E-6,1.6209153E-5,-2.7426098E-5,4.9240695E-4,-4.8796824E-4],"split_indices":[11,5,16,7,7,4,0,16,16,16,13,0,0,23,30,16,28,28,31,16,16,11,28,29,35,13,8,1,31,32,21,1,28,4,32,9,7,0,0,0,0,0,0,0,0,0,0,0,0,0,0,0,0,0,0,0,0,0,0,0,0,0,0,0,0,0,0,0,0],"split_type":[0,0,0,0,0,0,0,0,0,0,0,0,0,0,0,0,0,0,0,0,0,0,0,0,0,0,0,0,0,0,0,0,0,0,0,0,0,0,0,0,0,0,0,0,0,0,0,0,0,0,0,0,0,0,0,0,0,0,0,0,0,0,0,0,0,0,0,0,0],"sum_hessian":[4.9492E4,4.9454E4,3.8E1,4.1618E4,7.836E3,2.9E1,9E0,3.6175E4,5.443E3,1.183E3,6.653E3,2.2E1,7E0,2.9243E4,6.932E3,4.648E3,7.95E2,6.5E2,5.33E2,2.99E2,6.354E3,2.1275E4,7.968E3,4.592E3,2.34E3,4.565E3,8.3E1,4.69E2,3.26E2,1.6E1,6.34E2,3.77E2,1.56E2,2.52E2,4.7E1,5.448E3,9.06E2,2.016E3,1.9259E4,6.173E3,1.795E3,2.805E3,1.787E3,1.027E3,1.313E3,2.006E3,2.559E3,6.4E1,1.9E1,4.2E1,4.27E2,1.4E1,3.12E2,9E0,7E0,7.8E1,5.56E2,2.51E2,1.26E2,1E1,1.46E2,2.31E2,2.1E1,3.5E1,1.2E1,3.113E3,2.335E3,2.48E2,6.58E2],"tree_param":{"num_deleted":"0","num_feature":"36","num_nodes":"69","size_leaf_vector":"1"}},{"base_weights":[-2.60554E-7,-2.4908973E-4,2.5101013E-5,1.0139523E-5,-2.0755576E-3,6.357036E-4,1.3011774E-5,-2.7101795E-4,2.804307E-4,-9.67789E-5,-4.0890775E-3,1.0523343E-5,2.9414194E-3,-5.0200928E-5,9.56326E-5,-4.301878E-5,-1.3309594E-3,9.957213E-6,2.6564086E-3,-7.429808E-5,-6.623075E-4,-7.8003793E-3,-2.4751902E-3,2.9947153E-6,4.7291952E-4,-1.4931479E-4,7.0385085E-3,-3.3220852E-4,-3.335693E-6,1.6996979E-3,7.106113E-5,1.5804826E-5,-1.3635367E-4,-6.5814476E-3,-5.094233E-4,3.9067015E-4,-4.915407E-5,1.111757E-2,1.4986494E-3,-5.4423548E-5,-4.0627923E-4,-3.3755152E-4,-9.943655E-3,7.52273E-4,-5.7761963E-3,2.3331679E-5,-5.4219163E-6,4.8858674E-5,2.9244125E-4,3.3907571E-3,-5.1020975E-3,5.744747E-3,6.611235E-3,-5.9248565E-4,8.8225625E-4,-1.5471171E-6,-1.5962217E-3,7.1114963E-3,-1.371585E-4,-2.9619571E-3,1.2706916E-4,1.1119407E-5,-3.456988E-5,-1.6446211E-4,-2.3789655E-5,-1.1331068E-3,-2.7334937E-3,-6.883022E-4,5.146742E-4,1.774353E-5,4.2017407E-4,-2.366898E-5,1.778809E-5,1.8727368E-3,5.341799E-3,2.845573E-3,2.669514E-4,9.114147E-5,-1.9521842E-5,-2.6886464E-5,-2.4018224E-4,1.6822807E-3,-6.5229455E-4,-3.9579687E-3,-1.2259874E-3,4.028848E-3,-8.2300976E-4,-3.1890867E-3,-1.3185815E-3,1.512345E-3,-2.1215181E-3,-2.5782513E-4,-1.6832842E-3,1.0564624E-3,2.496629E-3,-2.5083057E-6,-5.003432E-4,-1.0905279E-3,3.1335864E-4,-1.6187183E-5,9.491789E-6,-5.456096E-4,-1.16120886E-4,-8.453057E-6,4.106476E-3,7.018132E-4,-4.661675E-4,-2.866145E-5,-1.8056675E-3,-2.0131456E-6,1.6645112E-4],"categories":[],"categories_nodes":[],"categories_segments":[],"categories_sizes":[],"default_left":[0,0,0,0,0,0,0,0,0,0,0,1,0,1,0,0,0,0,0,0,0,0,0,1,0,1,1,1,1,0,0,0,0,0,0,0,0,0,0,0,0,0,0,0,0,0,0,0,0,0,0,0,0,0,0,0,0,0,0,0,0,0,0,0,0,0,0,0,0,0,0,0,0,0,0,0,0,0,0,0,0,0,0,0,0,0,0,0,0,0,0,0,0,0,0,0,0,0,0,0,0,0,0,0,0,0,0,0,0,0,0],"id":20,"left_children":[1,3,5,7,9,11,13,15,17,19,21,23,25,27,29,31,33,35,37,39,-1,41,43,45,47,49,51,53,55,57,59,61,63,65,67,69,71,73,75,77,79,81,83,85,87,-1,-1,-1,-1,89,91,93,-1,95,97,99,101,103,105,107,109,-1,-1,-1,-1,-1,-1,-1,-1,-1,-1,-1,-1,-1,-1,-1,-1,-1,-1,-1,-1,-1,-1,-1,-1,-1,-1,-1,-1,-1,-1,-1,-1,-1,-1,-1,-1,-1,-1,-1,-1,-1,-1,-1,-1,-1,-1,-1,-1,-1,-1],"loss_changes":[3.1234164E-4,2.1675844E-3,3.3154915E-4,3.048135E-4,2.2666776E-3,1.2569467E-3,2.3003799E-4,4.7505763E-4,1.3141702E-3,1.35030305E-5,1.6697659E-3,2.3901741E-6,2.3563714E-3,3.2979975E-4,7.5237587E-4,8.890942E-6,1.4977332E-3,4.1359843E-5,2.0307E-3,1.8649077E-6,0E0,1.3562101E-3,2.1138126E-3,1.0679487E-6,1.5529838E-6,1.893353E-3,1.425805E-3,1.1245649E-3,6.096323E-5,2.8638963E-3,3.1948446E-3,2.773401E-6,1.4666415E-5,2.990854E-4,1.2033135E-3,8.261534E-5,5.136462E-6,7.0401747E-4,8.910905E-4,1.0535982E-6,1.9261213E-6,2.3058952E-4,1.2022518E-3,4.512655E-3,6.1018416E-4,0E0,0E0,0E0,0E0,1.1234838E-3,9.232771E-5,4.0044193E-4,0E0,1.8397607E-3,4.6414707E-4,3.7181097E-5,5.752241E-6,3.428166E-3,7.6149066E-4,2.9874218E-3,1.0566936E-3,0E0,0E0,0E0,0E0,0E0,0E0,0E0,0E0,0E0,0E0,0E0,0E0,0E0,0E0,0E0,0E0,0E0,0E0,0E0,0E0,0E0,0E0,0E0,0E0,0E0,0E0,0E0,0E0,0E0,0E0,0E0,0E0,0E0,0E0,0E0,0E0,0E0,0E0,0E0,0E0,0E0,0E0,0E0,0E0,0E0,0E0,0E0,0E0,0E0,0E0],"parents":[2147483647,0,0,1,1,2,2,3,3,4,4,5,5,6,6,7,7,8,8,9,9,10,10,11,11,12,12,13,13,14,14,15,15,16,16,17,17,18,18,19,19,21,21,22,22,23,23,24,24,25,25,26,26,27,27,28,28,29,29,30,30,31,31,32,32,33,33,34,34,35,35,36,36,37,37,38,38,39,39,40,40,41,41,42,42,43,43,44,44,49,49,50,50,51,51,53,53,54,54,55,55,56,56,57,57,58,58,59,59,60,60],"right_children":[2,4,6,8,10,12,14,16,18,20,22,24,26,28,30,32,34,36,38,40,-1,42,44,46,48,50,52,54,56,58,60,62,64,66,68,70,72,74,76,78,80,82,84,86,88,-1,-1,-1,-1,90,92,94,-1,96,98,100,102,104,106,108,110,-1,-1,-1,-1,-1,-1,-1,-1,-1,-1,-1,-1,-1,-1,-1,-1,-1,-1,-1,-1,-1,-1,-1,-1,-1,-1,-1,-1,-1,-1,-1,-1,-1,-1,-1,-1,-1,-1,-1,-1,-1,-1,-1,-1,-1,-1,-1,-1,-1,-1],"split_conditions":[-7.000002E-2,3.299803E-1,-7.999998E-2,-6.999999E-2,9.9996105E-6,-6.127963E-3,9.000003E-2,1E-5,1E-5,-5.0000012E-2,-1.999998E-2,5.2E-1,-1.999998E-2,-1.1224246E-1,-1.999998E-2,7.999998E-2,3.999999E-2,-1.999998E-2,6.999999E-2,-5.832189E-3,-6.623075E-4,-9E-2,-7.999998E-2,9.342891E-3,-1.04462184E-1,-2.000001E-2,-2.000001E-2,-5.9999973E-2,1.10000014E-1,-3.564276E-2,0E0,-7.000002E-2,8.9999974E-2,-5.994813E-3,-1.999998E-2,1.7000002E-1,1.8999997E-1,-3.0000001E-2,0E0,1.4999998E-1,1.00000024E-1,-9E-2,6.005968E-3,0E0,-3.732132E-2,2.3331679E-5,-5.4219163E-6,4.8858674E-5,2.9244125E-4,-1.2194035E-2,-6.4693973E-3,-5.0000012E-2,6.611235E-3,1.999998E-2,7.999998E-2,1.6999999E-1,2.3655217E-2,-6.817088E-2,3.6001645E-2,-1.8820284E-2,1.9999999E-1,1.1119407E-5,-3.456988E-5,-1.6446211E-4,-2.3789655E-5,-1.1331068E-3,-2.7334937E-3,-6.883022E-4,5.146742E-4,1.774353E-5,4.2017407E-4,-2.366898E-5,1.778809E-5,1.8727368E-3,5.341799E-3,2.845573E-3,2.669514E-4,9.114147E-5,-1.9521842E-5,-2.6886464E-5,-2.4018224E-4,1.6822807E-3,-6.5229455E-4,-3.9579687E-3,-1.2259874E-3,4.028848E-3,-8.2300976E-4,-3.1890867E-3,-1.3185815E-3,1.512345E-3,-2.1215181E-3,-2.5782513E-4,-1.6832842E-3,1.0564624E-3,2.496629E-3,-2.5083057E-6,-5.003432E-4,-1.0905279E-3,3.1335864E-4,-1.6187183E-5,9.491789E-6,-5.456096E-4,-1.16120886E-4,-8.453057E-6,4.106476E-3,7.018132E-4,-4.661675E-4,-2.866145E-5,-1.8056675E-3,-2.0131456E-6,1.6645112E-4],"split_indices":[1,12,33,33,6,16,13,16,16,33,11,27,11,16,11,13,7,11,13,16,0,31,35,34,6,7,13,31,7,32,11,33,13,30,11,23,23,13,5,23,7,35,30,11,32,0,0,0,0,32,0,13,0,13,7,23,34,6,10,6,23,0,0,0,0,0,0,0,0,0,0,0,0,0,0,0,0,0,0,0,0,0,0,0,0,0,0,0,0,0,0,0,0,0,0,0,0,0,0,0,0,0,0,0,0,0,0,0,0,0,0],"split_type":[0,0,0,0,0,0,0,0,0,0,0,0,0,0,0,0,0,0,0,0,0,0,0,0,0,0,0,0,0,0,0,0,0,0,0,0,0,0,0,0,0,0,0,0,0,0,0,0,0,0,0,0,0,0,0,0,0,0,0,0,0,0,0,0,0,0,0,0,0,0,0,0,0,0,0,0,0,0,0,0,0,0,0,0,0,0,0,0,0,0,0,0,0,0,0,0,0,0,0,0,0,0,0,0,0,0,0,0,0,0,0],"sum_hessian":[4.9492E4,4.577E3,4.4915E4,4.009E3,5.68E2,8.71E2,4.4044E4,1.965E3,2.044E3,2.87E2,2.81E2,6.86E2,1.85E2,2.4953E4,1.9091E4,1.618E3,3.47E2,1.836E3,2.08E2,2.85E2,2E0,8.4E1,1.97E2,6.76E2,1E1,1.06E2,7.9E1,3.555E3,2.1398E4,2.87E2,1.8804E4,9.93E2,6.25E2,4.6E1,3.01E2,2.46E2,1.59E3,2.4E1,1.84E2,2.7E2,1.5E1,1.9E1,6.5E1,1E2,9.7E1,1.48E2,5.28E2,7E0,3E0,6.2E1,4.4E1,7.4E1,5E0,2.928E3,6.27E2,2.1375E4,2.3E1,7.2E1,2.15E2,3.4E2,1.8464E4,8.55E2,1.38E2,7.5E1,5.5E2,2.3E1,2.3E1,1.67E2,1.34E2,1.86E2,6E1,1.248E3,3.42E2,1.5E1,9E0,1.2E1,1.72E2,7E0,2.63E2,9E0,6E0,4E0,1.5E1,4.1E1,2.4E1,2.1E1,7.9E1,2E1,7.7E1,5.4E1,8E0,5E0,3.9E1,4.1E1,3.3E1,1.898E3,1.03E3,2.1E1,6.06E2,8.287E3,1.3088E4,1.9E1,4E0,3.5E1,3.7E1,7.8E1,1.37E2,1.76E2,1.64E2,1.4066E4,4.398E3],"tree_param":{"num_deleted":"0","num_feature":"36","num_nodes":"111","size_leaf_vector":"1"}},{"base_weights":[-4.2611306E-9,-9.887349E-5,3.7111884E-5,-3.1161105E-4,1.4628017E-4,-2.0877038E-4,7.484658E-5,-3.2597054E-5,-1.1506445E-3,-3.2550443E-3,1.6971413E-4,-2.0657328E-5,-1.8587484E-3,-6.829498E-6,4.628732E-4,-2.2985305E-5,-3.8270396E-4,-6.0573407E-4,-5.5205217E-3,-6.7854584E-5,-1.1060757E-2,7.419878E-4,1.9837182E-5,1.8163776E-4,-1.9041024E-4,-1.6416412E-5,-3.8160768E-3,-3.6124864E-5,2.4273062E-5,1.0756599E-3,-4.209392E-4,1.862396E-5,-8.8603534E-5,-2.1273874E-4,-1.1603314E-4,6.2519056E-3,-8.529437E-4,-1.244909E-2,-1.8569478E-3,-1.7878885E-3,-1.7428821E-2,5.3054333E-5,2.8474957E-3,8.705138E-4,-7.271508E-5,6.5878005E-5,1.6761955E-3,-9.7167154E-4,-1.4332318E-5,3.1771606E-3,-4.5034396E-3,-2.7364827E-4,-2.4129291E-5,1.1704428E-3,2.2066768E-5,1.9327052E-3,-4.260125E-4,-7.113591E-4,3.6833645E-3,1.06083804E-4,-1.4956325E-6,-5.8945963E-5,6.7055803E-6,-1.0192394E-5,-3.4083053E-4,-1.8936604E-3,2.0502408E-3,1.3647896E-3,-3.2769234E-4,-4.1437754E-3,-9.776205E-5,3.0143387E-3,-7.510755E-4,1.3894849E-3,-1.1994339E-3,-6.646158E-3,-1.1232451E-3,-1.2309728E-8,1.8506312E-4,1.0363264E-3,-2.2480667E-3,4.15204E-6,1.6660435E-3,-9.18245E-4,-1.184924E-5,1.0673636E-5,2.1755962E-4,-2.4859072E-3,5.419635E-4,1.895414E-5,-1.7853008E-3,-1.9655356E-5,9.448322E-5,-1.7824552E-3,-8.9984183E-4,-2.7643939E-5,-1.0893622E-4,-4.4309025E-5,-4.327474E-6,5.8160495E-4,-1.8251204E-4,4.810274E-7,2.3085968E-5,-2.8090297E-5,8.075889E-4,-2.3180977E-3,1.4332031E-5,-6.2102213E-4,1.2246208E-4,1.9989777E-3,3.313237E-4],"categories":[],"categories_nodes":[],"categories_segments":[],"categories_sizes":[],"default_left":[0,0,0,0,0,0,0,0,0,0,0,0,0,0,0,0,0,0,0,0,0,0,0,0,0,0,0,0,0,0,0,0,0,0,1,0,0,0,0,0,0,1,0,0,0,0,0,0,0,0,0,0,0,0,1,0,0,0,0,0,0,0,0,0,0,0,0,0,0,0,0,0,0,0,0,0,0,0,0,0,0,0,0,0,0,0,0,0,0,0,0,0,0,0,0,0,0,0,0,0,0,0,0,0,0,0,0,0,0,0,0],"id":21,"left_children":[1,3,5,7,9,11,13,15,17,19,21,23,25,27,29,31,33,35,37,-1,39,41,43,45,47,-1,49,51,53,55,57,59,61,-1,63,65,67,69,71,73,75,77,79,81,83,85,87,89,91,-1,93,95,97,99,101,103,105,107,109,-1,-1,-1,-1,-1,-1,-1,-1,-1,-1,-1,-1,-1,-1,-1,-1,-1,-1,-1,-1,-1,-1,-1,-1,-1,-1,-1,-1,-1,-1,-1,-1,-1,-1,-1,-1,-1,-1,-1,-1,-1,-1,-1,-1,-1,-1,-1,-1,-1,-1,-1,-1],"loss_changes":[1.816254E-4,7.045858E-4,3.3389498E-4,1.6932224E-3,5.0086994E-4,1.4860725E-3,9.887456E-4,1.8260549E-5,4.294707E-3,1.0141227E-3,5.347651E-4,1.4766303E-4,1.730017E-3,2.3485136E-5,2.9385698E-3,1.4431423E-5,1.2539687E-5,2.727943E-3,5.0535477E-3,0E0,6.774418E-4,1.8768669E-3,3.8915704E-4,3.3933454E-4,3.2160804E-4,0E0,2.3747974E-3,3.7811216E-5,3.1589076E-5,4.1243755E-3,2.651181E-3,2.5586998E-5,2.4555293E-5,0E0,6.7415303E-6,4.527897E-4,2.0105715E-3,1.1360636E-3,1.0412978E-3,1.0364899E-4,3.6967662E-4,2.9217921E-5,2.0280082E-3,1.9456327E-3,4.4236952E-4,3.6372116E-5,1.9807398E-4,2.2161105E-3,3.219528E-5,0E0,4.6881335E-4,1.0327283E-5,1.5150269E-5,3.397685E-5,1.4015794E-5,3.1388206E-3,4.0302225E-3,3.1587952E-3,1.1223366E-3,0E0,0E0,0E0,0E0,0E0,0E0,0E0,0E0,0E0,0E0,0E0,0E0,0E0,0E0,0E0,0E0,0E0,0E0,0E0,0E0,0E0,0E0,0E0,0E0,0E0,0E0,0E0,0E0,0E0,0E0,0E0,0E0,0E0,0E0,0E0,0E0,0E0,0E0,0E0,0E0,0E0,0E0,0E0,0E0,0E0,0E0,0E0,0E0,0E0,0E0,0E0,0E0],"parents":[2147483647,0,0,1,1,2,2,3,3,4,4,5,5,6,6,7,7,8,8,9,9,10,10,11,11,12,12,13,13,14,14,15,15,16,16,17,17,18,18,20,20,21,21,22,22,23,23,24,24,26,26,27,27,28,28,29,29,30,30,31,31,32,32,34,34,35,35,36,36,37,37,38,38,39,39,40,40,41,41,42,42,43,43,44,44,45,45,46,46,47,47,48,48,50,50,51,51,52,52,53,53,54,54,55,55,56,56,57,57,58,58],"right_children":[2,4,6,8,10,12,14,16,18,20,22,24,26,28,30,32,34,36,38,-1,40,42,44,46,48,-1,50,52,54,56,58,60,62,-1,64,66,68,70,72,74,76,78,80,82,84,86,88,90,92,-1,94,96,98,100,102,104,106,108,110,-1,-1,-1,-1,-1,-1,-1,-1,-1,-1,-1,-1,-1,-1,-1,-1,-1,-1,-1,-1,-1,-1,-1,-1,-1,-1,-1,-1,-1,-1,-1,-1,-1,-1,-1,-1,-1,-1,-1,-1,-1,-1,-1,-1,-1,-1,-1,-1,-1,-1,-1,-1],"split_conditions":[-6.999999E-2,6.005968E-3,0E0,1E-5,1.06773665E-2,8.033401E-1,1E-5,-5.9999973E-2,0E0,1E-5,1.29137095E-2,-6.999999E-2,-1.8820284E-2,1.7000002E-1,6.405476E-3,7.999998E-2,1.7000002E-1,-7.000002E-2,-7.000002E-2,-6.7854584E-5,-3.0998733E-2,1E-5,-5.0494894E-2,1E-5,-6.0000002E-2,-1.6416412E-5,-7.999998E-2,-7.999998E-2,1.5E-1,-6.999999E-2,2.000004E-2,-1.2566373E-2,-7.999998E-2,-2.1273874E-4,6.1838016E-2,-2.4803007E-2,-9E-2,-2.3987267E-2,-7.999998E-2,-4.9146917E-2,-1.0604719E-2,5.9999973E-2,2.6140617E-2,1E-5,1.874956E-2,7.999998E-2,-6.1877675E-2,-5.832189E-3,1.4256005E-1,3.1771606E-3,-1.5221226E-2,7.999998E-2,1.999998E-2,4.27527E-2,-5.832189E-3,-7.000002E-2,-6.0000002E-2,-7.000002E-2,-7.000002E-2,1.06083804E-4,-1.4956325E-6,-5.8945963E-5,6.7055803E-6,-1.0192394E-5,-3.4083053E-4,-1.8936604E-3,2.0502408E-3,1.3647896E-3,-3.2769234E-4,-4.1437754E-3,-9.776205E-5,3.0143387E-3,-7.510755E-4,1.3894849E-3,-1.1994339E-3,-6.646158E-3,-1.1232451E-3,-1.2309728E-8,1.8506312E-4,1.0363264E-3,-2.2480667E-3,4.15204E-6,1.6660435E-3,-9.18245E-4,-1.184924E-5,1.0673636E-5,2.1755962E-4,-2.4859072E-3,5.419635E-4,1.895414E-5,-1.7853008E-3,-1.9655356E-5,9.448322E-5,-1.7824552E-3,-8.9984183E-4,-2.7643939E-5,-1.0893622E-4,-4.4309025E-5,-4.327474E-6,5.8160495E-4,-1.8251204E-4,4.810274E-7,2.3085968E-5,-2.8090297E-5,8.075889E-4,-2.3180977E-3,1.4332031E-5,-6.2102213E-4,1.2246208E-4,1.9989777E-3,3.313237E-4],"split_indices":[33,30,11,16,34,12,16,1,28,16,30,1,6,23,30,13,23,13,31,0,6,16,32,16,35,0,35,29,17,29,5,0,29,0,34,0,31,4,29,6,32,13,34,16,34,13,28,16,22,0,28,13,13,34,28,35,1,29,29,0,0,0,0,0,0,0,0,0,0,0,0,0,0,0,0,0,0,0,0,0,0,0,0,0,0,0,0,0,0,0,0,0,0,0,0,0,0,0,0,0,0,0,0,0,0,0,0,0,0,0,0],"split_type":[0,0,0,0,0,0,0,0,0,0,0,0,0,0,0,0,0,0,0,0,0,0,0,0,0,0,0,0,0,0,0,0,0,0,0,0,0,0,0,0,0,0,0,0,0,0,0,0,0,0,0,0,0,0,0,0,0,0,0,0,0,0,0,0,0,0,0,0,0,0,0,0,0,0,0,0,0,0,0,0,0,0,0,0,0,0,0,0,0,0,0,0,0,0,0,0,0,0,0,0,0,0,0,0,0,0,0,0,0,0,0],"sum_hessian":[4.9492E4,1.3508E4,3.5984E4,7.232E3,6.276E3,4.787E3,3.1197E4,5.428E3,1.804E3,4.2E1,6.234E3,4.298E3,4.89E2,2.5773E4,5.424E3,5.284E3,1.44E2,1.605E3,1.99E2,3.1E1,1.1E1,1.293E3,4.941E3,1.961E3,2.337E3,2.55E2,2.34E2,1.3272E4,1.2501E4,3.203E3,2.221E3,3.234E3,2.05E3,6.4E1,8E1,5.5E1,1.55E3,6.8E1,1.31E2,5E0,6E0,9.75E2,3.18E2,4.84E2,4.457E3,1.821E3,1.4E2,4.29E2,1.908E3,1E1,2.24E2,6.37E2,1.2635E4,2.3E1,1.2478E4,2.039E3,1.164E3,2.075E3,1.46E2,2.12E2,3.022E3,1.039E3,1.011E3,7.5E1,5E0,2E0,5.3E1,6.5E1,1.485E3,6.1E1,7E0,6E0,1.25E2,1E0,4E0,4E0,2E0,8.92E2,8.3E1,3.01E2,1.7E1,4.1E2,7.4E1,4.8E1,4.409E3,1.742E3,7.9E1,1E0,1.39E2,3.56E2,7.3E1,1.652E3,2.56E2,1.13E2,1.11E2,2.11E2,4.26E2,9.19E2,1.1716E4,1.6E1,7E0,9.09E3,3.388E3,5.56E2,1.483E3,7E1,1.094E3,9.37E2,1.138E3,6.7E1,7.9E1],"tree_param":{"num_deleted":"0","num_feature":"36","num_nodes":"111","size_leaf_vector":"1"}},{"base_weights":[-2.3810938E-7,-1.8675805E-6,2.0660628E-3,-1.745688E-4,1.5749694E-5,2.612854E-4,2.1821368E-3,-7.820494E-6,-1.3494127E-3,1.4867826E-4,-1.872407E-5,3.0218196E-5,2.0706878E-4,1.2623369E-4,-3.07732E-4,-4.128636E-5,-2.6805864E-3,3.5654535E-4,-8.0051825E-5,-1.4019285E-4,8.920963E-6,-1.5751089E-6,9.234577E-4,-2.135388E-5,-2.0604408E-3,-2.3810857E-5,-5.080566E-4,-5.6399694E-3,-1.3966059E-3,1.0249546E-5,9.6457737E-4,-1.2232537E-3,1.01076475E-4,-1.11070185E-5,-7.9426495E-4,9.158694E-5,-4.6971316E-5,3.609541E-5,-8.107562E-6,1.710529E-4,1.9284865E-3,-2.9452132E-5,1.17832016E-4,-2.1359893E-4,-2.218605E-3,-2.764391E-6,-8.086386E-5,-1.4053276E-3,-4.6854783E-3,1.2125493E-4,-9.71481E-4,-7.105462E-5,6.4376395E-6,2.6575182E-5,6.986416E-4,1.4578414E-5,-7.667495E-4,1.20131626E-4,-7.483874E-5,-5.8877727E-6,3.3972716E-5,-1.2699621E-4,-5.387667E-4,2.6889893E-6,1.906935E-4,-4.6331706E-6,-1.4002266E-4],"categories":[],"categories_nodes":[],"categories_segments":[],"categories_sizes":[],"default_left":[0,0,0,0,1,0,0,0,0,0,0,0,0,0,0,0,0,0,0,0,0,0,1,0,0,0,0,0,0,0,0,0,0,1,0,0,1,0,0,0,0,0,0,0,0,0,0,0,0,0,0,0,0,0,0,0,0,0,0,0,0,0,0,0,0,0,0],"id":22,"left_children":[1,3,5,7,9,11,-1,13,15,17,19,-1,-1,21,23,25,27,29,31,33,35,37,39,41,43,45,-1,47,49,51,53,55,57,59,61,63,65,-1,-1,-1,-1,-1,-1,-1,-1,-1,-1,-1,-1,-1,-1,-1,-1,-1,-1,-1,-1,-1,-1,-1,-1,-1,-1,-1,-1,-1,-1],"loss_changes":[1.666457E-4,1.5047082E-4,3.6465214E-4,8.9683454E-4,2.0565838E-4,1.9965871E-6,0E0,1.6125845E-4,9.907136E-4,4.3944363E-4,1.1967061E-4,0E0,0E0,2.8244674E-4,6.218566E-4,8.275285E-6,1.0636642E-3,1.0195165E-3,9.114221E-4,5.5782974E-4,1.3413884E-4,7.417492E-6,7.411755E-4,3.3951437E-5,1.2464607E-3,1.023343E-6,0E0,7.3728664E-4,6.579656E-4,8.5526435E-6,2.0995047E-3,1.020416E-3,3.9886474E-4,5.848603E-6,4.03854E-4,5.264278E-4,2.292239E-4,0E0,0E0,0E0,0E0,0E0,0E0,0E0,0E0,0E0,0E0,0E0,0E0,0E0,0E0,0E0,0E0,0E0,0E0,0E0,0E0,0E0,0E0,0E0,0E0,0E0,0E0,0E0,0E0,0E0,0E0],"parents":[2147483647,0,0,1,1,2,2,3,3,4,4,5,5,7,7,8,8,9,9,10,10,13,13,14,14,15,15,16,16,17,17,18,18,19,19,20,20,21,21,22,22,23,23,24,24,25,25,27,27,28,28,29,29,30,30,31,31,32,32,33,33,34,34,35,35,36,36],"right_children":[2,4,6,8,10,12,-1,14,16,18,20,-1,-1,22,24,26,28,30,32,34,36,38,40,42,44,46,-1,48,50,52,54,56,58,60,62,64,66,-1,-1,-1,-1,-1,-1,-1,-1,-1,-1,-1,-1,-1,-1,-1,-1,-1,-1,-1,-1,-1,-1,-1,-1,-1,-1,-1,-1,-1,-1],"split_conditions":[2.000001E-2,-7.000002E-2,-2.111675E-2,3.299803E-1,-1.74496E-1,-3.6977813E-2,2.1821368E-3,7.999998E-2,9.9996105E-6,0E0,-2.0297902E-2,3.0218196E-5,2.0706878E-4,1E-5,1E-5,-5.0000012E-2,-1.999998E-2,1E-5,1.5954714E-2,1E-5,-7.498824E-2,-6.999999E-2,1.9000003E-1,7.9550944E-2,-8.048158E-3,-5.832189E-3,-5.080566E-4,-7.999998E-2,-7.999998E-2,1.4999998E-1,-5.9999973E-2,1.1658996E-1,-6.0000002E-2,1.8908639E-1,-6.160596E-2,1E-5,1.870626E-2,3.609541E-5,-8.107562E-6,1.710529E-4,1.9284865E-3,-2.9452132E-5,1.17832016E-4,-2.1359893E-4,-2.218605E-3,-2.764391E-6,-8.086386E-5,-1.4053276E-3,-4.6854783E-3,1.2125493E-4,-9.71481E-4,-7.105462E-5,6.4376395E-6,2.6575182E-5,6.986416E-4,1.4578414E-5,-7.667495E-4,1.20131626E-4,-7.483874E-5,-5.8877727E-6,3.3972716E-5,-1.2699621E-4,-5.387667E-4,2.6889893E-6,1.906935E-4,-4.6331706E-6,-1.4002266E-4],"split_indices":[11,1,16,12,6,4,0,13,6,28,28,0,0,16,16,33,11,16,34,16,6,13,9,28,28,16,0,33,35,23,35,12,35,14,4,16,30,0,0,0,0,0,0,0,0,0,0,0,0,0,0,0,0,0,0,0,0,0,0,0,0,0,0,0,0,0,0],"split_type":[0,0,0,0,0,0,0,0,0,0,0,0,0,0,0,0,0,0,0,0,0,0,0,0,0,0,0,0,0,0,0,0,0,0,0,0,0,0,0,0,0,0,0,0,0,0,0,0,0,0,0,0,0,0,0,0,0,0,0,0,0,0,0,0,0,0,0],"sum_hessian":[4.9492E4,4.9454E4,3.8E1,4.577E3,4.4877E4,2.9E1,9E0,4.009E3,5.68E2,9.241E3,3.5636E4,2.2E1,7E0,2.771E3,1.238E3,2.87E2,2.81E2,4.841E3,4.4E3,6.606E3,2.903E4,2.389E3,3.82E2,1.065E3,1.73E2,2.85E2,2E0,8.4E1,1.97E2,3.085E3,1.756E3,6.01E2,3.799E3,5.518E3,1.088E3,1.171E4,1.732E4,4.12E2,1.977E3,3.6E2,2.2E1,8.99E2,1.66E2,1.39E2,3.4E1,2.7E2,1.5E1,7.8E1,6E0,1E2,9.7E1,1.33E2,2.952E3,1.07E3,6.86E2,3.08E2,2.93E2,2.049E3,1.75E3,5.165E3,3.53E2,7.95E2,2.93E2,1.0167E4,1.543E3,1.6111E4,1.209E3],"tree_param":{"num_deleted":"0","num_feature":"36","num_nodes":"67","size_leaf_vector":"1"}},{"base_weights":[-2.855132E-7,-2.0102382E-4,1.3701533E-5,-9.094477E-6,-9.2579244E-4,1.0907354E-4,-2.9468254E-5,1.6206352E-4,-2.1929298E-5,-1.7138234E-4,-3.2565668E-3,-3.850003E-6,4.5961014E-4,-3.7742182E-4,2.395945E-5,1.1867145E-5,7.4170483E-4,-7.769929E-4,-1.9046633E-5,-7.849199E-4,3.1438628E-3,3.4395777E-4,-6.817856E-3,-3.5091786E-4,-1.8333004E-6,-2.1327399E-3,5.896326E-4,-1.9084606E-5,-2.015577E-3,1.5129478E-4,-2.7292785E-5,2.3958697E-3,-1.3170663E-5,-1.7085673E-5,-2.9237484E-4,-4.8294685E-5,2.2700124E-5,-5.5824645E-4,-6.6435393E-3,8.332425E-3,7.714001E-4,5.2268506E-4,-4.5963326E-3,-2.434037E-4,-9.040761E-3,-1.270971E-4,-1.1568918E-5,-2.0091074E-5,1.8994475E-5,-1.2145799E-3,-6.1032344E-3,9.7190257E-4,-2.4835215E-4,-4.8509995E-5,2.6106802E-5,-1.1357776E-3,-4.9120015E-3,-2.1615286E-5,7.565414E-4,2.0284408E-5,-3.2862255E-4,8.33409E-4,-1.5653596E-4,-6.9279563E-6,-1.0334683E-4,5.2339988E-6,9.031197E-5,-3.8189648E-4,2.932621E-4,-3.4681624E-3,1.0434658E-3,3.298711E-3,-2.6045527E-5,5.9376354E-4,-1.5212932E-4,5.9894496E-4,6.347086E-5,-1.758539E-3,-3.098108E-4,-2.0849507E-3,1.225578E-3,-4.640492E-3,-2.105944E-3,-1.1294523E-7,-4.8593898E-5,-6.676312E-6,1.0002772E-5,4.6793107E-6,-1.6013278E-3,6.129245E-4,1.2443551E-4,-3.2173786E-3,5.3666186E-6,-2.1868227E-5,5.4450015E-7,-9.4124135E-7,8.1570106E-5,-1.2406941E-4,-1.2446383E-3,-3.0522957E-3,-5.743891E-4,-7.620189E-6,3.6125426E-4,5.4880994E-4,-1.4814617E-4,3.8638922E-5,2.1139747E-6,-2.5935052E-3,-8.265863E-5],"categories":[],"categories_nodes":[],"categories_segments":[],"categories_sizes":[],"default_left":[0,0,0,0,0,0,0,1,0,0,0,0,0,0,0,0,0,1,0,0,0,0,0,0,0,0,0,1,0,0,0,0,0,0,0,0,0,0,0,0,1,0,0,0,0,0,0,0,0,0,0,1,0,0,1,0,1,1,0,0,0,0,0,0,0,0,0,0,0,0,0,0,0,0,0,0,0,0,0,0,0,0,0,0,0,0,0,0,0,0,0,0,0,0,0,0,0,0,0,0,0,0,0,0,0,0,0,0,0],"id":23,"left_children":[1,3,5,7,9,11,13,15,17,19,21,23,25,27,29,-1,31,33,35,37,39,41,43,45,47,49,51,53,55,57,59,61,-1,-1,-1,63,65,67,69,71,73,75,77,79,81,-1,-1,83,85,87,-1,89,91,93,95,97,99,101,103,105,107,-1,-1,-1,-1,-1,-1,-1,-1,-1,-1,-1,-1,-1,-1,-1,-1,-1,-1,-1,-1,-1,-1,-1,-1,-1,-1,-1,-1,-1,-1,-1,-1,-1,-1,-1,-1,-1,-1,-1,-1,-1,-1,-1,-1,-1,-1,-1,-1],"loss_changes":[1.3896603E-4,4.4846407E-4,1.9050555E-4,5.6053486E-6,1.1863346E-3,5.7072146E-4,5.9216784E-4,1.2610399E-5,5.1502607E-6,1.0418558E-3,2.118059E-3,7.632822E-6,1.1853625E-3,2.4888925E-3,1.8021917E-4,0E0,4.039042E-5,1.2249507E-6,2.888788E-6,5.6998443E-4,9.78346E-4,7.568853E-5,1.2107929E-3,1.4150482E-6,4.1240164E-6,2.7844105E-3,1.0720869E-3,4.628883E-6,1.9336566E-3,8.293932E-4,2.8229086E-4,1.2599667E-5,0E0,0E0,0E0,1.0375235E-5,1.4204387E-6,4.589815E-4,8.365094E-4,5.615243E-4,8.747798E-5,3.6717844E-5,7.4754425E-6,6.670494E-4,6.967783E-4,0E0,0E0,1.6165392E-5,2.9990156E-6,8.167143E-4,0E0,1.3705364E-3,2.9260665E-3,2.5869213E-6,9.870051E-6,1.2712673E-3,2.7723615E-3,2.863656E-5,2.363143E-3,2.442758E-5,1.1831766E-3,0E0,0E0,0E0,0E0,0E0,0E0,0E0,0E0,0E0,0E0,0E0,0E0,0E0,0E0,0E0,0E0,0E0,0E0,0E0,0E0,0E0,0E0,0E0,0E0,0E0,0E0,0E0,0E0,0E0,0E0,0E0,0E0,0E0,0E0,0E0,0E0,0E0,0E0,0E0,0E0,0E0,0E0,0E0,0E0,0E0,0E0,0E0,0E0],"parents":[2147483647,0,0,1,1,2,2,3,3,4,4,5,5,6,6,7,7,8,8,9,9,10,10,11,11,12,12,13,13,14,14,16,16,17,17,18,18,19,19,20,20,21,21,22,22,23,23,24,24,25,25,26,26,27,27,28,28,29,29,30,30,31,31,35,35,36,36,37,37,38,38,39,39,40,40,41,41,42,42,43,43,44,44,47,47,48,48,49,49,51,51,52,52,53,53,54,54,55,55,56,56,57,57,58,58,59,59,60,60],"right_children":[2,4,6,8,10,12,14,16,18,20,22,24,26,28,30,-1,32,34,36,38,40,42,44,46,48,50,52,54,56,58,60,62,-1,-1,-1,64,66,68,70,72,74,76,78,80,82,-1,-1,84,86,88,-1,90,92,94,96,98,100,102,104,106,108,-1,-1,-1,-1,-1,-1,-1,-1,-1,-1,-1,-1,-1,-1,-1,-1,-1,-1,-1,-1,-1,-1,-1,-1,-1,-1,-1,-1,-1,-1,-1,-1,-1,-1,-1,-1,-1,-1,-1,-1,-1,-1,-1,-1,-1,-1,-1,-1],"split_conditions":[-3.821723E-2,1E-5,-3.1267338E-2,-2.690082E-1,-6.999999E-2,1.9999999E-1,-1.4185116E-2,-8.226133E-2,-1.6999999E-1,1.999998E-2,7.999998E-2,-9E-2,2.6665172E-2,1E-5,1.3485689E-2,1.1867145E-5,-1.6406448E-1,-6.282619E-2,1.8E-1,-6.27178E-2,2.000001E-2,-5.0000012E-2,-1.3042417E-1,1.8558243E-1,1.8E-1,-3.9920848E-2,1.9010361E-2,8.954188E-2,-6.999999E-2,1E-5,2.2000003E-1,2.4927275E-1,-1.3170663E-5,-1.7085673E-5,-2.9237484E-4,1.7000002E-1,2.0999998E-1,-6.505628E-2,-3.9561093E-2,1.23392E-1,1.09999985E-1,-3.661262E-2,-9.441572E-2,-6.597335E-2,-6.0000002E-2,-1.270971E-4,-1.1568918E-5,1.7000002E-1,-7.000002E-2,1.2378027E-2,-6.1032344E-3,-7.000002E-2,5.049777E-2,1.8E-1,-5.9999973E-2,3.1423636E-2,8.9999974E-2,1.3393858E-1,-2.7319586E-2,-1.999998E-2,-1.2566373E-2,8.33409E-4,-1.5653596E-4,-6.9279563E-6,-1.0334683E-4,5.2339988E-6,9.031197E-5,-3.8189648E-4,2.932621E-4,-3.4681624E-3,1.0434658E-3,3.298711E-3,-2.6045527E-5,5.9376354E-4,-1.5212932E-4,5.9894496E-4,6.347086E-5,-1.758539E-3,-3.098108E-4,-2.0849507E-3,1.225578E-3,-4.640492E-3,-2.105944E-3,-1.1294523E-7,-4.8593898E-5,-6.676312E-6,1.0002772E-5,4.6793107E-6,-1.6013278E-3,6.129245E-4,1.2443551E-4,-3.2173786E-3,5.3666186E-6,-2.1868227E-5,5.4450015E-7,-9.4124135E-7,8.1570106E-5,-1.2406941E-4,-1.2446383E-3,-3.0522957E-3,-5.743891E-4,-7.620189E-6,3.6125426E-4,5.4880994E-4,-1.4814617E-4,3.8638922E-5,2.1139747E-6,-2.5935052E-3,-8.265863E-5],"split_indices":[28,16,32,6,29,23,28,32,15,5,13,31,10,16,34,0,4,32,23,4,5,1,4,12,23,4,30,12,31,16,17,12,0,0,0,17,23,32,28,10,7,0,4,28,29,0,0,17,35,34,0,13,10,23,31,34,7,14,4,11,0,0,0,0,0,0,0,0,0,0,0,0,0,0,0,0,0,0,0,0,0,0,0,0,0,0,0,0,0,0,0,0,0,0,0,0,0,0,0,0,0,0,0,0,0,0,0,0,0],"split_type":[0,0,0,0,0,0,0,0,0,0,0,0,0,0,0,0,0,0,0,0,0,0,0,0,0,0,0,0,0,0,0,0,0,0,0,0,0,0,0,0,0,0,0,0,0,0,0,0,0,0,0,0,0,0,0,0,0,0,0,0,0,0,0,0,0,0,0,0,0,0,0,0,0,0,0,0,0,0,0,0,0,0,0,0,0,0,0,0,0,0,0,0,0,0,0,0,0,0,0,0,0,0,0,0,0,0,0,0,0],"sum_hessian":[4.9492E4,3.223E3,4.6269E4,2.549E3,6.74E2,1.4417E4,3.1852E4,1.77E2,2.372E3,5.1E2,1.64E2,1.0905E4,3.512E3,4.239E3,2.7613E4,1.47E2,3E1,8E0,2.364E3,4.31E2,7.9E1,8.2E1,8.2E1,6.2E1,1.0843E4,1.67E2,3.345E3,3.479E3,7.6E2,7.924E3,1.9689E4,9E0,2.1E1,2E0,6E0,1.39E3,9.74E2,4.16E2,1.5E1,2.4E1,5.5E1,8E1,2E0,2.1E1,6.1E1,5E1,1.2E1,5.778E3,5.065E3,1.6E2,7E0,2.297E3,1.048E3,2.107E3,1.372E3,5.84E2,1.76E2,6.164E3,1.76E3,1.7005E4,2.684E3,8E0,1E0,1.282E3,1.08E2,9.57E2,1.7E1,2.84E2,1.32E2,1E1,5E0,1.8E1,6E0,2.8E1,2.7E1,1.3E1,6.7E1,1E0,1E0,8E0,1.3E1,1.3E1,4.8E1,5.074E3,7.04E2,1.307E3,3.758E3,1.24E2,3.6E1,7.85E2,1.512E3,2.5E1,1.023E3,1.419E3,6.88E2,1.227E3,1.45E2,4.72E2,1.12E2,6.3E1,1.13E2,6.146E3,1.8E1,9.47E2,8.13E2,1.848E3,1.5157E4,1.6E1,2.668E3],"tree_param":{"num_deleted":"0","num_feature":"36","num_nodes":"109","size_leaf_vector":"1"}},{"base_weights":[-6.980613E-7,-1.6996029E-4,1.6019629E-5,-1.0189329E-3,1.3334333E-5,1.2550411E-4,-1.9567487E-5,-3.758815E-5,-2.6303132E-3,2.2404109E-5,-3.6684605E-3,2.5358607E-4,-1.20109624E-4,-1.7705814E-4,2.3137385E-5,8.744128E-5,-1.1453223E-4,-7.3541207E-3,-2.2835042E-3,-1.2333952E-3,3.9118662E-5,-9.658508E-6,-3.279078E-3,6.025577E-6,6.97574E-4,-9.512432E-4,9.294951E-5,-5.2010737E-6,-9.6242246E-4,2.2386257E-4,-1.7286129E-6,4.1228966E-4,3.966066E-5,-2.087341E-4,2.5972542E-5,1.1444129E-3,-1.2018287E-2,-1.8817447E-3,-6.909514E-3,-2.327751E-4,-2.9376522E-3,1.6633865E-4,-1.4386718E-4,2.4721842E-6,7.9154613E-4,1.3430559E-3,-2.4747054E-4,-5.696611E-5,-4.2209374E-3,9.126481E-4,-2.5562671E-5,-5.4277076E-5,6.632803E-5,-2.1763828E-3,2.2901648E-4,2.2489085E-5,1.0882459E-3,3.2951718E-4,-1.8439958E-5,1.8074636E-5,8.569479E-4,2.5904255E-6,1.9423944E-4,-5.7599E-6,-8.617616E-5,-3.1580732E-3,2.0368018E-3,2.3936303E-3,-4.3048817E-3,-6.417491E-4,1.0785182E-3,-5.090293E-3,-1.3285064E-3,-9.132624E-5,2.3901463E-5,1.790698E-5,2.4544762E-4,-6.7985774E-4,-2.4533967E-5,-8.846021E-6,1.8780538E-5,6.829728E-4,1.3728738E-5,9.503644E-5,1.0330642E-3,-2.2629459E-4,7.1402546E-4,2.3585685E-6,-2.6046336E-4,-8.291717E-4,-2.7168298E-3,1.03880746E-4,2.4122107E-3,-4.324663E-4,2.8520808E-5,-3.2231572E-5,1.3416936E-5,-1.9923646E-5,6.801522E-5,-4.1076657E-4,-1.252793E-3,-7.920063E-4,2.0297618E-4,6.887565E-5,1.9322633E-6,2.1657865E-3,2.359689E-4,1.8291175E-6,1.0480455E-3,-8.4785967E-7,-1.2185442E-4],"categories":[],"categories_nodes":[],"categories_segments":[],"categories_sizes":[],"default_left":[0,1,1,0,1,0,0,0,0,0,0,0,0,0,0,0,0,0,0,0,1,0,0,0,0,0,0,0,0,0,0,0,0,1,0,0,0,0,0,0,0,0,0,0,0,0,0,0,0,1,0,0,0,0,0,0,0,0,0,0,0,0,0,0,0,0,0,0,0,0,0,0,0,0,0,0,0,0,0,0,0,0,0,0,0,0,0,0,0,0,0,0,0,0,0,0,0,0,0,0,0,0,0,0,0,0,0,0,0,0,0],"id":24,"left_children":[1,3,5,7,9,11,13,15,17,19,21,23,25,27,29,31,33,35,37,39,41,-1,-1,43,45,47,49,51,53,55,57,59,61,63,-1,65,67,69,71,73,-1,75,77,79,81,83,85,87,89,91,93,95,97,99,101,103,105,107,109,-1,-1,-1,-1,-1,-1,-1,-1,-1,-1,-1,-1,-1,-1,-1,-1,-1,-1,-1,-1,-1,-1,-1,-1,-1,-1,-1,-1,-1,-1,-1,-1,-1,-1,-1,-1,-1,-1,-1,-1,-1,-1,-1,-1,-1,-1,-1,-1,-1,-1,-1,-1],"loss_changes":[1.4005176E-4,6.923319E-4,1.7550845E-4,1.2491436E-3,1.2230076E-4,3.4764898E-4,2.286482E-4,4.74319E-6,4.7304598E-4,7.6704186E-5,2.3730061E-4,7.983004E-4,6.708697E-4,9.788005E-4,1.334909E-4,2.9016828E-6,5.796203E-6,8.0652523E-4,5.073901E-4,4.087967E-4,8.394637E-5,0E0,0E0,1.3016494E-5,1.5863562E-3,2.2600212E-3,2.930104E-4,2.0893765E-5,1.8836586E-3,5.131159E-4,1.317414E-4,2.0478928E-5,3.1059255E-6,3.08998E-6,0E0,5.985409E-4,7.2054553E-4,3.7283736E-4,4.738894E-4,1.009214E-6,0E0,1.4781121E-4,1.9470166E-4,8.926115E-6,2.315355E-5,3.329414E-3,1.4081368E-3,3.1982396E-5,1.1444374E-3,1.5353811E-3,4.5040264E-4,1.8583189E-5,5.1579715E-5,1.0353082E-3,8.467222E-4,7.948395E-6,1.0245658E-3,1.1696001E-3,1.3716056E-4,0E0,0E0,0E0,0E0,0E0,0E0,0E0,0E0,0E0,0E0,0E0,0E0,0E0,0E0,0E0,0E0,0E0,0E0,0E0,0E0,0E0,0E0,0E0,0E0,0E0,0E0,0E0,0E0,0E0,0E0,0E0,0E0,0E0,0E0,0E0,0E0,0E0,0E0,0E0,0E0,0E0,0E0,0E0,0E0,0E0,0E0,0E0,0E0,0E0,0E0,0E0,0E0],"parents":[2147483647,0,0,1,1,2,2,3,3,4,4,5,5,6,6,7,7,8,8,9,9,10,10,11,11,12,12,13,13,14,14,15,15,16,16,17,17,18,18,19,19,20,20,23,23,24,24,25,25,26,26,27,27,28,28,29,29,30,30,31,31,32,32,33,33,35,35,36,36,37,37,38,38,39,39,41,41,42,42,43,43,44,44,45,45,46,46,47,47,48,48,49,49,50,50,51,51,52,52,53,53,54,54,55,55,56,56,57,57,58,58],"right_children":[2,4,6,8,10,12,14,16,18,20,22,24,26,28,30,32,34,36,38,40,42,-1,-1,44,46,48,50,52,54,56,58,60,62,64,-1,66,68,70,72,74,-1,76,78,80,82,84,86,88,90,92,94,96,98,100,102,104,106,108,110,-1,-1,-1,-1,-1,-1,-1,-1,-1,-1,-1,-1,-1,-1,-1,-1,-1,-1,-1,-1,-1,-1,-1,-1,-1,-1,-1,-1,-1,-1,-1,-1,-1,-1,-1,-1,-1,-1,-1,-1,-1,-1,-1,-1,-1,-1,-1,-1,-1,-1,-1,-1],"split_conditions":[-7.686087E-3,-9E-2,-5.0000012E-2,-7.9241935E-3,7.866723E-2,-1.7971702E-2,-6.999999E-2,4.5999998E-1,0E0,-2.0000002E-1,-3.9416518E-2,1E-5,-9.0085305E-3,1E-5,-6.0000002E-2,9E-2,1.9E-1,-2.375963E-2,-6.999999E-2,-2.8281692E-2,-7.999998E-2,-9.658508E-6,-3.279078E-3,-1.8082634E-2,-5.832189E-3,8.033401E-1,0E0,-7.999998E-2,9E-2,1E-5,-1.6991776E-1,2.000001E-2,1.999998E-2,-4.18486E-2,2.5972542E-5,-9.911292E-2,2.3117645E-2,1.999998E-2,-6.0000002E-2,-9.414299E-3,-2.9376522E-3,1.21781275E-1,-7.000002E-2,-5.832189E-3,-1.7925158E-2,-1.7925158E-2,1.999998E-2,1E-5,-6.999999E-2,-6.999999E-2,9.17644E-3,1.8E-1,-5.832189E-3,7.999998E-2,1.7000002E-1,1.8E-1,-7.999998E-2,1E-5,1.2623516E-1,1.8074636E-5,8.569479E-4,2.5904255E-6,1.9423944E-4,-5.7599E-6,-8.617616E-5,-3.1580732E-3,2.0368018E-3,2.3936303E-3,-4.3048817E-3,-6.417491E-4,1.0785182E-3,-5.090293E-3,-1.3285064E-3,-9.132624E-5,2.3901463E-5,1.790698E-5,2.4544762E-4,-6.7985774E-4,-2.4533967E-5,-8.846021E-6,1.8780538E-5,6.829728E-4,1.3728738E-5,9.503644E-5,1.0330642E-3,-2.2629459E-4,7.1402546E-4,