{"learner":{"attributes":{"best_iteration":"99","best_score":"0.00484004736873944"},"feature_names":[],"feature_types":[],"gradient_booster":{"model":{"gbtree_model_param":{"num_parallel_tree":"1","num_trees":"100"},"iteration_indptr":[0,1,2,3,4,5,6,7,8,9,10,11,12,13,14,15,16,17,18,19,20,21,22,23,24,25,26,27,28,29,30,31,32,33,34,35,36,37,38,39,40,41,42,43,44,45,46,47,48,49,50,51,52,53,54,55,56,57,58,59,60,61,62,63,64,65,66,67,68,69,70,71,72,73,74,75,76,77,78,79,80,81,82,83,84,85,86,87,88,89,90,91,92,93,94,95,96,97,98,99,100],"tree_info":[0,0,0,0,0,0,0,0,0,0,0,0,0,0,0,0,0,0,0,0,0,0,0,0,0,0,0,0,0,0,0,0,0,0,0,0,0,0,0,0,0,0,0,0,0,0,0,0,0,0,0,0,0,0,0,0,0,0,0,0,0,0,0,0,0,0,0,0,0,0,0,0,0,0,0,0,0,0,0,0,0,0,0,0,0,0,0,0,0,0,0,0,0,0,0,0,0,0,0,0],"trees":[{"base_weights":[2.4417275E-9,-4.880814E-2,2.1886606E-2,-5.41082E-2,-3.1757556E-2,1.0033578E-2,5.0870422E-2,-7.4280195E-2,-5.0519913E-2,-9.885196E-3,-1.1095483E-2,2.2430891E-2,-8.853638E-3,2.3096934E-2,5.6305803E-2,-3.0506762E-2,-2.1875074E-2,-3.553727E-2,-5.2013576E-2,-3.8667216E-3,2.0007559E-3,1.8119711E-2,5.0384786E-2,-2.6092706E-2,8.412399E-3,7.999241E-3,2.7174966E-2,5.2774336E-2,7.87861E-2,-3.8480023E-3,-3.8223006E-2,-5.3385064E-2,-4.071462E-2,2.738871E-2,1.1691828E-2,5.573237E-2,2.3866897E-2,-3.0472228E-2,5.324194E-2,1.3957864E-2,-3.7489955E-3,4.9658604E-3,2.1051627E-3,1.0582771E-2,8.105478E-3,4.5366053E-2,5.7814322E-2,2.3089292E-2,2.8829271E-2,-1.0892231E-2,-1.8567953E-2,-2.1630133E-2,-1.5911886E-2,-1.069316E-2,-1.5169385E-2,9.0483865E-3,4.6118004E-3,2.2849103E-3,7.090873E-3,1.9199334E-3,1.681005E-2,1.1555407E-2,-3.2124394E-3,-1.0889636E-2,1.6969151E-3,1.8183475E-2,-1.5659366E-2,4.9177012E-3,-8.8594464E-4,-1.5131508E-2,-9.258652E-4,2.3048759E-2,1.224597E-2,1.7107788E-2,2.5654048E-2],"categories":[],"categories_nodes":[],"categories_segments":[],"categories_sizes":[],"default_left":[0,1,1,0,0,1,0,0,0,0,0,1,1,0,1,0,0,0,1,0,0,0,0,0,0,0,0,0,0,0,0,0,0,1,1,0,1,1,0,0,0,0,0,0,0,0,0,0,0,0,0,0,0,0,0,0,0,0,0,0,0,0,0,0,0,0,0,0,0,0,0,0,0,0,0],"id":0,"left_children":[1,3,5,7,9,11,13,15,17,-1,19,21,23,25,27,-1,-1,29,31,-1,-1,33,35,37,39,41,43,45,47,-1,49,51,53,55,57,59,61,63,65,67,69,-1,-1,-1,-1,71,73,-1,-1,-1,-1,-1,-1,-1,-1,-1,-1,-1,-1,-1,-1,-1,-1,-1,-1,-1,-1,-1,-1,-1,-1,-1,-1,-1,-1],"loss_changes":[5.2871693E1,1.383007E0,1.17388E1,8.4225845E-1,8.926821E-2,5.679291E0,1.4959164E0,5.8462143E-2,2.2028732E-1,0E0,6.458463E-3,1.7637777E0,2.8612351E0,9.983206E-2,6.5429115E-1,0E0,0E0,5.458808E-2,1.376648E-1,0E0,0E0,7.5563145E-1,2.760439E-1,1.6728461E0,3.239694E-1,2.7986243E-3,6.7061186E-4,2.6512527E-1,2.805233E-2,0E0,3.434372E-2,4.8179626E-2,4.7195554E-2,1.7261004E-1,3.6462033E-1,2.3810863E-2,1.6757824E-1,9.598999E-1,1.9898129E-1,1.3586634E-1,4.64161E-2,0E0,0E0,0E0,0E0,4.1281414E-1,8.8235855E-2,0E0,0E0,0E0,0E0,0E0,0E0,0E0,0E0,0E0,0E0,0E0,0E0,0E0,0E0,0E0,0E0,0E0,0E0,0E0,0E0,0E0,0E0,0E0,0E0,0E0,0E0,0E0,0E0],"parents":[2147483647,0,0,1,1,2,2,3,3,4,4,5,5,6,6,7,7,8,8,10,10,11,11,12,12,13,13,14,14,17,17,18,18,21,21,22,22,23,23,24,24,25,25,26,26,27,27,28,28,30,30,31,31,32,32,33,33,34,34,35,35,36,36,37,37,38,38,39,39,40,40,45,45,46,46],"right_children":[2,4,6,8,10,12,14,16,18,-1,20,22,24,26,28,-1,-1,30,32,-1,-1,34,36,38,40,42,44,46,48,-1,50,52,54,56,58,60,62,64,66,68,70,-1,-1,-1,-1,72,74,-1,-1,-1,-1,-1,-1,-1,-1,-1,-1,-1,-1,-1,-1,-1,-1,-1,-1,-1,-1,-1,-1,-1,-1,-1,-1,-1,-1],"split_conditions":[1.6999999E-1,3.9E-1,1.8999997E-1,3.6999997E-1,4.1E-1,-6.0000002E-2,4.6E-1,3.5E-1,-7.000002E-2,-9.885196E-3,-1.29704345E-2,-6.999999E-2,1.6999999E-1,4.5000002E-1,4.9999997E-1,-3.0506762E-2,-2.1875074E-2,3.999999E-2,1.5E-1,-3.8667216E-3,2.0007559E-3,-7.999998E-2,-7.999998E-2,-5.0000012E-2,-6.999999E-2,-7.999998E-2,-7.999998E-2,1.9000003E-1,5.2E-1,-3.8480023E-3,-5.832189E-3,1.3E-1,7.5953244E-3,3.999999E-2,4.4E-1,4.4E-1,6.0000002E-2,1.09999985E-1,-3.999999E-2,1.999998E-2,-6.0000002E-2,4.9658604E-3,2.1051627E-3,1.0582771E-2,8.105478E-3,-1.999998E-2,2.0999998E-1,2.3089292E-2,2.8829271E-2,-1.0892231E-2,-1.8567953E-2,-2.1630133E-2,-1.5911886E-2,-1.069316E-2,-1.5169385E-2,9.0483865E-3,4.6118004E-3,2.2849103E-3,7.090873E-3,1.9199334E-3,1.681005E-2,1.1555407E-2,-3.2124394E-3,-1.0889636E-2,1.6969151E-3,1.8183475E-2,-1.5659366E-2,4.9177012E-3,-8.8594464E-4,-1.5131508E-2,-9.258652E-4,2.3048759E-2,1.224597E-2,1.7107788E-2,2.5654048E-2],"split_indices":[23,27,23,27,27,33,27,27,1,0,18,33,17,27,27,0,0,7,15,0,0,31,29,1,29,1,1,17,27,0,16,23,30,13,27,27,13,7,1,5,1,0,0,0,0,11,23,0,0,0,0,0,0,0,0,0,0,0,0,0,0,0,0,0,0,0,0,0,0,0,0,0,0,0,0],"split_type":[0,0,0,0,0,0,0,0,0,0,0,0,0,0,0,0,0,0,0,0,0,0,0,0,0,0,0,0,0,0,0,0,0,0,0,0,0,0,0,0,0,0,0,0,0,0,0,0,0,0,0,0,0,0,0,0,0,0,0,0,0,0,0,0,0,0,0,0,0,0,0,0,0,0,0],"sum_hessian":[4.9492E4,1.5322E4,3.417E4,1.1687E4,3.635E3,2.4253E4,9.917E3,1.762E3,9.925E3,3.436E3,1.99E2,1.4642E4,9.611E3,1.624E3,8.293E3,8E1,1.682E3,9.02E2,9.023E3,1.81E2,1.8E1,1.2687E4,1.955E3,4.809E3,4.802E3,3.46E2,1.278E3,7.17E3,1.123E3,9.6E1,8.06E2,8.043E3,9.8E2,5.194E3,7.493E3,1.626E3,3.29E2,4.558E3,2.51E2,3.298E3,1.504E3,3.4E1,3.12E2,2E1,1.258E3,2.907E3,4.263E3,1.021E3,1.02E2,7.48E2,5.8E1,1.42E2,7.901E3,6.5E2,3.3E2,4.219E3,9.75E2,5.588E3,1.905E3,1E1,1.616E3,2.31E2,9.8E1,3.925E3,6.33E2,2.35E2,1.6E1,2.883E3,4.15E2,2E1,1.484E3,3.65E2,2.542E3,4.148E3,1.15E2],"tree_param":{"num_deleted":"0","num_feature":"36","num_nodes":"75","size_leaf_vector":"1"}},{"base_weights":[5.3280297E-7,-3.4176197E-2,1.5326102E-2,-3.78885E-2,-2.2233523E-2,7.0248023E-3,3.5624996E-2,-5.2025836E-2,-3.5373688E-2,-6.9205E-3,-7.7761575E-3,1.1790995E-2,-1.9667787E-2,1.6183697E-2,3.942973E-2,-2.1467723E-2,-1.5316446E-2,-3.1769875E-2,-3.894508E-2,-2.7130758E-3,1.4321218E-3,2.3943108E-2,6.0111876E-3,-3.3702325E-2,-2.8347247E-3,5.619833E-3,1.9037079E-2,3.6952917E-2,5.519646E-2,-3.517404E-2,-2.1078663E-2,-3.6321875E-2,-4.6687707E-2,1.9182319E-2,3.8699403E-2,4.917443E-3,3.3476688E-2,-3.7514027E-2,-1.6440904E-3,-3.7073852E-3,-2.688538E-3,3.5186636E-3,1.4756274E-3,7.5591207E-3,5.6757634E-3,3.1213246E-2,4.0395644E-2,1.6169284E-2,2.0264456E-2,-7.873804E-3,-1.12586785E-2,-1.0554346E-2,-6.031389E-3,-1.0970591E-2,-4.8701027E-3,-1.4455349E-2,-5.118344E-3,6.823644E-3,4.464358E-3,1.1887859E-2,-1.1185837E-2,2.797172E-3,-1.5607175E-3,1.04627805E-2,-1.2999423E-2,-8.412549E-3,-1.47322E-2,-1.309897E-3,2.0699762E-2,-6.959318E-4,-1.3918007E-3,1.0972601E-2,2.1988526E-3,1.1958943E-2,1.802418E-2],"categories":[],"categories_nodes":[],"categories_segments":[],"categories_sizes":[],"default_left":[0,1,1,0,0,1,0,0,0,0,0,0,1,0,1,0,0,1,1,0,0,0,0,0,0,0,0,0,0,0,0,0,1,1,0,0,1,1,0,0,0,0,0,0,0,1,0,0,0,0,0,0,0,0,0,0,0,0,0,0,0,0,0,0,0,0,0,0,0,0,0,0,0,0,0],"id":1,"left_children":[1,3,5,7,9,11,13,15,17,-1,19,21,23,25,27,-1,-1,29,31,-1,-1,33,35,37,39,41,43,45,47,49,51,53,55,57,59,61,63,65,67,-1,69,-1,-1,-1,-1,71,73,-1,-1,-1,-1,-1,-1,-1,-1,-1,-1,-1,-1,-1,-1,-1,-1,-1,-1,-1,-1,-1,-1,-1,-1,-1,-1,-1,-1],"loss_changes":[2.5923862E1,6.784992E-1,5.7578096E0,4.137001E-1,4.3704033E-2,3.0858746E0,7.3298645E-1,2.9785633E-2,1.2651634E-1,0E0,3.2243896E-3,1.4453306E0,8.6810184E-1,4.8874974E-2,3.2185173E-1,0E0,0E0,1.7926645E-1,9.9470615E-2,0E0,0E0,4.6523666E-1,4.1883677E-1,2.4482036E-1,2.2944799E-3,1.4284737E-3,4.5195222E-4,1.4043903E-1,1.4391661E-2,7.7857494E-2,1.573509E-2,1.7870426E-2,5.491948E-2,7.6550126E-2,1.1535096E-1,5.982593E-1,5.8902085E-2,1.9529986E-1,4.145508E-2,0E0,1.1747871E-3,0E0,0E0,0E0,0E0,3.446157E-1,4.4555187E-2,0E0,0E0,0E0,0E0,0E0,0E0,0E0,0E0,0E0,0E0,0E0,0E0,0E0,0E0,0E0,0E0,0E0,0E0,0E0,0E0,0E0,0E0,0E0,0E0,0E0,0E0,0E0,0E0],"parents":[2147483647,0,0,1,1,2,2,3,3,4,4,5,5,6,6,7,7,8,8,10,10,11,11,12,12,13,13,14,14,17,17,18,18,21,21,22,22,23,23,24,24,25,25,26,26,27,27,28,28,29,29,30,30,31,31,32,32,33,33,34,34,35,35,36,36,37,37,38,38,40,40,45,45,46,46],"right_children":[2,4,6,8,10,12,14,16,18,-1,20,22,24,26,28,-1,-1,30,32,-1,-1,34,36,38,40,42,44,46,48,50,52,54,56,58,60,62,64,66,68,-1,70,-1,-1,-1,-1,72,74,-1,-1,-1,-1,-1,-1,-1,-1,-1,-1,-1,-1,-1,-1,-1,-1,-1,-1,-1,-1,-1,-1,-1,-1,-1,-1,-1,-1],"split_conditions":[1.6999999E-1,3.9E-1,1.8999997E-1,3.6999997E-1,4.1E-1,-6.0000002E-2,4.6E-1,3.5E-1,6.005968E-3,-6.9205E-3,-1.29704345E-2,-7.999998E-2,1.10000014E-1,4.5000002E-1,4.9999997E-1,-2.1467723E-2,-1.5316446E-2,8.9999974E-2,-5.9999973E-2,-2.7130758E-3,1.4321218E-3,-6.999999E-2,-5.0000012E-2,1.999998E-2,-6.4693973E-3,-7.999998E-2,-7.999998E-2,1.9000003E-1,5.2E-1,-7.000002E-2,1.4999998E-1,1.6999999E-1,2.9000002E-1,3.999999E-2,-6.0000002E-2,2.0000005E-1,9E-2,6.005968E-3,-5.0000012E-2,-3.7073852E-3,1E-5,3.5186636E-3,1.4756274E-3,7.5591207E-3,5.6757634E-3,1.09999985E-1,2.0999998E-1,1.6169284E-2,2.0264456E-2,-7.873804E-3,-1.12586785E-2,-1.0554346E-2,-6.031389E-3,-1.0970591E-2,-4.8701027E-3,-1.4455349E-2,-5.118344E-3,6.823644E-3,4.464358E-3,1.1887859E-2,-1.1185837E-2,2.797172E-3,-1.5607175E-3,1.04627805E-2,-1.2999423E-2,-8.412549E-3,-1.47322E-2,-1.309897E-3,2.0699762E-2,-6.959318E-4,-1.3918007E-3,1.0972601E-2,2.1988526E-3,1.1958943E-2,1.802418E-2],"split_indices":[23,27,23,27,27,29,27,27,30,0,18,29,7,27,27,0,0,13,31,0,0,1,1,5,0,1,1,23,27,35,15,17,25,7,1,17,7,30,1,0,16,0,0,0,0,7,23,0,0,0,0,0,0,0,0,0,0,0,0,0,0,0,0,0,0,0,0,0,0,0,0,0,0,0,0],"split_type":[0,0,0,0,0,0,0,0,0,0,0,0,0,0,0,0,0,0,0,0,0,0,0,0,0,0,0,0,0,0,0,0,0,0,0,0,0,0,0,0,0,0,0,0,0,0,0,0,0,0,0,0,0,0,0,0,0,0,0,0,0,0,0,0,0,0,0,0,0,0,0,0,0,0,0],"sum_hessian":[4.9492E4,1.5322E4,3.417E4,1.1687E4,3.635E3,2.4253E4,9.917E3,1.762E3,9.925E3,3.436E3,1.99E2,2.0579E4,3.674E3,1.624E3,8.293E3,8E1,1.682E3,4.945E3,4.98E3,1.81E2,1.8E1,6.632E3,1.3947E4,2.003E3,1.671E3,3.46E2,1.278E3,7.17E3,1.123E3,3.749E3,1.196E3,3.724E3,1.256E3,5.016E3,1.616E3,1.3414E4,5.33E2,1.79E3,2.13E2,2.4E1,1.647E3,3.4E1,3.12E2,2E1,1.258E3,2.692E3,4.478E3,1.021E3,1.02E2,7.85E2,2.964E3,7.5E1,1.121E3,3.678E3,4.6E1,1.195E3,6.1E1,2.741E3,2.275E3,1.597E3,1.9E1,9.345E3,4.069E3,5.24E2,9E0,9.87E2,8.03E2,2.06E2,7E0,1.387E3,2.6E2,2.198E3,4.94E2,4.363E3,1.15E2],"tree_param":{"num_deleted":"0","num_feature":"36","num_nodes":"75","size_leaf_vector":"1"}},{"base_weights":[2.4358263E-8,-2.3930915E-2,1.0731164E-2,-2.6531177E-2,-1.5565734E-2,4.917405E-3,2.4947355E-2,-3.6438942E-2,-2.4768744E-2,-4.844958E-3,-5.449707E-3,8.25421E-3,-1.3770045E-2,1.1339805E-2,2.7610404E-2,-1.5106917E-2,-1.072424E-2,-1.7248696E-2,-2.563655E-2,-1.9036226E-3,1.025098E-3,1.6635684E-2,4.1161E-3,-2.3814935E-2,-9.8503E-4,1.0343521E-3,1.3212497E-2,2.5873054E-2,3.866994E-2,-1.5226854E-2,-3.0099304E-2,-5.3931896E-2,-2.537046E-2,1.3201297E-2,2.7720882E-2,1.1280178E-2,1.0389835E-3,-2.7040973E-2,-2.2594577E-3,3.966654E-3,-1.7263797E-3,2.493222E-3,1.3336304E-2,4.0279664E-2,2.5027292E-2,1.1323246E-2,1.4244146E-2,-8.916458E-3,-4.075E-3,-1.0352482E-2,-4.467438E-3,-2.0352423E-2,-1.3512302E-2,-6.911432E-3,-8.186353E-3,4.5312797E-3,1.6752161E-3,8.51637E-3,-7.997877E-3,2.7844538E-3,9.930156E-3,-8.6106835E-3,1.3120688E-3,-8.689454E-3,-9.7235787E-4,-1.1620871E-3,1.5266071E-2,2.0102232E-3,-2.9343582E-4,-1.531609E-3,-4.0121799E-4,5.399372E-3,3.974387E-3,-3.436293E-3,1.2918581E-2,4.2036623E-3,8.276295E-3],"categories":[],"categories_nodes":[],"categories_segments":[],"categories_sizes":[],"default_left":[0,1,1,0,0,1,0,0,0,0,0,0,1,0,1,0,0,0,0,0,0,0,0,0,1,0,0,0,0,0,0,0,0,1,0,1,0,1,0,0,1,0,0,0,0,0,0,0,0,0,0,0,0,0,0,0,0,0,0,0,0,0,0,0,0,0,0,0,0,0,0,0,0,0,0,0,0],"id":2,"left_children":[1,3,5,7,9,11,13,15,17,-1,19,21,23,25,27,-1,-1,29,31,-1,-1,33,35,37,39,-1,41,43,45,47,49,51,53,55,57,59,61,63,65,67,69,-1,71,73,75,-1,-1,-1,-1,-1,-1,-1,-1,-1,-1,-1,-1,-1,-1,-1,-1,-1,-1,-1,-1,-1,-1,-1,-1,-1,-1,-1,-1,-1,-1,-1,-1],"loss_changes":[1.2710369E1,3.328867E-1,2.8240938E0,2.031908E-1,2.1397233E-2,1.5125057E0,3.5909128E-1,1.5166283E-2,6.433439E-2,0E0,1.6100653E-3,7.137171E-1,4.719349E-1,2.3970678E-2,1.5836287E-1,0E0,0E0,2.6303023E-2,6.561804E-2,0E0,0E0,2.585919E-1,3.0374226E-1,1.4304984E-1,5.946412E-3,0E0,6.8598986E-4,8.636761E-2,7.3759556E-3,2.0845786E-2,8.806199E-3,7.0851147E-3,3.87969E-2,7.5219154E-2,5.9083104E-2,1.8024468E-1,9.5616853E-1,8.1866026E-2,2.327383E-2,2.859159E-3,1.8438175E-3,0E0,2.8832257E-4,5.7492673E-2,1.907134E-1,0E0,0E0,0E0,0E0,0E0,0E0,0E0,0E0,0E0,0E0,0E0,0E0,0E0,0E0,0E0,0E0,0E0,0E0,0E0,0E0,0E0,0E0,0E0,0E0,0E0,0E0,0E0,0E0,0E0,0E0,0E0,0E0],"parents":[2147483647,0,0,1,1,2,2,3,3,4,4,5,5,6,6,7,7,8,8,10,10,11,11,12,12,13,13,14,14,17,17,18,18,21,21,22,22,23,23,24,24,26,26,27,27,28,28,29,29,30,30,31,31,32,32,33,33,34,34,35,35,36,36,37,37,38,38,39,39,40,40,42,42,43,43,44,44],"right_children":[2,4,6,8,10,12,14,16,18,-1,20,22,24,26,28,-1,-1,30,32,-1,-1,34,36,38,40,-1,42,44,46,48,50,52,54,56,58,60,62,64,66,68,70,-1,72,74,76,-1,-1,-1,-1,-1,-1,-1,-1,-1,-1,-1,-1,-1,-1,-1,-1,-1,-1,-1,-1,-1,-1,-1,-1,-1,-1,-1,-1,-1,-1,-1,-1],"split_conditions":[1.6999999E-1,3.9E-1,1.8999997E-1,3.6999997E-1,4.1E-1,-6.0000002E-2,4.6E-1,3.5E-1,-7.000002E-2,-4.844958E-3,-1.29704345E-2,-7.999998E-2,1.7000002E-1,4.4E-1,4.9999997E-1,-1.5106917E-2,-1.072424E-2,-5.832189E-3,-6.999999E-2,-1.9036226E-3,1.025098E-3,-6.999999E-2,2.000001E-2,1.999998E-2,1.10000014E-1,1.0343521E-3,-1.999998E-2,-1.999998E-2,5.2E-1,4.0885787E-2,-1.999998E-2,-7.999998E-2,6.005968E-3,3.999999E-2,-6.0000002E-2,-6.999999E-2,8.000001E-2,1.10000014E-1,-5.0000012E-2,1.999998E-2,-5.9999973E-2,2.493222E-3,-7.999998E-2,-7.999998E-2,1.9E-1,1.1323246E-2,1.4244146E-2,-8.916458E-3,-4.075E-3,-1.0352482E-2,-4.467438E-3,-2.0352423E-2,-1.3512302E-2,-6.911432E-3,-8.186353E-3,4.5312797E-3,1.6752161E-3,8.51637E-3,-7.997877E-3,2.7844538E-3,9.930156E-3,-8.6106835E-3,1.3120688E-3,-8.689454E-3,-9.7235787E-4,-1.1620871E-3,1.5266071E-2,2.0102232E-3,-2.9343582E-4,-1.531609E-3,-4.0121799E-4,5.399372E-3,3.974387E-3,-3.436293E-3,1.2918581E-2,4.2036623E-3,8.276295E-3],"split_indices":[23,27,23,27,27,29,27,27,35,0,18,31,17,27,27,0,0,16,35,0,0,1,13,5,7,0,11,11,27,20,11,31,30,13,1,33,13,7,1,5,33,0,1,1,23,0,0,0,0,0,0,0,0,0,0,0,0,0,0,0,0,0,0,0,0,0,0,0,0,0,0,0,0,0,0,0,0],"split_type":[0,0,0,0,0,0,0,0,0,0,0,0,0,0,0,0,0,0,0,0,0,0,0,0,0,0,0,0,0,0,0,0,0,0,0,0,0,0,0,0,0,0,0,0,0,0,0,0,0,0,0,0,0,0,0,0,0,0,0,0,0,0,0,0,0,0,0,0,0,0,0,0,0,0,0,0,0],"sum_hessian":[4.9492E4,1.5322E4,3.417E4,1.1687E4,3.635E3,2.4253E4,9.917E3,1.762E3,9.925E3,3.436E3,1.99E2,2.0579E4,3.674E3,1.624E3,8.293E3,8E1,1.682E3,1.029E3,8.896E3,1.81E2,1.8E1,6.801E3,1.3778E4,2.057E3,1.617E3,3.12E2,1.312E3,7.17E3,1.123E3,8.91E2,1.38E2,8.1E1,8.815E3,5.194E3,1.607E3,4.139E3,9.639E3,1.789E3,2.68E2,2.1E2,1.407E3,3.4E1,1.278E3,3.95E2,6.775E3,1.021E3,1.02E2,8.9E1,8.02E2,1.06E2,3.2E1,2.9E1,5.2E1,3.983E3,4.832E3,4.155E3,1.039E3,1.588E3,1.9E1,3.793E3,3.46E2,9.71E2,8.668E3,1.655E3,1.34E2,2.61E2,7E0,1.35E2,7.5E1,1.44E2,1.263E3,2E1,1.258E3,2E1,3.75E2,1.279E3,5.496E3],"tree_param":{"num_deleted":"0","num_feature":"36","num_nodes":"77","size_leaf_vector":"1"}},{"base_weights":[-6.2276996E-7,-1.6758714E-2,7.51406E-3,-1.858061E-2,-1.0897583E-2,3.4428532E-3,1.7469248E-2,-2.5521904E-2,-1.7345864E-2,-3.391892E-3,-3.819188E-3,7.7305944E-3,-3.808583E-3,7.9458095E-3,1.9333018E-2,-1.0630794E-2,-7.508878E-3,-1.8047743E-2,-1.1766356E-2,-1.3356734E-3,7.337508E-4,-1.7906723E-3,9.911064E-3,1.5085996E-3,-1.7699927E-2,7.250387E-4,9.257794E-3,1.8114205E-2,2.7091706E-2,-1.6644733E-2,-2.1185502E-2,6.905651E-4,-1.2957501E-2,-2.0141385E-2,-1.1623034E-3,2.225547E-2,8.7898495E-3,-2.8719412E-2,3.3321618E-3,-2.4345648E-2,-9.5773337E-4,1.7666229E-3,9.342751E-3,1.7589264E-2,3.3879563E-2,7.929596E-3,1.001239E-2,-4.4501578E-3,-5.4941215E-3,-5.410848E-3,-7.6883365E-3,1.016174E-3,-1.9578484E-3,-6.805361E-3,-3.4471173E-3,-1.155856E-2,-4.6744547E-3,-6.993034E-5,-1.3276716E-3,-7.584277E-3,7.140575E-3,3.2081583E-3,1.0449222E-3,-7.578247E-4,-8.764857E-3,2.3151261E-3,-1.9456359E-3,1.6027289E-4,-8.496095E-3,1.0640087E-2,-7.1824493E-4,3.8566932E-3,2.7830205E-3,5.856843E-3,3.2348286E-3,5.9352163E-3,1.1588169E-2],"categories":[],"categories_nodes":[],"categories_segments":[],"categories_sizes":[],"default_left":[0,1,1,0,0,1,0,0,1,0,0,0,0,0,1,0,0,1,0,0,0,0,0,0,0,0,0,1,0,1,0,0,0,0,0,0,1,0,0,0,0,0,0,1,1,0,0,0,0,0,0,0,0,0,0,0,0,0,0,0,0,0,0,0,0,0,0,0,0,0,0,0,0,0,0,0,0],"id":3,"left_children":[1,3,5,7,9,11,13,15,17,-1,19,21,23,25,27,-1,-1,29,31,-1,-1,33,35,37,39,-1,41,43,45,47,49,51,53,55,57,59,61,63,65,67,69,-1,71,73,75,-1,-1,-1,-1,-1,-1,-1,-1,-1,-1,-1,-1,-1,-1,-1,-1,-1,-1,-1,-1,-1,-1,-1,-1,-1,-1,-1,-1,-1,-1,-1,-1],"loss_changes":[6.2328653E0,1.6342258E-1,1.3848779E0,9.973192E-2,1.0476112E-2,7.5414157E-1,1.7588592E-1,7.717848E-3,3.8659334E-2,0E0,8.0411206E-4,3.1645435E-1,6.6575223E-1,1.1765353E-2,7.7940226E-2,0E0,0E0,3.8453817E-2,1.6508803E-2,0E0,0E0,3.2736212E-2,1.7145729E-1,3.594403E-1,2.7758026E-1,0E0,3.207922E-4,5.875063E-2,3.7767887E-3,1.8152714E-2,3.759122E-2,1.9293043E-3,1.42240375E-2,7.2809123E-3,8.331554E-3,7.64665E-2,1.1485714E-1,4.7537684E-3,2.6476145E-1,1.7663133E-1,3.7232835E-2,0E0,1.7735362E-4,9.1151E-2,1.4627576E-2,0E0,0E0,0E0,0E0,0E0,0E0,0E0,0E0,0E0,0E0,0E0,0E0,0E0,0E0,0E0,0E0,0E0,0E0,0E0,0E0,0E0,0E0,0E0,0E0,0E0,0E0,0E0,0E0,0E0,0E0,0E0,0E0],"parents":[2147483647,0,0,1,1,2,2,3,3,4,4,5,5,6,6,7,7,8,8,10,10,11,11,12,12,13,13,14,14,17,17,18,18,21,21,22,22,23,23,24,24,26,26,27,27,28,28,29,29,30,30,31,31,32,32,33,33,34,34,35,35,36,36,37,37,38,38,39,39,40,40,42,42,43,43,44,44],"right_children":[2,4,6,8,10,12,14,16,18,-1,20,22,24,26,28,-1,-1,30,32,-1,-1,34,36,38,40,-1,42,44,46,48,50,52,54,56,58,60,62,64,66,68,70,-1,72,74,76,-1,-1,-1,-1,-1,-1,-1,-1,-1,-1,-1,-1,-1,-1,-1,-1,-1,-1,-1,-1,-1,-1,-1,-1,-1,-1,-1,-1,-1,-1,-1,-1],"split_conditions":[1.6999999E-1,3.9E-1,1.8999997E-1,3.6999997E-1,4.1E-1,-6.0000002E-2,4.6E-1,3.5E-1,1.4999998E-1,-3.391892E-3,-1.29704345E-2,4.4E-1,6.405476E-3,4.4E-1,4.9999997E-1,-1.0630794E-2,-7.508878E-3,-7.000002E-2,-7.999998E-2,-1.3356734E-3,7.337508E-4,4.2000002E-1,-7.000002E-2,0E0,1.999998E-2,7.250387E-4,-1.999998E-2,-5.0000012E-2,5.2E-1,3.6999997E-1,6.8405205E-3,1.5000004E-1,2.9000002E-1,3.7000003E-1,-6.999999E-2,-7.999998E-2,3.999999E-2,-5.9999973E-2,-6.0000002E-2,-6.513545E-3,2.000001E-2,1.7666229E-3,-7.999998E-2,-7.000002E-2,-5.0000012E-2,7.929596E-3,1.001239E-2,-4.4501578E-3,-5.4941215E-3,-5.410848E-3,-7.6883365E-3,1.016174E-3,-1.9578484E-3,-6.805361E-3,-3.4471173E-3,-1.155856E-2,-4.6744547E-3,-6.993034E-5,-1.3276716E-3,-7.584277E-3,7.140575E-3,3.2081583E-3,1.0449222E-3,-7.578247E-4,-8.764857E-3,2.3151261E-3,-1.9456359E-3,1.6027289E-4,-8.496095E-3,1.0640087E-2,-7.1824493E-4,3.8566932E-3,2.7830205E-3,5.856843E-3,3.2348286E-3,5.9352163E-3,1.1588169E-2],"split_indices":[23,27,23,27,27,35,27,27,15,0,18,27,30,27,27,0,0,31,1,0,0,27,7,11,5,0,11,35,27,21,30,17,25,27,1,33,13,1,31,16,5,0,1,29,13,0,0,0,0,0,0,0,0,0,0,0,0,0,0,0,0,0,0,0,0,0,0,0,0,0,0,0,0,0,0,0,0],"split_type":[0,0,0,0,0,0,0,0,0,0,0,0,0,0,0,0,0,0,0,0,0,0,0,0,0,0,0,0,0,0,0,0,0,0,0,0,0,0,0,0,0,0,0,0,0,0,0,0,0,0,0,0,0,0,0,0,0,0,0,0,0,0,0,0,0,0,0,0,0,0,0,0,0,0,0,0,0],"sum_hessian":[4.9492E4,1.5322E4,3.417E4,1.1687E4,3.635E3,2.4253E4,9.917E3,1.762E3,9.925E3,3.436E3,1.99E2,1.5241E4,9.012E3,1.624E3,8.293E3,8E1,1.682E3,8.814E3,1.111E3,1.81E2,1.8E1,2.84E3,1.2401E4,6.518E3,2.494E3,3.12E2,1.312E3,7.17E3,1.123E3,6.095E3,2.719E3,9.7E1,1.014E3,9.3E1,2.747E3,1.031E3,1.137E4,3.7E2,6.148E3,1.785E3,7.09E2,3.4E1,1.278E3,6.941E3,2.29E2,1.021E3,1.02E2,2.928E3,3.167E3,1.594E3,1.125E3,7.1E1,2.6E1,1.31E2,8.83E2,1.7E1,7.6E1,2.139E3,6.08E2,3.2E1,9.99E2,8.367E3,3.003E3,7E0,3.63E2,4.25E3,1.898E3,2.46E2,1.539E3,2.6E1,6.83E2,2E1,1.258E3,5.404E3,1.537E3,5.9E1,1.7E2],"tree_param":{"num_deleted":"0","num_feature":"36","num_nodes":"77","size_leaf_vector":"1"}},{"base_weights":[-9.23365E-7,-1.1734776E-2,5.2607846E-3,-1.3010905E-2,-7.6294066E-3,1.1023913E-2,1.4482395E-3,-1.7875625E-2,-1.214555E-2,-2.3746206E-3,-2.6764357E-3,5.3740954E-3,1.4670224E-2,7.073179E-3,-2.1243088E-3,-7.4809305E-3,-5.257554E-3,-1.3100891E-2,-9.147593E-3,-9.3717093E-4,5.252076E-4,4.1557606E-3,2.2109672E-2,2.2886865E-2,1.3248789E-2,-5.8497363E-3,8.414842E-3,2.2394205E-3,-7.7140867E-3,-1.19675575E-2,-1.5551888E-2,-4.1655116E-3,-1.408491E-2,6.5150925E-5,5.5869566E-3,1.676387E-2,1.0616784E-2,2.339013E-2,-1.0102889E-2,8.068565E-3,1.4786315E-2,-9.287292E-3,-8.367073E-4,6.789183E-3,1.4888172E-2,4.867338E-3,-1.837032E-3,-1.7961143E-2,-2.6908906E-3,-1.2879005E-2,-3.556995E-3,-5.0021205E-3,-1.3775527E-3,-2.0305999E-3,-2.8840377E-5,-3.6166469E-3,-6.18928E-3,5.6834575E-5,-3.3858311E-3,1.3182594E-3,2.7041612E-3,4.4684424E-3,6.9919843E-3,5.548134E-3,8.194426E-3,-1.4570236E-2,4.340485E-5,1.8303458E-3,8.262585E-3,2.798418E-3,4.7532786E-3,-7.0103626E-3,-2.464708E-3,-1.6492594E-3,-5.329218E-5,1.5942192E-3,4.271374E-3,6.1371555E-3,4.1222437E-3,1.842512E-4,1.7051442E-3,-8.510596E-4,3.644684E-3,6.7061925E-4,-6.4575444E-3,1.4002192E-3,-2.9965073E-3],"categories":[],"categories_nodes":[],"categories_segments":[],"categories_sizes":[],"default_left":[0,1,0,0,0,0,1,0,1,0,0,1,0,0,0,0,0,1,0,0,0,0,0,1,0,0,1,0,0,0,1,0,1,0,0,0,0,0,0,0,0,0,0,1,0,0,1,0,0,0,0,0,0,0,0,0,0,0,0,0,0,0,0,0,0,0,0,0,0,0,0,0,0,0,0,0,0,0,0,0,0,0,0,0,0,0,0],"id":4,"left_children":[1,3,5,7,9,11,13,15,17,-1,19,21,23,25,27,-1,-1,29,31,-1,-1,33,35,37,39,41,43,45,47,49,51,53,55,57,59,61,-1,63,65,67,69,71,73,75,77,79,81,83,85,-1,-1,-1,-1,-1,-1,-1,-1,-1,-1,-1,-1,-1,-1,-1,-1,-1,-1,-1,-1,-1,-1,-1,-1,-1,-1,-1,-1,-1,-1,-1,-1,-1,-1,-1,-1,-1,-1],"loss_changes":[3.055765E0,8.0177546E-2,7.5079554E-1,4.8986197E-2,5.1292777E-3,2.8019774E-1,4.1331646E-1,3.925383E-3,2.8308868E-2,0E0,4.0166778E-4,1.0874745E-1,9.626222E-2,1.3856411E-1,3.0684772E-1,0E0,0E0,2.0716786E-2,5.9026003E-2,0E0,0E0,2.9137313E-2,2.5105178E-2,2.0458281E-2,5.604005E-2,1.2951119E-2,7.606751E-2,7.5693324E-2,2.8382513E-1,1.7176032E-2,2.9137492E-2,1.267943E-2,1.5772551E-2,1.8236544E-3,1.5030943E-2,2.8323382E-3,0E0,2.2554457E-2,7.4962256E-3,6.1744444E-2,3.1242609E-2,6.537594E-3,9.4206416E-4,6.351054E-2,8.996695E-3,1.4914833E-2,3.8769167E-2,1.3062078E-1,1.988324E-1,0E0,0E0,0E0,0E0,0E0,0E0,0E0,0E0,0E0,0E0,0E0,0E0,0E0,0E0,0E0,0E0,0E0,0E0,0E0,0E0,0E0,0E0,0E0,0E0,0E0,0E0,0E0,0E0,0E0,0E0,0E0,0E0,0E0,0E0,0E0,0E0,0E0,0E0],"parents":[2147483647,0,0,1,1,2,2,3,3,4,4,5,5,6,6,7,7,8,8,10,10,11,11,12,12,13,13,14,14,17,17,18,18,21,21,22,22,23,23,24,24,25,25,26,26,27,27,28,28,29,29,30,30,31,31,32,32,33,33,34,34,35,35,37,37,38,38,39,39,40,40,41,41,42,42,43,43,44,44,45,45,46,46,47,47,48,48],"right_children":[2,4,6,8,10,12,14,16,18,-1,20,22,24,26,28,-1,-1,30,32,-1,-1,34,36,38,40,42,44,46,48,50,52,54,56,58,60,62,-1,64,66,68,70,72,74,76,78,80,82,84,86,-1,-1,-1,-1,-1,-1,-1,-1,-1,-1,-1,-1,-1,-1,-1,-1,-1,-1,-1,-1,-1,-1,-1,-1,-1,-1,-1,-1,-1,-1,-1,-1,-1,-1,-1,-1,-1,-1],"split_conditions":[1.6999999E-1,3.9E-1,6.0000002E-2,3.6999997E-1,4.1E-1,1.7000002E-1,-7.999998E-2,3.5E-1,8.9999974E-2,-2.3746206E-3,-1.29704345E-2,4.8E-1,-1.999998E-2,4.4E-1,1.6011126E-1,-7.4809305E-3,-5.257554E-3,-7.000002E-2,6.005968E-3,-9.3717093E-4,5.252076E-4,4.4E-1,3.9770473E-2,-2.000001E-2,-6.999999E-2,4.2999998E-1,4.5999998E-1,1.999998E-2,9.000003E-2,1.3E-1,4.2390537E-2,2.276833E-1,-5.9999973E-2,-6.999999E-2,-6.999999E-2,-5.995391E-3,1.0616784E-2,6.544906E-3,-1.7975595E-2,1.999998E-2,4.8E-1,3E-1,-1.9415962E-2,-6.999999E-2,1.9E-1,4.4E-1,3.3999997E-1,1.999998E-2,0E0,-1.2879005E-2,-3.556995E-3,-5.0021205E-3,-1.3775527E-3,-2.0305999E-3,-2.8840377E-5,-3.6166469E-3,-6.18928E-3,5.6834575E-5,-3.3858311E-3,1.3182594E-3,2.7041612E-3,4.4684424E-3,6.9919843E-3,5.548134E-3,8.194426E-3,-1.4570236E-2,4.340485E-5,1.8303458E-3,8.262585E-3,2.798418E-3,4.7532786E-3,-7.0103626E-3,-2.464708E-3,-1.6492594E-3,-5.329218E-5,1.5942192E-3,4.271374E-3,6.1371555E-3,4.1222437E-3,1.842512E-4,1.7051442E-3,-8.510596E-4,3.644684E-3,6.7061925E-4,-6.4575444E-3,1.4002192E-3,-2.9965073E-3],"split_indices":[23,27,7,27,27,23,29,27,13,0,18,27,11,27,22,0,0,31,30,0,0,27,28,13,33,27,27,5,13,17,34,14,29,1,33,32,0,20,0,5,27,19,32,33,17,27,25,13,28,0,0,0,0,0,0,0,0,0,0,0,0,0,0,0,0,0,0,0,0,0,0,0,0,0,0,0,0,0,0,0,0,0,0,0,0,0,0],"split_type":[0,0,0,0,0,0,0,0,0,0,0,0,0,0,0,0,0,0,0,0,0,0,0,0,0,0,0,0,0,0,0,0,0,0,0,0,0,0,0,0,0,0,0,0,0,0,0,0,0,0,0,0,0,0,0,0,0,0,0,0,0,0,0,0,0,0,0,0,0,0,0,0,0,0,0,0,0,0,0,0,0,0,0,0,0,0,0],"sum_hessian":[4.9492E4,1.5322E4,3.417E4,1.1687E4,3.635E3,1.3604E4,2.0566E4,1.762E3,9.925E3,3.436E3,1.99E2,5.337E3,8.267E3,7.988E3,1.2578E4,8E1,1.682E3,7.524E3,2.401E3,1.81E2,1.8E1,4.976E3,3.61E2,1.217E3,7.05E3,7.51E2,7.237E3,7.064E3,5.514E3,5.149E3,2.375E3,1.196E3,1.205E3,1.29E3,3.686E3,2.59E2,1.02E2,1.199E3,1.8E1,1.615E3,5.435E3,4.45E2,3.06E2,5.786E3,1.451E3,4.295E3,2.769E3,1.813E3,3.701E3,1.7E1,5.132E3,2.154E3,2.21E2,7.29E2,4.67E2,9.22E2,2.83E2,1.277E3,1.3E1,2.736E3,9.5E2,2.04E2,5.5E1,5.36E2,6.63E2,3E0,1.5E1,1.468E3,1.47E2,8.84E2,4.551E3,3E1,4.15E2,3.7E1,2.69E2,4.831E3,9.55E2,2.45E2,1.206E3,6.92E2,3.603E3,2.585E3,1.84E2,2.72E2,1.541E3,1.843E3,1.858E3],"tree_param":{"num_deleted":"0","num_feature":"36","num_nodes":"87","size_leaf_vector":"1"}},{"base_weights":[-8.148981E-7,-8.21762E-3,3.6837745E-3,-1.0355765E-2,-6.9301194E-3,7.719652E-3,1.0138764E-3,-1.2722638E-2,-8.685098E-3,-2.3166915E-2,-6.7630936E-3,3.7661376E-3,1.02711925E-2,-9.983737E-4,6.267593E-3,-8.470073E-3,-1.3276459E-2,-9.2554735E-3,-1.6597277E-3,-2.081676E-2,-1.2459478E-2,-5.657183E-3,-8.669679E-3,1.3708398E-2,2.7357866E-3,1.6020173E-2,9.276649E-3,-1.3385324E-2,-9.871577E-5,4.4510406E-3,1.0685297E-2,-1.6110172E-2,-6.878928E-3,-1.7118257E-2,-3.6812113E-3,-1.3160079E-2,-9.100352E-3,-2.247468E-2,-2.150449E-3,8.366483E-4,-5.9504453E-3,-1.3934224E-2,-7.742737E-3,1.105939E-2,2.4220323E-2,1.3685136E-3,5.9232647E-3,1.691011E-2,-2.609904E-5,8.66689E-3,2.0891244E-2,-6.1887715E-2,-1.1729976E-2,5.4244283E-3,-1.9769382E-3,5.495233E-3,3.751349E-3,1.5273345E-2,9.7346045E-3,-3.3369442E-3,-5.4300725E-3,-1.3406913E-3,-3.0141189E-3,-3.8330518E-3,-6.0090963E-3,-4.3516997E-3,-1.9744497E-3,-1.6232522E-3,-2.745E-3,-4.3896358E-3,-8.460688E-3,-1.9194404E-4,4.080499E-3,-2.135563E-3,-1.4541482E-3,-2.3826475E-3,-6.196508E-3,-1.3319358E-3,-2.5905161E-3,6.1959405E-3,2.891391E-3,7.7285892E-3,5.0296993E-3,5.2928383E-5,1.3957502E-3,1.0836155E-3,2.4537528E-3,4.301671E-3,7.7485587E-3,4.064012E-3,-1.2052767E-3,1.3108953E-3,2.9789964E-3,4.3547396E-3,8.080883E-3,-1.2801051E-3,-1.9640261E-2,-4.309508E-3,1.4745354E-3,8.5104123E-4,3.4249376E-3,-5.858612E-3,-3.4753108E-4,1.3001047E-3,2.3379584E-3,7.2973187E-4,1.3738733E-3,3.7234896E-3,5.4201987E-3,2.8753807E-3,5.1480946E-3],"categories":[],"categories_nodes":[],"categories_segments":[],"categories_sizes":[],"default_left":[0,0,0,1,0,0,1,0,0,0,1,0,0,0,0,1,1,0,0,0,0,0,0,0,1,1,1,0,0,0,0,0,0,0,0,0,0,0,0,0,0,1,0,0,1,1,0,0,0,0,0,0,1,0,0,0,1,1,0,0,0,0,0,0,0,0,0,0,0,0,0,0,0,0,0,0,0,0,0,0,0,0,0,0,0,0,0,0,0,0,0,0,0,0,0,0,0,0,0,0,0,0,0,0,0,0,0,0,0,0,0],"id":5,"left_children":[1,3,5,7,9,11,13,15,17,19,21,23,25,27,29,31,33,35,-1,37,-1,39,41,43,45,47,49,51,53,55,57,59,61,63,-1,65,67,69,-1,71,73,75,77,79,81,83,85,87,89,91,93,95,97,99,101,103,105,107,109,-1,-1,-1,-1,-1,-1,-1,-1,-1,-1,-1,-1,-1,-1,-1,-1,-1,-1,-1,-1,-1,-1,-1,-1,-1,-1,-1,-1,-1,-1,-1,-1,-1,-1,-1,-1,-1,-1,-1,-1,-1,-1,-1,-1,-1,-1,-1,-1,-1,-1,-1,-1],"loss_changes":[1.4984583E0,4.2110324E-2,3.6819777E-1,2.2654176E-2,2.5788635E-2,1.372025E-1,2.1743627E-1,5.4928064E-3,6.0231388E-3,3.3219494E-3,1.9920677E-2,5.464507E-2,4.7124565E-2,1.657325E-1,4.5662805E-2,3.2565314E-3,7.91961E-3,1.6118884E-3,0E0,1.8301904E-3,0E0,1.1425644E-2,1.6849875E-2,1.3683066E-2,2.1076638E-2,1.7393649E-2,4.9754918E-2,8.012444E-2,1.4385235E-1,2.929598E-3,7.0875734E-3,2.6512146E-4,1.7188014E-3,5.2309185E-3,0E0,8.516982E-4,4.5478344E-4,3.0910335E-3,0E0,4.908937E-3,7.3603094E-3,2.0736858E-2,8.676752E-3,5.282916E-3,7.17327E-4,1.3258588E-2,7.541027E-3,2.6092172E-2,3.575846E-3,3.6328554E-2,1.3136461E-2,6.5276176E-3,4.2834744E-2,5.453016E-2,1.4863825E-1,4.284989E-3,2.6334636E-3,2.0385087E-3,1.3693273E-3,0E0,0E0,0E0,0E0,0E0,0E0,0E0,0E0,0E0,0E0,0E0,0E0,0E0,0E0,0E0,0E0,0E0,0E0,0E0,0E0,0E0,0E0,0E0,0E0,0E0,0E0,0E0,0E0,0E0,0E0,0E0,0E0,0E0,0E0,0E0,0E0,0E0,0E0,0E0,0E0,0E0,0E0,0E0,0E0,0E0,0E0,0E0,0E0,0E0,0E0,0E0,0E0],"parents":[2147483647,0,0,1,1,2,2,3,3,4,4,5,5,6,6,7,7,8,8,9,9,10,10,11,11,12,12,13,13,14,14,15,15,16,16,17,17,19,19,21,21,22,22,23,23,24,24,25,25,26,26,27,27,28,28,29,29,30,30,31,31,32,32,33,33,35,35,36,36,37,37,39,39,40,40,41,41,42,42,43,43,44,44,45,45,46,46,47,47,48,48,49,49,50,50,51,51,52,52,53,53,54,54,55,55,56,56,57,57,58,58],"right_children":[2,4,6,8,10,12,14,16,18,20,22,24,26,28,30,32,34,36,-1,38,-1,40,42,44,46,48,50,52,54,56,58,60,62,64,-1,66,68,70,-1,72,74,76,78,80,82,84,86,88,90,92,94,96,98,100,102,104,106,108,110,-1,-1,-1,-1,-1,-1,-1,-1,-1,-1,-1,-1,-1,-1,-1,-1,-1,-1,-1,-1,-1,-1,-1,-1,-1,-1,-1,-1,-1,-1,-1,-1,-1,-1,-1,-1,-1,-1,-1,-1,-1,-1,-1,-1,-1,-1,-1,-1,-1,-1,-1,-1],"split_conditions":[1.6999999E-1,2.7999997E-1,6.0000002E-2,3.6999997E-1,1.3E-1,1.7000002E-1,4.4E-1,-7.000002E-2,3.7000003E-1,-6.999999E-2,7.5953244E-3,-1.8E-1,-1.999998E-2,1.5000004E-1,4.5999998E-1,-7.999998E-2,3.5E-1,-7.000002E-2,-1.6597277E-3,5.845149E-3,-1.2459478E-2,6.0000002E-2,1.5582121E-2,3.9770473E-2,4.5000002E-1,3.7740022E-2,2.0999998E-1,-1.999998E-2,-7.999998E-2,8.9999974E-2,1.9E-1,1.3E-1,0E0,-9.5695695E-3,-3.6812113E-3,-8.849471E-3,1.3E-1,-6.127963E-3,-2.150449E-3,-6.4693973E-3,8.000001E-2,-5.9999973E-2,4.331321E-2,-7.999998E-2,-6.999999E-2,6.005968E-3,-7.999998E-2,1E-5,-1.5266827E-1,-6.999999E-2,-6.999999E-2,6.0000002E-2,1.8E-1,-6.999999E-2,0E0,-7.999998E-2,-7.000002E-2,-2.000001E-2,2.0999998E-1,-3.3369442E-3,-5.4300725E-3,-1.3406913E-3,-3.0141189E-3,-3.8330518E-3,-6.0090963E-3,-4.3516997E-3,-1.9744497E-3,-1.6232522E-3,-2.745E-3,-4.3896358E-3,-8.460688E-3,-1.9194404E-4,4.080499E-3,-2.135563E-3,-1.4541482E-3,-2.3826475E-3,-6.196508E-3,-1.3319358E-3,-2.5905161E-3,6.1959405E-3,2.891391E-3,7.7285892E-3,5.0296993E-3,5.2928383E-5,1.3957502E-3,1.0836155E-3,2.4537528E-3,4.301671E-3,7.7485587E-3,4.064012E-3,-1.2052767E-3,1.3108953E-3,2.9789964E-3,4.3547396E-3,8.080883E-3,-1.2801051E-3,-1.9640261E-2,-4.309508E-3,1.4745354E-3,8.5104123E-4,3.4249376E-3,-5.858612E-3,-3.4753108E-4,1.3001047E-3,2.3379584E-3,7.2973187E-4,1.3738733E-3,3.7234896E-3,5.4201987E-3,2.8753807E-3,5.1480946E-3],"split_indices":[23,25,7,27,23,23,27,29,27,33,30,9,11,9,27,35,27,1,0,0,0,7,34,28,27,30,17,11,29,13,23,23,11,28,0,16,23,16,0,0,13,29,10,1,35,30,31,16,4,33,7,9,17,1,11,31,33,13,23,0,0,0,0,0,0,0,0,0,0,0,0,0,0,0,0,0,0,0,0,0,0,0,0,0,0,0,0,0,0,0,0,0,0,0,0,0,0,0,0,0,0,0,0,0,0,0,0,0,0,0,0],"split_type":[0,0,0,0,0,0,0,0,0,0,0,0,0,0,0,0,0,0,0,0,0,0,0,0,0,0,0,0,0,0,0,0,0,0,0,0,0,0,0,0,0,0,0,0,0,0,0,0,0,0,0,0,0,0,0,0,0,0,0,0,0,0,0,0,0,0,0,0,0,0,0,0,0,0,0,0,0,0,0,0,0,0,0,0,0,0,0,0,0,0,0,0,0,0,0,0,0,0,0,0,0,0,0,0,0,0,0,0,0,0,0],"sum_hessian":[4.9492E4,1.5322E4,3.417E4,5.756E3,9.566E3,1.3604E4,2.0566E4,2.379E3,3.377E3,9.6E1,9.47E3,5.337E3,8.267E3,1.4871E4,5.695E3,2.76E2,2.103E3,2.858E3,5.19E2,8.7E1,9E0,5.996E3,3.474E3,5E2,4.837E3,1.217E3,7.05E3,1.006E3,1.3865E4,4.037E3,1.658E3,4.6E1,2.3E2,4.33E2,1.67E3,1.06E2,2.752E3,7.7E1,1E1,2.59E2,5.737E3,5.18E2,2.956E3,4.01E2,9.9E1,3.386E3,1.451E3,1.153E3,6.4E1,6.7E3,3.5E2,3.2E1,9.74E2,3.518E3,1.0347E4,1.617E3,2.42E3,2.82E2,1.376E3,1.5E1,3.1E1,1.32E2,9.8E1,1.76E2,2.57E2,8.7E1,1.9E1,3.8E1,2.714E3,3.4E1,4.3E1,2.33E2,2.6E1,2.784E3,2.953E3,2.75E2,2.43E2,6.3E2,2.326E3,5E1,3.51E2,8E1,1.9E1,2.485E3,9.01E2,7.18E2,7.33E2,8.97E2,2.56E2,1.4E1,5E1,1.523E3,5.177E3,1.72E2,1.78E2,2E0,3E1,8.41E2,1.33E2,2.458E3,1.06E3,4.6E2,9.887E3,1.076E3,5.41E2,9.35E2,1.485E3,1.42E2,1.4E2,1.351E3,2.5E1],"tree_param":{"num_deleted":"0","num_feature":"36","num_nodes":"111","size_leaf_vector":"1"}},{"base_weights":[-1.0374777E-6,-5.7574674E-3,2.5802676E-3,-7.3023112E-3,-4.8171156E-3,3.333504E-3,-5.521733E-3,-8.765477E-3,-6.661046E-3,-1.6998198E-2,-4.669111E-3,2.489901E-3,7.7277883E-3,5.2117143E-4,-9.517254E-3,-3.6648957E-3,-2.578256E-3,-6.529332E-3,-9.3508605E-3,-1.8806978E-3,-1.9789664E-2,-2.958402E-3,-5.5287722E-3,2.2911902E-3,1.8831152E-2,1.0200791E-2,6.5739662E-3,1.0953585E-3,-5.0147697E-3,-1.0712579E-2,1.2521338E-4,-9.563217E-3,-6.425771E-3,-4.9053477E-3,-8.730312E-3,-2.1761725E-2,-1.5473345E-3,-2.864191E-3,-1.8337572E-2,-6.3992194E-3,-3.2988505E-3,4.6571787E-3,9.387708E-4,1.55225815E-2,3.263387E-2,8.586165E-3,1.1882985E-2,6.305011E-3,1.0194101E-2,4.6416502E-3,3.6122772E-4,-3.913343E-3,-1.4458915E-3,-7.853534E-3,-1.387478E-2,-8.603047E-4,8.742236E-3,-3.11685E-3,-1.4117275E-3,-1.1487657E-3,-1.9354481E-3,-2.6979048E-3,-3.647255E-4,-5.5926726E-3,-8.440135E-3,-1.1302766E-3,-3.9857833E-4,-1.5341087E-3,-1.38411075E-2,-2.4388349E-3,-1.5069697E-3,-1.1525506E-3,-4.6517287E-4,1.6947102E-4,1.6462406E-3,-1.6515391E-3,4.1251845E-4,5.386777E-3,-2.9726774E-3,1.4473201E-4,1.0120268E-2,3.5157425E-3,2.395297E-3,4.7694305E-3,3.0929924E-3,1.7999981E-3,2.0310364E-3,2.6802993E-3,3.5202159E-3,-7.6053943E-4,1.6217107E-3,-6.2339444E-5,5.3265574E-4,-4.8536574E-3,-1.2647004E-3,-4.9582003E-3,-2.2033289E-4,-3.8251816E-4,7.253418E-4,2.7133906E-3,4.49498E-4],"categories":[],"categories_nodes":[],"categories_segments":[],"categories_sizes":[],"default_left":[0,0,1,0,0,1,0,0,1,0,1,1,0,0,1,0,0,0,0,0,0,1,1,0,0,0,0,1,0,0,0,0,0,0,1,0,0,0,0,0,0,0,0,0,0,0,0,0,0,0,0,0,0,0,0,0,0,0,0,0,0,0,0,0,0,0,0,0,0,0,0,0,0,0,0,0,0,0,0,0,0,0,0,0,0,0,0,0,0,0,0,0,0,0,0,0,0,0,0,0,0],"id":6,"left_children":[1,3,5,7,9,11,13,15,17,19,21,23,25,27,29,-1,-1,31,33,-1,35,37,39,41,43,45,47,49,51,53,55,57,59,-1,61,63,-1,65,67,69,71,73,75,77,79,81,83,85,87,89,91,-1,-1,93,95,97,99,-1,-1,-1,-1,-1,-1,-1,-1,-1,-1,-1,-1,-1,-1,-1,-1,-1,-1,-1,-1,-1,-1,-1,-1,-1,-1,-1,-1,-1,-1,-1,-1,-1,-1,-1,-1,-1,-1,-1,-1,-1,-1,-1,-1],"loss_changes":[7.354364E-1,2.2224545E-2,2.0855449E-1,5.3798556E-3,1.7098218E-2,1.15881145E-1,7.0193164E-2,9.371191E-4,1.3681352E-3,3.2902658E-3,1.3829619E-2,8.513366E-2,1.429981E-2,3.6863876E-3,2.0171642E-2,0E0,0E0,1.1478812E-3,6.652381E-4,0E0,2.4847016E-3,4.5129154E-3,1.21394545E-2,8.292508E-2,1.3878629E-2,4.2437613E-3,3.281191E-3,2.7319377E-3,1.0791677E-4,1.3967678E-2,1.6550138E-3,4.528137E-4,2.2406876E-4,0E0,3.30586E-4,1.0458529E-3,0E0,4.3412577E-3,6.748784E-3,1.0684565E-2,1.6657338E-3,3.202434E-2,4.6373405E-2,1.6020115E-2,2.1063983E-3,1.4525875E-3,4.7687516E-3,4.1349232E-4,3.529992E-4,1.0007224E-3,7.013222E-4,0E0,0E0,2.476665E-2,2.5711194E-2,2.4101553E-4,3.0259253E-5,0E0,0E0,0E0,0E0,0E0,0E0,0E0,0E0,0E0,0E0,0E0,0E0,0E0,0E0,0E0,0E0,0E0,0E0,0E0,0E0,0E0,0E0,0E0,0E0,0E0,0E0,0E0,0E0,0E0,0E0,0E0,0E0,0E0,0E0,0E0,0E0,0E0,0E0,0E0,0E0,0E0,0E0,0E0,0E0],"parents":[2147483647,0,0,1,1,2,2,3,3,4,4,5,5,6,6,7,7,8,8,9,9,10,10,11,11,12,12,13,13,14,14,17,17,18,18,20,20,21,21,22,22,23,23,24,24,25,25,26,26,27,27,28,28,29,29,30,30,31,31,32,32,34,34,35,35,37,37,38,38,39,39,40,40,41,41,42,42,43,43,44,44,45,45,46,46,47,47,48,48,49,49,50,50,53,53,54,54,55,55,56,56],"right_children":[2,4,6,8,10,12,14,16,18,20,22,24,26,28,30,-1,-1,32,34,-1,36,38,40,42,44,46,48,50,52,54,56,58,60,-1,62,64,-1,66,68,70,72,74,76,78,80,82,84,86,88,90,92,-1,-1,94,96,98,100,-1,-1,-1,-1,-1,-1,-1,-1,-1,-1,-1,-1,-1,-1,-1,-1,-1,-1,-1,-1,-1,-1,-1,-1,-1,-1,-1,-1,-1,-1,-1,-1,-1,-1,-1,-1,-1,-1,-1,-1,-1,-1,-1,-1],"split_conditions":[1.6999999E-1,3.9E-1,-6.0000002E-2,3.6999997E-1,1.3E-1,4.5999998E-1,-5.832189E-3,3.5E-1,1.5E-1,5.0000012E-2,-5.9999973E-2,-5.0000012E-2,1.9E-1,3.9770473E-2,1.10000014E-1,-3.6648957E-3,-2.578256E-3,-7.000002E-2,-6.0000002E-2,-1.8806978E-3,5.845149E-3,-1.8820284E-2,2.9000002E-1,-7.999998E-2,-1.999998E-2,-6.0000002E-2,3.6999997E-1,1.10000014E-1,9E-2,6.8405205E-3,5.845149E-3,-8.849471E-3,1.3E-1,-4.9053477E-3,-1.24896495E-2,0E0,-1.5473345E-3,4.1E-1,-1.8770792E-2,1.4999998E-1,6.544906E-3,-7.999998E-2,0E0,-3.999999E-2,2.1507561E-2,-7.999998E-2,1.8999997E-1,1.9000003E-1,5.2E-1,-5.9999973E-2,2.000001E-2,-3.913343E-3,-1.4458915E-3,7.999998E-2,4.2390537E-2,0E0,-2.8880771E-2,-3.11685E-3,-1.4117275E-3,-1.1487657E-3,-1.9354481E-3,-2.6979048E-3,-3.647255E-4,-5.5926726E-3,-8.440135E-3,-1.1302766E-3,-3.9857833E-4,-1.5341087E-3,-1.38411075E-2,-2.4388349E-3,-1.5069697E-3,-1.1525506E-3,-4.6517287E-4,1.6947102E-4,1.6462406E-3,-1.6515391E-3,4.1251845E-4,5.386777E-3,-2.9726774E-3,1.4473201E-4,1.0120268E-2,3.5157425E-3,2.395297E-3,4.7694305E-3,3.0929924E-3,1.7999981E-3,2.0310364E-3,2.6802993E-3,3.5202159E-3,-7.6053943E-4,1.6217107E-3,-6.2339444E-5,5.3265574E-4,-4.8536574E-3,-1.2647004E-3,-4.9582003E-3,-2.2033289E-4,-3.8251816E-4,7.253418E-4,2.7133906E-3,4.49498E-4],"split_indices":[23,27,31,27,23,27,16,27,15,13,35,35,17,28,7,0,0,1,1,0,0,6,25,29,13,33,25,7,7,30,0,16,23,0,8,28,0,27,4,15,20,1,11,7,20,1,23,9,27,35,5,0,0,13,34,28,4,0,0,0,0,0,0,0,0,0,0,0,0,0,0,0,0,0,0,0,0,0,0,0,0,0,0,0,0,0,0,0,0,0,0,0,0,0,0,0,0,0,0,0,0],"split_type":[0,0,0,0,0,0,0,0,0,0,0,0,0,0,0,0,0,0,0,0,0,0,0,0,0,0,0,0,0,0,0,0,0,0,0,0,0,0,0,0,0,0,0,0,0,0,0,0,0,0,0,0,0,0,0,0,0,0,0,0,0,0,0,0,0,0,0,0,0,0,0,0,0,0,0,0,0,0,0,0,0,0,0,0,0,0,0,0,0,0,0,0,0,0,0,0,0,0,0,0,0],"sum_hessian":[4.9492E4,1.5322E4,3.417E4,5.795E3,9.527E3,3.1264E4,2.906E3,1.762E3,4.033E3,1.13E2,9.414E3,2.623E4,5.034E3,1.157E3,1.749E3,8E1,1.682E3,3.848E3,1.85E2,2.4E1,8.9E1,3.15E3,6.264E3,2.5916E4,3.14E2,1.599E3,3.435E3,1.049E3,1.08E2,1.556E3,1.93E2,1.24E2,3.724E3,1.3E1,1.72E2,7.8E1,1.1E1,3.132E3,1.8E1,4.504E3,1.76E3,9.425E3,1.6491E4,2.55E2,5.9E1,8.19E2,7.8E2,3.2E3,2.35E2,1.79E2,8.7E2,1E0,1.07E2,8.19E2,7.37E2,1.74E2,1.9E1,1.05E2,1.9E1,3.8E1,3.686E3,1.66E2,6E0,5.5E1,2.3E1,1.971E3,1.161E3,1.3E1,5E0,1.993E3,2.511E3,1.342E3,4.18E2,1.59E3,7.835E3,1.045E3,1.5446E4,2.33E2,2.2E1,2E0,5.7E1,1.29E2,6.9E2,2.17E2,5.63E2,1.941E3,1.259E3,1.33E2,1.02E2,1.7E1,1.62E2,6.21E2,2.49E2,2.48E2,5.71E2,6.13E2,1.24E2,1.55E2,1.9E1,1.8E1,1E0],"tree_param":{"num_deleted":"0","num_feature":"36","num_nodes":"101","size_leaf_vector":"1"}},{"base_weights":[-1.4662817E-6,-4.034252E-3,1.8069203E-3,-5.1153796E-3,-3.3761652E-3,4.083874E-3,3.0063523E-4,-6.1393734E-3,-4.6665906E-3,-1.2051901E-2,-3.2707579E-3,3.1097133E-3,8.714767E-3,-8.3738513E-4,3.2719024E-3,-2.579005E-3,-1.8052378E-3,-4.5725065E-3,-6.588433E-3,-1.0426439E-2,-7.897281E-3,-2.596944E-3,-4.7524027E-3,2.196422E-3,5.4572304E-3,9.273712E-3,-3.5206974E-3,-8.29989E-3,-2.9537018E-4,2.4594604E-3,5.2474113E-3,-6.730482E-3,-4.4988636E-3,-9.001216E-3,-5.4798396E-3,-1.3476384E-2,-5.786369E-3,-2.4659242E-3,-1.0154622E-2,-6.284247E-3,-1.4211329E-3,1.9840063E-3,1.1969593E-2,7.211229E-3,4.229137E-3,1.5881736E-2,8.277961E-3,3.5931766E-3,-1.1275545E-2,-3.0208055E-2,-6.1691753E-3,-5.0444674E-4,1.7175801E-2,2.0499052E-3,3.6110901E-3,7.5513073E-3,4.7701057E-3,-2.1906174E-3,-1.0093828E-3,-1.3862553E-3,-1.1785527E-3,-2.2201063E-3,-3.4778381E-3,-5.666626E-4,-1.934123E-3,-2.137944E-3,-6.00362E-3,-1.1131429E-3,-1.9410744E-3,-5.0434214E-4,-9.826437E-4,-6.8162847E-3,-1.798367E-3,-3.4573923E-3,-1.3669009E-3,-1.5047764E-3,3.721784E-4,4.1271938E-4,1.4549538E-3,-2.723236E-4,4.7636083E-3,1.8664475E-3,2.5559005E-3,1.3269645E-3,1.1200084E-3,8.434355E-3,1.2564905E-3,2.1529556E-3,4.014474E-3,1.7782279E-3,-2.2511065E-3,-8.44484E-3,-2.3621968E-3,-1.7070629E-2,-4.038459E-3,-1.265982E-3,-7.5734905E-3,7.624665E-4,-4.6704465E-4,6.5496364E-3,-5.232393E-3,4.9773365E-4,8.2297943E-4,1.8617526E-3,7.8133907E-4,1.9431525E-3,2.9690228E-3,9.0434717E-4,1.5019878E-3],"categories":[],"categories_nodes":[],"categories_segments":[],"categories_sizes":[],"default_left":[0,0,0,0,0,0,1,0,1,0,1,1,0,0,0,0,0,0,0,0,0,0,0,1,0,0,1,0,0,0,0,0,1,0,0,0,0,0,0,0,0,0,1,1,0,0,1,1,0,0,0,0,0,1,0,0,0,0,0,0,0,0,0,0,0,0,0,0,0,0,0,0,0,0,0,0,0,0,0,0,0,0,0,0,0,0,0,0,0,0,0,0,0,0,0,0,0,0,0,0,0,0,0,0,0,0,0,0,0],"id":7,"left_children":[1,3,5,7,9,11,13,15,17,19,21,23,25,27,29,-1,-1,31,33,35,-1,37,39,41,43,45,47,49,51,53,55,57,59,61,63,65,67,69,71,73,75,77,79,81,83,85,87,89,91,93,95,97,99,101,103,105,107,-1,-1,-1,-1,-1,-1,-1,-1,-1,-1,-1,-1,-1,-1,-1,-1,-1,-1,-1,-1,-1,-1,-1,-1,-1,-1,-1,-1,-1,-1,-1,-1,-1,-1,-1,-1,-1,-1,-1,-1,-1,-1,-1,-1,-1,-1,-1,-1,-1,-1,-1,-1],"loss_changes":[3.6095157E-1,1.0884687E-2,1.1719647E-1,2.6349425E-3,8.673817E-3,6.134823E-2,6.954723E-2,4.7642738E-4,6.992817E-4,2.3702383E-3,9.38715E-3,2.4090491E-2,1.6199917E-2,6.015166E-2,9.1291E-3,0E0,0E0,5.813986E-4,4.4818688E-4,1.3938239E-3,0E0,6.3855536E-3,1.5004061E-2,1.678127E-2,6.7505315E-3,1.4745772E-2,5.7778833E-3,4.6820447E-2,5.065857E-2,1.8971432E-3,1.7883219E-3,2.159127E-4,2.4101883E-4,1.5068846E-4,4.3935282E-4,2.4304427E-3,3.7037535E-5,4.0383413E-3,5.6142397E-3,1.8193178E-2,8.885648E-3,1.3806596E-2,8.672688E-3,1.6240329E-3,1.6187504E-4,4.208E-2,1.0961145E-2,1.4691344E-3,2.648231E-3,3.901989E-2,3.4064837E-2,4.392916E-2,2.6815671E-2,8.031819E-4,2.7472768E-3,6.4886175E-4,5.5668876E-4,0E0,0E0,0E0,0E0,0E0,0E0,0E0,0E0,0E0,0E0,0E0,0E0,0E0,0E0,0E0,0E0,0E0,0E0,0E0,0E0,0E0,0E0,0E0,0E0,0E0,0E0,0E0,0E0,0E0,0E0,0E0,0E0,0E0,0E0,0E0,0E0,0E0,0E0,0E0,0E0,0E0,0E0,0E0,0E0,0E0,0E0,0E0,0E0,0E0,0E0,0E0,0E0],"parents":[2147483647,0,0,1,1,2,2,3,3,4,4,5,5,6,6,7,7,8,8,9,9,10,10,11,11,12,12,13,13,14,14,17,17,18,18,19,19,21,21,22,22,23,23,24,24,25,25,26,26,27,27,28,28,29,29,30,30,31,31,32,32,33,33,34,34,35,35,36,36,37,37,38,38,39,39,40,40,41,41,42,42,43,43,44,44,45,45,46,46,47,47,48,48,49,49,50,50,51,51,52,52,53,53,54,54,55,55,56,56],"right_children":[2,4,6,8,10,12,14,16,18,20,22,24,26,28,30,-1,-1,32,34,36,-1,38,40,42,44,46,48,50,52,54,56,58,60,62,64,66,68,70,72,74,76,78,80,82,84,86,88,90,92,94,96,98,100,102,104,106,108,-1,-1,-1,-1,-1,-1,-1,-1,-1,-1,-1,-1,-1,-1,-1,-1,-1,-1,-1,-1,-1,-1,-1,-1,-1,-1,-1,-1,-1,-1,-1,-1,-1,-1,-1,-1,-1,-1,-1,-1,-1,-1,-1,-1,-1,-1,-1,-1,-1,-1,-1,-1],"split_conditions":[1.6999999E-1,3.9E-1,6.0000002E-2,3.6999997E-1,1.3E-1,1.9999999E-1,4.4E-1,3.5E-1,1.5E-1,-6.999999E-2,7.5953244E-3,4.7000003E-1,-3.8020987E-2,1.5000004E-1,4.5999998E-1,-2.579005E-3,-1.8052378E-3,-7.000002E-2,1.0708175E-2,-7.999998E-2,-7.897281E-3,-5.832189E-3,3.9910417E-2,-5.0000012E-2,1.9E-1,-1.999998E-2,3.7523236E-2,-6.999999E-2,-5.0000012E-2,-7.000002E-2,1.9E-1,-8.849471E-3,-6.999999E-2,-8.184235E-3,2.6000002E-1,-7.999998E-2,5.0000012E-2,-7.000002E-2,-7.999998E-2,-3.5395376E-2,-7.000002E-2,1.9E-1,-5.0000012E-2,-5.0000012E-2,3.9770473E-2,1.870626E-2,-5.0000012E-2,1.800401E-2,-8.592267E-3,1.3E-1,-1.0987689E-2,-7.999998E-2,-3.999999E-2,-5.9999973E-2,1.7000002E-1,-6.0000002E-2,4.8E-1,-2.1906174E-3,-1.0093828E-3,-1.3862553E-3,-1.1785527E-3,-2.2201063E-3,-3.4778381E-3,-5.666626E-4,-1.934123E-3,-2.137944E-3,-6.00362E-3,-1.1131429E-3,-1.9410744E-3,-5.0434214E-4,-9.826437E-4,-6.8162847E-3,-1.798367E-3,-3.4573923E-3,-1.3669009E-3,-1.5047764E-3,3.721784E-4,4.1271938E-4,1.4549538E-3,-2.723236E-4,4.7636083E-3,1.8664475E-3,2.5559005E-3,1.3269645E-3,1.1200084E-3,8.434355E-3,1.2564905E-3,2.1529556E-3,4.014474E-3,1.7782279E-3,-2.2511065E-3,-8.44484E-3,-2.3621968E-3,-1.7070629E-2,-4.038459E-3,-1.265982E-3,-7.5734905E-3,7.624665E-4,-4.6704465E-4,6.5496364E-3,-5.232393E-3,4.9773365E-4,8.2297943E-4,1.8617526E-3,7.8133907E-4,1.9431525E-3,2.9690228E-3,9.0434717E-4,1.5019878E-3],"split_indices":[23,27,7,27,23,17,27,27,15,33,30,27,6,9,27,0,0,1,30,31,0,16,34,35,17,11,12,33,1,31,23,16,31,18,25,29,13,29,1,16,29,23,13,13,28,30,33,34,0,15,8,29,1,33,23,33,27,0,0,0,0,0,0,0,0,0,0,0,0,0,0,0,0,0,0,0,0,0,0,0,0,0,0,0,0,0,0,0,0,0,0,0,0,0,0,0,0,0,0,0,0,0,0,0,0,0,0,0,0],"split_type":[0,0,0,0,0,0,0,0,0,0,0,0,0,0,0,0,0,0,0,0,0,0,0,0,0,0,0,0,0,0,0,0,0,0,0,0,0,0,0,0,0,0,0,0,0,0,0,0,0,0,0,0,0,0,0,0,0,0,0,0,0,0,0,0,0,0,0,0,0,0,0,0,0,0,0,0,0,0,0,0,0,0,0,0,0,0,0,0,0,0,0,0,0,0,0,0,0,0,0,0,0,0,0,0,0,0,0,0,0],"sum_hessian":[4.9492E4,1.5322E4,3.417E4,5.795E3,9.527E3,1.3604E4,2.0566E4,1.762E3,4.033E3,1.13E2,9.414E3,1.1241E4,2.363E3,1.4871E4,5.695E3,8E1,1.682E3,3.848E3,1.85E2,1.03E2,1E1,6.473E3,2.941E3,8.094E3,3.147E3,2.26E3,1.03E2,1.006E3,1.3865E4,4.037E3,1.658E3,1.24E2,3.724E3,5.6E1,1.29E2,6.1E1,4.2E1,6.364E3,1.09E2,2.014E3,9.27E2,7.923E3,1.71E2,1.294E3,1.853E3,2.94E2,1.966E3,5.4E1,4.9E1,8.8E1,9.18E2,1.3702E4,1.63E2,2.98E3,1.057E3,2.82E2,1.376E3,1.05E2,1.9E1,3.062E3,6.62E2,3.7E1,1.9E1,2.8E1,1.01E2,3.2E1,2.9E1,1.2E1,3E1,3.233E3,3.131E3,2.6E1,8.3E1,4.98E2,1.516E3,3.94E2,5.33E2,6.537E3,1.386E3,4E1,1.31E2,7.4E2,5.54E2,1.326E3,5.27E2,1.43E2,1.51E2,1.619E3,3.47E2,4.5E1,9E0,7E0,4.2E1,3.3E1,5.5E1,8.34E2,8.4E1,3.518E3,1.0184E4,1.44E2,1.9E1,1.908E3,1.072E3,2.94E2,7.63E2,1.96E2,8.6E1,1.65E2,1.211E3],"tree_param":{"num_deleted":"0","num_feature":"36","num_nodes":"109","size_leaf_vector":"1"}},{"base_weights":[-2.0951136E-6,-2.8769476E-3,1.2503316E-3,-3.6640288E-3,-2.3874622E-3,1.6724141E-3,-3.2541149E-3,-4.673271E-3,-2.951874E-3,-5.229446E-3,-2.0582397E-3,2.8714202E-3,7.64629E-4,8.35142E-4,-6.068001E-3,-5.77568E-3,-1.2639859E-3,-3.1505204E-3,-1.8540232E-3,-3.5691326E-3,-1.7175902E-2,2.1209524E-3,-2.2167917E-3,2.1903776E-3,6.102278E-3,-4.2937305E-3,1.1708842E-3,-1.668956E-3,1.4149123E-3,-7.0786234E-3,-4.0317903E-4,-2.6601756E-3,-7.664696E-3,-3.489226E-3,-2.7281856E-3,-2.0862485E-3,-1.0625534E-3,-7.801582E-3,-2.7175802E-3,-7.859948E-3,-4.3316907E-3,-9.766435E-4,5.1049422E-3,-8.329565E-3,-2.1226467E-3,-3.3122412E-4,2.7673717E-3,-6.212109E-3,6.55869E-3,-1.0451807E-2,1.8985318E-3,2.4760948E-3,-4.7407993E-5,-1.985366E-4,-2.65138E-3,3.3397914E-3,8.881077E-4,-7.369917E-3,1.262737E-2,-4.428859E-3,1.321193E-3,-2.3649954E-3,-5.5718236E-4,-1.6000059E-3,-3.180848E-3,-1.1892192E-3,-8.473042E-4,-8.275295E-4,2.0703897E-4,-6.606028E-4,-5.189851E-4,-2.3292581E-4,-5.290405E-4,-3.1316865E-3,-8.8281336E-4,-4.2066962E-4,-1.6832855E-3,-3.824511E-4,7.758737E-5,1.8857914E-3,-3.794572E-3,-1.9349231E-3,-8.565181E-3,-5.4470063E-3,-6.2876544E-4,-2.1458678E-4,1.330435E-3,2.1477814E-3,7.5168477E-4,-6.213992E-3,-1.4956402E-4,4.7707194E-3,1.7903527E-3,-8.122885E-3,-1.2124407E-3,-2.3942548E-5,1.2191278E-3,1.181121E-3,-3.7989634E-4,5.8538874E-4,-1.4444949E-3,3.3395714E-5,-1.0397807E-3,-4.7636445E-4,-8.629804E-4,-4.975024E-4,1.2449278E-3,1.3940985E-4,5.696649E-4,-1.4543956E-3,-3.039178E-3,7.792111E-3,-5.9047327E-3,-6.7684376E-3,-7.9612905E-4,2.7026278E-3,8.8319975E-5],"categories":[],"categories_nodes":[],"categories_segments":[],"categories_sizes":[],"default_left":[0,0,1,1,0,0,0,1,0,1,0,0,0,1,1,0,0,0,1,0,0,0,0,0,0,1,0,0,1,0,0,1,1,0,1,0,0,0,1,0,0,0,0,1,0,1,0,0,0,0,0,0,1,0,0,0,0,0,0,0,0,0,0,0,0,0,0,0,0,0,0,0,0,0,0,0,0,0,0,0,0,0,0,0,0,0,0,0,0,0,0,0,0,0,0,0,0,0,0,0,0,0,0,0,0,0,0,0,0,0,0,0,0,0,0,0,0],"id":8,"left_children":[1,3,5,7,9,11,13,15,17,19,21,23,25,27,29,31,-1,33,35,37,39,41,43,45,47,49,51,53,55,57,59,61,63,65,67,69,71,73,75,-1,-1,77,79,81,83,85,87,89,91,93,95,97,99,101,103,105,107,109,111,113,115,-1,-1,-1,-1,-1,-1,-1,-1,-1,-1,-1,-1,-1,-1,-1,-1,-1,-1,-1,-1,-1,-1,-1,-1,-1,-1,-1,-1,-1,-1,-1,-1,-1,-1,-1,-1,-1,-1,-1,-1,-1,-1,-1,-1,-1,-1,-1,-1,-1,-1,-1,-1,-1,-1,-1,-1],"loss_changes":[1.7820522E-1,5.777538E-3,6.555097E-2,4.123971E-3,8.656118E-3,3.4307614E-2,3.399587E-2,1.182545E-3,7.308461E-4,1.9E-2,5.506426E-3,2.9871814E-2,3.6873516E-2,1.7517825E-3,1.0015883E-2,4.0875077E-3,0E0,3.9945357E-4,9.335892E-5,3.024307E-3,2.511356E-3,2.8149171E-3,4.586216E-3,1.6323995E-2,1.3327464E-2,5.08885E-2,2.640896E-2,3.273922E-4,9.897742E-4,8.617297E-3,1.852362E-3,1.0966802E-3,2.9162597E-3,4.885718E-4,1.3393443E-4,1.2730132E-5,2.269748E-5,1.7761467E-3,2.6752143E-3,0E0,0E0,5.5582015E-5,3.3294577E-3,4.415299E-3,3.3433028E-3,3.8288278E-3,1.047796E-2,7.0322193E-3,1.2492314E-2,7.1184896E-2,2.8531726E-3,4.384401E-2,8.187276E-2,9.3528644E-5,2.8007315E-5,8.570305E-4,3.2865495E-4,1.01436E-2,9.9980105E-3,2.5150944E-3,1.4734395E-3,0E0,0E0,0E0,0E0,0E0,0E0,0E0,0E0,0E0,0E0,0E0,0E0,0E0,0E0,0E0,0E0,0E0,0E0,0E0,0E0,0E0,0E0,0E0,0E0,0E0,0E0,0E0,0E0,0E0,0E0,0E0,0E0,0E0,0E0,0E0,0E0,0E0,0E0,0E0,0E0,0E0,0E0,0E0,0E0,0E0,0E0,0E0,0E0,0E0,0E0,0E0,0E0,0E0,0E0,0E0,0E0],"parents":[2147483647,0,0,1,1,2,2,3,3,4,4,5,5,6,6,7,7,8,8,9,9,10,10,11,11,12,12,13,13,14,14,15,15,17,17,18,18,19,19,20,20,21,21,22,22,23,23,24,24,25,25,26,26,27,27,28,28,29,29,30,30,31,31,32,32,33,33,34,34,35,35,36,36,37,37,38,38,41,41,42,42,43,43,44,44,45,45,46,46,47,47,48,48,49,49,50,50,51,51,52,52,53,53,54,54,55,55,56,56,57,57,58,58,59,59,60,60],"right_children":[2,4,6,8,10,12,14,16,18,20,22,24,26,28,30,32,-1,34,36,38,40,42,44,46,48,50,52,54,56,58,60,62,64,66,68,70,72,74,76,-1,-1,78,80,82,84,86,88,90,92,94,96,98,100,102,104,106,108,110,112,114,116,-1,-1,-1,-1,-1,-1,-1,-1,-1,-1,-1,-1,-1,-1,-1,-1,-1,-1,-1,-1,-1,-1,-1,-1,-1,-1,-1,-1,-1,-1,-1,-1,-1,-1,-1,-1,-1,-1,-1,-1,-1,-1,-1,-1,-1,-1,-1,-1,-1,-1,-1,-1,-1,-1,-1,-1],"split_conditions":[1.6999999E-1,2.7999997E-1,-6.0000002E-2,3.6999997E-1,1.5E-1,6.0000002E-2,-5.832189E-3,3.5E-1,3.7000003E-1,-5.9999973E-2,-7.999998E-2,1.9999999E-1,8.9999974E-2,-5.9999973E-2,1.4999998E-1,-7.000002E-2,-1.2639859E-3,6.005968E-3,-5.9999973E-2,-6.999999E-2,-9.0085305E-3,9.582822E-2,-7.999998E-2,3.2999998E-1,0E0,-7.882223E-2,0E0,0E0,1.10000014E-1,5.845149E-3,-1.2857739E-2,-7.999998E-2,6.405476E-3,-7.000002E-2,-5.9999973E-2,3.9770473E-2,7.999998E-2,-7.999998E-2,-7.000002E-2,-7.859948E-3,-4.3316907E-3,-2.7893666E-2,-7.999998E-2,-2.3687785E-2,-9.6200086E-2,4.8E-1,-9E-2,-7.999998E-2,-7.999998E-2,6.0000032E-2,-5.832189E-3,1.999998E-2,-6.0000002E-2,-2.2876425E-2,3.9770473E-2,2.9999998E-1,1.999998E-2,6.005968E-3,-5.995391E-3,1.4999998E-1,9E-2,-2.3649954E-3,-5.5718236E-4,-1.6000059E-3,-3.180848E-3,-1.1892192E-3,-8.473042E-4,-8.275295E-4,2.0703897E-4,-6.606028E-4,-5.189851E-4,-2.3292581E-4,-5.290405E-4,-3.1316865E-3,-8.8281336E-4,-4.2066962E-4,-1.6832855E-3,-3.824511E-4,7.758737E-5,1.8857914E-3,-3.794572E-3,-1.9349231E-3,-8.565181E-3,-5.4470063E-3,-6.2876544E-4,-2.1458678E-4,1.330435E-3,2.1477814E-3,7.5168477E-4,-6.213992E-3,-1.4956402E-4,4.7707194E-3,1.7903527E-3,-8.122885E-3,-1.2124407E-3,-2.3942548E-5,1.2191278E-3,1.181121E-3,-3.7989634E-4,5.8538874E-4,-1.4444949E-3,3.3395714E-5,-1.0397807E-3,-4.7636445E-4,-8.629804E-4,-4.975024E-4,1.2449278E-3,1.3940985E-4,5.696649E-4,-1.4543956E-3,-3.039178E-3,7.792111E-3,-5.9047327E-3,-6.7684376E-3,-7.9612905E-4,2.7026278E-3,8.8319975E-5],"split_indices":[17,25,31,27,23,7,16,27,27,31,33,17,7,33,15,29,0,30,35,33,28,20,29,19,30,16,28,28,7,0,28,35,30,31,31,28,13,31,29,0,0,6,1,6,16,21,7,1,33,13,28,5,35,8,28,19,5,30,32,9,13,0,0,0,0,0,0,0,0,0,0,0,0,0,0,0,0,0,0,0,0,0,0,0,0,0,0,0,0,0,0,0,0,0,0,0,0,0,0,0,0,0,0,0,0,0,0,0,0,0,0,0,0,0,0,0,0],"split_type":[0,0,0,0,0,0,0,0,0,0,0,0,0,0,0,0,0,0,0,0,0,0,0,0,0,0,0,0,0,0,0,0,0,0,0,0,0,0,0,0,0,0,0,0,0,0,0,0,0,0,0,0,0,0,0,0,0,0,0,0,0,0,0,0,0,0,0,0,0,0,0,0,0,0,0,0,0,0,0,0,0,0,0,0,0,0,0,0,0,0,0,0,0,0,0,0,0,0,0,0,0,0,0,0,0,0,0,0,0,0,0,0,0,0,0,0,0],"sum_hessian":[4.9492E4,1.5018E4,3.4474E4,5.756E3,9.262E3,3.1521E4,2.953E3,2.379E3,3.377E3,9.6E2,8.302E3,1.3581E4,1.794E4,1.204E3,1.749E3,6.97E2,1.682E3,2.858E3,5.19E2,8.44E2,1.16E2,3.03E2,7.999E3,1.1218E4,2.363E3,1.333E3,1.6607E4,2.26E2,9.78E2,1.484E3,2.65E2,2.64E2,4.33E2,1.582E3,1.276E3,4E2,1.19E2,1.4E2,7.04E2,2.5E1,9.1E1,1.49E2,1.54E2,1.2E2,7.879E3,2.089E3,9.129E3,8.4E1,2.279E3,6.68E2,6.65E2,8.017E3,8.59E3,9.1E1,1.35E2,2.09E2,7.69E2,1.463E3,2.1E1,7.9E1,1.86E2,3.4E1,2.3E2,2.43E2,1.9E2,9.2E2,6.62E2,1.265E3,1.1E1,2.98E2,1.02E2,8.6E1,3.3E1,9E1,5E1,4.85E2,2.19E2,1.2E2,2.9E1,1.45E2,9E0,1.11E2,9E0,1.2E1,7.867E3,1.934E3,1.55E2,5.12E2,8.617E3,2.3E1,6.1E1,1.34E2,2.145E3,1.85E2,4.83E2,3.48E2,3.17E2,5.766E3,2.251E3,6.053E3,2.537E3,8.4E1,7E0,2.5E1,1.1E2,2.9E1,1.8E2,5.43E2,2.26E2,7.66E2,6.97E2,1.5E1,6E0,6E0,7.3E1,2.1E1,1.65E2],"tree_param":{"num_deleted":"0","num_feature":"36","num_nodes":"117","size_leaf_vector":"1"}},{"base_weights":[-2.7358794E-6,-1.9990588E-3,8.9245767E-4,-6.624475E-4,-2.17502E-3,1.1881458E-3,-2.3625032E-3,-5.7152794E-3,-3.2378663E-4,-2.4263114E-3,-1.2538215E-3,-4.5302443E-2,1.204438E-3,6.479987E-4,-4.3049124E-3,2.3330394E-3,-7.4902726E-3,-4.278428E-3,1.7076112E-4,-2.5052128E-3,3.3404669E-3,-9.529993E-4,-1.4288089E-3,-1.5077952E-2,-4.598832E-3,2.829018E-3,7.772305E-4,2.9094177E-3,2.502017E-4,-1.1113349E-2,-3.6844213E-3,1.0068549E-4,3.5386116E-3,-3.4324548E-3,-3.2943496E-3,-6.7080394E-3,-1.4964961E-3,-1.2786144E-3,1.5645337E-3,-4.27238E-3,-2.3387903E-3,1.5459708E-2,-4.0182713E-4,-3.7362808E-4,-1.1727684E-3,-1.4634443E-3,-3.9811895E-4,3.5680213E-3,-6.65402E-4,4.861621E-4,3.7518344E-3,3.5853374E-3,1.5992715E-4,5.1650376E-4,-2.0468272E-3,-8.014561E-3,-1.7752584E-2,-1.5688892E-3,-6.109864E-3,-3.7730366E-4,4.796376E-4,-1.1749582E-3,-7.768153E-4,-8.314618E-4,-3.411075E-3,-1.0730904E-4,-1.3055889E-3,-9.0219965E-4,-3.237067E-4,5.400406E-4,-2.1692866E-3,-7.865582E-4,-2.2388187E-3,-7.874649E-4,-3.780594E-4,2.5507018E-3,4.9098213E-3,-1.1502368E-3,6.2585063E-4,-1.769414E-4,5.979953E-4,7.8467134E-4,-3.5873556E-4,-5.3232466E-4,-3.9656737E-4,-2.1226415E-4,3.2519176E-5,3.7672938E-4,1.3051038E-3,6.472778E-4,-1.4285599E-3,-7.520123E-5,5.748638E-4,-3.253963E-4,1.4631802E-3,1.1516231E-3,-4.6816812E-4,9.092957E-5,-2.1932602E-4,2.1234664E-4,-3.2799077E-4,-5.397703E-4,-9.940196E-4,-4.3109656E-4,-2.720586E-3,-6.216121E-3,-1.0737141E-3,-2.6971786E-3,1.4944653E-4,-3.9912695E-3,-8.864492E-4],"categories":[],"categories_nodes":[],"categories_segments":[],"categories_sizes":[],"default_left":[0,0,1,0,1,0,0,0,0,1,0,1,0,1,0,1,0,0,0,0,0,0,0,0,0,1,0,0,0,0,0,0,0,0,0,0,0,0,1,1,1,0,0,0,0,0,0,0,0,1,0,0,0,0,0,0,0,0,0,0,0,0,0,0,0,0,0,0,0,0,0,0,0,0,0,0,0,0,0,0,0,0,0,0,0,0,0,0,0,0,0,0,0,0,0,0,0,0,0,0,0,0,0,0,0,0,0,0,0,0,0],"id":9,"left_children":[1,3,5,7,9,11,13,15,17,19,21,23,25,27,29,31,33,35,37,39,41,43,45,-1,-1,47,49,51,53,55,57,59,-1,61,-1,63,65,67,69,71,73,75,77,79,81,83,85,87,89,91,93,95,97,99,101,103,105,107,109,-1,-1,-1,-1,-1,-1,-1,-1,-1,-1,-1,-1,-1,-1,-1,-1,-1,-1,-1,-1,-1,-1,-1,-1,-1,-1,-1,-1,-1,-1,-1,-1,-1,-1,-1,-1,-1,-1,-1,-1,-1,-1,-1,-1,-1,-1,-1,-1,-1,-1,-1,-1],"loss_changes":[8.845049E-2,3.6024079E-3,3.28908E-2,3.0509236E-3,3.1313226E-3,2.3782022E-2,1.664514E-2,1.6174747E-3,3.272715E-3,4.848264E-3,1.5150523E-4,8.6401217E-4,2.1732137E-2,1.0041093E-3,7.267572E-3,4.424011E-4,1.2655254E-3,1.2471385E-3,3.0079088E-3,3.0762553E-3,6.5371543E-3,1.3593008E-4,6.48885E-5,0E0,0E0,1.6839541E-2,2.1467742E-2,3.0978525E-4,5.827872E-4,2.8203167E-3,8.133475E-3,3.8640304E-5,0E0,7.815368E-6,0E0,1.7854134E-3,2.8460202E-4,2.486331E-4,1.585841E-3,4.730124E-3,2.956871E-3,7.524993E-5,9.5588714E-4,1.5263238E-4,7.0791226E-5,7.574377E-5,9.63725E-6,9.73022E-3,1.3182008E-2,2.380164E-2,1.2034634E-2,1.8072664E-4,4.5588936E-6,2.6348536E-4,2.5084242E-5,6.802827E-4,1.8187417E-3,1.3028983E-2,1.6734853E-2,0E0,0E0,0E0,0E0,0E0,0E0,0E0,0E0,0E0,0E0,0E0,0E0,0E0,0E0,0E0,0E0,0E0,0E0,0E0,0E0,0E0,0E0,0E0,0E0,0E0,0E0,0E0,0E0,0E0,0E0,0E0,0E0,0E0,0E0,0E0,0E0,0E0,0E0,0E0,0E0,0E0,0E0,0E0,0E0,0E0,0E0,0E0,0E0,0E0,0E0,0E0,0E0],"parents":[2147483647,0,0,1,1,2,2,3,3,4,4,5,5,6,6,7,7,8,8,9,9,10,10,11,11,12,12,13,13,14,14,15,15,16,16,17,17,18,18,19,19,20,20,21,21,22,22,25,25,26,26,27,27,28,28,29,29,30,30,31,31,33,33,35,35,36,36,37,37,38,38,39,39,40,40,41,41,42,42,43,43,44,44,45,45,46,46,47,47,48,48,49,49,50,50,51,51,52,52,53,53,54,54,55,55,56,56,57,57,58,58],"right_children":[2,4,6,8,10,12,14,16,18,20,22,24,26,28,30,32,34,36,38,40,42,44,46,-1,-1,48,50,52,54,56,58,60,-1,62,-1,64,66,68,70,72,74,76,78,80,82,84,86,88,90,92,94,96,98,100,102,104,106,108,110,-1,-1,-1,-1,-1,-1,-1,-1,-1,-1,-1,-1,-1,-1,-1,-1,-1,-1,-1,-1,-1,-1,-1,-1,-1,-1,-1,-1,-1,-1,-1,-1,-1,-1,-1,-1,-1,-1,-1,-1,-1,-1,-1,-1,-1,-1,-1,-1,-1,-1,-1,-1],"split_conditions":[1.6999999E-1,-7.000002E-2,-5.9999973E-2,1.5E-1,3.9E-1,-9E-2,-5.832189E-3,1.760677E-2,1.3E-1,1.7575082E-1,7.999998E-2,-9.964177E-3,-7.999998E-2,1.10000014E-1,-3.7666235E-2,-5.995391E-3,4.0885787E-2,1.0411257E-1,4.2000002E-1,-6.1877675E-2,-6.985263E-2,3.8475856E-2,4.1E-1,-1.5077952E-2,-4.598832E-3,-1.846192E-2,-5.0000012E-2,1.999998E-2,3.9770473E-2,-7.498824E-2,7.5953244E-3,-9.701561E-3,3.5386116E-3,1.29137095E-2,-3.2943496E-3,2.1507561E-2,7.959363E-2,3.9000002E-1,-2.3687785E-2,-1.2754978E-1,8.327551E-2,-7.305443E-2,7.999998E-2,1.7969E-2,1.1598841E-2,-6.0000002E-2,-7.883621E-3,-7.999998E-2,0E0,4.4E-1,-6.999999E-2,3.9770473E-2,6.005968E-3,5.845149E-3,6.005968E-3,-1.6517498E-1,3.95833E-2,7.999998E-2,1.8300327E-2,-3.7730366E-4,4.796376E-4,-1.1749582E-3,-7.768153E-4,-8.314618E-4,-3.411075E-3,-1.0730904E-4,-1.3055889E-3,-9.0219965E-4,-3.237067E-4,5.400406E-4,-2.1692866E-3,-7.865582E-4,-2.2388187E-3,-7.874649E-4,-3.780594E-4,2.5507018E-3,4.9098213E-3,-1.1502368E-3,6.2585063E-4,-1.769414E-4,5.979953E-4,7.8467134E-4,-3.5873556E-4,-5.3232466E-4,-3.9656737E-4,-2.1226415E-4,3.2519176E-5,3.7672938E-4,1.3051038E-3,6.472778E-4,-1.4285599E-3,-7.520123E-5,5.748638E-4,-3.253963E-4,1.4631802E-3,1.1516231E-3,-4.6816812E-4,9.092957E-5,-2.1932602E-4,2.1234664E-4,-3.2799077E-4,-5.397703E-4,-9.940196E-4,-4.3109656E-4,-2.720586E-3,-6.216121E-3,-1.0737141E-3,-2.6971786E-3,1.4944653E-4,-3.9912695E-3,-8.864492E-4],"split_indices":[23,35,31,17,27,1,16,34,15,12,13,8,35,7,28,32,20,14,21,16,16,34,27,0,0,32,1,5,28,6,30,20,0,30,0,20,22,27,6,6,12,18,13,30,24,29,28,1,13,27,13,28,30,0,30,6,34,13,34,0,0,0,0,0,0,0,0,0,0,0,0,0,0,0,0,0,0,0,0,0,0,0,0,0,0,0,0,0,0,0,0,0,0,0,0,0,0,0,0,0,0,0,0,0,0,0,0,0,0,0,0],"split_type":[0,0,0,0,0,0,0,0,0,0,0,0,0,0,0,0,0,0,0,0,0,0,0,0,0,0,0,0,0,0,0,0,0,0,0,0,0,0,0,0,0,0,0,0,0,0,0,0,0,0,0,0,0,0,0,0,0,0,0,0,0,0,0,0,0,0,0,0,0,0,0,0,0,0,0,0,0,0,0,0,0,0,0,0,0,0,0,0,0,0,0,0,0,0,0,0,0,0,0,0,0,0,0,0,0,0,0,0,0,0,0],"sum_hessian":[4.9492E4,1.5322E4,3.417E4,1.783E3,1.3539E4,3.1325E4,2.845E3,1.11E2,1.672E3,1.0636E4,2.903E3,1E1,3.1315E4,1.116E3,1.729E3,2E1,9.1E1,1.85E2,1.487E3,1.0493E4,1.43E2,1.07E3,1.833E3,8E0,2E0,6.519E3,2.4796E4,1.66E2,9.5E2,1.43E2,1.586E3,1.7E1,3E0,4.3E1,4.8E1,9.8E1,8.7E1,7.29E2,7.58E2,9.01E2,9.592E3,3.3E1,1.1E2,2.95E2,7.75E2,1.773E3,6E1,5.381E3,1.138E3,2.2587E4,2.209E3,1.33E2,3.3E1,8.52E2,9.8E1,9.9E1,4.4E1,8.48E2,7.38E2,9E0,8E0,2.5E1,1.8E1,5.4E1,4.4E1,6.3E1,2.4E1,7.4E1,6.55E2,7.39E2,1.9E1,5.95E2,3.06E2,7.58E3,2.012E3,5E0,2.8E1,4.6E1,6.4E1,2.71E2,2.4E1,4E0,7.71E2,5.51E2,1.222E3,3.7E1,2.3E1,1.361E3,4.02E3,6.74E2,4.64E2,1.4907E4,7.68E3,4.17E2,1.792E3,1.27E2,6E0,2.9E1,4E0,7.62E2,9E1,8.4E1,1.4E1,1.4E1,8.5E1,3.6E1,8E0,1.84E2,6.64E2,2.24E2,5.14E2],"tree_param":{"num_deleted":"0","num_feature":"36","num_nodes":"111","size_leaf_vector":"1"}},{"base_weights":[-2.799421E-6,1.516641E-3,-6.571755E-4,4.4899198E-4,3.7552596E-3,-2.227592E-3,3.0755746E-4,1.4534387E-3,-4.0318642E-4,8.372936E-3,3.063807E-3,-7.1606208E-3,-1.4188878E-3,1.3795274E-3,-8.5994694E-4,1.2015142E-3,6.5971683E-3,-1.7889617E-3,8.420314E-4,4.441005E-3,1.3677651E-2,6.2895883E-3,2.3963866E-3,-4.1781135E-2,-5.4529593E-3,-1.6361555E-3,2.7713152E-3,-3.5383532E-4,2.232253E-3,2.193982E-3,-1.5878468E-3,2.1015508E-3,-2.4179835E-4,1.5179841E-2,4.3761577E-3,-4.119281E-3,-5.0677225E-4,-3.7272452E-4,1.8028737E-3,1.8806565E-3,6.4245244E-3,6.733096E-3,2.1112146E-2,9.311448E-3,2.0690991E-4,1.8930989E-3,7.7275964E-3,-2.6011262E-2,-5.3479988E-2,-2.315787E-3,-7.2971033E-3,-1.569327E-3,-1.0533974E-2,8.381738E-3,-5.6127546E-4,-1.4771011E-3,1.0223406E-5,2.982765E-3,-1.1613518E-3,-1.4150532E-2,2.6345854E-3,-5.625823E-3,-5.6299067E-4,1.3081057E-4,1.0236686E-3,-8.557617E-4,6.6421984E-4,8.4789295E-4,5.3539686E-3,-1.620885E-3,2.2363618E-3,-1.0829534E-2,-1.0858416E-3,3.5668103E-4,-4.7801857E-4,-2.4559195E-3,-7.6183074E-5,1.2791691E-3,4.2336507E-4,3.9065097E-4,6.211862E-4,2.7526156E-3,1.4223028E-3,2.778309E-3,-2.1395604E-3,5.1768374E-4,7.1598734E-3,5.3304792E-3,1.7822962E-3,-2.637417E-3,1.4887966E-3,1.6992702E-4,7.121498E-4,4.623481E-3,8.5240026E-4,-6.492986E-3,-1.3928377E-2,-7.862537E-3,-1.7688261E-2,1.4926458E-2,-7.653307E-4,-1.0283498E-2,-1.7505615E-3,-5.728138E-4,-1.1990773E-4,-8.123675E-3,-4.783487E-4,-6.30514E-5,2.8993697E-3,7.066951E-3,-5.8070384E-4,-3.4419465E-4,-1.4282895E-3,-1.779833E-4,2.2251079E-4,3.7234364E-4,1.8065574E-3,-4.4074925E-3,-1.3747817E-4,-6.3743885E-3,1.3084909E-4,2.7322787E-4,1.803565E-3,-2.2300698E-3,1.666108E-3,-4.719119E-4,2.816983E-4],"categories":[],"categories_nodes":[],"categories_segments":[],"categories_sizes":[],"default_left":[0,0,0,0,0,1,0,1,1,0,0,0,0,0,0,0,0,0,0,0,0,0,1,0,1,0,0,0,0,0,1,0,0,0,0,0,0,0,0,0,0,0,0,0,0,0,0,0,0,0,0,1,0,0,0,0,0,0,0,1,0,1,0,0,0,0,0,0,0,0,0,0,0,0,0,0,0,0,0,0,0,0,0,0,0,0,0,0,0,0,0,0,0,0,0,0,0,0,0,0,0,0,0,0,0,0,0,0,0,0,0,0,0,0,0,0,0,0,0,0,0,0,0,0,0,0,0],"id":10,"left_children":[1,3,5,7,9,11,13,15,17,19,21,23,25,27,29,31,33,35,37,39,41,43,45,47,49,51,53,55,57,59,61,63,65,67,69,71,73,75,77,79,81,83,85,87,89,91,93,95,97,99,101,103,105,107,109,111,113,115,117,119,121,123,125,-1,-1,-1,-1,-1,-1,-1,-1,-1,-1,-1,-1,-1,-1,-1,-1,-1,-1,-1,-1,-1,-1,-1,-1,-1,-1,-1,-1,-1,-1,-1,-1,-1,-1,-1,-1,-1,-1,-1,-1,-1,-1,-1,-1,-1,-1,-1,-1,-1,-1,-1,-1,-1,-1,-1,-1,-1,-1,-1,-1,-1,-1,-1,-1],"loss_changes":[4.9211167E-2,3.5607804E-2,5.2413236E-2,8.636445E-3,1.5335411E-2,5.2509777E-2,2.6822718E-2,5.993071E-3,9.421513E-3,1.2996219E-2,8.997187E-3,1.0938086E-1,1.0302935E-2,1.6515408E-2,2.2808772E-2,5.7370435E-3,4.0510073E-3,7.718675E-3,3.357507E-3,1.8212567E-3,1.3591234E-2,1.3177251E-2,9.295836E-3,1.4659494E-2,1.0211688E-2,6.3786954E-3,1.0437766E-2,1.5069395E-3,1.9077502E-2,1.42601365E-2,3.428302E-2,5.9361476E-3,1.0886842E-2,1.39907E-3,5.2482374E-3,1.45262E-2,3.075345E-3,1.1775559E-3,1.5419684E-3,1.477648E-5,8.966159E-4,4.9379566E-3,6.793037E-3,1.3547547E-2,1.0271303E-2,2.0216852E-3,1.1182487E-2,2.4731476E-3,5.778864E-3,8.164908E-3,4.370094E-2,4.245473E-3,1.1789073E-2,2.2945944E-3,1.1680394E-2,9.7137736E-4,1.2294325E-3,3.2454148E-2,1.2902447E-2,5.3927246E-3,1.119581E-2,3.393293E-2,1.0027847E-2,0E0,0E0,0E0,0E0,0E0,0E0,0E0,0E0,0E0,0E0,0E0,0E0,0E0,0E0,0E0,0E0,0E0,0E0,0E0,0E0,0E0,0E0,0E0,0E0,0E0,0E0,0E0,0E0,0E0,0E0,0E0,0E0,0E0,0E0,0E0,0E0,0E0,0E0,0E0,0E0,0E0,0E0,0E0,0E0,0E0,0E0,0E0,0E0,0E0,0E0,0E0,0E0,0E0,0E0,0E0,0E0,0E0,0E0,0E0,0E0,0E0,0E0,0E0,0E0],"parents":[2147483647,0,0,1,1,2,2,3,3,4,4,5,5,6,6,7,7,8,8,9,9,10,10,11,11,12,12,13,13,14,14,15,15,16,16,17,17,18,18,19,19,20,20,21,21,22,22,23,23,24,24,25,25,26,26,27,27,28,28,29,29,30,30,31,31,32,32,33,33,34,34,35,35,36,36,37,37,38,38,39,39,40,40,41,41,42,42,43,43,44,44,45,45,46,46,47,47,48,48,49,49,50,50,51,51,52,52,53,53,54,54,55,55,56,56,57,57,58,58,59,59,60,60,61,61,62,62],"right_children":[2,4,6,8,10,12,14,16,18,20,22,24,26,28,30,32,34,36,38,40,42,44,46,48,50,52,54,56,58,60,62,64,66,68,70,72,74,76,78,80,82,84,86,88,90,92,94,96,98,100,102,104,106,108,110,112,114,116,118,120,122,124,126,-1,-1,-1,-1,-1,-1,-1,-1,-1,-1,-1,-1,-1,-1,-1,-1,-1,-1,-1,-1,-1,-1,-1,-1,-1,-1,-1,-1,-1,-1,-1,-1,-1,-1,-1,-1,-1,-1,-1,-1,-1,-1,-1,-1,-1,-1,-1,-1,-1,-1,-1,-1,-1,-1,-1,-1,-1,-1,-1,-1,-1,-1,-1,-1],"split_conditions":[1.999998E-2,1.9000003E-1,8.9999974E-2,-3.999999E-2,-7.999998E-2,-1.1224246E-1,0E0,-5.0000012E-2,4.5000002E-1,1.9999999E-1,-6.999999E-2,-1.999998E-2,1.8E-1,4.5999998E-1,-6.0000002E-2,-5.0000012E-2,-3.5845168E-2,-8.744453E-3,-7.999998E-2,6.544906E-3,-1.999998E-2,-2.011305E-2,-6.999999E-2,-8.016775E-3,8.000001E-2,1.7000002E-1,1.8999997E-1,4.2000002E-1,-6.999999E-2,-9E-2,1.4999998E-1,1.7000002E-1,7.955874E-3,4.0885787E-2,-5.0000012E-2,-3.0000001E-2,1.09999985E-1,4.4E-1,1.7000002E-1,-7.614665E-3,-7.999998E-2,-6.999999E-2,9.582822E-2,-1.999998E-2,0E0,-6.999999E-2,1.0574522E-2,-7.999998E-2,7.999998E-2,-7.999998E-2,9E-2,2.8E-1,-1.1892551E-2,2.000001E-2,-7.999998E-2,1.6999999E-1,-7.000002E-2,-5.9999973E-2,-9.672854E-3,-5.832189E-3,-7.000002E-2,1.4999998E-1,3.3E-1,1.3081057E-4,1.0236686E-3,-8.557617E-4,6.6421984E-4,8.4789295E-4,5.3539686E-3,-1.620885E-3,2.2363618E-3,-1.0829534E-2,-1.0858416E-3,3.5668103E-4,-4.7801857E-4,-2.4559195E-3,-7.6183074E-5,1.2791691E-3,4.2336507E-4,3.9065097E-4,6.211862E-4,2.7526156E-3,1.4223028E-3,2.778309E-3,-2.1395604E-3,5.1768374E-4,7.1598734E-3,5.3304792E-3,1.7822962E-3,-2.637417E-3,1.4887966E-3,1.6992702E-4,7.121498E-4,4.623481E-3,8.5240026E-4,-6.492986E-3,-1.3928377E-2,-7.862537E-3,-1.7688261E-2,1.4926458E-2,-7.653307E-4,-1.0283498E-2,-1.7505615E-3,-5.728138E-4,-1.1990773E-4,-8.123675E-3,-4.783487E-4,-6.30514E-5,2.8993697E-3,7.066951E-3,-5.8070384E-4,-3.4419465E-4,-1.4282895E-3,-1.779833E-4,2.2251079E-4,3.7234364E-4,1.8065574E-3,-4.4074925E-3,-1.3747817E-4,-6.3743885E-3,1.3084909E-4,2.7322787E-4,1.803565E-3,-2.2300698E-3,1.666108E-3,-4.719119E-4,2.816983E-4],"split_indices":[13,17,13,7,33,16,28,35,21,17,7,11,17,27,35,13,32,28,29,20,11,32,29,8,7,23,23,21,29,29,23,17,30,20,13,7,7,27,17,28,1,13,20,11,11,33,30,29,7,33,7,25,0,13,33,17,31,1,0,16,31,9,19,0,0,0,0,0,0,0,0,0,0,0,0,0,0,0,0,0,0,0,0,0,0,0,0,0,0,0,0,0,0,0,0,0,0,0,0,0,0,0,0,0,0,0,0,0,0,0,0,0,0,0,0,0,0,0,0,0,0,0,0,0,0,0,0],"split_type":[0,0,0,0,0,0,0,0,0,0,0,0,0,0,0,0,0,0,0,0,0,0,0,0,0,0,0,0,0,0,0,0,0,0,0,0,0,0,0,0,0,0,0,0,0,0,0,0,0,0,0,0,0,0,0,0,0,0,0,0,0,0,0,0,0,0,0,0,0,0,0,0,0,0,0,0,0,0,0,0,0,0,0,0,0,0,0,0,0,0,0,0,0,0,0,0,0,0,0,0,0,0,0,0,0,0,0,0,0,0,0,0,0,0,0,0,0,0,0,0,0,0,0,0,0,0,0],"sum_hessian":[4.9492E4,1.4898E4,3.4594E4,1.0088E4,4.81E3,1.3164E4,2.143E4,4.63E3,5.458E3,6.25E2,4.185E3,1.853E3,1.1311E4,1.1172E4,1.0258E4,4.415E3,2.15E2,2.583E3,2.875E3,3.6E2,2.65E2,7.16E2,3.469E3,8.6E1,1.767E3,1.0754E4,5.57E2,3.684E3,7.488E3,1.974E3,8.284E3,2.719E3,1.696E3,4.3E1,1.72E2,9.16E2,1.667E3,1.27E3,1.605E3,1.58E2,2.02E2,1.38E2,1.27E2,4.78E2,2.38E2,3.171E3,2.98E2,3.8E1,4.8E1,6.55E2,1.112E3,1.0675E4,7.9E1,2.07E2,3.5E2,9.01E2,2.783E3,6.132E3,1.356E3,5.1E1,1.923E3,1.676E3,6.608E3,1.198E3,1.521E3,8.22E2,8.74E2,8E0,3.5E1,4.1E1,1.31E2,1.3E1,9.03E2,6.51E2,1.016E3,1.8E1,1.252E3,2.19E2,1.386E3,4.1E1,1.17E2,7.5E1,1.27E2,1.17E2,2.1E1,1.6E1,1.11E2,1.35E2,3.43E2,8.2E1,1.56E2,8.44E2,2.327E3,1.15E2,1.83E2,3.3E1,5E0,9E0,3.9E1,2E0,6.53E2,5.6E1,1.056E3,8.27E3,2.405E3,2.7E1,5.2E1,2.7E1,1.8E2,1.8E1,3.32E2,8.2E2,8.1E1,1.525E3,1.258E3,3.899E3,2.233E3,6.6E1,1.29E3,3.4E1,1.7E1,1.274E3,6.49E2,1.443E3,2.33E2,3.951E3,2.657E3],"tree_param":{"num_deleted":"0","num_feature":"36","num_nodes":"127","size_leaf_vector":"1"}},{"base_weights":[-2.6112386E-6,1.0612656E-3,-4.658666E-4,5.6942535E-4,3.4571532E-3,-1.5837529E-3,2.1487077E-4,1.5835883E-3,2.4842078E-4,9.60562E-3,2.742079E-3,-5.098483E-3,-1.0082176E-3,9.653001E-4,-6.024371E-4,6.352827E-5,3.4382625E-3,-5.243861E-4,1.2389622E-3,4.7177533E-3,1.4838494E-2,4.439887E-3,7.082628E-4,-2.9775208E-2,-3.8687836E-3,3.6198641E-3,-1.1453573E-3,-2.503602E-3,1.2934735E-3,1.9736607E-3,-1.0751524E-3,-1.2172434E-3,5.1020626E-3,1.455462E-3,6.1870413E-3,1.4476481E-2,-6.265267E-4,3.2248686E-4,2.1499952E-3,6.326928E-3,3.0047311E-3,1.2383952E-3,1.6770309E-2,1.3860388E-2,3.2093339E-3,-4.012534E-3,1.6182016E-3,-1.7710544E-2,-3.7944175E-2,-1.4407859E-2,-3.368511E-3,7.2647813E-3,4.957928E-4,-1.0684708E-3,-7.5526317E-3,2.6683686E-3,-1.1026952E-2,3.0933725E-4,4.2258105E-3,-6.0433515E-5,4.9648834E-3,-4.0244805E-3,-3.3287524E-4,-7.115812E-3,-2.9224902E-4,1.2056229E-3,2.8570537E-3,5.5440207E-4,3.1031095E-4,2.063055E-3,7.697334E-4,9.247631E-4,8.557873E-3,-4.8854516E-4,7.96802E-5,-2.5975498E-4,1.6675392E-4,1.273005E-3,4.98404E-4,1.8010448E-3,-5.673932E-4,-5.7595636E-4,1.0923466E-3,6.77578E-3,2.5636815E-3,5.8923275E-3,-3.5750307E-3,7.0730725E-4,2.810799E-3,2.3357724E-3,-2.1125001E-3,7.7869336E-4,-2.9934297E-4,-4.1846675E-3,-1.044628E-2,-7.951469E-3,-1.4634251E-2,7.762762E-4,-8.832495E-3,-5.461035E-5,-1.3003486E-3,2.6239604E-3,3.2868207E-4,-7.6145545E-5,8.2000764E-4,-3.916579E-4,-4.2540927E-5,-4.6908706E-3,-1.3484881E-3,-4.474091E-4,3.5298134E-3,-3.6201626E-4,-6.539909E-3,1.0679613E-3,4.107536E-5,-5.4255994E-3,1.4742998E-3,2.255659E-4,-1.7679629E-3,3.021667E-4,3.4475082E-3,-2.5455013E-3,3.741179E-5,-3.6903608E-4,2.0355645E-4],"categories":[],"categories_nodes":[],"categories_segments":[],"categories_sizes":[],"default_left":[0,0,0,0,0,1,0,0,0,0,0,0,0,0,0,0,0,0,0,0,0,0,0,0,0,0,1,0,0,0,1,0,0,0,0,0,0,0,0,0,0,0,0,0,1,1,0,0,0,0,1,1,0,1,0,0,0,0,0,0,0,0,0,0,0,0,0,0,0,0,0,0,0,0,0,0,0,0,0,0,0,0,0,0,0,0,0,0,0,0,0,0,0,0,0,0,0,0,0,0,0,0,0,0,0,0,0,0,0,0,0,0,0,0,0,0,0,0,0,0,0,0,0,0,0],"id":11,"left_children":[1,3,5,7,9,11,13,15,17,19,21,23,25,27,29,31,33,35,37,39,41,43,45,47,49,51,53,55,57,59,61,63,65,67,69,71,73,75,77,-1,79,81,83,85,87,89,91,93,95,97,99,101,103,105,107,109,111,113,115,117,119,121,123,-1,-1,-1,-1,-1,-1,-1,-1,-1,-1,-1,-1,-1,-1,-1,-1,-1,-1,-1,-1,-1,-1,-1,-1,-1,-1,-1,-1,-1,-1,-1,-1,-1,-1,-1,-1,-1,-1,-1,-1,-1,-1,-1,-1,-1,-1,-1,-1,-1,-1,-1,-1,-1,-1,-1,-1,-1,-1,-1,-1,-1,-1],"loss_changes":[2.4392953E-2,1.7690435E-2,2.6239168E-2,4.0553208E-3,1.12157855E-2,2.6393067E-2,1.3144895E-2,8.443333E-3,7.2453157E-3,6.7336354E-3,7.911202E-3,5.5598132E-2,7.1222326E-3,1.2722597E-2,1.2495131E-2,1.0634651E-2,7.3434226E-3,8.155766E-3,3.462634E-3,3.83497E-3,3.342159E-3,1.4434461E-2,4.491137E-3,7.902347E-3,9.178186E-3,3.6743926E-3,5.3581856E-3,4.2613138E-2,2.9457131E-2,9.680625E-3,1.8977001E-2,7.1642324E-3,1.5615346E-3,1.2784696E-4,1.393713E-3,5.6750225E-3,4.7218725E-3,5.742351E-4,2.1206131E-3,0E0,1.8759698E-3,1.3599527E-4,5.16415E-3,2.1691505E-2,5.7801167E-3,6.094725E-3,2.2425232E-3,1.8957304E-3,5.029209E-3,2.0261155E-2,5.1457696E-3,1.3524555E-3,2.9422206E-4,2.3645796E-3,3.118209E-3,2.2799572E-2,3.8587347E-2,4.2836308E-3,3.949169E-2,4.496131E-3,1.6623527E-2,3.2259714E-2,6.286883E-3,0E0,0E0,0E0,0E0,0E0,0E0,0E0,0E0,0E0,0E0,0E0,0E0,0E0,0E0,0E0,0E0,0E0,0E0,0E0,0E0,0E0,0E0,0E0,0E0,0E0,0E0,0E0,0E0,0E0,0E0,0E0,0E0,0E0,0E0,0E0,0E0,0E0,0E0,0E0,0E0,0E0,0E0,0E0,0E0,0E0,0E0,0E0,0E0,0E0,0E0,0E0,0E0,0E0,0E0,0E0,0E0,0E0,0E0,0E0,0E0,0E0,0E0],"parents":[2147483647,0,0,1,1,2,2,3,3,4,4,5,5,6,6,7,7,8,8,9,9,10,10,11,11,12,12,13,13,14,14,15,15,16,16,17,17,18,18,19,19,20,20,21,21,22,22,23,23,24,24,25,25,26,26,27,27,28,28,29,29,30,30,31,31,32,32,33,33,34,34,35,35,36,36,37,37,38,38,40,40,41,41,42,42,43,43,44,44,45,45,46,46,47,47,48,48,49,49,50,50,51,51,52,52,53,53,54,54,55,55,56,56,57,57,58,58,59,59,60,60,61,61,62,62],"right_children":[2,4,6,8,10,12,14,16,18,20,22,24,26,28,30,32,34,36,38,40,42,44,46,48,50,52,54,56,58,60,62,64,66,68,70,72,74,76,78,-1,80,82,84,86,88,90,92,94,96,98,100,102,104,106,108,110,112,114,116,118,120,122,124,-1,-1,-1,-1,-1,-1,-1,-1,-1,-1,-1,-1,-1,-1,-1,-1,-1,-1,-1,-1,-1,-1,-1,-1,-1,-1,-1,-1,-1,-1,-1,-1,-1,-1,-1,-1,-1,-1,-1,-1,-1,-1,-1,-1,-1,-1,-1,-1,-1,-1,-1,-1,-1,-1,-1,-1,-1,-1,-1,-1,-1,-1],"split_conditions":[3.999999E-2,1.9999999E-1,8.9999974E-2,0E0,-7.999998E-2,-1.1224246E-1,0E0,1.7000002E-1,-6.999999E-2,-1.999998E-2,-2.4903359E-2,-1.999998E-2,1.09999985E-1,0E0,-6.0000002E-2,-7.999998E-2,6.544906E-3,-1.6999999E-1,4.8E-1,-6.999999E-2,9.582822E-2,-1.999998E-2,0E0,1.5000004E-1,6.0000032E-2,6.0000002E-2,-5.0000012E-2,-7.999998E-2,2.2E-1,9.9996105E-6,1.4999998E-1,1.1420059E-2,4.6000004E-1,-6.999999E-2,-6.999999E-2,-1.2325021E-2,0E0,4.3000004E-1,1.9E-1,6.326928E-3,2.1656604E-2,-1.999998E-2,-6.999999E-2,3.7740022E-2,-6.999999E-2,1.6801767E-2,-6.0000002E-2,-7.999998E-2,-7.999998E-2,-7.000002E-2,-6.999999E-2,5E-1,1.9E-1,3.9E-1,-1.1477593E-2,-7.999998E-2,-1.8820284E-2,-9E-2,-7.999998E-2,1.9999999E-1,-7.000002E-2,-7.000002E-2,4.3000004E-1,-7.115812E-3,-2.9224902E-4,1.2056229E-3,2.8570537E-3,5.5440207E-4,3.1031095E-4,2.063055E-3,7.697334E-4,9.247631E-4,8.557873E-3,-4.8854516E-4,7.96802E-5,-2.5975498E-4,1.6675392E-4,1.273005E-3,4.98404E-4,1.8010448E-3,-5.673932E-4,-5.7595636E-4,1.0923466E-3,6.77578E-3,2.5636815E-3,5.8923275E-3,-3.5750307E-3,7.0730725E-4,2.810799E-3,2.3357724E-3,-2.1125001E-3,7.7869336E-4,-2.9934297E-4,-4.1846675E-3,-1.044628E-2,-7.951469E-3,-1.4634251E-2,7.762762E-4,-8.832495E-3,-5.461035E-5,-1.3003486E-3,2.6239604E-3,3.2868207E-4,-7.6145545E-5,8.2000764E-4,-3.916579E-4,-4.2540927E-5,-4.6908706E-3,-1.3484881E-3,-4.474091E-4,3.5298134E-3,-3.6201626E-4,-6.539909E-3,1.0679613E-3,4.107536E-5,-5.4255994E-3,1.4742998E-3,2.255659E-4,-1.7679629E-3,3.021667E-4,3.4475082E-3,-2.5455013E-3,3.741179E-5,-3.6903608E-4,2.0355645E-4],"split_indices":[13,17,13,11,33,16,28,23,35,11,32,11,15,11,33,29,20,15,27,7,20,11,11,9,13,13,33,29,17,6,23,34,27,33,1,20,28,21,17,0,30,7,1,30,31,34,1,29,33,29,35,21,17,27,0,1,6,7,33,17,31,29,27,0,0,0,0,0,0,0,0,0,0,0,0,0,0,0,0,0,0,0,0,0,0,0,0,0,0,0,0,0,0,0,0,0,0,0,0,0,0,0,0,0,0,0,0,0,0,0,0,0,0,0,0,0,0,0,0,0,0,0,0,0,0],"split_type":[0,0,0,0,0,0,0,0,0,0,0,0,0,0,0,0,0,0,0,0,0,0,0,0,0,0,0,0,0,0,0,0,0,0,0,0,0,0,0,0,0,0,0,0,0,0,0,0,0,0,0,0,0,0,0,0,0,0,0,0,0,0,0,0,0,0,0,0,0,0,0,0,0,0,0,0,0,0,0,0,0,0,0,0,0,0,0,0,0,0,0,0,0,0,0,0,0,0,0,0,0,0,0,0,0,0,0,0,0,0,0,0,0,0,0,0,0,0,0,0,0,0,0,0,0],"sum_hessian":[4.9492E4,1.5013E4,3.4479E4,1.2457E4,2.556E3,1.3049E4,2.143E4,2.994E3,9.463E3,2.65E2,2.291E3,1.835E3,1.1214E4,1.1172E4,1.0258E4,1.646E3,1.348E3,5.316E3,4.147E3,1.38E2,1.27E2,1.248E3,1.043E3,8.6E1,1.749E3,3.22E2,1.0892E4,9.65E2,1.0207E4,1.59E3,8.668E3,1.313E3,3.33E2,7.84E2,5.64E2,3.5E1,5.281E3,2.068E3,2.079E3,1.2E1,1.26E2,1.6E1,1.11E2,1.43E2,1.105E3,1.68E2,8.75E2,3.6E1,5E1,7.8E1,1.671E3,1.48E2,1.74E2,1.0764E4,1.28E2,6.01E2,3.64E2,7.643E3,2.564E3,9.47E2,6.43E2,1.742E3,6.926E3,1.3E1,1.3E3,2.69E2,6.4E1,4.04E2,3.8E2,4.73E2,9.1E1,2E1,1.5E1,2.487E3,2.794E3,3.39E2,1.729E3,3.92E2,1.687E3,7.8E1,4.8E1,7E0,9E0,6.4E1,4.7E1,1.17E2,2.6E1,9.72E2,1.33E2,3.4E1,1.34E2,6.37E2,2.38E2,3.1E1,5E0,2.6E1,2.4E1,3.7E1,4.1E1,3.89E2,1.282E3,1.19E2,2.9E1,1.31E2,4.3E1,8.571E3,2.193E3,3.4E1,9.4E1,4.13E2,1.88E2,1.91E2,1.73E2,3.84E2,7.259E3,7.6E1,2.488E3,8.32E2,1.15E2,4.01E2,2.42E2,8.39E2,9.03E2,3.67E3,3.256E3],"tree_param":{"num_deleted":"0","num_feature":"36","num_nodes":"125","size_leaf_vector":"1"}},{"base_weights":[-2.2601002E-6,7.4189715E-4,-3.292166E-4,1.872785E-4,1.892752E-3,-1.1220186E-3,1.5008313E-4,5.689188E-4,-4.9179903E-4,4.2246785E-3,1.5518754E-3,-3.5253246E-3,-6.769977E-4,-2.0480356E-3,3.217984E-4,-8.3226245E-4,8.6996006E-4,-2.2163813E-3,4.4988192E-4,2.4620884E-3,7.311953E-3,3.5718437E-3,1.1281901E-3,-1.3243298E-2,-2.7123075E-3,-7.0752157E-4,1.2669468E-2,2.2242807E-3,-2.9528888E-3,-7.06785E-4,6.7904464E-4,1.8617958E-3,-1.766991E-3,2.0383038E-4,1.3384032E-3,-6.903233E-5,-5.927759E-3,-3.411697E-4,9.834408E-4,7.5005466E-4,3.6734026E-3,3.3568263E-3,1.3406905E-2,4.0556677E-3,-1.1091703E-2,8.4607606E-4,4.188986E-3,-3.6339487E-3,-2.143662E-2,1.5248077E-2,-2.934493E-3,-3.0454833E-4,-1.426767E-3,-5.0416787E-4,8.844525E-3,1.1185797E-4,1.700795E-2,-6.4278767E-3,-1.0785215E-3,-1.3347334E-3,1.8680263E-4,-1.4046263E-2,7.150115E-4,8.2938117E-4,-4.8578688E-4,-2.9794557E-3,-4.346807E-4,-3.3469044E-4,1.9329666E-4,2.5745382E-4,9.796707E-4,4.560827E-4,-5.958729E-4,-7.5834943E-4,-3.3873245E-3,-1.7611448E-4,5.387122E-4,4.6250716E-4,2.0775135E-4,-4.2476694E-4,2.5609924E-4,1.3750526E-3,8.651737E-4,4.574859E-3,6.3390937E-4,6.453706E-3,1.8105989E-3,1.8475788E-3,1.3941374E-4,-3.698525E-3,2.602905E-3,-1.40367E-4,3.9561835E-4,3.8960713E-3,3.23687E-4,-5.4244493E-4,-1.7376738E-3,2.6943698E-3,-7.042647E-3,9.978664E-3,2.5188748E-3,-1.4226509E-3,-8.524257E-5,-1.2686022E-4,7.600983E-4,-5.698808E-4,2.1020221E-4,-8.922935E-4,8.231265E-4,-1.244197E-3,1.0066044E-4,6.142291E-3,-7.6907338E-3,4.9227765E-3,-2.095639E-3,-3.741556E-4,1.7875123E-4,-1.7459081E-4,-1.1004374E-3,-1.5113903E-4,3.421609E-4,-7.53962E-3,-2.8260534E-3,2.2503578E-4,-3.971196E-3],"categories":[],"categories_nodes":[],"categories_segments":[],"categories_sizes":[],"default_left":[0,0,0,0,0,1,0,0,1,0,0,0,0,0,0,0,0,0,0,0,0,1,1,0,0,1,0,0,1,1,0,1,0,0,0,0,0,0,0,0,0,0,0,0,0,0,0,0,0,0,0,1,1,0,0,0,0,0,0,0,0,0,1,0,0,0,0,0,0,0,0,0,0,0,0,0,0,0,0,0,0,0,0,0,0,0,0,0,0,0,0,0,0,0,0,0,0,0,0,0,0,0,0,0,0,0,0,0,0,0,0,0,0,0,0,0,0,0,0,0,0,0,0,0,0],"id":12,"left_children":[1,3,5,7,9,11,13,15,17,19,21,23,25,27,29,31,33,35,37,39,41,43,45,47,49,51,53,55,57,59,61,63,65,67,69,71,73,75,77,79,81,83,85,87,89,91,93,95,97,99,101,103,105,107,-1,109,111,113,115,117,119,121,123,-1,-1,-1,-1,-1,-1,-1,-1,-1,-1,-1,-1,-1,-1,-1,-1,-1,-1,-1,-1,-1,-1,-1,-1,-1,-1,-1,-1,-1,-1,-1,-1,-1,-1,-1,-1,-1,-1,-1,-1,-1,-1,-1,-1,-1,-1,-1,-1,-1,-1,-1,-1,-1,-1,-1,-1,-1,-1,-1,-1,-1,-1],"loss_changes":[1.204224E-2,9.642864E-3,1.3066497E-2,2.6427095E-3,3.8987845E-3,1.3854332E-2,8.089802E-3,2.7543216E-3,5.9594763E-3,3.3884393E-3,3.6657732E-3,1.5955461E-2,4.462909E-3,6.010186E-3,7.3051695E-3,2.911826E-3,1.6766507E-3,1.0328223E-2,1.0023359E-3,8.2676904E-4,5.4271296E-3,5.3162547E-3,3.0584037E-3,1.2204371E-2,7.503058E-3,3.1613926E-3,5.5518346E-3,8.492484E-3,8.3432505E-3,2.8760256E-3,7.82463E-3,9.410167E-4,2.2136406E-3,1.2910129E-3,2.9170578E-3,2.507685E-3,8.633038E-3,5.038736E-4,2.292369E-4,3.8685524E-5,1.5491503E-4,2.023877E-3,5.187908E-3,5.4342328E-3,6.937033E-4,2.0177816E-3,8.167161E-3,2.7719175E-4,5.420346E-3,2.5596065E-3,8.847587E-3,2.3494198E-3,3.941559E-3,1.2850332E-4,0E0,2.2908216E-4,5.550691E-3,5.832048E-3,2.3626786E-4,5.2849096E-3,1.3942735E-3,1.6094702E-3,7.2202864E-3,0E0,0E0,0E0,0E0,0E0,0E0,0E0,0E0,0E0,0E0,0E0,0E0,0E0,0E0,0E0,0E0,0E0,0E0,0E0,0E0,0E0,0E0,0E0,0E0,0E0,0E0,0E0,0E0,0E0,0E0,0E0,0E0,0E0,0E0,0E0,0E0,0E0,0E0,0E0,0E0,0E0,0E0,0E0,0E0,0E0,0E0,0E0,0E0,0E0,0E0,0E0,0E0,0E0,0E0,0E0,0E0,0E0,0E0,0E0,0E0,0E0,0E0],"parents":[2147483647,0,0,1,1,2,2,3,3,4,4,5,5,6,6,7,7,8,8,9,9,10,10,11,11,12,12,13,13,14,14,15,15,16,16,17,17,18,18,19,19,20,20,21,21,22,22,23,23,24,24,25,25,26,26,27,27,28,28,29,29,30,30,31,31,32,32,33,33,34,34,35,35,36,36,37,37,38,38,39,39,40,40,41,41,42,42,43,43,44,44,45,45,46,46,47,47,48,48,49,49,50,50,51,51,52,52,53,53,55,55,56,56,57,57,58,58,59,59,60,60,61,61,62,62],"right_children":[2,4,6,8,10,12,14,16,18,20,22,24,26,28,30,32,34,36,38,40,42,44,46,48,50,52,54,56,58,60,62,64,66,68,70,72,74,76,78,80,82,84,86,88,90,92,94,96,98,100,102,104,106,108,-1,110,112,114,116,118,120,122,124,-1,-1,-1,-1,-1,-1,-1,-1,-1,-1,-1,-1,-1,-1,-1,-1,-1,-1,-1,-1,-1,-1,-1,-1,-1,-1,-1,-1,-1,-1,-1,-1,-1,-1,-1,-1,-1,-1,-1,-1,-1,-1,-1,-1,-1,-1,-1,-1,-1,-1,-1,-1,-1,-1,-1,-1,-1,-1,-1,-1,-1,-1],"split_conditions":[5.0000012E-2,1.9000003E-1,8.9999974E-2,1.09999985E-1,-7.999998E-2,1.3E-1,1.4999998E-1,3.124556E-2,0E0,-6.127963E-3,-6.999999E-2,-1.999998E-2,1.9999999E-1,0E0,4.3000004E-1,-1.999998E-2,4.8E-1,1.7000002E-1,-7.999998E-2,5.2E-1,-1.999998E-2,4.137311E-2,-6.999999E-2,1E-5,6.999999E-2,-7.000002E-2,9.582822E-2,1E-5,2.1606805E-2,-6.0000002E-2,1.4999998E-1,1.1246977E-2,0E0,-7.999998E-2,1.999998E-2,-7.999998E-2,-7.999998E-2,4.8E-1,0E0,-1.999998E-2,-6.999999E-2,-6.999999E-2,-6.999999E-2,-6.999999E-2,1.999998E-2,-6.999999E-2,-6.0000002E-2,9.803338E-2,2.999524E-2,-7.999998E-2,-6.0000002E-2,4.4E-1,2.9000002E-1,-2.011305E-2,8.844525E-3,1.6999999E-1,-1.24896495E-2,1.2999997E-1,1.8E-1,1.7000002E-1,1.6999999E-1,7.999998E-2,-3.999999E-2,8.2938117E-4,-4.8578688E-4,-2.9794557E-3,-4.346807E-4,-3.3469044E-4,1.9329666E-4,2.5745382E-4,9.796707E-4,4.560827E-4,-5.958729E-4,-7.5834943E-4,-3.3873245E-3,-1.7611448E-4,5.387122E-4,4.6250716E-4,2.0775135E-4,-4.2476694E-4,2.5609924E-4,1.3750526E-3,8.651737E-4,4.574859E-3,6.3390937E-4,6.453706E-3,1.8105989E-3,1.8475788E-3,1.3941374E-4,-3.698525E-3,2.602905E-3,-1.40367E-4,3.9561835E-4,3.8960713E-3,3.23687E-4,-5.4244493E-4,-1.7376738E-3,2.6943698E-3,-7.042647E-3,9.978664E-3,2.5188748E-3,-1.4226509E-3,-8.524257E-5,-1.2686022E-4,7.600983E-4,-5.698808E-4,2.1020221E-4,-8.922935E-4,8.231265E-4,-1.244197E-3,1.0066044E-4,6.142291E-3,-7.6907338E-3,4.9227765E-3,-2.095639E-3,-3.741556E-4,1.7875123E-4,-1.7459081E-4,-1.1004374E-3,-1.5113903E-4,3.421609E-4,-7.53962E-3,-2.8260534E-3,2.2503578E-4,-3.971196E-3],"split_indices":[13,17,13,7,33,23,15,10,26,16,7,11,17,28,27,11,27,23,29,27,11,30,29,16,15,31,20,16,26,29,23,30,11,29,5,29,31,27,28,7,1,7,1,1,5,33,1,26,12,1,29,21,19,32,0,17,8,15,17,23,23,7,33,0,0,0,0,0,0,0,0,0,0,0,0,0,0,0,0,0,0,0,0,0,0,0,0,0,0,0,0,0,0,0,0,0,0,0,0,0,0,0,0,0,0,0,0,0,0,0,0,0,0,0,0,0,0,0,0,0,0,0,0,0,0],"split_type":[0,0,0,0,0,0,0,0,0,0,0,0,0,0,0,0,0,0,0,0,0,0,0,0,0,0,0,0,0,0,0,0,0,0,0,0,0,0,0,0,0,0,0,0,0,0,0,0,0,0,0,0,0,0,0,0,0,0,0,0,0,0,0,0,0,0,0,0,0,0,0,0,0,0,0,0,0,0,0,0,0,0,0,0,0,0,0,0,0,0,0,0,0,0,0,0,0,0,0,0,0,0,0,0,0,0,0,0,0,0,0,0,0,0,0,0,0,0,0,0,0,0,0,0,0],"sum_hessian":[4.9492E4,1.5107E4,3.4385E4,1.0195E4,4.912E3,1.2955E4,2.143E4,6.527E3,3.668E3,6.25E2,4.287E3,2.023E3,1.0932E4,1.552E3,1.9878E4,1.154E3,5.373E3,1.295E3,2.373E3,3.99E2,2.26E2,7.42E2,3.545E3,1.55E2,1.868E3,1.0908E4,2.4E1,2.71E2,1.281E3,5.124E3,1.4754E4,2.97E2,8.57E2,2.219E3,3.154E3,8.21E2,4.74E2,9.56E2,1.417E3,1.66E2,2.33E2,1.38E2,8.8E1,7.19E2,2.3E1,3.247E3,2.98E2,7.2E1,8.3E1,2.2E1,1.846E3,6.992E3,3.916E3,1.4E1,1E1,2.38E2,3.3E1,4.48E2,8.33E2,3.009E3,2.115E3,3.5E1,1.4719E4,2.36E2,6.1E1,3.1E1,8.26E2,5.55E2,1.664E3,2.526E3,6.28E2,4.49E2,3.72E2,2.91E2,1.83E2,8.58E2,9.8E1,4.84E2,9.33E2,7E0,1.59E2,1.06E2,1.27E2,1.2E1,1.26E2,4.1E1,4.7E1,4.53E2,2.66E2,2.2E1,1E0,8.59E2,2.388E3,7.7E1,2.21E2,4E1,3.2E1,5E0,7.8E1,5E0,1.7E1,1.097E3,7.49E2,6.713E3,2.79E2,3.204E3,7.12E2,8E0,6E0,1.1E1,2.27E2,3.1E1,2E0,1E1,4.38E2,7.57E2,7.6E1,2.276E3,7.33E2,1.227E3,8.88E2,9E0,2.6E1,1.4683E4,3.6E1],"tree_param":{"num_deleted":"0","num_feature":"36","num_nodes":"125","size_leaf_vector":"1"}},{"base_weights":[-1.3035037E-6,5.7411665E-4,-2.1333722E-4,1.9013287E-3,3.3863826E-4,-2.490912E-4,5.4737553E-3,1.5331789E-2,1.7036597E-3,-9.487218E-3,3.5425596E-4,-6.291698E-4,2.6642575E-4,-3.7560302E-3,8.323088E-3,1.7732348E-2,-3.4151527E-3,3.987612E-3,9.210718E-4,-1.1987342E-2,-5.8943033E-4,-4.4873558E-4,5.207861E-4,-7.0050656E-4,4.892624E-3,6.617665E-4,-1.5670545E-3,-1.01443445E-2,4.0601883E-3,1.3553858E-3,1.1917291E-2,1.254612E-2,8.544413E-3,5.726749E-3,-1.4601701E-3,5.676619E-4,7.080979E-3,-2.0268578E-3,-4.0212544E-3,7.017255E-5,-3.6488773E-4,1.4086989E-4,-1.8166595E-3,1.1242515E-3,3.1165913E-4,-1.5139971E-3,-3.7477232E-4,-3.0506295E-5,1.0367389E-2,-3.81156E-4,1.3794057E-3,-4.218616E-3,-6.872122E-4,-1.4004189E-3,-6.9430596E-3,-5.210439E-6,1.2699813E-2,-6.009924E-4,1.7656722E-3,1.8217988E-2,7.225489E-3,4.144276E-3,-1.7322601E-3,2.3048932E-3,2.4057068E-4,1.3307423E-3,-2.5780492E-3,1.3558572E-3,5.9859336E-5,-4.318561E-3,2.6113982E-3,-1.4944628E-4,1.6065835E-4,-4.4396194E-3,-4.7643675E-4,2.9357627E-4,2.1352922E-3,1.8495606E-3,8.179237E-5,-2.9523342E-4,-1.2232981E-3,2.3475346E-4,-1.7851661E-4,-4.852295E-4,3.4361117E-4,1.2534838E-3,5.450541E-3,-6.630188E-5,-4.043095E-4,4.899907E-4,-1.3742524E-3,-2.0657398E-3,8.9256733E-4,-1.8935172E-5,-7.26401E-4,-9.147406E-4,-2.7021414E-4,-3.4192356E-4,1.5564653E-4,4.066952E-3,1.005444E-3,1.670681E-3,3.242222E-4,1.8794612E-3,5.8386573E-3,-3.0345833E-3,2.8251498E-3],"categories":[],"categories_nodes":[],"categories_segments":[],"categories_sizes":[],"default_left":[0,1,1,0,0,1,1,0,0,1,0,0,1,0,0,0,0,0,1,0,0,0,0,0,0,0,1,0,0,0,1,0,0,0,0,0,0,0,0,0,0,0,0,1,0,0,0,0,0,0,0,0,1,0,0,0,1,0,0,0,0,0,0,0,0,0,0,0,0,0,0,0,0,0,0,0,0,0,0,0,0,0,0,0,0,0,0,0,0,0,0,0,0,0,0,0,0,0,0,0,0,0,0,0,0,0,0],"id":13,"left_children":[1,3,5,7,9,11,13,15,17,19,21,23,25,27,29,31,-1,33,35,37,39,41,43,45,47,49,51,53,55,57,59,61,-1,63,65,67,69,-1,-1,-1,-1,71,73,75,77,79,81,83,85,87,89,91,93,95,-1,97,99,-1,101,103,105,-1,-1,-1,-1,-1,-1,-1,-1,-1,-1,-1,-1,-1,-1,-1,-1,-1,-1,-1,-1,-1,-1,-1,-1,-1,-1,-1,-1,-1,-1,-1,-1,-1,-1,-1,-1,-1,-1,-1,-1,-1,-1,-1,-1,-1,-1],"loss_changes":[6.038688E-3,4.16444E-3,7.3554227E-3,5.3046914E-3,1.7404966E-3,7.0425337E-3,5.974776E-3,2.0617042E-3,3.5353652E-3,3.9335445E-4,1.5116968E-3,8.152965E-3,1.1057892E-2,2.737541E-3,4.316344E-3,1.1478355E-3,0E0,4.7929557E-3,3.2091914E-3,1.3202662E-5,2.865101E-6,1.5665477E-3,1.1811424E-3,5.411949E-3,7.115904E-3,9.392725E-3,6.3100806E-3,3.3775067E-3,8.7815407E-4,8.621877E-5,3.2383911E-3,5.4441835E-4,0E0,3.6837077E-3,5.2112453E-3,2.0314562E-3,2.9149437E-3,0E0,0E0,0E0,0E0,3.4274886E-4,1.7121254E-3,2.0961424E-3,1.5865633E-3,7.929328E-3,3.7191291E-3,2.630966E-4,5.959306E-3,7.916154E-4,1.1257247E-2,1.2952718E-2,2.2000785E-3,1.2907174E-5,0E0,1.1292914E-5,1.8634833E-5,0E0,1.3465012E-4,5.919337E-4,2.6416164E-3,0E0,0E0,0E0,0E0,0E0,0E0,0E0,0E0,0E0,0E0,0E0,0E0,0E0,0E0,0E0,0E0,0E0,0E0,0E0,0E0,0E0,0E0,0E0,0E0,0E0,0E0,0E0,0E0,0E0,0E0,0E0,0E0,0E0,0E0,0E0,0E0,0E0,0E0,0E0,0E0,0E0,0E0,0E0,0E0,0E0,0E0],"parents":[2147483647,0,0,1,1,2,2,3,3,4,4,5,5,6,6,7,7,8,8,9,9,10,10,11,11,12,12,13,13,14,14,15,15,17,17,18,18,19,19,20,20,21,21,22,22,23,23,24,24,25,25,26,26,27,27,28,28,29,29,30,30,31,31,33,33,34,34,35,35,36,36,41,41,42,42,43,43,44,44,45,45,46,46,47,47,48,48,49,49,50,50,51,51,52,52,53,53,55,55,56,56,58,58,59,59,60,60],"right_children":[2,4,6,8,10,12,14,16,18,20,22,24,26,28,30,32,-1,34,36,38,40,42,44,46,48,50,52,54,56,58,60,62,-1,64,66,68,70,-1,-1,-1,-1,72,74,76,78,80,82,84,86,88,90,92,94,96,-1,98,100,-1,102,104,106,-1,-1,-1,-1,-1,-1,-1,-1,-1,-1,-1,-1,-1,-1,-1,-1,-1,-1,-1,-1,-1,-1,-1,-1,-1,-1,-1,-1,-1,-1,-1,-1,-1,-1,-1,-1,-1,-1,-1,-1,-1,-1,-1,-1,-1,-1],"split_conditions":[-3.0000001E-2,1.2070235E-2,-5.0000012E-2,-1.6999999E-1,1.3027134E-2,8.9999974E-2,-5.653963E-2,-3.882114E-2,-7.999998E-2,0E0,6.6942215E-2,2.000004E-2,8.68095E-3,6.868056E-2,4.9890462E-2,-1.999998E-2,-3.4151527E-3,-3.4583464E-2,-1.09999985E-1,-1.2835878E-2,6.005968E-3,1.0303182E-2,0E0,1.5954714E-2,9.9996105E-6,4.5000002E-1,-4.628381E-2,1.7479068E-2,2.1934421E-1,4.8E-1,-5.0000012E-2,2.6398595E-2,8.544413E-3,3.0024035E-2,1.7345028E-2,-7.000002E-2,0E0,-2.0268578E-3,-4.0212544E-3,7.017255E-5,-3.6488773E-4,-7.999998E-2,7.4433396E-3,-7.000002E-2,-1.6999999E-1,8.188925E-3,3.6705777E-2,-7.038256E-3,6.005968E-3,2.000001E-2,1.999998E-2,1.10000014E-1,-4.3084625E-2,-1.7624608E-1,-6.9430596E-3,1.9975312E-1,-3.7467948E-1,-6.009924E-4,4.8000002E-1,1.12360595E-2,3.6920756E-2,4.144276E-3,-1.7322601E-3,2.3048932E-3,2.4057068E-4,1.3307423E-3,-2.5780492E-3,1.3558572E-3,5.9859336E-5,-4.318561E-3,2.6113982E-3,-1.4944628E-4,1.6065835E-4,-4.4396194E-3,-4.7643675E-4,2.9357627E-4,2.1352922E-3,1.8495606E-3,8.179237E-5,-2.9523342E-4,-1.2232981E-3,2.3475346E-4,-1.7851661E-4,-4.852295E-4,3.4361117E-4,1.2534838E-3,5.450541E-3,-6.630188E-5,-4.043095E-4,4.899907E-4,-1.3742524E-3,-2.0657398E-3,8.9256733E-4,-1.8935172E-5,-7.26401E-4,-9.147406E-4,-2.7021414E-4,-3.4192356E-4,1.5564653E-4,4.066952E-3,1.005444E-3,1.670681E-3,3.242222E-4,1.8794612E-3,5.8386573E-3,-3.0345833E-3,2.8251498E-3],"split_indices":[13,22,35,15,22,13,32,8,35,20,14,5,30,10,20,11,0,4,15,20,30,20,11,34,6,27,16,20,26,27,7,30,0,30,30,7,11,0,0,0,0,29,14,31,15,30,10,28,30,5,11,7,6,6,0,12,8,0,27,34,10,0,0,0,0,0,0,0,0,0,0,0,0,0,0,0,0,0,0,0,0,0,0,0,0,0,0,0,0,0,0,0,0,0,0,0,0,0,0,0,0,0,0,0,0,0,0],"split_type":[0,0,0,0,0,0,0,0,0,0,0,0,0,0,0,0,0,0,0,0,0,0,0,0,0,0,0,0,0,0,0,0,0,0,0,0,0,0,0,0,0,0,0,0,0,0,0,0,0,0,0,0,0,0,0,0,0,0,0,0,0,0,0,0,0,0,0,0,0,0,0,0,0,0,0,0,0,0,0,0,0,0,0,0,0,0,0,0,0,0,0,0,0,0,0,0,0,0,0,0,0,0,0,0,0,0,0],"sum_hessian":[4.9492E4,1.3326E4,3.6166E4,2.007E3,1.1319E4,3.5941E4,2.25E2,2.8E1,1.979E3,1.7E1,1.1302E4,2.0688E4,1.5253E4,5.3E1,1.72E2,2.6E1,2E0,5.04E2,1.475E3,1.3E1,4E0,1.941E3,9.361E3,2.0425E4,2.63E2,1.2548E4,2.705E3,2.9E1,2.4E1,5.9E1,1.13E2,1.9E1,7E0,3.82E2,1.22E2,1.396E3,7.9E1,4E0,9E0,2E0,2E0,1.357E3,5.84E2,2.408E3,6.953E3,5.839E3,1.4586E4,1.39E2,1.24E2,5.115E3,7.433E3,6.73E2,2.032E3,1.8E1,1.1E1,1.7E1,7E0,6E0,5.3E1,4.7E1,6.6E1,1.8E1,1E0,2.73E2,1.09E2,6.7E1,5.5E1,1.18E2,1.278E3,5E0,7.4E1,5.18E2,8.39E2,9E0,5.75E2,2.352E3,5.6E1,4.5E1,6.908E3,4.84E3,9.99E2,2.332E3,1.2254E4,5.9E1,8E1,7E1,5.4E1,4.389E3,7.26E2,7.13E3,3.03E2,4.91E2,1.82E2,1.495E3,5.37E2,3E0,1.5E1,5E0,1.2E1,6E0,1E0,7E0,4.6E1,5E0,4.2E1,7E0,5.9E1],"tree_param":{"num_deleted":"0","num_feature":"36","num_nodes":"107","size_leaf_vector":"1"}},{"base_weights":[-7.254634E-7,1.203883E-5,-7.59947E-3,5.7478494E-5,-1.8089194E-3,5.8869E-3,-1.19743E-2,-2.6386767E-3,8.573295E-5,-9.024199E-4,-6.856608E-3,1.7544419E-4,2.944419E-3,-3.3089377E-3,-1.65433E-2,-6.8328955E-4,-8.1413835E-3,-7.692899E-3,9.503534E-5,9.367973E-3,-1.0856516E-3,-1.0804155E-2,5.859599E-3,-6.3026845E-3,-3.944586E-5,-1.0911722E-2,-2.0476202E-2,-8.7165984E-4,3.8329184E-3,-2.3612821E-2,-4.6279025E-3,4.327345E-4,-1.36155635E-2,7.5505394E-4,-1.7146813E-5,1.2462768E-2,2.7243283E-3,9.155121E-5,-2.1136787E-3,-2.4438562E-2,-7.330106E-3,7.0751766E-3,1.5696693E-3,-2.423795E-3,-7.2959065E-4,7.054478E-5,-2.824843E-4,-1.562953E-3,-3.7700797E-3,-2.1658737E-2,-2.8333426E-3,-1.5464134E-4,-1.5578384E-3,-3.3854396E-4,2.4945606E-3,-3.5577985E-3,-1.1664535E-2,5.0312054E-4,-3.2891792E-3,6.7259585E-5,3.666115E-4,-5.7207346E-3,-1.127589E-3,2.0611689E-4,3.2717297E-3,-1.6727066E-5,5.35105E-4,1.375984E-3,4.7482555E-3,4.9602986E-5,9.369806E-4,6.5162836E-4,-4.6905156E-5,-1.4098088E-3,-7.266841E-5,-1.0244288E-2,-2.5942528E-3,5.7666824E-5,-3.3891522E-3,-6.6711014E-5,2.1909159E-3,1.3217703E-5,1.2685419E-3,-1.9413234E-5,-4.0863457E-4,6.9490675E-4,-1.0884524E-3,-6.981154E-3,-3.6507922E-3],"categories":[],"categories_nodes":[],"categories_segments":[],"categories_sizes":[],"default_left":[1,1,0,0,0,0,0,0,0,0,0,0,0,0,0,0,0,0,0,0,1,0,0,1,0,0,0,1,0,0,0,0,0,1,0,0,0,0,0,0,0,0,0,0,0,0,0,0,0,1,0,0,0,0,0,0,0,0,0,0,0,0,0,0,0,0,0,0,0,0,0,0,0,0,0,0,0,0,0,0,0,0,0,0,0,0,0,0,0],"id":14,"left_children":[1,3,5,7,9,11,13,15,17,19,21,-1,-1,23,25,27,29,31,33,35,37,39,41,43,45,47,49,51,53,55,57,59,61,63,65,67,69,71,73,75,77,79,81,-1,83,-1,-1,85,-1,87,-1,-1,-1,-1,-1,-1,-1,-1,-1,-1,-1,-1,-1,-1,-1,-1,-1,-1,-1,-1,-1,-1,-1,-1,-1,-1,-1,-1,-1,-1,-1,-1,-1,-1,-1,-1,-1,-1,-1],"loss_changes":[4.800547E-3,4.0885545E-3,4.967539E-3,3.6727106E-3,5.4984135E-3,4.3159974E-4,2.4395585E-3,5.374398E-3,3.453022E-3,1.9315513E-3,9.249508E-3,0E0,0E0,2.2487607E-4,6.846553E-4,3.181072E-4,7.0116995E-3,2.7490398E-3,3.5284252E-3,3.3614016E-4,1.2152304E-3,6.452188E-3,2.1834299E-4,1.12921494E-4,3.1941925E-6,2.7436786E-4,9.54885E-5,5.4525695E-4,3.4295942E-4,3.8460148E-3,4.332822E-3,3.8409744E-6,1.7022504E-3,4.7709304E-3,2.832203E-3,2.4542084E-4,6.6297616E-6,2.4223585E-4,2.592555E-3,3.997566E-3,3.3742716E-3,5.8164005E-5,4.443297E-5,0E0,1.5940677E-6,0E0,0E0,4.0450668E-5,0E0,2.2711232E-5,0E0,0E0,0E0,0E0,0E0,0E0,0E0,0E0,0E0,0E0,0E0,0E0,0E0,0E0,0E0,0E0,0E0,0E0,0E0,0E0,0E0,0E0,0E0,0E0,0E0,0E0,0E0,0E0,0E0,0E0,0E0,0E0,0E0,0E0,0E0,0E0,0E0,0E0,0E0],"parents":[2147483647,0,0,1,1,2,2,3,3,4,4,5,5,6,6,7,7,8,8,9,9,10,10,13,13,14,14,15,15,16,16,17,17,18,18,19,19,20,20,21,21,22,22,23,23,24,24,25,25,26,26,27,27,28,28,29,29,30,30,31,31,32,32,33,33,34,34,35,35,36,36,37,37,38,38,39,39,40,40,41,41,42,42,44,44,47,47,49,49],"right_children":[2,4,6,8,10,12,14,16,18,20,22,-1,-1,24,26,28,30,32,34,36,38,40,42,44,46,48,50,52,54,56,58,60,62,64,66,68,70,72,74,76,78,80,82,-1,84,-1,-1,86,-1,88,-1,-1,-1,-1,-1,-1,-1,-1,-1,-1,-1,-1,-1,-1,-1,-1,-1,-1,-1,-1,-1,-1,-1,-1,-1,-1,-1,-1,-1,-1,-1,-1,-1,-1,-1,-1,-1,-1,-1],"split_conditions":[-3.999999E-2,-2.551097E-2,1.5E-1,5.7607167E-3,4.122061E-2,-2.4267841E-2,-2.1770723E-2,7.733261E-2,-9E-2,-9E-2,1.00000024E-1,1.7544419E-4,2.944419E-3,-7.999998E-2,1.00000024E-1,1.9E-1,-7.999998E-2,2.6598077E-2,-7.999998E-2,4.0309723E-2,0E0,-6.999999E-2,-7.000002E-2,-3.2935496E-2,8.0739E-2,-5.9999973E-2,1.999998E-2,-5.0000012E-2,0E0,-3.5538916E-2,3.999999E-2,-1.6664958E-2,-1.2644272E-2,-7.000002E-2,5.845149E-3,1.7479068E-2,-7.686087E-3,-1.731879E-2,2.6052976E-2,6.005968E-3,8.9999974E-2,-2.52839E-2,2.4123428E-2,-2.423795E-3,3.2733213E-2,7.054478E-5,-2.824843E-4,-8.438718E-2,-3.7700797E-3,-1.0987689E-2,-2.8333426E-3,-1.5464134E-4,-1.5578384E-3,-3.3854396E-4,2.4945606E-3,-3.5577985E-3,-1.1664535E-2,5.0312054E-4,-3.2891792E-3,6.7259585E-5,3.666115E-4,-5.7207346E-3,-1.127589E-3,2.0611689E-4,3.2717297E-3,-1.6727066E-5,5.35105E-4,1.375984E-3,4.7482555E-3,4.9602986E-5,9.369806E-4,6.5162836E-4,-4.6905156E-5,-1.4098088E-3,-7.266841E-5,-1.0244288E-2,-2.5942528E-3,5.7666824E-5,-3.3891522E-3,-6.6711014E-5,2.1909159E-3,1.3217703E-5,1.2685419E-3,-1.9413234E-5,-4.0863457E-4,6.9490675E-4,-1.0884524E-3,-6.981154E-3,-3.6507922E-3],"split_indices":[33,6,17,34,22,20,20,22,35,31,7,0,0,1,7,17,1,20,35,12,28,33,29,6,12,1,5,33,20,6,7,28,16,29,0,20,0,32,12,30,7,8,10,0,12,0,0,8,0,8,0,0,0,0,0,0,0,0,0,0,0,0,0,0,0,0,0,0,0,0,0,0,0,0,0,0,0,0,0,0,0,0,0,0,0,0,0,0,0],"split_type":[0,0,0,0,0,0,0,0,0,0,0,0,0,0,0,0,0,0,0,0,0,0,0,0,0,0,0,0,0,0,0,0,0,0,0,0,0,0,0,0,0,0,0,0,0,0,0,0,0,0,0,0,0,0,0,0,0,0,0,0,0,0,0,0,0,0,0,0,0,0,0,0,0,0,0,0,0,0,0,0,0,0,0,0,0,0,0,0,0],"sum_hessian":[4.9492E4,4.941E4,8.2E1,4.8208E4,1.202E3,2E1,6.2E1,4.99E2,4.7709E4,1.02E3,1.82E2,9E0,1.1E1,2.2E1,4E1,3.69E2,1.3E2,5.6E1,4.7653E4,1.7E1,1.003E3,1.39E2,4.3E1,1.1E1,1.1E1,1.8E1,2.2E1,3.55E2,1.4E1,2.3E1,1.07E2,2.4E1,3.2E1,6.922E3,4.0731E4,1.1E1,6E0,4.68E2,5.35E2,2.7E1,1.12E2,3.3E1,1E1,8E0,3E0,9E0,2E0,3E0,1.5E1,1.9E1,3E0,3.29E2,2.6E1,7E0,7E0,1.4E1,9E0,5.4E1,5.3E1,2E1,4E0,2E1,1.2E1,6.877E3,4.5E1,3.9877E4,8.54E2,4E0,7E0,1E0,5E0,4.9E1,4.19E2,2.24E2,3.11E2,1.6E1,1.1E1,3.9E1,7.3E1,1E0,3.2E1,7E0,3E0,2E0,1E0,1E0,2E0,1.5E1,4E0],"tree_param":{"num_deleted":"0","num_feature":"36","num_nodes":"89","size_leaf_vector":"1"}},{"base_weights":[-1.4042173E-6,5.8116857E-4,-1.3046221E-4,2.7698118E-4,2.2077512E-3,-1.2590823E-5,-1.0578743E-3,-1.612827E-4,7.186618E-4,3.5683147E-3,3.982406E-4,2.352885E-4,-4.61031E-4,-4.1416534E-3,-3.752375E-4,4.9544114E-4,-1.1497276E-3,2.8054006E-4,1.8580966E-3,2.966171E-3,9.00322E-3,-5.2236894E-4,3.959655E-3,4.2750146E-3,1.9954715E-4,-2.7007284E-3,-1.9777301E-4,-2.2403426E-3,-1.0302112E-2,-1.7170401E-3,1.3418774E-3,6.407676E-4,-3.4614033E-3,-7.137504E-5,-2.304587E-3,-4.5703244E-4,6.3315727E-4,1.2304117E-3,9.422012E-3,-7.385466E-3,3.0760702E-3,8.869013E-3,2.9859822E-3,-2.216342E-3,3.9187274E-3,7.821239E-3,-2.189357E-3,8.166171E-3,-3.0742649E-3,2.7515367E-4,-1.5251784E-3,4.1092385E-4,-9.880709E-3,2.3547849E-3,-4.673001E-4,5.3448085E-4,-4.464873E-3,-1.1986276E-2,4.2231595E-3,-7.102312E-4,-4.137452E-3,2.2634809E-4,6.5200687E-3,8.668389E-4,1.2328963E-4,-1.5249515E-3,-1.13436785E-4,-1.1502672E-4,1.9422613E-4,-4.5010596E-4,-1.6484712E-3,-2.072985E-4,1.0137608E-4,4.0212428E-4,6.192226E-5,8.635938E-3,3.1717966E-4,4.2574154E-3,3.000036E-4,1.0834102E-3,-5.285223E-4,2.139936E-3,-3.763402E-4,5.2291574E-3,-7.136627E-4,2.953889E-3,-6.4674043E-4,-8.6928165E-4,3.0131338E-3,-1.3536897E-3,3.0839269E-3,-1.7405736E-3,3.4359735E-3,4.636956E-4,-2.2826358E-3,3.3929653E-5,3.797545E-4,-1.336579E-3,-1.4956205E-4,1.5484939E-3,1.4901781E-6,-1.0012166E-3,-4.2984826E-3,5.5269804E-3,4.312245E-4,-2.0197858E-3,-1.0393415E-4,9.680476E-4,-1.0460703E-4,-2.3206763E-4,-2.829206E-3,-2.913587E-3,-4.8232293E-3,1.8330711E-3,-1.2716609E-4,-9.807344E-4,2.799985E-4,-3.796588E-4,-3.5416426E-3,-1.7235437E-3,3.1152047E-4,2.9300316E-3,-8.4359905E-5],"categories":[],"categories_nodes":[],"categories_segments":[],"categories_sizes":[],"default_left":[0,0,1,0,0,0,0,0,0,1,1,0,0,0,0,0,0,0,0,0,0,1,0,1,0,0,0,0,0,1,0,0,1,1,0,1,0,0,0,0,0,0,0,0,0,0,1,1,1,0,0,0,0,0,0,0,0,0,0,0,0,0,0,0,0,0,0,0,0,0,0,0,0,0,0,0,0,0,0,0,0,0,0,0,0,0,0,0,0,0,0,0,0,0,0,0,0,0,0,0,0,0,0,0,0,0,0,0,0,0,0,0,0,0,0,0,0,0,0,0,0,0,0],"id":15,"left_children":[1,3,5,7,9,11,13,15,17,19,21,23,25,27,29,31,33,35,37,39,41,43,45,47,49,51,53,55,57,59,61,63,65,67,69,71,73,75,77,-1,79,-1,81,83,85,87,89,91,93,95,97,99,101,103,105,107,109,111,113,115,117,119,121,-1,-1,-1,-1,-1,-1,-1,-1,-1,-1,-1,-1,-1,-1,-1,-1,-1,-1,-1,-1,-1,-1,-1,-1,-1,-1,-1,-1,-1,-1,-1,-1,-1,-1,-1,-1,-1,-1,-1,-1,-1,-1,-1,-1,-1,-1,-1,-1,-1,-1,-1,-1,-1,-1,-1,-1,-1,-1,-1,-1],"loss_changes":[3.7212402E-3,4.440587E-3,4.4292263E-3,1.4641061E-3,3.4797825E-3,3.9962763E-3,9.616653E-3,2.4653368E-3,1.8800072E-3,2.6142793E-3,1.9955009E-3,3.3420986E-3,7.5453995E-3,9.675241E-3,8.623981E-3,1.3144463E-3,1.8877795E-3,7.0822914E-4,4.954559E-3,2.2826656E-3,9.808955E-3,3.649864E-3,2.9852388E-3,5.8303354E-3,2.993241E-3,3.0075863E-2,7.880575E-3,3.915865E-3,4.8208926E-3,5.1169726E-3,9.483413E-3,1.1367074E-3,4.0310773E-4,1.7632233E-4,1.8698927E-3,1.6408988E-4,5.556789E-4,4.5833415E-3,3.1992202E-3,0E0,1.8864591E-3,0E0,1.116849E-3,1.1623055E-3,4.846189E-3,1.8634782E-3,1.4656715E-3,6.1730286E-3,1.4991474E-3,3.5299608E-3,2.8976232E-3,1.8128459E-3,1.1796631E-2,1.6099889E-2,7.842073E-3,6.740427E-4,6.4449976E-3,1.4721584E-3,1.8674613E-4,6.248481E-3,1.3572614E-2,6.5620462E-3,6.4285193E-3,0E0,0E0,0E0,0E0,0E0,0E0,0E0,0E0,0E0,0E0,0E0,0E0,0E0,0E0,0E0,0E0,0E0,0E0,0E0,0E0,0E0,0E0,0E0,0E0,0E0,0E0,0E0,0E0,0E0,0E0,0E0,0E0,0E0,0E0,0E0,0E0,0E0,0E0,0E0,0E0,0E0,0E0,0E0,0E0,0E0,0E0,0E0,0E0,0E0,0E0,0E0,0E0,0E0,0E0,0E0,0E0,0E0,0E0,0E0,0E0],"parents":[2147483647,0,0,1,1,2,2,3,3,4,4,5,5,6,6,7,7,8,8,9,9,10,10,11,11,12,12,13,13,14,14,15,15,16,16,17,17,18,18,19,19,20,20,21,21,22,22,23,23,24,24,25,25,26,26,27,27,28,28,29,29,30,30,31,31,32,32,33,33,34,34,35,35,36,36,37,37,38,38,40,40,42,42,43,43,44,44,45,45,46,46,47,47,48,48,49,49,50,50,51,51,52,52,53,53,54,54,55,55,56,56,57,57,58,58,59,59,60,60,61,61,62,62],"right_children":[2,4,6,8,10,12,14,16,18,20,22,24,26,28,30,32,34,36,38,40,42,44,46,48,50,52,54,56,58,60,62,64,66,68,70,72,74,76,78,-1,80,-1,82,84,86,88,90,92,94,96,98,100,102,104,106,108,110,112,114,116,118,120,122,-1,-1,-1,-1,-1,-1,-1,-1,-1,-1,-1,-1,-1,-1,-1,-1,-1,-1,-1,-1,-1,-1,-1,-1,-1,-1,-1,-1,-1,-1,-1,-1,-1,-1,-1,-1,-1,-1,-1,-1,-1,-1,-1,-1,-1,-1,-1,-1,-1,-1,-1,-1,-1,-1,-1,-1,-1,-1,-1,-1],"split_conditions":[-1.3079786E-1,2.0999998E-1,2.2010362E-2,4.3981403E-2,-7.000002E-2,-4.2716786E-2,3.3269145E-2,-7.000002E-2,9.582822E-2,-3.0131476E-2,-5.0000012E-2,-9E-2,-7.000002E-2,1E-5,-7.000002E-2,2.000004E-2,1.923996E-1,4.4E-1,-6.0000002E-2,-9E-2,4.2016905E-2,4.652136E-2,4.3981403E-2,1.9999999E-1,2.000004E-2,1.9999999E-1,-4.2463403E-2,-6.0000002E-2,1.999998E-2,-6.0000002E-2,8.033401E-1,-6.999999E-2,-5.9999973E-2,4.4E-1,1.8999997E-1,-6.0000002E-2,1.8999997E-1,6.652021E-2,-6.670179E-2,-7.385466E-3,-3.4506086E-2,8.869013E-3,9.2226066E-2,-1.999998E-2,1.999998E-2,-1.619659E-2,-2.000001E-2,8.9999974E-2,7.587678E-2,2.2E-1,-7.000002E-2,-9E-2,2.3662682E-1,-1.999998E-2,-2.5737872E-2,-1.1238824E-1,-2.2060044E-2,1.5891667E-1,-7.000002E-2,9E-2,1E-5,-6.670179E-2,-6.0000002E-2,8.668389E-4,1.2328963E-4,-1.5249515E-3,-1.13436785E-4,-1.1502672E-4,1.9422613E-4,-4.5010596E-4,-1.6484712E-3,-2.072985E-4,1.0137608E-4,4.0212428E-4,6.192226E-5,8.635938E-3,3.1717966E-4,4.2574154E-3,3.000036E-4,1.0834102E-3,-5.285223E-4,2.139936E-3,-3.763402E-4,5.2291574E-3,-7.136627E-4,2.953889E-3,-6.4674043E-4,-8.6928165E-4,3.0131338E-3,-1.3536897E-3,3.0839269E-3,-1.7405736E-3,3.4359735E-3,4.636956E-4,-2.2826358E-3,3.3929653E-5,3.797545E-4,-1.336579E-3,-1.4956205E-4,1.5484939E-3,1.4901781E-6,-1.0012166E-3,-4.2984826E-3,5.5269804E-3,4.312245E-4,-2.0197858E-3,-1.0393415E-4,9.680476E-4,-1.0460703E-4,-2.3206763E-4,-2.829206E-3,-2.913587E-3,-4.8232293E-3,1.8330711E-3,-1.2716609E-4,-9.807344E-4,2.799985E-4,-3.796588E-4,-3.5416426E-3,-1.7235437E-3,3.1152047E-4,2.9300316E-3,-8.4359905E-5],"split_indices":[6,17,30,34,31,6,34,31,20,32,33,31,1,16,29,5,24,27,29,1,34,34,34,17,5,17,32,31,5,35,12,13,29,21,23,29,23,10,32,0,32,0,10,11,5,20,13,13,12,17,29,31,12,11,28,6,18,12,31,7,16,32,31,0,0,0,0,0,0,0,0,0,0,0,0,0,0,0,0,0,0,0,0,0,0,0,0,0,0,0,0,0,0,0,0,0,0,0,0,0,0,0,0,0,0,0,0,0,0,0,0,0,0,0,0,0,0,0,0,0,0,0,0],"split_type":[0,0,0,0,0,0,0,0,0,0,0,0,0,0,0,0,0,0,0,0,0,0,0,0,0,0,0,0,0,0,0,0,0,0,0,0,0,0,0,0,0,0,0,0,0,0,0,0,0,0,0,0,0,0,0,0,0,0,0,0,0,0,0,0,0,0,0,0,0,0,0,0,0,0,0,0,0,0,0,0,0,0,0,0,0,0,0,0,0,0,0,0,0,0,0,0,0,0,0,0,0,0,0,0,0,0,0,0,0,0,0,0,0,0,0,0,0,0,0,0,0,0,0],"sum_hessian":[4.9492E4,8.975E3,4.0517E4,7.562E3,1.413E3,3.5949E4,4.568E3,3.796E3,3.766E3,8.06E2,6.07E2,2.3152E4,1.2797E4,8.27E2,3.741E3,2.281E3,1.515E3,2.721E3,1.045E3,7.27E2,7.9E1,4.83E2,1.24E2,2.02E2,2.295E4,1.345E3,1.1452E4,6.33E2,1.94E2,2.1E3,1.641E3,2.201E3,8E1,7.84E2,7.31E2,8.8E2,1.841E3,9.66E2,7.9E1,2E0,7.25E2,1.7E1,6.2E1,3.5E2,1.33E2,7.6E1,4.8E1,1.32E2,7E1,2.1987E4,9.63E2,9.39E2,4.06E2,1.093E3,1.0359E4,2.82E2,3.51E2,1.74E2,2E1,1.484E3,6.16E2,1.351E3,2.9E2,2.03E2,1.998E3,5.2E1,2.8E1,5.47E2,2.37E2,5.85E2,1.46E2,6.8E2,2E2,6.92E2,1.149E3,5E0,9.61E2,5E1,2.9E1,6.53E2,7.2E1,3.1E1,3.1E1,2E0,3.48E2,6.7E1,6.6E1,1.3E1,6.3E1,4.1E1,7E0,2.5E1,1.07E2,3.5E1,3.5E1,1.8897E4,3.09E3,2.49E2,7.14E2,7.3E1,8.66E2,1.65E2,2.41E2,5.8E1,1.035E3,1.95E2,1.0164E4,6.9E1,2.13E2,2.02E2,1.49E2,1.14E2,6E1,1.4E1,6E0,5.8E2,9.04E2,4.49E2,1.67E2,1.61E2,1.19E3,1.96E2,9.4E1],"tree_param":{"num_deleted":"0","num_feature":"36","num_nodes":"123","size_leaf_vector":"1"}},{"base_weights":[-7.1305124E-7,1.1787229E-5,-4.5041847E-3,-7.696522E-4,7.819523E-5,-8.60518E-3,-3.3791125E-4,-3.83199E-4,-1.0082192E-2,3.730315E-4,-1.4087901E-4,-4.6212673E-3,-2.0519426E-2,-7.5129448E-3,8.6355954E-4,4.988943E-3,-6.936979E-4,-4.227184E-3,-1.9184584E-2,2.7067133E-4,3.1142246E-3,-1.1290256E-3,7.926348E-6,-1.5663926E-3,-7.980071E-3,-3.0186535E-3,-3.801402E-2,2.764538E-4,-3.2672258E-3,-3.2633226E-4,4.7965134E-3,7.464519E-3,-8.9624035E-4,3.469641E-5,-2.999025E-3,-6.2944726E-3,-1.524452E-4,-1.3212395E-2,-3.7863746E-2,6.2759867E-4,-3.9913077E-4,9.0408E-4,1.0724315E-2,-4.393796E-3,-3.7040998E-4,9.145562E-5,-9.583799E-4,-4.7682156E-4,-1.1804044E-3,2.4367656E-4,-3.176961E-3,-1.2510643E-2,-2.9360086E-3,1.9702315E-4,-1.2966245E-4,-5.3177227E-4,9.235782E-4,-6.931424E-5,1.6961084E-3,4.1664543E-4,3.373815E-3,-9.840507E-4,6.091616E-4,5.968759E-5,-1.6716867E-3,-4.5604836E-3,-4.992553E-4,-2.7590706E-3,-1.0131622E-3,7.345915E-5,-9.2824554E-4,-4.638197E-3,-2.042577E-3,-1.33564295E-2,-5.0926907E-3,9.086884E-5,5.354902E-4,3.8573106E-3,-1.5676816E-4,-1.7301448E-3,6.9501606E-4,2.3341211E-3,1.7481243E-2,-6.809237E-4,-3.241459E-3,4.7608875E-3,-1.2517396E-4,1.366394E-4,-5.622244E-5,-8.498217E-4,-2.261058E-5,-3.41291E-4,4.0944666E-4,2.9171482E-4,-1.6378463E-4,-6.0858547E-5,-2.7058172E-4,1.5178323E-4,5.1440747E-4],"categories":[],"categories_nodes":[],"categories_segments":[],"categories_sizes":[],"default_left":[0,0,0,0,0,0,0,0,1,0,0,1,0,0,0,1,0,0,0,1,0,1,1,1,0,0,0,0,0,0,0,0,0,1,0,1,1,1,1,