{"learner":{"attributes":{"best_iteration":"99","best_score":"0.00350778763286733"},"feature_names":[],"feature_types":[],"gradient_booster":{"model":{"gbtree_model_param":{"num_parallel_tree":"1","num_trees":"100"},"iteration_indptr":[0,1,2,3,4,5,6,7,8,9,10,11,12,13,14,15,16,17,18,19,20,21,22,23,24,25,26,27,28,29,30,31,32,33,34,35,36,37,38,39,40,41,42,43,44,45,46,47,48,49,50,51,52,53,54,55,56,57,58,59,60,61,62,63,64,65,66,67,68,69,70,71,72,73,74,75,76,77,78,79,80,81,82,83,84,85,86,87,88,89,90,91,92,93,94,95,96,97,98,99,100],"tree_info":[0,0,0,0,0,0,0,0,0,0,0,0,0,0,0,0,0,0,0,0,0,0,0,0,0,0,0,0,0,0,0,0,0,0,0,0,0,0,0,0,0,0,0,0,0,0,0,0,0,0,0,0,0,0,0,0,0,0,0,0,0,0,0,0,0,0,0,0,0,0,0,0,0,0,0,0,0,0,0,0,0,0,0,0,0,0,0,0,0,0,0,0,0,0,0,0,0,0,0,0],"trees":[{"base_weights":[-2.6689646E-9,-2.3598058E-2,8.939045E-2,-4.8807558E-2,4.6753202E-4,6.302529E-2,1.5717651E-1,-6.121541E-2,-3.660691E-2,-3.8557227E-3,7.179139E-2,4.928703E-2,8.7033816E-2,1.3605231E-1,2.0714484E-1,-6.9385014E-2,-5.5505466E-2,-4.2732775E-2,-3.0250888E-2,-2.5834782E-2,5.1302607E-3,1.2615308E-1,3.8554356E-2,4.1045267E-2,5.8756515E-2,7.775666E-2,9.878503E-2,1.22454405E-1,1.5482116E-1,5.53209E-2,2.3824175E-1,-7.44491E-2,-6.606818E-2,-5.881876E-2,-5.1973786E-2,-4.5624897E-2,-3.962277E-2,-3.3491634E-2,-2.7038235E-2,-8.905684E-3,-4.4405457E-2,-1.0884338E-2,1.5875867E-2,5.4180045E-2,1.4079705E-1,2.1786867E-2,6.404454E-2,3.6584046E-2,4.4937436E-2,5.4509386E-2,6.364266E-2,2.1709591E-2,8.1953615E-2,2.786589E-2,3.091538E-2,3.4212343E-2,3.860941E-2,4.338696E-2,4.8393235E-2,6.507061E-2,7.688658E-2,-2.3390912E-2,-2.1782719E-2,-2.0297073E-2,-1.9168584E-2,-1.8252246E-2,-1.7090961E-2,-1.6066616E-2,-1.5102252E-2,-1.4151468E-2,-1.3266391E-2,-1.2328987E-2,-1.1435416E-2,-1.0486676E-2,-9.592559E-3,-8.490115E-3,-7.595926E-3,-4.43459E-3,3.3294458E-3,-5.675339E-3,-1.4659938E-2,-5.2356925E-3,-1.3456995E-3,1.9896163E-3,7.287828E-3,6.716214E-3,2.358809E-2,3.691792E-2,5.136956E-2,5.608646E-3,8.443948E-3,1.7706094E-2,4.486237E-2,1.0443245E-2,1.1668105E-2,1.2968088E-2,1.430623E-2,1.5703153E-2,1.7193565E-2,1.833455E-2,1.981212E-2,2.3831062E-2,2.5666641E-2],"categories":[],"categories_nodes":[],"categories_segments":[],"categories_sizes":[],"default_left":[1,0,0,0,0,0,0,0,0,0,0,0,0,0,0,0,0,0,0,0,0,0,0,0,0,0,0,0,0,0,0,0,0,0,0,0,0,0,0,0,0,0,0,0,0,0,0,0,0,0,0,0,0,0,0,0,0,0,0,0,0,0,0,0,0,0,0,0,0,0,0,0,0,0,0,0,0,0,0,0,0,0,0,0,0,0,0,0,0,0,0,0,0,0,0,0,0,0,0,0,0,0,0],"id":0,"left_children":[1,3,5,7,9,11,13,15,17,19,21,23,25,27,29,31,33,35,37,39,41,43,45,47,49,51,53,55,57,-1,59,61,63,65,67,69,71,73,75,77,79,81,83,85,87,89,91,93,95,97,99,-1,101,-1,-1,-1,-1,-1,-1,-1,-1,-1,-1,-1,-1,-1,-1,-1,-1,-1,-1,-1,-1,-1,-1,-1,-1,-1,-1,-1,-1,-1,-1,-1,-1,-1,-1,-1,-1,-1,-1,-1,-1,-1,-1,-1,-1,-1,-1,-1,-1,-1,-1],"loss_changes":[1.0440467E2,2.3755846E1,1.8464272E1,2.8928223E0,6.1777844E0,2.451006E0,3.026558E0,4.3836975E-1,3.742466E-1,3.7309728E0,2.0639467E0,3.6728954E-1,2.8754044E-1,5.009155E-1,5.6284714E-1,6.052208E-2,6.2295914E-2,4.2346954E-2,4.84128E-2,1.723062E0,2.3076816E0,4.4979525E-1,3.0291808E-1,4.2390347E-2,4.2226315E-2,2.8417587E-2,2.0399094E-2,4.762268E-2,3.305626E-2,0E0,8.26664E-2,4.275322E-3,3.8347244E-3,7.279396E-3,4.3087006E-3,3.4213066E-3,3.6962032E-3,4.1081905E-3,4.4544935E-3,3.3740985E-1,2.9628897E-1,2.2623318E-1,6.242173E-1,5.6532204E-2,1.7326736E-1,7.947251E-3,1.1230874E-1,3.507495E-3,4.288912E-3,4.1918755E-3,2.1333694E-3,0E0,8.7213516E-4,0E0,0E0,0E0,0E0,0E0,0E0,0E0,0E0,0E0,0E0,0E0,0E0,0E0,0E0,0E0,0E0,0E0,0E0,0E0,0E0,0E0,0E0,0E0,0E0,0E0,0E0,0E0,0E0,0E0,0E0,0E0,0E0,0E0,0E0,0E0,0E0,0E0,0E0,0E0,0E0,0E0,0E0,0E0,0E0,0E0,0E0,0E0,0E0,0E0,0E0],"parents":[2147483647,0,0,1,1,2,2,3,3,4,4,5,5,6,6,7,7,8,8,9,9,10,10,11,11,12,12,13,13,14,14,15,15,16,16,17,17,18,18,19,19,20,20,21,21,22,22,23,23,24,24,25,25,26,26,27,27,28,28,30,30,31,31,32,32,33,33,34,34,35,35,36,36,37,37,38,38,39,39,40,40,41,41,42,42,43,43,44,44,45,45,46,46,47,47,48,48,49,49,50,50,52,52],"right_children":[2,4,6,8,10,12,14,16,18,20,22,24,26,28,30,32,34,36,38,40,42,44,46,48,50,52,54,56,58,-1,60,62,64,66,68,70,72,74,76,78,80,82,84,86,88,90,92,94,96,98,100,-1,102,-1,-1,-1,-1,-1,-1,-1,-1,-1,-1,-1,-1,-1,-1,-1,-1,-1,-1,-1,-1,-1,-1,-1,-1,-1,-1,-1,-1,-1,-1,-1,-1,-1,-1,-1,-1,-1,-1,-1,-1,-1,-1,-1,-1,-1,-1,-1,-1,-1,-1],"split_conditions":[1.3014905E-1,7.3205315E-2,2.0681684E-1,4.829624E-2,1.0966124E-1,1.6581468E-1,2.6977348E-1,3.472863E-2,6.0718007E-2,4.5477483E-2,-6.0000002E-2,1.4685537E-1,1.8558243E-1,2.3662682E-1,3.034993E-1,2.7025651E-2,4.176843E-2,5.4376196E-2,6.678782E-2,1.3014905E-1,9.9637724E-2,3.5375077E-2,1.3014905E-1,1.3784094E-1,1.565878E-1,1.7369255E-1,1.9544543E-1,2.1840583E-1,2.4927275E-1,5.53209E-2,3.299803E-1,2.1415522E-2,3.1371918E-2,3.8164467E-2,4.5214165E-2,5.1339965E-2,5.747451E-2,6.362236E-2,7.043147E-2,9.465361E-2,-5.379636E-2,8.6131826E-2,7.0059046E-2,1.2569462E-1,1.4319174E-1,1.20491065E-1,-5.0000012E-2,1.3434756E-1,1.4277698E-1,1.5255247E-1,1.6033362E-1,2.1709591E-2,1.7989884E-1,2.786589E-2,3.091538E-2,3.4212343E-2,3.860941E-2,4.338696E-2,4.8393235E-2,6.507061E-2,7.688658E-2,-2.3390912E-2,-2.1782719E-2,-2.0297073E-2,-1.9168584E-2,-1.8252246E-2,-1.7090961E-2,-1.6066616E-2,-1.5102252E-2,-1.4151468E-2,-1.3266391E-2,-1.2328987E-2,-1.1435416E-2,-1.0486676E-2,-9.592559E-3,-8.490115E-3,-7.595926E-3,-4.43459E-3,3.3294458E-3,-5.675339E-3,-1.4659938E-2,-5.2356925E-3,-1.3456995E-3,1.9896163E-3,7.287828E-3,6.716214E-3,2.358809E-2,3.691792E-2,5.136956E-2,5.608646E-3,8.443948E-3,1.7706094E-2,4.486237E-2,1.0443245E-2,1.1668105E-2,1.2968088E-2,1.430623E-2,1.5703153E-2,1.7193565E-2,1.833455E-2,1.981212E-2,2.3831062E-2,2.5666641E-2],"split_indices":[12,12,12,12,10,12,12,12,12,10,35,12,12,12,12,12,12,12,12,12,12,34,12,12,12,12,12,12,12,0,12,12,12,12,12,12,12,12,12,12,4,12,10,12,10,12,33,12,12,12,12,0,12,0,0,0,0,0,0,0,0,0,0,0,0,0,0,0,0,0,0,0,0,0,0,0,0,0,0,0,0,0,0,0,0,0,0,0,0,0,0,0,0,0,0,0,0,0,0,0,0,0,0],"split_type":[0,0,0,0,0,0,0,0,0,0,0,0,0,0,0,0,0,0,0,0,0,0,0,0,0,0,0,0,0,0,0,0,0,0,0,0,0,0,0,0,0,0,0,0,0,0,0,0,0,0,0,0,0,0,0,0,0,0,0,0,0,0,0,0,0,0,0,0,0,0,0,0,0,0,0,0,0,0,0,0,0,0,0,0,0,0,0,0,0,0,0,0,0,0,0,0,0,0,0,0,0,0,0],"sum_hessian":[4.9492E4,3.9156E4,1.0336E4,1.9123E4,2.0033E4,7.443E3,2.893E3,9.479E3,9.644E3,1.8889E4,1.144E3,4.736E3,2.707E3,2.036E3,8.57E2,3.895E3,5.584E3,4.908E3,4.736E3,5.481E3,1.3408E4,4.33E2,7.11E2,2.535E3,2.201E3,1.517E3,1.19E3,1.185E3,8.51E2,4.99E2,3.58E2,1.533E3,2.362E3,2.873E3,2.711E3,2.536E3,2.372E3,2.353E3,2.383E3,2.868E3,2.613E3,5.384E3,8.024E3,7.4E1,3.59E2,4.3E2,2.81E2,1.186E3,1.349E3,1.184E3,1.017E3,6.72E2,8.45E2,5.09E2,6.81E2,5.13E2,6.72E2,3.4E2,5.11E2,1.7E2,1.88E2,5.12E2,1.021E3,1.347E3,1.015E3,1.357E3,1.516E3,1.361E3,1.35E3,1.191E3,1.345E3,1.185E3,1.187E3,1.186E3,1.167E3,1.365E3,1.018E3,2.217E3,6.51E2,3.9E2,2.223E3,2.656E3,2.728E3,3.825E3,4.199E3,3.3E1,4.1E1,2.3E2,1.29E2,2.92E2,1.38E2,2.67E2,1.4E1,6.8E2,5.06E2,8.42E2,5.07E2,6.79E2,5.05E2,5.08E2,5.09E2,5.11E2,3.34E2],"tree_param":{"num_deleted":"0","num_feature":"36","num_nodes":"103","size_leaf_vector":"1"}},{"base_weights":[1.1116655E-5,-1.7429654E-2,5.973254E-2,-3.3495635E-2,3.9647322E-5,4.1423056E-2,1.0834685E-1,-4.2563096E-2,-2.470227E-2,-2.8582844E-3,5.9790242E-2,3.208466E-2,5.84377E-2,9.575369E-2,1.5130182E-1,-4.8014257E-2,-3.811497E-2,-2.9174788E-2,-2.0210724E-2,-2.547426E-2,2.0315151E-3,9.594336E-2,3.2327775E-2,2.6969157E-2,3.9164346E-2,5.2340712E-2,6.704734E-2,8.281627E-2,1.0839445E-1,1.403115E-1,5.3942647E-2,-5.161403E-2,-4.5356028E-2,-4.0273584E-2,-3.5662092E-2,-3.125551E-2,-2.6792418E-2,-2.2643708E-2,-1.8341158E-2,-6.5688617E-3,-3.6445465E-2,-6.0960716E-3,9.225377E-3,5.941837E-2,1.0983022E-1,2.333306E-2,7.091668E-2,2.4842506E-2,3.03016E-2,3.6280986E-2,4.2507157E-2,1.4603381E-2,1.6788939E-2,1.8802118E-2,2.1070618E-2,2.3339089E-2,2.5952814E-2,3.0468557E-2,3.523041E-2,3.8097393E-2,4.4031076E-2,-1.615115E-2,-1.49091175E-2,-1.3961201E-2,-1.31896E-2,-1.2482974E-2,-1.1716771E-2,-1.095577E-2,-1.0305854E-2,-9.705068E-3,-9.042283E-3,-8.318391E-3,-7.654673E-3,-7.047098E-3,-6.380087E-3,-5.790802E-3,-5.29936E-3,-3.4201732E-3,5.551015E-4,-8.234252E-3,-1.32932225E-2,-3.1720079E-3,-5.196223E-4,-1.4466781E-3,4.89956E-3,7.0894044E-3,2.1937102E-2,2.9568145E-2,4.2844996E-2,5.3448398E-3,1.2152798E-2,1.4295978E-2,2.6009103E-2,7.991308E-3,7.256516E-3,8.6014345E-3,9.441536E-3,1.0420004E-2,1.1470798E-2,1.2320041E-2,1.3144468E-2],"categories":[],"categories_nodes":[],"categories_segments":[],"categories_sizes":[],"default_left":[1,0,0,0,0,0,0,0,0,0,0,0,0,0,0,0,0,0,0,0,0,0,0,0,0,0,0,0,0,0,0,0,0,0,0,0,0,0,0,0,0,0,0,0,0,0,0,0,0,0,0,0,0,0,0,0,0,0,0,0,0,0,0,0,0,0,0,0,0,0,0,0,0,0,0,0,0,0,0,0,0,0,0,0,0,0,0,0,0,0,0,0,0,0,0,0,0,0,0,0,0],"id":1,"left_children":[1,3,5,7,9,11,13,15,17,19,21,23,25,27,29,31,33,35,37,39,41,43,45,47,49,51,53,55,57,59,-1,61,63,65,67,69,71,73,75,77,79,81,83,85,87,89,91,93,95,97,99,-1,-1,-1,-1,-1,-1,-1,-1,-1,-1,-1,-1,-1,-1,-1,-1,-1,-1,-1,-1,-1,-1,-1,-1,-1,-1,-1,-1,-1,-1,-1,-1,-1,-1,-1,-1,-1,-1,-1,-1,-1,-1,-1,-1,-1,-1,-1,-1,-1,-1],"loss_changes":[5.1552338E1,1.0751301E1,9.953091E0,1.5900307E0,3.1780503E0,1.2895794E0,1.6407852E0,2.3635101E-1,2.0296764E-1,1.9358875E0,8.3983135E-1,1.8907833E-1,1.4761734E-1,3.7844658E-1,1.9157505E-1,3.9858818E-2,2.7230263E-2,2.4319649E-2,2.259636E-2,6.4523625E-1,8.416552E-1,1.7911577E-1,1.6633993E-1,2.0869255E-2,1.9662619E-2,1.9699097E-2,1.2190342E-2,1.5050888E-2,6.1886787E-2,2.4721146E-2,0E0,5.276203E-3,2.1352768E-3,3.047943E-3,1.5990734E-3,2.3226738E-3,2.1271706E-3,2.0577908E-3,1.5236735E-3,4.6558063E-2,1.3813257E-1,1.3204491E-1,7.62376E-1,4.8790604E-2,8.406544E-2,3.6613837E-2,2.927509E-2,1.5492439E-3,1.3562441E-3,2.2662878E-3,1.0883808E-4,0E0,0E0,0E0,0E0,0E0,0E0,0E0,0E0,0E0,0E0,0E0,0E0,0E0,0E0,0E0,0E0,0E0,0E0,0E0,0E0,0E0,0E0,0E0,0E0,0E0,0E0,0E0,0E0,0E0,0E0,0E0,0E0,0E0,0E0,0E0,0E0,0E0,0E0,0E0,0E0,0E0,0E0,0E0,0E0,0E0,0E0,0E0,0E0,0E0,0E0],"parents":[2147483647,0,0,1,1,2,2,3,3,4,4,5,5,6,6,7,7,8,8,9,9,10,10,11,11,12,12,13,13,14,14,15,15,16,16,17,17,18,18,19,19,20,20,21,21,22,22,23,23,24,24,25,25,26,26,27,27,28,28,29,29,31,31,32,32,33,33,34,34,35,35,36,36,37,37,38,38,39,39,40,40,41,41,42,42,43,43,44,44,45,45,46,46,47,47,48,48,49,49,50,50],"right_children":[2,4,6,8,10,12,14,16,18,20,22,24,26,28,30,32,34,36,38,40,42,44,46,48,50,52,54,56,58,60,-1,62,64,66,68,70,72,74,76,78,80,82,84,86,88,90,92,94,96,98,100,-1,-1,-1,-1,-1,-1,-1,-1,-1,-1,-1,-1,-1,-1,-1,-1,-1,-1,-1,-1,-1,-1,-1,-1,-1,-1,-1,-1,-1,-1,-1,-1,-1,-1,-1,-1,-1,-1,-1,-1,-1,-1,-1,-1,-1,-1,-1,-1,-1,-1],"split_conditions":[1.2485613E-1,7.532433E-2,2.0330192E-1,4.925867E-2,1.1510755E-1,1.6262165E-1,2.7577984E-1,3.573879E-2,6.1831053E-2,1.5954714E-2,-6.0000002E-2,1.4441422E-1,1.8297613E-1,2.3034322E-1,3.299803E-1,2.841417E-2,4.297751E-2,5.5661775E-2,6.793699E-2,1.1818105E-1,1.0279934E-1,4.080653E-2,-8.835901E-2,1.3674259E-1,1.540521E-1,1.717114E-1,1.920014E-1,2.1260756E-1,2.5675324E-1,2.8857687E-1,5.3942647E-2,2.3528075E-2,3.2733213E-2,3.9576296E-2,4.6574466E-2,5.2353837E-2,5.9065267E-2,6.533729E-2,7.0904665E-2,8.831293E-2,-6.0000002E-2,8.831293E-2,5.8806185E-2,-6.999999E-2,1.5183249E-1,1.24817856E-1,1.3550864E-1,6.492391E-2,1.3974942E-1,1.493934E-1,1.5758848E-1,1.4603381E-2,1.6788939E-2,1.8802118E-2,2.1070618E-2,2.3339089E-2,2.5952814E-2,3.0468557E-2,3.523041E-2,3.8097393E-2,4.4031076E-2,-1.615115E-2,-1.49091175E-2,-1.3961201E-2,-1.31896E-2,-1.2482974E-2,-1.1716771E-2,-1.095577E-2,-1.0305854E-2,-9.705068E-3,-9.042283E-3,-8.318391E-3,-7.654673E-3,-7.047098E-3,-6.380087E-3,-5.790802E-3,-5.29936E-3,-3.4201732E-3,5.551015E-4,-8.234252E-3,-1.32932225E-2,-3.1720079E-3,-5.196223E-4,-1.4466781E-3,4.89956E-3,7.0894044E-3,2.1937102E-2,2.9568145E-2,4.2844996E-2,5.3448398E-3,1.2152798E-2,1.4295978E-2,2.6009103E-2,7.991308E-3,7.256516E-3,8.6014345E-3,9.441536E-3,1.0420004E-2,1.1470798E-2,1.2320041E-2,1.3144468E-2],"split_indices":[12,12,12,12,10,12,12,12,12,34,35,12,12,12,12,12,12,12,12,12,12,34,4,12,12,12,12,12,12,12,0,12,12,12,12,12,12,12,12,12,35,12,10,7,10,10,10,10,12,12,12,0,0,0,0,0,0,0,0,0,0,0,0,0,0,0,0,0,0,0,0,0,0,0,0,0,0,0,0,0,0,0,0,0,0,0,0,0,0,0,0,0,0,0,0,0,0,0,0,0,0],"split_type":[0,0,0,0,0,0,0,0,0,0,0,0,0,0,0,0,0,0,0,0,0,0,0,0,0,0,0,0,0,0,0,0,0,0,0,0,0,0,0,0,0,0,0,0,0,0,0,0,0,0,0,0,0,0,0,0,0,0,0,0,0,0,0,0,0,0,0,0,0,0,0,0,0,0,0,0,0,0,0,0,0,0,0,0,0,0,0,0,0,0,0,0,0,0,0,0,0,0,0,0,0],"sum_hessian":[4.9492E4,3.8306E4,1.1186E4,1.9954E4,1.8352E4,8.127E3,3.059E3,9.822E3,1.0132E4,1.7504E4,8.48E2,5.249E3,2.878E3,2.368E3,6.91E2,4.409E3,5.413E3,5.074E3,5.058E3,3.111E3,1.4393E4,3.65E2,4.83E2,3.05E3,2.199E3,1.689E3,1.189E3,1.174E3,1.194E3,5.03E2,1.88E2,1.865E3,2.544E3,2.871E3,2.542E3,2.702E3,2.372E3,2.193E3,2.865E3,1.143E3,1.968E3,6.758E3,7.635E3,1.02E2,2.63E2,3.93E2,9E1,1.867E3,1.183E3,1.187E3,1.012E3,8.47E2,8.42E2,5.1E2,6.79E2,5.07E2,6.67E2,6.87E2,5.07E2,1.71E2,3.32E2,8.51E2,1.014E3,1.358E3,1.186E3,1.353E3,1.518E3,1.52E3,1.022E3,1.349E3,1.353E3,1.357E3,1.015E3,1.348E3,8.45E2,1.172E3,1.693E3,7.26E2,4.17E2,9.2E2,1.048E3,3.335E3,3.423E3,2.565E3,5.07E3,2.9E1,7.3E1,1.99E2,6.4E1,2.99E2,9.4E1,3.8E1,5.2E1,4.88E2,1.379E3,5.05E2,6.78E2,6.73E2,5.14E2,4.97E2,5.15E2],"tree_param":{"num_deleted":"0","num_feature":"36","num_nodes":"101","size_leaf_vector":"1"}},{"base_weights":[1.5352398E-5,-1.3060052E-2,3.9281752E-2,-2.4910696E-2,-2.376934E-3,2.674852E-2,7.467124E-2,-3.0694326E-2,-1.954966E-2,-5.794371E-3,2.7393844E-2,1.9708754E-2,3.781225E-2,6.328107E-2,9.904092E-2,-3.436406E-2,-2.8026992E-2,-2.248978E-2,-1.682052E-2,-1.9569917E-2,-2.8265018E-3,6.241243E-2,1.0007383E-2,1.6765473E-2,2.4220321E-2,3.3423312E-2,4.4897344E-2,5.611411E-2,7.160496E-2,8.86992E-2,1.18065745E-1,-3.722246E-2,-3.291978E-2,-2.9498212E-2,-2.643516E-2,-7.196711E-3,-2.1379681E-2,-1.835934E-2,-1.5292709E-2,-7.6501416E-3,-2.8928608E-2,3.060647E-3,-7.5628413E-3,-3.5374724E-5,6.703825E-2,5.06802E-3,3.9110973E-2,1.9088686E-2,1.5581923E-2,2.1991625E-2,2.610408E-2,3.1183047E-2,1.1090454E-2,1.2649451E-2,1.4283552E-2,1.59429E-2,1.7468076E-2,2.0075634E-2,2.2828914E-2,2.581609E-2,2.8920032E-2,1.1542581E-1,4.65179E-2,-1.1819306E-2,-1.089302E-2,-1.0186E-2,-9.554889E-3,-9.094056E-3,-8.561246E-3,-8.089029E-3,-7.6381885E-3,-6.6458443E-3,-6.207016E-3,-5.722793E-3,-5.285361E-3,-4.8279306E-3,-4.3480727E-3,-3.3505724E-3,1.512673E-4,-6.5160324E-3,-1.0738933E-2,-1.441623E-3,4.074008E-3,-4.5175767E-3,-3.2352295E-4,-8.242234E-4,1.6172727E-3,1.6449602E-2,2.4842069E-2,2.3120194E-5,3.939831E-3,1.0428226E-2,2.7861068E-2,5.984428E-3,5.4568658E-3,3.9476817E-3,5.445988E-3,6.230484E-3,6.770718E-3,7.5105387E-3,8.241388E-3,8.807947E-3,9.671649E-3,3.2531504E-2,3.65439E-2],"categories":[],"categories_nodes":[],"categories_segments":[],"categories_sizes":[],"default_left":[1,0,0,0,0,0,0,0,0,0,0,0,0,0,0,0,0,0,0,0,0,0,0,0,0,0,0,0,0,0,1,0,0,0,0,0,0,0,0,0,0,0,1,0,0,0,0,0,0,0,0,0,0,0,0,0,0,0,0,0,0,0,0,0,0,0,0,0,0,0,0,0,0,0,0,0,0,0,0,0,0,0,0,0,0,0,0,0,0,0,0,0,0,0,0,0,0,0,0,0,0,0,0,0,0],"id":2,"left_children":[1,3,5,7,9,11,13,15,17,19,21,23,25,27,29,31,33,35,37,39,41,43,45,47,49,51,53,55,57,59,61,63,65,67,69,-1,71,73,75,77,79,81,83,85,87,89,91,93,95,97,99,101,-1,-1,-1,-1,-1,-1,-1,-1,-1,103,-1,-1,-1,-1,-1,-1,-1,-1,-1,-1,-1,-1,-1,-1,-1,-1,-1,-1,-1,-1,-1,-1,-1,-1,-1,-1,-1,-1,-1,-1,-1,-1,-1,-1,-1,-1,-1,-1,-1,-1,-1,-1,-1],"loss_changes":[2.5411411E1,4.7006664E0,5.481989E0,5.4520226E-1,1.9869328E0,7.1051073E-1,8.9113045E-1,8.190584E-2,7.294488E-2,7.1615094E-1,1.2237712E0,7.372928E-2,1.0889006E-1,1.2758541E-1,1.9178581E-1,1.3467789E-2,1.0714769E-2,6.8035126E-3,1.0870218E-2,3.461523E-1,4.0193644E-1,1.9268012E-1,1.931499E-1,9.001851E-3,8.670688E-3,1.6286612E-2,8.042812E-3,4.3759346E-3,1.6313076E-2,5.3544044E-3,1.71628E-2,9.251833E-4,1.543045E-3,1.126051E-3,5.3215027E-4,0E0,8.932352E-4,9.1683865E-4,1.2928843E-3,3.9225653E-2,8.531487E-2,5.318741E-1,3.8824573E-1,7.064762E-4,1.14987135E-1,4.632765E-2,4.2375356E-2,5.15759E-4,1.3754606E-2,2.4828315E-4,1.0485053E-3,1.6560555E-3,0E0,0E0,0E0,0E0,0E0,0E0,0E0,0E0,0E0,1.9202232E-3,0E0,0E0,0E0,0E0,0E0,0E0,0E0,0E0,0E0,0E0,0E0,0E0,0E0,0E0,0E0,0E0,0E0,0E0,0E0,0E0,0E0,0E0,0E0,0E0,0E0,0E0,0E0,0E0,0E0,0E0,0E0,0E0,0E0,0E0,0E0,0E0,0E0,0E0,0E0,0E0,0E0,0E0,0E0],"parents":[2147483647,0,0,1,1,2,2,3,3,4,4,5,5,6,6,7,7,8,8,9,9,10,10,11,11,12,12,13,13,14,14,15,15,16,16,17,17,18,18,19,19,20,20,21,21,22,22,23,23,24,24,25,25,26,26,27,27,28,28,29,29,30,30,31,31,32,32,33,33,34,34,36,36,37,37,38,38,39,39,40,40,41,41,42,42,43,43,44,44,45,45,46,46,47,47,48,48,49,49,50,50,51,51,61,61],"right_children":[2,4,6,8,10,12,14,16,18,20,22,24,26,28,30,32,34,36,38,40,42,44,46,48,50,52,54,56,58,60,62,64,66,68,70,-1,72,74,76,78,80,82,84,86,88,90,92,94,96,98,100,102,-1,-1,-1,-1,-1,-1,-1,-1,-1,104,-1,-1,-1,-1,-1,-1,-1,-1,-1,-1,-1,-1,-1,-1,-1,-1,-1,-1,-1,-1,-1,-1,-1,-1,-1,-1,-1,-1,-1,-1,-1,-1,-1,-1,-1,-1,-1,-1,-1,-1,-1,-1,-1],"split_conditions":[1.1903027E-1,6.922536E-2,1.9975312E-1,4.598243E-2,9.428467E-2,1.5508543E-1,2.610257E-1,3.3628594E-2,5.668378E-2,3.5811137E-2,-6.0000002E-2,1.3883898E-1,1.7741196E-1,2.257684E-1,3.034993E-1,2.523659E-2,4.0309723E-2,5.0437905E-2,6.261816E-2,1.1658996E-1,-6.0000002E-2,1.1818105E-1,1.21200174E-1,6.913582E-2,1.4547126E-1,1.6776058E-1,1.8891606E-1,2.0997965E-1,2.4220653E-1,2.8857687E-1,-7.000002E-2,1.9873254E-2,2.999524E-2,3.6871355E-2,4.3870438E-2,-7.196711E-3,5.3225826E-2,5.957742E-2,6.577088E-2,8.391736E-2,-6.0000002E-2,1.06931806E-1,8.0739E-2,1.0279934E-1,6.40243E-2,1.1352967E-1,-5.0000012E-2,5.5833176E-2,1.2754993E-1,1.4101958E-1,1.507307E-1,1.5891667E-1,1.1090454E-2,1.2649451E-2,1.4283552E-2,1.59429E-2,1.7468076E-2,2.0075634E-2,2.2828914E-2,2.581609E-2,2.8920032E-2,3.299803E-1,4.65179E-2,-1.1819306E-2,-1.089302E-2,-1.0186E-2,-9.554889E-3,-9.094056E-3,-8.561246E-3,-8.089029E-3,-7.6381885E-3,-6.6458443E-3,-6.207016E-3,-5.722793E-3,-5.285361E-3,-4.8279306E-3,-4.3480727E-3,-3.3505724E-3,1.512673E-4,-6.5160324E-3,-1.0738933E-2,-1.441623E-3,4.074008E-3,-4.5175767E-3,-3.2352295E-4,-8.242234E-4,1.6172727E-3,1.6449602E-2,2.4842069E-2,2.3120194E-5,3.939831E-3,1.0428226E-2,2.7861068E-2,5.984428E-3,5.4568658E-3,3.9476817E-3,5.445988E-3,6.230484E-3,6.770718E-3,7.5105387E-3,8.241388E-3,8.807947E-3,9.671649E-3,3.2531504E-2,3.65439E-2],"split_indices":[12,12,12,12,10,12,12,12,12,10,35,12,12,12,12,12,12,12,12,12,35,12,10,10,12,12,12,12,12,12,15,12,12,12,12,0,12,12,12,12,35,12,12,12,34,12,33,10,12,12,12,12,0,0,0,0,0,0,0,0,0,12,0,0,0,0,0,0,0,0,0,0,0,0,0,0,0,0,0,0,0,0,0,0,0,0,0,0,0,0,0,0,0,0,0,0,0,0,0,0,0,0,0,0,0],"split_type":[0,0,0,0,0,0,0,0,0,0,0,0,0,0,0,0,0,0,0,0,0,0,0,0,0,0,0,0,0,0,0,0,0,0,0,0,0,0,0,0,0,0,0,0,0,0,0,0,0,0,0,0,0,0,0,0,0,0,0,0,0,0,0,0,0,0,0,0,0,0,0,0,0,0,0,0,0,0,0,0,0,0,0,0,0,0,0,0,0,0,0,0,0,0,0,0,0,0,0,0,0,0,0,0,0],"sum_hessian":[4.9492E4,3.7129E4,1.2363E4,1.7602E4,1.9527E4,9.131E3,3.232E3,8.465E3,9.137E3,1.7517E4,2.01E3,5.582E3,3.549E3,2.205E3,1.027E3,3.558E3,4.907E3,4.395E3,4.742E3,3.104E3,1.4413E4,6.66E2,1.344E3,3.381E3,2.201E3,2.195E3,1.354E3,1.189E3,1.016E3,6.69E2,3.58E2,1.186E3,2.372E3,2.541E3,2.366E3,1.861E3,2.534E3,2.357E3,2.385E3,1.366E3,1.738E3,6.426E3,7.987E3,4.6E1,6.2E2,1.15E3,1.94E2,1.136E3,2.245E3,1.014E3,1.187E3,1.351E3,8.44E2,6.83E2,6.71E2,5.05E2,6.84E2,5.05E2,5.11E2,5.07E2,1.62E2,3.38E2,2E1,3.38E2,8.48E2,1.191E3,1.181E3,1.358E3,1.183E3,1.517E3,8.49E2,1.18E3,1.354E3,1.186E3,1.171E3,1.182E3,1.203E3,9.54E2,4.12E2,8.5E2,8.88E2,3.677E3,2.749E3,3.704E3,4.283E3,3.1E1,1.5E1,3.52E2,2.68E2,7.11E2,4.39E2,1.81E2,1.3E1,5.7E2,5.66E2,1.159E3,1.086E3,3.37E2,6.77E2,6.77E2,5.1E2,5.06E2,8.45E2,1.7E2,1.68E2],"tree_param":{"num_deleted":"0","num_feature":"36","num_nodes":"105","size_leaf_vector":"1"}},{"base_weights":[1.677487E-5,-9.40271E-3,2.6844215E-2,-1.4050306E-2,3.6708417E-3,1.7988926E-2,5.1512256E-2,-1.7956745E-2,-4.779472E-3,-3.0814717E-3,2.148472E-2,1.3310896E-2,2.5766976E-2,4.36907E-2,6.949433E-2,-2.239561E-2,-1.5594245E-2,-7.494704E-3,4.490233E-3,-7.064289E-3,7.55242E-4,3.7287667E-2,2.213886E-3,1.1086777E-2,1.6253954E-2,2.2800496E-2,3.0558662E-2,3.804356E-2,4.9305737E-2,6.217113E-2,8.2968004E-2,-2.4816345E-2,-2.0882577E-2,2.4642775E-2,-1.5909882E-2,-9.588264E-3,-3.912794E-3,1.1156813E-3,9.59019E-3,-9.888148E-3,-4.8465924E-3,-3.2725333E-5,3.9748917E-3,5.2510157E-2,1.9415475E-2,-8.174953E-3,1.9400286E-2,1.3978582E-2,1.0032643E-2,1.5037931E-2,1.80549E-2,2.0996954E-2,2.4883643E-2,8.755717E-3,9.837914E-3,1.1010991E-2,1.1912058E-2,1.3856764E-2,1.5993616E-2,1.7548833E-2,1.9707907E-2,2.3426732E-2,9.49925E-2,-7.890496E-3,-7.1389945E-3,-6.5197E-3,-5.959713E-3,-4.540952E-3,9.46047E-3,-6.767907E-3,-4.591457E-3,-3.1032327E-3,-2.6414085E-3,-1.8102105E-3,-9.1747934E-4,1.9690506E-5,8.8553346E-4,2.2192695E-3,3.556448E-3,-3.4171806E-3,-2.443113E-3,-1.7351396E-3,-1.2951702E-3,7.9718267E-4,-2.825965E-4,1.9255402E-3,8.81617E-4,7.642842E-3,1.7726542E-2,-1.7898294E-4,9.339037E-3,3.263852E-3,-4.5495727E-3,5.1058196E-3,2.1716326E-2,4.422689E-3,3.2007874E-3,2.3458758E-3,3.413705E-3,4.3551433E-3,4.8125777E-3,5.0617275E-3,5.5848593E-3,6.1051194E-3,6.5429793E-3,7.1239215E-3,7.79157E-3,2.496462E-2,3.4245063E-2],"categories":[],"categories_nodes":[],"categories_segments":[],"categories_sizes":[],"default_left":[1,0,0,1,0,0,0,0,0,0,0,0,0,0,0,0,0,0,0,0,0,0,0,0,0,0,0,0,0,0,0,0,0,0,0,0,0,0,0,0,0,0,0,0,0,0,0,0,0,0,0,0,0,0,0,0,0,0,0,0,0,0,1,0,0,0,0,0,0,0,0,0,0,0,0,0,0,0,0,0,0,0,0,0,0,0,0,0,0,0,0,0,0,0,0,0,0,0,0,0,0,0,0,0,0,0,0,0,0],"id":3,"left_children":[1,3,5,7,9,11,13,15,17,19,21,23,25,27,29,31,33,35,37,39,41,43,45,47,49,51,53,55,57,59,61,63,65,67,69,71,73,75,77,79,81,83,85,87,89,91,93,95,97,99,101,103,105,-1,-1,-1,-1,-1,-1,-1,-1,-1,107,-1,-1,-1,-1,-1,-1,-1,-1,-1,-1,-1,-1,-1,-1,-1,-1,-1,-1,-1,-1,-1,-1,-1,-1,-1,-1,-1,-1,-1,-1,-1,-1,-1,-1,-1,-1,-1,-1,-1,-1,-1,-1,-1,-1,-1,-1],"loss_changes":[1.2507165E1,2.2258334E0,2.8086834E0,9.786501E-1,1.1557634E0,3.440864E-1,4.7474384E-1,1.990366E-1,2.01716E-1,1.0648286E-1,8.0419683E-1,3.852451E-2,4.9821377E-2,7.3274136E-2,9.627485E-2,2.3662329E-2,1.5802884E-1,4.644096E-2,3.1242784E-2,2.1363437E-2,9.006406E-3,3.937385E-1,2.1280777E-1,1.013577E-2,5.297601E-3,7.7391863E-3,3.2025576E-3,1.1866093E-3,1.2333393E-2,4.8291683E-3,1.3643265E-2,3.2120943E-3,3.0841827E-3,2.7071215E-2,4.920554E-2,2.2251904E-3,4.128922E-3,2.1090233E-3,3.5023615E-3,3.8465112E-3,9.2608854E-4,6.980708E-3,1.7484426E-3,1.3774204E-1,1.5685526E-1,9.912974E-2,5.5412576E-2,2.1122694E-3,7.28257E-3,5.6397915E-4,3.6290288E-4,1.7905235E-4,6.3943863E-4,0E0,0E0,0E0,0E0,0E0,0E0,0E0,0E0,0E0,1.2837589E-2,0E0,0E0,0E0,0E0,0E0,0E0,0E0,0E0,0E0,0E0,0E0,0E0,0E0,0E0,0E0,0E0,0E0,0E0,0E0,0E0,0E0,0E0,0E0,0E0,0E0,0E0,0E0,0E0,0E0,0E0,0E0,0E0,0E0,0E0,0E0,0E0,0E0,0E0,0E0,0E0,0E0,0E0,0E0,0E0,0E0,0E0],"parents":[2147483647,0,0,1,1,2,2,3,3,4,4,5,5,6,6,7,7,8,8,9,9,10,10,11,11,12,12,13,13,14,14,15,15,16,16,17,17,18,18,19,19,20,20,21,21,22,22,23,23,24,24,25,25,26,26,27,27,28,28,29,29,30,30,31,31,32,32,33,33,34,34,35,35,36,36,37,37,38,38,39,39,40,40,41,41,42,42,43,43,44,44,45,45,46,46,47,47,48,48,49,49,50,50,51,51,52,52,62,62],"right_children":[2,4,6,8,10,12,14,16,18,20,22,24,26,28,30,32,34,36,38,40,42,44,46,48,50,52,54,56,58,60,62,64,66,68,70,72,74,76,78,80,82,84,86,88,90,92,94,96,98,100,102,104,106,-1,-1,-1,-1,-1,-1,-1,-1,-1,108,-1,-1,-1,-1,-1,-1,-1,-1,-1,-1,-1,-1,-1,-1,-1,-1,-1,-1,-1,-1,-1,-1,-1,-1,-1,-1,-1,-1,-1,-1,-1,-1,-1,-1,-1,-1,-1,-1,-1,-1,-1,-1,-1,-1,-1,-1],"split_conditions":[1.1594117E-1,5.8806185E-2,1.9720183E-1,6.424699E-2,1.1594117E-1,1.540521E-1,2.610257E-1,4.130985E-2,9.247763E-2,9.1547675E-2,-6.0000002E-2,1.3544056E-1,1.7575082E-1,2.2114158E-1,3.034993E-1,3.0428344E-2,-1.176513E-1,7.900502E-2,1.0279934E-1,7.758751E-2,1.1064945E-1,-7.656199E-2,9.663855E-2,6.492391E-2,1.4547126E-1,1.6421598E-1,1.8891606E-1,2.0997965E-1,2.4220653E-1,2.7577984E-1,-3.0000001E-2,2.4406368E-2,3.653955E-2,1.9607468E-2,8.709954E-3,-6.0000002E-2,8.2522415E-2,9.870838E-2,1.0971991E-1,6.885204E-2,8.285379E-2,6.868056E-2,6.959777E-2,2.8102845E-2,3.3847883E-2,-8.31891E-2,-5.0000012E-2,1.3014905E-1,1.22813314E-1,1.4157805E-1,1.482882E-1,1.5891667E-1,1.6923966E-1,8.755717E-3,9.837914E-3,1.1010991E-2,1.1912058E-2,1.3856764E-2,1.5993616E-2,1.7548833E-2,1.9707907E-2,2.3426732E-2,1.1752732E-1,-7.890496E-3,-7.1389945E-3,-6.5197E-3,-5.959713E-3,-4.540952E-3,9.46047E-3,-6.767907E-3,-4.591457E-3,-3.1032327E-3,-2.6414085E-3,-1.8102105E-3,-9.1747934E-4,1.9690506E-5,8.8553346E-4,2.2192695E-3,3.556448E-3,-3.4171806E-3,-2.443113E-3,-1.7351396E-3,-1.2951702E-3,7.9718267E-4,-2.825965E-4,1.9255402E-3,8.81617E-4,7.642842E-3,1.7726542E-2,-1.7898294E-4,9.339037E-3,3.263852E-3,-4.5495727E-3,5.1058196E-3,2.1716326E-2,4.422689E-3,3.2007874E-3,2.3458758E-3,3.413705E-3,4.3551433E-3,4.8125777E-3,5.0617275E-3,5.5848593E-3,6.1051194E-3,6.5429793E-3,7.1239215E-3,7.79157E-3,2.496462E-2,3.4245063E-2],"split_indices":[12,10,12,12,12,12,12,12,12,12,35,12,12,12,12,12,6,12,12,12,12,4,10,10,12,12,12,12,12,12,13,12,12,24,34,35,12,12,12,12,12,10,10,34,34,4,33,12,12,12,12,12,12,0,0,0,0,0,0,0,0,0,34,0,0,0,0,0,0,0,0,0,0,0,0,0,0,0,0,0,0,0,0,0,0,0,0,0,0,0,0,0,0,0,0,0,0,0,0,0,0,0,0,0,0,0,0,0,0],"split_type":[0,0,0,0,0,0,0,0,0,0,0,0,0,0,0,0,0,0,0,0,0,0,0,0,0,0,0,0,0,0,0,0,0,0,0,0,0,0,0,0,0,0,0,0,0,0,0,0,0,0,0,0,0,0,0,0,0,0,0,0,0,0,0,0,0,0,0,0,0,0,0,0,0,0,0,0,0,0,0,0,0,0,0,0,0,0,0,0,0,0,0,0,0,0,0,0,0,0,0,0,0,0,0,0,0,0,0,0,0],"sum_hessian":[4.9492E4,3.6631E4,1.2861E4,2.7024E4,9.607E3,9.465E3,3.396E3,1.9012E4,8.012E3,6.967E3,2.64E3,5.912E3,3.553E3,2.369E3,1.027E3,6.601E3,1.2411E4,6.197E3,1.815E3,3.418E3,3.549E3,1.45E3,1.19E3,3.37E3,2.542E3,2.198E3,1.355E3,1.185E3,1.184E3,6.69E2,3.58E2,2.533E3,4.068E3,9.6E1,1.2315E4,3.91E3,2.287E3,1.093E3,7.22E2,1.502E3,1.916E3,2.852E3,6.97E2,7.82E2,6.68E2,7.42E2,4.48E2,8.97E2,2.473E3,1.523E3,1.019E3,1.184E3,1.014E3,8.48E2,5.07E2,6.69E2,5.16E2,6.73E2,5.11E2,3.36E2,3.33E2,2.6E2,9.8E1,1.021E3,1.512E3,2.205E3,1.863E3,1.4E1,8.2E1,1.024E3,1.1291E4,1.984E3,1.926E3,6.55E2,1.632E3,6.96E2,3.97E2,3.69E2,3.53E2,8.04E2,6.98E2,6.88E2,1.228E3,7.2E2,2.132E3,2.06E2,4.91E2,1.54E2,6.28E2,2.47E2,4.21E2,1.99E2,5.43E2,4.3E2,1.8E1,7.26E2,1.71E2,9.38E2,1.535E3,1.013E3,5.1E2,3.38E2,6.81E2,6.74E2,5.1E2,5.07E2,5.07E2,6.4E1,3.4E1],"tree_param":{"num_deleted":"0","num_feature":"36","num_nodes":"109","size_leaf_vector":"1"}},{"base_weights":[1.7213308E-5,-6.5813847E-3,1.8810544E-2,-1.0176916E-2,1.8141337E-3,1.2795824E-2,3.6720518E-2,-1.3469675E-2,-4.716706E-3,-2.3548314E-3,1.3828361E-2,9.440974E-3,1.8538935E-2,3.037861E-2,4.745368E-2,2.3870522E-2,-1.363762E-2,-6.860451E-3,9.4860565E-4,-5.14671E-3,8.6747285E-4,2.4887383E-2,4.7435332E-4,7.547532E-3,1.1323861E-2,1.6382027E-2,2.2020878E-2,2.7513739E-2,3.4372486E-2,4.2763937E-2,5.8307778E-2,-1.7441886E-2,2.7890468E-2,-4.969636E-3,-1.4055432E-2,-7.4320133E-3,-4.237639E-3,-1.0230608E-3,5.8171735E-3,-7.931107E-3,-3.8940564E-3,2.3594913E-4,3.8428034E-3,3.9987836E-2,1.388361E-2,-1.0111397E-2,1.0114242E-2,9.582301E-3,6.5444303E-3,1.0386945E-2,1.2781217E-2,4.4682515E-3,1.7650476E-2,2.1042552E-2,7.084713E-3,7.936918E-3,8.661498E-3,9.91603E-3,1.0868698E-2,1.215693E-2,1.3813238E-2,6.704755E-2,5.4177564E-2,-1.8189922E-3,-6.2341974E-3,1.3010721E-2,5.403887E-3,7.032949E-3,-2.573694E-3,-4.5532845E-3,-3.4267677E-3,-2.5445803E-3,-2.117356E-3,-1.5120634E-3,-1.1171602E-3,-5.2748603E-4,7.3868745E-5,1.3677257E-3,2.4385694E-3,-2.6693512E-3,-2.0312138E-3,-1.6454078E-3,-1.0001535E-3,5.34983E-4,-1.5736173E-4,2.6300973E-3,9.2810247E-4,3.965546E-3,1.3745208E-2,2.979331E-3,1.53123615E-2,2.6339276E-3,-4.2258557E-3,2.3403668E-3,1.39394775E-2,3.0258673E-3,2.1968195E-3,1.5001899E-3,2.2299972E-3,2.9881825E-3,3.3346545E-3,3.60906E-3,3.995668E-3,4.9909535E-3,5.516886E-3,5.8251484E-3,6.4253863E-3,1.5296693E-2,2.2316342E-2,1.2418845E-2,1.6570179E-2],"categories":[],"categories_nodes":[],"categories_segments":[],"categories_sizes":[],"default_left":[1,0,0,1,0,0,0,0,0,0,0,0,0,0,0,0,0,0,0,0,0,0,0,0,0,0,0,0,0,0,0,0,0,0,1,0,0,0,0,0,0,0,0,0,0,0,0,0,0,0,0,0,0,0,0,0,0,0,0,0,0,0,0,0,0,0,0,0,0,0,0,0,0,0,0,0,0,0,0,0,0,0,0,0,0,0,0,0,0,0,0,0,0,0,0,0,0,0,0,0,0,0,0,0,0,0,0,0,0,0,0],"id":4,"left_children":[1,3,5,7,9,11,13,15,17,19,21,23,25,27,29,31,33,35,37,39,41,43,45,47,49,51,53,55,57,59,61,63,65,67,69,71,73,75,77,79,81,83,85,87,89,91,93,95,97,99,101,-1,103,105,-1,-1,-1,-1,-1,-1,-1,107,109,-1,-1,-1,-1,-1,-1,-1,-1,-1,-1,-1,-1,-1,-1,-1,-1,-1,-1,-1,-1,-1,-1,-1,-1,-1,-1,-1,-1,-1,-1,-1,-1,-1,-1,-1,-1,-1,-1,-1,-1,-1,-1,-1,-1,-1,-1,-1,-1],"loss_changes":[6.1377325E0,1.1058048E0,1.3850694E0,4.6106577E-1,5.502371E-1,1.853689E-1,2.1862459E-1,1.00656986E-1,1.17205605E-1,7.337815E-2,4.1792893E-1,2.1594107E-2,2.630043E-2,2.2338629E-2,5.853939E-2,1.2443759E-2,5.7614803E-2,1.0463685E-2,2.5443811E-2,1.521118E-2,7.114834E-3,2.5666362E-1,1.310266E-1,6.131962E-3,4.0276945E-3,3.8815737E-3,1.6172528E-3,9.447336E-4,8.7434053E-4,4.315734E-3,9.326458E-3,1.3993378E-4,9.309538E-3,7.547397E-2,4.4721127E-2,2.1977723E-3,4.987158E-4,1.761409E-3,2.1846034E-3,1.4597699E-3,2.6692487E-3,3.6781991E-3,2.418586E-3,1.011405E-1,1.3123164E-1,4.607772E-2,5.613917E-2,1.0647923E-3,2.756767E-3,4.670173E-4,3.194958E-4,0E0,5.784333E-4,1.0216236E-4,0E0,0E0,0E0,0E0,0E0,0E0,0E0,9.291083E-3,1.0754466E-3,0E0,0E0,0E0,0E0,0E0,0E0,0E0,0E0,0E0,0E0,0E0,0E0,0E0,0E0,0E0,0E0,0E0,0E0,0E0,0E0,0E0,0E0,0E0,0E0,0E0,0E0,0E0,0E0,0E0,0E0,0E0,0E0,0E0,0E0,0E0,0E0,0E0,0E0,0E0,0E0,0E0,0E0,0E0,0E0,0E0,0E0,0E0,0E0],"parents":[2147483647,0,0,1,1,2,2,3,3,4,4,5,5,6,6,7,7,8,8,9,9,10,10,11,11,12,12,13,13,14,14,15,15,16,16,17,17,18,18,19,19,20,20,21,21,22,22,23,23,24,24,25,25,26,26,27,27,28,28,29,29,30,30,31,31,32,32,33,33,34,34,35,35,36,36,37,37,38,38,39,39,40,40,41,41,42,42,43,43,44,44,45,45,46,46,47,47,48,48,49,49,50,50,52,52,53,53,61,61,62,62],"right_children":[2,4,6,8,10,12,14,16,18,20,22,24,26,28,30,32,34,36,38,40,42,44,46,48,50,52,54,56,58,60,62,64,66,68,70,72,74,76,78,80,82,84,86,88,90,92,94,96,98,100,102,-1,104,106,-1,-1,-1,-1,-1,-1,-1,108,110,-1,-1,-1,-1,-1,-1,-1,-1,-1,-1,-1,-1,-1,-1,-1,-1,-1,-1,-1,-1,-1,-1,-1,-1,-1,-1,-1,-1,-1,-1,-1,-1,-1,-1,-1,-1,-1,-1,-1,-1,-1,-1,-1,-1,-1,-1,-1,-1],"split_conditions":[1.1594117E-1,5.5833176E-2,1.9975312E-1,5.6193516E-2,1.1594117E-1,1.5508543E-1,2.5675324E-1,-1.4385854E-1,8.451842E-2,9.247763E-2,-6.0000002E-2,1.3278437E-1,1.7741196E-1,2.257684E-1,3.034993E-1,1.832388E-2,-6.470644E-2,7.71844E-2,1.0138125E-1,7.1352564E-2,1.1157898E-1,-8.478608E-2,8.106381E-2,6.913582E-2,1.4547126E-1,1.6421598E-1,1.920014E-1,2.1260756E-1,2.4220653E-1,2.7577984E-1,-2.690082E-1,-6.861923E-2,-1.4497875E-1,-6.999999E-2,4.4279013E-2,6.099423E-2,7.9750724E-2,9.247763E-2,1.0971991E-1,6.424699E-2,7.758751E-2,6.868056E-2,5.8239724E-2,-7.000002E-2,-5.0000012E-2,-9.441572E-2,1.6081119E-1,1.3014905E-1,1.2184216E-1,1.4101958E-1,1.493934E-1,4.4682515E-3,1.6923966E-1,1.7989884E-1,7.084713E-3,7.936918E-3,8.661498E-3,9.91603E-3,1.0868698E-2,1.215693E-2,1.3813238E-2,4.243179E-2,1.3104343E-1,-1.8189922E-3,-6.2341974E-3,1.3010721E-2,5.403887E-3,7.032949E-3,-2.573694E-3,-4.5532845E-3,-3.4267677E-3,-2.5445803E-3,-2.117356E-3,-1.5120634E-3,-1.1171602E-3,-5.2748603E-4,7.3868745E-5,1.3677257E-3,2.4385694E-3,-2.6693512E-3,-2.0312138E-3,-1.6454078E-3,-1.0001535E-3,5.34983E-4,-1.5736173E-4,2.6300973E-3,9.2810247E-4,3.965546E-3,1.3745208E-2,2.979331E-3,1.53123615E-2,2.6339276E-3,-4.2258557E-3,2.3403668E-3,1.39394775E-2,3.0258673E-3,2.1968195E-3,1.5001899E-3,2.2299972E-3,2.9881825E-3,3.3346545E-3,3.60906E-3,3.995668E-3,4.9909535E-3,5.516886E-3,5.8251484E-3,6.4253863E-3,1.5296693E-2,2.2316342E-2,1.2418845E-2,1.6570179E-2],"split_indices":[12,10,12,12,12,12,12,8,12,12,35,12,12,12,12,24,4,12,12,12,12,4,10,10,12,12,12,12,12,12,6,4,6,33,12,12,12,12,12,12,12,10,10,1,1,4,10,12,12,12,12,0,12,12,0,0,0,0,0,0,0,30,10,0,0,0,0,0,0,0,0,0,0,0,0,0,0,0,0,0,0,0,0,0,0,0,0,0,0,0,0,0,0,0,0,0,0,0,0,0,0,0,0,0,0,0,0,0,0,0,0],"split_type":[0,0,0,0,0,0,0,0,0,0,0,0,0,0,0,0,0,0,0,0,0,0,0,0,0,0,0,0,0,0,0,0,0,0,0,0,0,0,0,0,0,0,0,0,0,0,0,0,0,0,0,0,0,0,0,0,0,0,0,0,0,0,0,0,0,0,0,0,0,0,0,0,0,0,0,0,0,0,0,0,0,0,0,0,0,0,0,0,0,0,0,0,0,0,0,0,0,0,0,0,0,0,0,0,0,0,0,0,0,0,0],"sum_hessian":[4.9492E4,3.6631E4,1.2861E4,2.5647E4,1.0984E4,9.629E3,3.232E3,1.5998E4,9.649E3,8.155E3,2.829E3,6.08E3,3.549E3,2.034E3,1.198E3,7.1E1,1.5927E4,7E3,2.649E3,4.369E3,3.786E3,1.547E3,1.282E3,3.034E3,3.046E3,2.195E3,1.354E3,1.189E3,8.45E2,8.4E2,3.58E2,6E0,6.5E1,7.33E2,1.5194E4,5.746E3,1.254E3,1.886E3,7.63E2,1.354E3,3.015E3,3.124E3,6.62E2,6.51E2,8.96E2,6.11E2,6.71E2,9.99E2,2.035E3,1.859E3,1.187E3,1.016E3,1.179E3,8.48E2,5.06E2,6.8E2,5.09E2,5.05E2,3.4E2,5.07E2,3.33E2,1.1E2,2.48E2,2E0,4E0,2.4E1,4.1E1,8.2E1,6.51E2,1.065E4,4.544E3,1.504E3,4.242E3,4.86E2,7.68E2,1.194E3,6.92E2,4.96E2,2.67E2,7.35E2,6.19E2,7.83E2,2.232E3,1.029E3,2.095E3,8.6E1,5.76E2,1.17E2,5.34E2,8.11E2,8.5E1,1.06E2,5.05E2,6.32E2,3.9E1,8.14E2,1.85E2,7.46E2,1.289E3,1.182E3,6.77E2,5.05E2,6.82E2,5.07E2,6.72E2,1.69E2,6.79E2,3.7E1,7.3E1,2.2E1,2.26E2],"tree_param":{"num_deleted":"0","num_feature":"36","num_nodes":"111","size_leaf_vector":"1"}},{"base_weights":[1.6844775E-5,-4.6055987E-3,1.318193E-2,-6.560572E-3,3.1415601E-3,8.963015E-3,2.5744556E-2,-9.10068E-3,-2.811765E-3,-1.2212413E-3,1.2849279E-2,6.6967206E-3,1.31402295E-2,2.1759667E-2,3.4270745E-2,1.2987623E-2,-9.311164E-3,-4.557236E-3,7.322621E-4,-3.2642088E-3,1.5680368E-4,9.353063E-3,4.0577613E-2,5.360393E-3,8.103817E-3,1.1443037E-2,1.5216229E-2,1.9273562E-2,2.464728E-2,3.0613404E-2,4.1000966E-2,-1.0442061E-2,2.0818744E-2,1.0912241E-2,-9.461603E-3,-5.021139E-3,-2.8653708E-3,-9.4096037E-4,3.0753526E-3,-4.3623713E-3,-2.5162618E-3,-4.3565242E-4,1.5591258E-3,-1.7947219E-3,1.472122E-2,8.194872E-2,3.1604607E-2,7.3654973E-3,4.8544826E-3,7.406688E-3,9.188852E-3,1.05473315E-2,1.2184508E-2,4.211808E-3,4.8367376E-3,5.602337E-3,6.2185465E-3,7.05194E-3,8.049046E-3,8.807028E-3,1.0302603E-2,3.9562635E-2,1.8680183E-2,4.96283E-3,-3.4511134E-3,1.1689955E-2,4.058988E-3,1.1948078E-2,-5.216111E-4,-2.141435E-3,-3.1563602E-3,-1.6423179E-3,-1.3363432E-3,-9.433314E-4,-6.328134E-4,-3.7623616E-4,5.562272E-5,7.2630617E-4,1.8509019E-3,-1.4431427E-3,-1.0866096E-3,-8.947597E-4,-6.6516106E-4,2.2727763E-4,-4.379049E-4,-8.4796775E-5,7.3017227E-4,5.534921E-3,-1.3238258E-3,5.629743E-3,-5.5956858E-5,1.2074054E-2,2.7376868E-2,1.2832503E-3,1.2137755E-2,2.772349E-3,1.7260712E-3,1.2492001E-3,1.8218084E-3,2.1236772E-3,2.3897176E-3,2.5930253E-3,2.8764461E-3,3.05926E-3,3.309852E-3,3.4966161E-3,3.8068937E-3,1.1183729E-2,1.4807538E-2],"categories":[],"categories_nodes":[],"categories_segments":[],"categories_sizes":[],"default_left":[1,0,0,1,0,0,0,0,0,0,1,0,0,0,0,1,0,0,0,0,0,0,0,0,0,0,0,0,0,0,1,0,0,0,0,0,0,0,0,0,0,0,0,0,1,0,0,0,0,0,0,0,0,0,0,0,0,0,0,0,0,0,0,0,0,0,0,0,0,0,0,0,0,0,0,0,0,0,0,0,0,0,0,0,0,0,0,0,0,0,0,0,0,0,0,0,0,0,0,0,0,0,0,0,0,0,0,0,0],"id":5,"left_children":[1,3,5,7,9,11,13,15,17,19,21,23,25,27,29,31,33,35,37,39,41,43,45,47,49,51,53,55,57,59,61,63,65,67,69,71,73,75,77,79,81,83,85,87,89,91,93,95,97,99,101,103,105,-1,-1,-1,-1,-1,-1,-1,-1,107,-1,-1,-1,-1,-1,-1,-1,-1,-1,-1,-1,-1,-1,-1,-1,-1,-1,-1,-1,-1,-1,-1,-1,-1,-1,-1,-1,-1,-1,-1,-1,-1,-1,-1,-1,-1,-1,-1,-1,-1,-1,-1,-1,-1,-1,-1,-1],"loss_changes":[3.0119503E0,5.548302E-1,6.814637E-1,2.7851343E-1,3.1266442E-1,9.107727E-2,1.09098434E-1,8.1184745E-2,7.309708E-2,1.4341656E-2,2.2152588E-1,1.1699319E-2,1.1756003E-2,1.5361667E-2,2.4048805E-2,3.049171E-2,5.2651525E-2,6.19936E-3,1.52928885E-2,1.6744658E-3,2.528847E-3,1.2174724E-1,9.24432E-2,3.216423E-3,2.231419E-3,1.1114329E-3,1.3947785E-3,6.5016747E-4,1.901865E-3,2.131164E-3,8.517623E-3,1.3935361E-3,1.5874911E-2,4.6891402E-2,4.213524E-2,1.5711188E-3,3.5328604E-4,8.0305524E-4,3.2752212E-3,2.579298E-4,1.6392488E-4,2.616012E-3,1.4571738E-3,3.516782E-2,8.278945E-2,1.3793558E-2,5.1124558E-2,1.8939227E-3,2.1305904E-3,2.8369576E-4,1.7520785E-4,3.235787E-5,1.2339652E-4,0E0,0E0,0E0,0E0,0E0,0E0,0E0,0E0,5.743146E-3,0E0,0E0,0E0,0E0,0E0,0E0,0E0,0E0,0E0,0E0,0E0,0E0,0E0,0E0,0E0,0E0,0E0,0E0,0E0,0E0,0E0,0E0,0E0,0E0,0E0,0E0,0E0,0E0,0E0,0E0,0E0,0E0,0E0,0E0,0E0,0E0,0E0,0E0,0E0,0E0,0E0,0E0,0E0,0E0,0E0,0E0,0E0],"parents":[2147483647,0,0,1,1,2,2,3,3,4,4,5,5,6,6,7,7,8,8,9,9,10,10,11,11,12,12,13,13,14,14,15,15,16,16,17,17,18,18,19,19,20,20,21,21,22,22,23,23,24,24,25,25,26,26,27,27,28,28,29,29,30,30,31,31,32,32,33,33,34,34,35,35,36,36,37,37,38,38,39,39,40,40,41,41,42,42,43,43,44,44,45,45,46,46,47,47,48,48,49,49,50,50,51,51,52,52,61,61],"right_children":[2,4,6,8,10,12,14,16,18,20,22,24,26,28,30,32,34,36,38,40,42,44,46,48,50,52,54,56,58,60,62,64,66,68,70,72,74,76,78,80,82,84,86,88,90,92,94,96,98,100,102,104,106,-1,-1,-1,-1,-1,-1,-1,-1,108,-1,-1,-1,-1,-1,-1,-1,-1,-1,-1,-1,-1,-1,-1,-1,-1,-1,-1,-1,-1,-1,-1,-1,-1,-1,-1,-1,-1,-1,-1,-1,-1,-1,-1,-1,-1,-1,-1,-1,-1,-1,-1,-1,-1,-1,-1,-1],"split_conditions":[1.1594117E-1,6.492391E-2,1.9975312E-1,5.823978E-2,1.1594117E-1,1.565878E-1,2.610257E-1,-1.3066815E-1,8.451842E-2,9.099103E-2,4.7000003E-1,1.3434756E-1,1.7575082E-1,2.257684E-1,3.034993E-1,2.2612762E-2,-9.441572E-2,7.758751E-2,9.870838E-2,7.654903E-2,1.0884261E-1,3.2124646E-2,-3.3498943E-1,5.938992E-2,1.4685537E-1,1.6421598E-1,1.8558243E-1,2.1840583E-1,2.4927275E-1,2.8857687E-1,-7.000002E-2,-6.999999E-2,-1.5450418E-1,-6.0000002E-2,-6.0000002E-2,6.846962E-2,8.2522415E-2,9.4059214E-2,1.12237684E-1,7.182898E-2,8.327551E-2,9.9637724E-2,-6.0000002E-2,-9.614139E-2,-1.3079786E-1,3.4073472E-2,5.643558E-2,1.2408316E-1,1.2638918E-1,1.4157805E-1,1.507307E-1,1.6033362E-1,1.6923966E-1,4.211808E-3,4.8367376E-3,5.602337E-3,6.2185465E-3,7.05194E-3,8.049046E-3,8.807028E-3,1.0302603E-2,1.6972716E-1,1.8680183E-2,4.96283E-3,-3.4511134E-3,1.1689955E-2,4.058988E-3,1.1948078E-2,-5.216111E-4,-2.141435E-3,-3.1563602E-3,-1.6423179E-3,-1.3363432E-3,-9.433314E-4,-6.328134E-4,-3.7623616E-4,5.562272E-5,7.2630617E-4,1.8509019E-3,-1.4431427E-3,-1.0866096E-3,-8.947597E-4,-6.6516106E-4,2.2727763E-4,-4.379049E-4,-8.4796775E-5,7.3017227E-4,5.534921E-3,-1.3238258E-3,5.629743E-3,-5.5956858E-5,1.2074054E-2,2.7376868E-2,1.2832503E-3,1.2137755E-2,2.772349E-3,1.7260712E-3,1.2492001E-3,1.8218084E-3,2.1236772E-3,2.3897176E-3,2.5930253E-3,2.8764461E-3,3.05926E-3,3.309852E-3,3.4966161E-3,3.8068937E-3,1.1183729E-2,1.4807538E-2],"split_indices":[12,10,12,12,12,12,12,8,12,12,21,12,12,12,12,24,4,12,12,12,12,34,8,10,12,12,12,12,12,12,15,7,6,33,35,12,12,12,12,10,12,12,35,4,6,34,24,12,12,12,12,12,12,0,0,0,0,0,0,0,0,10,0,0,0,0,0,0,0,0,0,0,0,0,0,0,0,0,0,0,0,0,0,0,0,0,0,0,0,0,0,0,0,0,0,0,0,0,0,0,0,0,0,0,0,0,0,0,0],"split_type":[0,0,0,0,0,0,0,0,0,0,0,0,0,0,0,0,0,0,0,0,0,0,0,0,0,0,0,0,0,0,0,0,0,0,0,0,0,0,0,0,0,0,0,0,0,0,0,0,0,0,0,0,0,0,0,0,0,0,0,0,0,0,0,0,0,0,0,0,0,0,0,0,0,0,0,0,0,0,0,0,0,0,0,0,0,0,0,0,0,0,0,0,0,0,0,0,0,0,0,0,0,0,0,0,0,0,0,0,0],"sum_hessian":[4.9492E4,3.6631E4,1.2861E4,2.925E4,7.381E3,9.629E3,3.232E3,1.7435E4,1.1815E4,5.093E3,2.288E3,6.244E3,3.385E3,2.205E3,1.027E3,1.64E2,1.7271E4,7.916E3,3.899E3,2.051E3,3.042E3,2.033E3,2.55E2,3.205E3,3.039E3,1.866E3,1.519E3,1.189E3,1.016E3,6.69E2,3.58E2,4.1E1,1.23E2,1.27E2,1.7144E4,6.211E3,1.705E3,2.275E3,1.624E3,8.29E2,1.222E3,2.139E3,9.03E2,6.61E2,1.372E3,4.4E1,2.11E2,6.43E2,2.562E3,1.855E3,1.184E3,8.52E2,1.014E3,6.68E2,8.51E2,8.52E2,3.37E2,6.75E2,3.41E2,5.07E2,1.62E2,3.38E2,2E1,1E0,4E1,3.4E1,8.9E1,3.8E1,8.9E1,5.372E3,1.1772E4,3.446E3,2.765E3,1.243E3,4.62E2,1.78E3,4.95E2,1.342E3,2.82E2,5.13E2,3.16E2,4.74E2,7.48E2,9.88E2,1.151E3,2.91E2,6.12E2,7.5E1,5.86E2,1.079E3,2.93E2,9E0,3.5E1,5.2E1,1.59E2,2.95E2,3.48E2,1.638E3,9.24E2,1.178E3,6.77E2,5.1E2,6.74E2,5.08E2,3.44E2,5.07E2,5.07E2,2.78E2,6E1],"tree_param":{"num_deleted":"0","num_feature":"36","num_nodes":"109","size_leaf_vector":"1"}},{"base_weights":[1.6055956E-5,-3.2843894E-3,9.077668E-3,-4.267898E-3,4.6069985E-3,6.2703984E-3,1.8390983E-2,-7.4828197E-3,-2.791054E-3,-9.030041E-4,1.2372384E-2,4.669501E-3,9.458082E-3,1.6177414E-2,2.594236E-2,-9.431709E-3,-6.5042432E-3,-3.854217E-3,6.169089E-5,-1.7739623E-3,-3.2131455E-4,1.02961E-2,4.4846334E-2,3.6441276E-3,5.6968317E-3,8.328619E-3,1.1143237E-2,1.4211523E-2,1.8772412E-2,2.4651028E-2,3.5791412E-2,-1.1367054E-2,-8.936876E-3,-7.353174E-3,-6.2202075E-3,1.957349E-2,-4.0964675E-3,-1.1281191E-3,1.2420061E-3,-1.8334251E-3,-2.6997903E-4,1.7197608E-3,-8.970433E-4,1.7375955E-2,1.8922972E-3,6.949267E-2,3.0506108E-2,4.8368745E-3,2.9669388E-3,5.208511E-3,6.602373E-3,7.7896034E-3,2.7251167E-3,3.1438037E-3,3.537223E-3,4.0314025E-3,4.6459E-3,1.7658897E-2,5.956665E-3,2.4172857E-2,4.0049497E-2,3.931605E-2,3.2246902E-3,-3.9912183E-3,-3.2052374E-3,-2.8550606E-3,-2.5067574E-3,-2.434702E-3,-2.129587E-3,-1.9164012E-3,-1.6623676E-3,1.2779544E-2,3.868932E-4,-4.009065E-3,-1.1458882E-3,-1.8013557E-4,-5.0003914E-4,4.7315657E-4,1.669775E-5,-4.2279452E-4,-5.957619E-4,-2.2240501E-4,3.8366418E-4,7.2660056E-5,9.791321E-4,-5.8935076E-4,9.8375625E-5,2.5310796E-3,7.104794E-3,-6.5113016E-4,3.8462146E-3,1.5330906E-2,2.551298E-2,-1.5536399E-3,1.0900099E-2,1.7346485E-3,1.3239102E-3,5.3164945E-4,1.0822943E-3,1.4524175E-3,1.6554774E-3,1.8824519E-3,2.0522971E-3,2.2088161E-3,2.4306232E-3,5.950961E-3,5.1839566E-3,6.7459517E-3,7.7966307E-3,5.7517146E-3,1.5823873E-2,9.401091E-3,1.5081543E-2],"categories":[],"categories_nodes":[],"categories_segments":[],"categories_sizes":[],"default_left":[1,0,0,0,0,0,0,0,1,0,0,0,0,0,0,0,0,0,0,0,0,0,0,0,0,0,0,0,0,1,0,0,0,0,0,0,0,0,0,0,1,0,0,0,1,0,0,0,0,0,0,0,0,0,0,0,0,0,0,0,0,1,0,0,0,0,0,0,0,0,0,0,0,0,0,0,0,0,0,0,0,0,0,0,0,0,0,0,0,0,0,0,0,0,0,0,0,0,0,0,0,0,0,0,0,0,0,0,0,0,0,0,0],"id":6,"left_children":[1,3,5,7,9,11,13,15,17,19,21,23,25,27,29,31,33,35,37,39,41,43,45,47,49,51,53,55,57,59,61,63,65,67,69,71,73,75,77,79,81,83,85,87,89,91,93,95,97,99,101,103,-1,-1,-1,-1,-1,105,-1,107,109,111,-1,-1,-1,-1,-1,-1,-1,-1,-1,-1,-1,-1,-1,-1,-1,-1,-1,-1,-1,-1,-1,-1,-1,-1,-1,-1,-1,-1,-1,-1,-1,-1,-1,-1,-1,-1,-1,-1,-1,-1,-1,-1,-1,-1,-1,-1,-1,-1,-1,-1,-1],"loss_changes":[1.4802344E0,2.815977E-1,3.453647E-1,1.5314758E-1,1.7205888E-1,5.1778346E-2,5.0729632E-2,1.930368E-2,6.704928E-2,1.1915237E-3,1.1207086E-1,7.1023107E-3,6.3670576E-3,1.1818588E-2,7.918835E-3,3.1468272E-3,1.5849769E-3,9.148212E-2,8.431719E-3,8.3749415E-5,1.6607922E-3,9.337853E-2,3.322345E-2,2.7213767E-3,1.4584586E-3,7.5793266E-4,4.606545E-4,1.1250675E-3,8.7720156E-4,3.5601854E-3,6.462112E-3,7.6664984E-4,8.3237886E-4,2.7039647E-4,5.427003E-4,6.940766E-2,4.0845633E-2,8.488847E-4,1.1984068E-3,5.577854E-5,2.7961334E-5,7.087164E-4,1.4416161E-3,4.783228E-2,3.195087E-2,5.9489757E-3,1.3705283E-2,4.6528317E-4,1.6493872E-3,2.2323057E-4,4.922226E-5,9.974837E-5,0E0,0E0,0E0,0E0,0E0,7.902086E-5,0E0,1.2499094E-3,3.4949407E-3,4.368983E-3,0E0,0E0,0E0,0E0,0E0,0E0,0E0,0E0,0E0,0E0,0E0,0E0,0E0,0E0,0E0,0E0,0E0,0E0,0E0,0E0,0E0,0E0,0E0,0E0,0E0,0E0,0E0,0E0,0E0,0E0,0E0,0E0,0E0,0E0,0E0,0E0,0E0,0E0,0E0,0E0,0E0,0E0,0E0,0E0,0E0,0E0,0E0,0E0,0E0,0E0,0E0],"parents":[2147483647,0,0,1,1,2,2,3,3,4,4,5,5,6,6,7,7,8,8,9,9,10,10,11,11,12,12,13,13,14,14,15,15,16,16,17,17,18,18,19,19,20,20,21,21,22,22,23,23,24,24,25,25,26,26,27,27,28,28,29,29,30,30,31,31,32,32,33,33,34,34,35,35,36,36,37,37,38,38,39,39,40,40,41,41,42,42,43,43,44,44,45,45,46,46,47,47,48,48,49,49,50,50,51,51,57,57,59,59,60,60,61,61],"right_children":[2,4,6,8,10,12,14,16,18,20,22,24,26,28,30,32,34,36,38,40,42,44,46,48,50,52,54,56,58,60,62,64,66,68,70,72,74,76,78,80,82,84,86,88,90,92,94,96,98,100,102,104,-1,-1,-1,-1,-1,106,-1,108,110,112,-1,-1,-1,-1,-1,-1,-1,-1,-1,-1,-1,-1,-1,-1,-1,-1,-1,-1,-1,-1,-1,-1,-1,-1,-1,-1,-1,-1,-1,-1,-1,-1,-1,-1,-1,-1,-1,-1,-1,-1,-1,-1,-1,-1,-1,-1,-1,-1,-1,-1,-1],"split_conditions":[1.1352967E-1,7.755412E-2,2.0330192E-1,5.0088685E-2,1.1352967E-1,1.5758848E-1,2.7577984E-1,3.3176724E-2,8.165428E-2,9.3512885E-2,-5.0000012E-2,1.3278437E-1,1.7989884E-1,2.3662682E-1,1.6972716E-1,2.2809144E-2,3.7523236E-2,-1.1186053E-1,9.4059214E-2,-4.4625428E-2,9.9637724E-2,-6.0000002E-2,-7.656199E-2,7.0059046E-2,1.482882E-1,1.6923966E-1,1.920014E-1,2.2114158E-1,2.5675324E-1,2.1000001E-1,5.845149E-3,1.8276049E-2,2.8806956E-2,-6.0000002E-2,4.743624E-2,-6.0000002E-2,7.797801E-3,-6.0000002E-2,7.0059046E-2,-8.3728775E-2,2.1437105E-2,9.668305E-2,1.07537724E-1,4.0307492E-2,8.6940154E-2,-9.8461874E-2,-1.4999998E-1,-3.999999E-2,1.2123881E-1,1.3974942E-1,1.5255247E-1,1.6262165E-1,2.7251167E-3,3.1438037E-3,3.537223E-3,4.0314025E-3,4.6459E-3,-7.245471E-2,5.956665E-3,3.034993E-1,-1.3974942E-1,4.243179E-2,3.2246902E-3,-3.9912183E-3,-3.2052374E-3,-2.8550606E-3,-2.5067574E-3,-2.434702E-3,-2.129587E-3,-1.9164012E-3,-1.6623676E-3,1.2779544E-2,3.868932E-4,-4.009065E-3,-1.1458882E-3,-1.8013557E-4,-5.0003914E-4,4.7315657E-4,1.669775E-5,-4.2279452E-4,-5.957619E-4,-2.2240501E-4,3.8366418E-4,7.2660056E-5,9.791321E-4,-5.8935076E-4,9.8375625E-5,2.5310796E-3,7.104794E-3,-6.5113016E-4,3.8462146E-3,1.5330906E-2,2.551298E-2,-1.5536399E-3,1.0900099E-2,1.7346485E-3,1.3239102E-3,5.3164945E-4,1.0822943E-3,1.4524175E-3,1.6554774E-3,1.8824519E-3,2.0522971E-3,2.2088161E-3,2.4306232E-3,5.950961E-3,5.1839566E-3,6.7459517E-3,7.7966307E-3,5.7517146E-3,1.5823873E-2,9.401091E-3,1.5081543E-2],"split_indices":[12,10,12,12,12,12,12,12,12,12,1,12,12,12,10,12,12,4,12,4,12,1,4,10,12,12,12,12,12,23,0,12,12,35,12,33,34,35,10,4,30,12,12,34,24,4,9,7,12,12,12,12,0,0,0,0,0,16,0,12,4,30,0,0,0,0,0,0,0,0,0,0,0,0,0,0,0,0,0,0,0,0,0,0,0,0,0,0,0,0,0,0,0,0,0,0,0,0,0,0,0,0,0,0,0,0,0,0,0,0,0,0,0],"split_type":[0,0,0,0,0,0,0,0,0,0,0,0,0,0,0,0,0,0,0,0,0,0,0,0,0,0,0,0,0,0,0,0,0,0,0,0,0,0,0,0,0,0,0,0,0,0,0,0,0,0,0,0,0,0,0,0,0,0,0,0,0,0,0,0,0,0,0,0,0,0,0,0,0,0,0,0,0,0,0,0,0,0,0,0,0,0,0,0,0,0,0,0,0,0,0,0,0,0,0,0,0,0,0,0,0,0,0,0,0,0,0,0,0],"sum_hessian":[4.9492E4,3.6279E4,1.3213E4,3.2259E4,4.02E3,1.0154E4,3.059E3,1.0153E4,2.2106E4,2.352E3,1.668E3,6.761E3,3.393E3,2.368E3,6.91E2,3.391E3,6.762E3,1.6104E4,6.002E3,9.41E2,1.411E3,1.569E3,9.9E1,3.386E3,3.375E3,2.035E3,1.358E3,1.351E3,1.017E3,6.14E2,7.7E1,6.86E2,2.705E3,1.689E3,5.073E3,1.64E2,1.594E4,2.989E3,3.013E3,9.05E2,3.6E1,3.1E2,1.101E3,8.51E2,7.18E2,3.5E1,6.4E1,1.224E3,2.162E3,2.197E3,1.178E3,1.194E3,8.41E2,6.79E2,6.79E2,8.48E2,5.03E2,5.1E2,5.07E2,5.98E2,1.6E1,6.7E1,1E1,1.74E2,5.12E2,1.346E3,1.359E3,4.15E2,1.274E3,4.061E3,1.012E3,7.2E1,9.2E1,4.61E2,1.5479E4,1.511E3,1.478E3,2.349E3,6.64E2,2.42E2,6.63E2,2.8E1,8E0,1.59E2,1.51E2,5.88E2,5.13E2,3.53E2,4.98E2,5.24E2,1.94E2,1.8E1,1.7E1,9E0,5.5E1,3.75E2,8.49E2,7.56E2,1.406E3,1.013E3,1.184E3,5.08E2,6.7E2,5.15E2,6.79E2,6.8E1,4.42E2,3.17E2,2.81E2,7E0,9E0,4.1E1,2.6E1],"tree_param":{"num_deleted":"0","num_feature":"36","num_nodes":"113","size_leaf_vector":"1"}},{"base_weights":[1.4577734E-5,-2.3194654E-3,6.312465E-3,2.6676923E-2,-2.4670905E-3,4.217562E-3,1.2469509E-2,8.058373E-3,4.1059695E-2,-4.441851E-3,-7.661564E-4,3.0820651E-3,6.1239554E-3,1.12120975E-2,1.9389097E-2,-2.375122E-2,1.3396326E-2,7.0649445E-2,3.1669524E-2,-5.5824607E-3,-2.3079293E-3,-9.563898E-4,1.827514E-2,2.5123318E-3,3.7530516E-3,5.4260255E-3,7.3403018E-3,9.670998E-3,1.3391831E-2,1.7368851E-2,2.4047427E-2,-3.2599524E-3,-1.0447455E-2,4.8895136E-2,8.675901E-3,1.4549778E-3,7.329943E-2,4.4399925E-2,1.11864265E-2,7.1350536E-3,-5.7171695E-3,-2.774991E-3,-3.3932226E-4,-1.2051759E-3,7.2885794E-3,-2.8699765E-2,2.130527E-2,3.9229053E-3,2.1330225E-3,3.4432702E-3,4.1901604E-3,4.9552214E-3,5.8918614E-3,2.014828E-3,7.700514E-3,9.161967E-3,1.0849651E-2,1.2383024E-2,1.4131313E-2,2.5375474E-2,1.6055329E-2,2.136285E-2,1.0228982E-2,1.7624088E-2,3.8679347E-3,1.0966545E-3,1.4495034E-2,2.2805743E-2,2.0198869E-3,1.4465514E-2,-9.066749E-3,-5.3888946E-3,4.4463887E-3,4.1899164E-4,5.19545E-3,-2.0704875E-3,-1.435321E-3,-1.0623933E-3,-7.373752E-4,-1.9821008E-4,7.1982335E-4,6.7760576E-3,-3.8081786E-4,-7.346549E-5,3.869511E-3,-1.0509463E-2,5.918235E-4,4.4927616E-3,1.4713818E-2,1.2875643E-3,2.6662493E-4,4.8457767E-4,7.8906387E-4,8.827154E-4,1.062641E-3,1.2088858E-3,1.3188267E-3,1.4375269E-3,1.547456E-3,1.7025102E-3,1.8511515E-3,2.3191697E-3,1.763092E-3,2.5525338E-3,2.8234057E-3,2.6146646E-3,3.2956467E-3,4.16826E-3,3.617252E-3,4.8196847E-3,4.089214E-3,5.8618234E-3,1.3287201E-2,2.0175292E-3,4.9009277E-3,5.960496E-3,9.299458E-3],"categories":[],"categories_nodes":[],"categories_segments":[],"categories_sizes":[],"default_left":[1,0,0,1,0,0,0,0,0,1,0,0,0,0,0,0,0,0,0,0,0,1,0,0,0,0,0,0,0,0,1,0,0,0,1,0,0,0,0,1,1,0,0,0,0,0,0,0,0,0,0,0,0,0,1,0,0,0,0,0,0,1,0,0,0,0,0,0,0,0,0,0,0,0,0,0,0,0,0,0,0,0,0,0,0,0,0,0,0,0,0,0,0,0,0,0,0,0,0,0,0,0,0,0,0,0,0,0,0,0,0,0,0,0,0,0,0],"id":7,"left_children":[1,3,5,7,9,11,13,15,17,19,21,23,25,27,29,31,33,35,37,39,41,43,45,47,49,51,53,55,57,59,61,-1,-1,63,65,-1,67,69,71,73,75,77,79,81,83,85,87,89,91,93,95,97,99,-1,101,103,105,107,109,111,113,115,-1,-1,-1,-1,-1,-1,-1,-1,-1,-1,-1,-1,-1,-1,-1,-1,-1,-1,-1,-1,-1,-1,-1,-1,-1,-1,-1,-1,-1,-1,-1,-1,-1,-1,-1,-1,-1,-1,-1,-1,-1,-1,-1,-1,-1,-1,-1,-1,-1,-1,-1,-1,-1,-1,-1],"loss_changes":[7.2753906E-1,1.546423E-1,1.7256677E-1,4.8674032E-2,1.2067984E-1,2.1600008E-2,2.9339135E-2,1.4071828E-2,2.6381418E-2,4.0454328E-2,6.994217E-2,2.3840442E-3,3.1241179E-3,9.534836E-3,4.4854432E-3,1.3337419E-3,1.1305655E-2,3.8293228E-3,2.0363972E-2,1.860118E-2,5.325496E-3,3.921607E-2,2.779843E-2,1.8048957E-3,3.746003E-4,4.910305E-4,2.5317818E-4,9.139627E-4,7.119924E-4,3.4522936E-3,3.4531578E-3,0E0,0E0,2.0800512E-3,1.2361165E-2,0E0,3.6521107E-3,1.5419453E-2,3.656772E-3,6.637395E-3,1.1811763E-2,1.1289269E-3,9.803327E-4,2.837791E-2,2.3669405E-2,2.3996467E-3,3.0870356E-2,7.988876E-4,6.8385433E-4,7.312E-5,2.152659E-5,1.463294E-5,3.6697835E-5,0E0,1.3075769E-6,1.1322647E-4,5.03622E-5,8.383393E-5,4.3851137E-4,4.6540983E-3,7.2415173E-4,1.184158E-3,0E0,0E0,0E0,0E0,0E0,0E0,0E0,0E0,0E0,0E0,0E0,0E0,0E0,0E0,0E0,0E0,0E0,0E0,0E0,0E0,0E0,0E0,0E0,0E0,0E0,0E0,0E0,0E0,0E0,0E0,0E0,0E0,0E0,0E0,0E0,0E0,0E0,0E0,0E0,0E0,0E0,0E0,0E0,0E0,0E0,0E0,0E0,0E0,0E0,0E0,0E0,0E0,0E0,0E0,0E0],"parents":[2147483647,0,0,1,1,2,2,3,3,4,4,5,5,6,6,7,7,8,8,9,9,10,10,11,11,12,12,13,13,14,14,15,15,16,16,17,17,18,18,19,19,20,20,21,21,22,22,23,23,24,24,25,25,26,26,27,27,28,28,29,29,30,30,33,33,34,34,36,36,37,37,38,38,39,39,40,40,41,41,42,42,43,43,44,44,45,45,46,46,47,47,48,48,49,49,50,50,51,51,52,52,54,54,55,55,56,56,57,57,58,58,59,59,60,60,61,61],"right_children":[2,4,6,8,10,12,14,16,18,20,22,24,26,28,30,32,34,36,38,40,42,44,46,48,50,52,54,56,58,60,62,-1,-1,64,66,-1,68,70,72,74,76,78,80,82,84,86,88,90,92,94,96,98,100,-1,102,104,106,108,110,112,114,116,-1,-1,-1,-1,-1,-1,-1,-1,-1,-1,-1,-1,-1,-1,-1,-1,-1,-1,-1,-1,-1,-1,-1,-1,-1,-1,-1,-1,-1,-1,-1,-1,-1,-1,-1,-1,-1,-1,-1,-1,-1,-1,-1,-1,-1,-1,-1,-1,-1,-1,-1,-1,-1,-1,-1],"split_conditions":[1.1260018E-1,-1.965787E-1,1.9720183E-1,-6.1877675E-2,3.9625127E-2,1.5255247E-1,2.8857687E-1,2.5347924E-2,-2.5948104E-1,4.874365E-2,1.4319174E-1,1.3175128E-1,1.7575082E-1,2.3662682E-1,-3.999999E-2,1.999998E-2,-4.0722674E-1,-4.4545677E-2,1.10503785E-1,-8.30314E-2,7.8147694E-2,6.0677927E-2,-3.999999E-2,5.8806185E-2,1.4277698E-1,1.6262165E-1,1.8297613E-1,2.2114158E-1,2.5675324E-1,8.700608E-2,7.7568345E-2,-3.2599524E-3,-1.0447455E-2,3.2476783E-2,3.914449E-2,1.4549778E-3,-3.7848383E-2,1.999998E-2,-1.999998E-2,-2.2741036E-2,3.0891323E-2,5.393462E-2,1.0364216E-1,-1.1168163E-1,1.8E-1,4.5999998E-1,8.700608E-2,1.3014905E-1,1.2184216E-1,5.7833795E-2,1.482882E-1,1.5758848E-1,1.6923966E-1,2.014828E-3,-2.0413548E-2,2.0330192E-1,6.356418E-2,-7.999998E-2,-1.5266827E-1,1.4638092E-1,3.817406E-2,4.0885787E-2,1.0228982E-2,1.7624088E-2,3.8679347E-3,1.0966545E-3,1.4495034E-2,2.2805743E-2,2.0198869E-3,1.4465514E-2,-9.066749E-3,-5.3888946E-3,4.4463887E-3,4.1899164E-4,5.19545E-3,-2.0704875E-3,-1.435321E-3,-1.0623933E-3,-7.373752E-4,-1.9821008E-4,7.1982335E-4,6.7760576E-3,-3.8081786E-4,-7.346549E-5,3.869511E-3,-1.0509463E-2,5.918235E-4,4.4927616E-3,1.4713818E-2,1.2875643E-3,2.6662493E-4,4.8457767E-4,7.8906387E-4,8.827154E-4,1.062641E-3,1.2088858E-3,1.3188267E-3,1.4375269E-3,1.547456E-3,1.7025102E-3,1.8511515E-3,2.3191697E-3,1.763092E-3,2.5525338E-3,2.8234057E-3,2.6146646E-3,3.2956467E-3,4.16826E-3,3.617252E-3,4.8196847E-3,4.089214E-3,5.8618234E-3,1.3287201E-2,2.0175292E-3,4.9009277E-3,5.960496E-3,9.299458E-3],"split_indices":[12,6,12,16,10,12,12,26,6,12,10,12,12,12,13,11,8,16,22,6,12,34,7,10,12,12,12,12,12,22,30,0,0,30,30,0,32,11,11,16,12,12,12,32,23,27,34,12,12,10,12,12,12,0,32,12,22,35,4,10,34,20,0,0,0,0,0,0,0,0,0,0,0,0,0,0,0,0,0,0,0,0,0,0,0,0,0,0,0,0,0,0,0,0,0,0,0,0,0,0,0,0,0,0,0,0,0,0,0,0,0,0,0,0,0,0,0],"split_type":[0,0,0,0,0,0,0,0,0,0,0,0,0,0,0,0,0,0,0,0,0,0,0,0,0,0,0,0,0,0,0,0,0,0,0,0,0,0,0,0,0,0,0,0,0,0,0,0,0,0,0,0,0,0,0,0,0,0,0,0,0,0,0,0,0,0,0,0,0,0,0,0,0,0,0,0,0,0,0,0,0,0,0,0,0,0,0,0,0,0,0,0,0,0,0,0,0,0,0,0,0,0,0,0,0,0,0,0,0,0,0,0,0,0,0,0,0],"sum_hessian":[4.9492E4,3.611E4,1.3382E4,1.82E2,3.5928E4,9.986E3,3.396E3,8E1,1.02E2,1.6625E4,1.9303E4,6.26E3,3.726E3,2.876E3,5.2E2,1.1E1,6.9E1,2.3E1,7.9E1,1.0833E4,5.792E3,1.9113E4,1.9E2,3.388E3,2.872E3,2.371E3,1.355E3,1.688E3,1.188E3,3.66E2,1.54E2,6E0,5E0,7E0,6.2E1,1E0,2.2E1,4.8E1,3.1E1,1.13E2,1.072E4,4.681E3,1.111E3,1.8554E4,5.59E2,1.1E1,1.79E2,7.16E2,2.672E3,1.686E3,1.186E3,1.185E3,1.186E3,5.03E2,8.52E2,1.185E3,5.03E2,5.1E2,6.78E2,4.9E1,3.17E2,1.24E2,3E1,5E0,2E0,5.6E1,6E0,2.1E1,1E0,4.6E1,2E0,3E0,2.8E1,7.3E1,4E1,4.72E3,6E3,1.367E3,3.314E3,9.95E2,1.16E2,4.9E1,1.8505E4,2.39E2,3.2E2,9E0,2E0,1.47E2,3.2E1,6.38E2,7.8E1,1.311E3,1.361E3,2.83E2,1.403E3,6.78E2,5.08E2,6.7E2,5.15E2,6.79E2,5.07E2,8.35E2,1.7E1,3.37E2,8.48E2,3.4E1,4.69E2,8.3E1,4.27E2,1.33E2,5.45E2,3.9E1,1E1,1E1,3.07E2,1.1E2,1.4E1],"tree_param":{"num_deleted":"0","num_feature":"36","num_nodes":"117","size_leaf_vector":"1"}},{"base_weights":[1.37185425E-5,-1.667805E-3,4.3239384E-3,1.99926E-3,-2.3901898E-3,2.8901016E-3,8.7520685E-3,1.5837468E-3,3.491694E-2,-3.5396055E-3,-1.1205808E-3,2.0902555E-3,4.24413E-3,7.858192E-3,1.3671322E-2,7.0459316E-3,-5.7754276E-4,9.1768295E-2,2.548834E-2,7.26841E-3,-3.7836106E-3,-1.8284093E-3,-5.7261786E-5,1.6548513E-3,2.503928E-3,3.7119323E-3,5.06205E-3,6.776377E-3,9.388324E-3,1.0498238E-2,1.5329644E-2,-3.3622442E-4,1.242927E-2,-8.387365E-4,1.1769056E-2,8.029761E-3,2.8805042E-2,1.1553541E-3,3.2913633E-2,-4.45214E-3,1.3224899E-2,-1.9403917E-3,-4.4604065E-3,7.282595E-4,-1.8738776E-3,-6.471806E-4,4.855712E-4,2.518126E-3,1.0118765E-3,2.2403435E-3,2.765877E-3,3.383031E-3,4.0379716E-3,4.6373946E-3,5.3951433E-3,6.417903E-3,7.606484E-3,1.0507483E-2,8.986861E-3,8.149551E-3,1.2914454E-2,2.6251005E-2,1.4528392E-2,-7.0432865E-4,2.8365015E-4,-1.5147927E-3,4.834271E-3,-2.900692E-4,4.181512E-3,8.873689E-3,1.9859055E-3,3.4900848E-5,5.851659E-4,5.67698E-3,1.30837E-2,-1.8202626E-3,3.499816E-3,2.003651E-3,5.8632274E-3,1.3966415E-3,-9.57844E-4,-2.267389E-3,-1.0615725E-3,3.8550442E-4,-4.2842417E-5,-6.3926E-4,-4.3088192E-4,-2.173653E-4,2.4640714E-4,6.876791E-5,6.8527495E-4,5.987899E-4,1.240942E-3,1.3164185E-4,4.4855967E-4,9.113892E-4,6.1209453E-4,7.77269E-4,8.813385E-4,9.764459E-4,1.0426061E-3,1.1469943E-3,1.2583918E-3,1.2446679E-3,1.4166684E-3,1.7744525E-3,1.5843747E-3,1.837778E-3,2.0351617E-3,2.2359265E-3,2.9586013E-3,3.237676E-3,1.9528744E-3,2.2790194E-3,2.8295456E-3,3.3709574E-3,1.0286574E-3,2.2618123E-3,4.5509976E-3,9.218766E-3,5.693767E-3,4.20062E-3,8.8174855E-3],"categories":[],"categories_nodes":[],"categories_segments":[],"categories_sizes":[],"default_left":[1,0,0,1,1,0,0,0,0,0,0,0,0,0,0,0,1,0,0,1,0,0,0,0,0,0,0,0,0,1,0,0,0,0,0,0,0,0,0,1,0,0,1,0,0,0,0,0,0,0,0,0,0,0,0,0,0,1,0,0,0,1,1,0,0,0,0,0,0,0,0,0,0,0,0,0,0,0,0,0,0,0,0,0,0,0,0,0,0,0,0,0,0,0,0,0,0,0,0,0,0,0,0,0,0,0,0,0,0,0,0,0,0,0,0,0,0,0,0,0,0,0,0],"id":8,"left_children":[1,3,5,7,9,11,13,15,17,19,21,23,25,27,29,31,33,35,37,39,41,43,45,47,49,51,53,55,57,59,61,63,65,67,69,-1,-1,71,73,75,77,79,81,83,85,87,89,91,93,95,97,99,101,103,105,107,109,111,113,115,117,119,121,-1,-1,-1,-1,-1,-1,-1,-1,-1,-1,-1,-1,-1,-1,-1,-1,-1,-1,-1,-1,-1,-1,-1,-1,-1,-1,-1,-1,-1,-1,-1,-1,-1,-1,-1,-1,-1,-1,-1,-1,-1,-1,-1,-1,-1,-1,-1,-1,-1,-1,-1,-1,-1,-1,-1,-1,-1,-1,-1,-1],"loss_changes":[3.587194E-1,9.432091E-2,8.816528E-2,8.0096185E-2,4.340318E-2,1.1356287E-2,1.4829874E-2,6.833351E-2,3.679108E-2,4.1196987E-2,1.0638567E-2,1.1844356E-3,1.6771182E-3,4.6987385E-3,2.5805682E-3,6.521857E-2,1.3386565E-2,1.9165874E-4,1.1525463E-2,2.4144476E-2,1.9036666E-2,9.878408E-4,1.8095989E-3,1.7836485E-3,2.2731349E-4,2.3983791E-4,1.9182265E-4,4.5378506E-4,4.3979287E-4,9.2758983E-4,2.593875E-3,1.7889384E-3,6.1204568E-2,7.708179E-3,7.6912437E-3,0E0,0E0,1.2992692E-5,6.508969E-3,3.117155E-3,9.342242E-3,3.390068E-2,3.1856954E-2,7.244424E-5,9.346269E-4,3.0828163E-4,1.3564406E-3,1.151978E-3,5.1064475E-4,2.6359502E-4,4.3287873E-5,2.6924536E-6,2.3713335E-5,8.628704E-6,1.92523E-5,8.517131E-5,1.0087527E-4,2.8039888E-4,4.7390908E-4,1.3458733E-3,9.5251296E-4,1.332052E-4,2.0839572E-3,0E0,0E0,0E0,0E0,0E0,0E0,0E0,0E0,0E0,0E0,0E0,0E0,0E0,0E0,0E0,0E0,0E0,0E0,0E0,0E0,0E0,0E0,0E0,0E0,0E0,0E0,0E0,0E0,0E0,0E0,0E0,0E0,0E0,0E0,0E0,0E0,0E0,0E0,0E0,0E0,0E0,0E0,0E0,0E0,0E0,0E0,0E0,0E0,0E0,0E0,0E0,0E0,0E0,0E0,0E0,0E0,0E0,0E0,0E0,0E0],"parents":[2147483647,0,0,1,1,2,2,3,3,4,4,5,5,6,6,7,7,8,8,9,9,10,10,11,11,12,12,13,13,14,14,15,15,16,16,17,17,18,18,19,19,20,20,21,21,22,22,23,23,24,24,25,25,26,26,27,27,28,28,29,29,30,30,31,31,32,32,33,33,34,34,37,37,38,38,39,39,40,40,41,41,42,42,43,43,44,44,45,45,46,46,47,47,48,48,49,49,50,50,51,51,52,52,53,53,54,54,55,55,56,56,57,57,58,58,59,59,60,60,61,61,62,62],"right_children":[2,4,6,8,10,12,14,16,18,20,22,24,26,28,30,32,34,36,38,40,42,44,46,48,50,52,54,56,58,60,62,64,66,68,70,-1,-1,72,74,76,78,80,82,84,86,88,90,92,94,96,98,100,102,104,106,108,110,112,114,116,118,120,122,-1,-1,-1,-1,-1,-1,-1,-1,-1,-1,-1,-1,-1,-1,-1,-1,-1,-1,-1,-1,-1,-1,-1,-1,-1,-1,-1,-1,-1,-1,-1,-1,-1,-1,-1,-1,-1,-1,-1,-1,-1,-1,-1,-1,-1,-1,-1,-1,-1,-1,-1,-1,-1,-1,-1,-1,-1,-1,-1,-1],"split_conditions":[1.1064945E-1,-7.121466E-2,1.9720183E-1,-5.0000012E-2,5.291382E-2,1.507307E-1,2.8857687E-1,-6.0000002E-2,-1.2826677E-1,-1.0571443E-1,7.9336554E-2,1.2754993E-1,1.7369255E-1,2.3662682E-1,3.9010528E-1,1.1064945E-1,1.09072246E-1,-2.9075456E-1,1.0884261E-1,1.9792967E-2,-6.0000002E-2,8.144928E-3,9.043896E-2,7.138843E-2,1.3883898E-1,1.6033362E-1,1.8297613E-1,2.2114158E-1,-1.3974942E-1,-4.0672764E-2,-8.080026E-2,8.285379E-2,-1.9548515E-2,1.5490925E-1,1.304102E-1,8.029761E-3,2.8805042E-2,1.8117798E-2,1.8672058E-1,-2.879322E-2,-1.10000014E-1,-4.8338123E-2,1.9873254E-2,7.665993E-3,6.846962E-2,-2.3172887E-2,-3.505869E-2,-5.0000012E-2,1.1982184E-1,1.3014905E-1,1.4441422E-1,1.5508543E-1,1.6581468E-1,3.0117568E-2,-1.1414458E-1,2.0997965E-1,1.5183249E-1,7.866723E-2,6.0677927E-2,3.034993E-1,1.0974953E-1,1.1752732E-1,2.1000001E-1,-7.0432865E-4,2.8365015E-4,-1.5147927E-3,4.834271E-3,-2.900692E-4,4.181512E-3,8.873689E-3,1.9859055E-3,3.4900848E-5,5.851659E-4,5.67698E-3,1.30837E-2,-1.8202626E-3,3.499816E-3,2.003651E-3,5.8632274E-3,1.3966415E-3,-9.57844E-4,-2.267389E-3,-1.0615725E-3,3.8550442E-4,-4.2842417E-5,-6.3926E-4,-4.3088192E-4,-2.173653E-4,2.4640714E-4,6.876791E-5,6.8527495E-4,5.987899E-4,1.240942E-3,1.3164185E-4,4.4855967E-4,9.113892E-4,6.1209453E-4,7.77269E-4,8.813385E-4,9.764459E-4,1.0426061E-3,1.1469943E-3,1.2583918E-3,1.2446679E-3,1.4166684E-3,1.7744525E-3,1.5843747E-3,1.837778E-3,2.0351617E-3,2.2359265E-3,2.9586013E-3,3.237676E-3,1.9528744E-3,2.2790194E-3,2.8295456E-3,3.3709574E-3,1.0286574E-3,2.2618123E-3,4.5509976E-3,9.218766E-3,5.693767E-3,4.20062E-3,8.8174855E-3],"split_indices":[12,4,12,33,12,12,12,33,4,8,12,12,12,12,14,12,24,6,12,26,33,34,12,10,12,12,12,12,4,16,20,12,0,10,26,0,0,34,26,20,9,4,12,34,12,4,4,35,12,12,12,12,12,34,4,12,10,34,34,12,34,34,17,0,0,0,0,0,0,0,0,0,0,0,0,0,0,0,0,0,0,0,0,0,0,0,0,0,0,0,0,0,0,0,0,0,0,0,0,0,0,0,0,0,0,0,0,0,0,0,0,0,0,0,0,0,0,0,0,0,0,0,0],"split_type":[0,0,0,0,0,0,0,0,0,0,0,0,0,0,0,0,0,0,0,0,0,0,0,0,0,0,0,0,0,0,0,0,0,0,0,0,0,0,0,0,0,0,0,0,0,0,0,0,0,0,0,0,0,0,0,0,0,0,0,0,0,0,0,0,0,0,0,0,0,0,0,0,0,0,0,0,0,0,0,0,0,0,0,0,0,0,0,0,0,0,0,0,0,0,0,0,0,0,0,0,0,0,0,0,0,0,0,0,0,0,0,0,0,0,0,0,0,0,0,0,0,0,0],"sum_hessian":[4.9492E4,3.5603E4,1.3889E4,5.859E3,2.9744E4,1.0493E4,3.396E3,5.787E3,7.2E1,1.561E4,1.4134E4,6.598E3,3.895E3,2.876E3,5.2E2,1.64E3,4.147E3,9E0,6.3E1,3.44E2,1.5266E4,8.485E3,5.649E3,3.217E3,3.381E3,2.363E3,1.532E3,1.688E3,1.188E3,1.81E2,3.39E2,6.92E2,9.48E2,4.062E3,8.5E1,1E0,8E0,1.5E1,4.8E1,1.16E2,2.28E2,4.101E3,1.1165E4,1.48E2,8.337E3,2.707E3,2.942E3,1.372E3,1.845E3,1.69E3,1.691E3,1.182E3,1.181E3,6.8E2,8.52E2,1.185E3,5.03E2,3.07E2,8.81E2,9.4E1,8.7E1,2.1E1,3.18E2,2.69E2,4.23E2,1.65E2,7.83E2,4.028E3,3.4E1,1.8E1,6.7E1,7E0,8E0,2.2E1,2.6E1,1.06E2,1E1,1.13E2,1.15E2,6.54E2,3.447E3,2.559E3,8.606E3,9E1,5.8E1,5.25E3,3.087E3,2.572E3,1.35E2,2.576E3,3.66E2,1.039E3,3.33E2,8.45E2,1E3,3.36E2,1.354E3,8.46E2,8.45E2,5.1E2,6.72E2,5.09E2,6.72E2,1.08E2,5.72E2,1.44E2,7.08E2,6.69E2,5.16E2,4.75E2,2.8E1,2.85E2,2.2E1,2.18E2,6.63E2,5.6E1,3.8E1,2.7E1,6E1,1.1E1,1E1,3.09E2,9E0],"tree_param":{"num_deleted":"0","num_feature":"36","num_nodes":"123","size_leaf_vector":"1"}},{"base_weights":[1.2737396E-5,-1.1967925E-3,2.961039E-3,1.9068219E-2,-1.2825754E-3,1.9113353E-3,5.9529846E-3,-1.0443948E-2,2.4582008E-2,1.7535798E-2,-1.3538817E-3,1.3969841E-3,2.8050463E-3,4.9940287E-3,8.477046E-3,9.625921E-3,-1.7668677E-2,2.2392454E-2,2.1795847E-2,4.92231E-2,1.1097453E-2,-7.055482E-4,-2.736222E-3,1.7932091E-3,1.1455035E-3,2.409026E-3,3.2352728E-3,4.3980144E-3,5.758345E-3,7.545912E-3,1.0191204E-2,6.8256813E-3,-1.7720724E-3,-2.597725E-2,-6.4737457E-3,1.9375121E-2,1.6184201E-2,3.7538078E-2,2.0669956E-2,7.94532E-3,1.52064E-2,-1.2951465E-3,7.33085E-4,-7.467804E-3,-2.2917995E-3,1.4185816E-3,2.5336253E-3,5.289241E-4,1.683517E-3,2.2922487E-3,2.6397079E-3,2.9934694E-3,3.5205442E-3,4.0948E-3,4.6356916E-3,5.511383E-3,6.350971E-3,3.7304126E-3,7.360745E-3,9.342856E-3,1.691245E-2,-2.241969E-3,-8.900731E-3,1.0258657E-3,-3.597096E-3,1.267325E-2,4.274614E-3,2.1965103E-3,1.1719317E-2,3.2986829E-3,-3.2658302E-3,-5.7530974E-4,-5.3604042E-5,9.858367E-4,-2.1010348E-4,-3.0427002E-3,-1.1637438E-3,-9.915109E-4,-5.2215345E-4,2.222148E-4,4.9391756E-4,1.282247E-3,4.295582E-4,-1.384637E-4,2.4873437E-4,3.849791E-4,5.5742596E-4,6.380723E-4,7.035814E-4,8.7932585E-4,7.692877E-4,7.7571115E-4,9.123545E-4,1.0340392E-3,1.2738948E-3,1.1767511E-3,1.3584185E-3,1.3483575E-3,1.5093192E-3,1.2678512E-3,1.6818333E-3,2.3916936E-3,1.7667259E-3,2.6897716E-3,2.0948134E-3,2.298904E-3,3.9097117E-3,4.000579E-3,5.6463396E-3],"categories":[],"categories_nodes":[],"categories_segments":[],"categories_sizes":[],"default_left":[1,0,0,0,0,0,0,0,0,0,1,0,0,0,0,0,0,0,0,0,1,1,1,0,0,0,0,0,0,0,1,0,0,0,1,0,0,0,0,0,0,1,0,0,0,0,0,0,0,0,0,0,0,0,1,0,0,0,0,0,0,0,0,0,0,0,0,0,0,0,0,0,0,0,0,0,0,0,0,0,0,0,0,0,0,0,0,0,0,0,0,0,0,0,0,0,0,0,0,0,0,0,0,0,0,0,0,0,0],"id":9,"left_children":[1,3,5,7,9,11,13,15,17,19,21,23,25,27,29,31,33,35,-1,37,39,41,43,45,47,49,51,53,55,57,59,-1,-1,61,63,65,-1,67,-1,69,-1,71,73,75,77,79,81,83,85,87,89,91,93,95,97,99,101,-1,103,105,107,-1,-1,-1,-1,-1,-1,-1,-1,-1,-1,-1,-1,-1,-1,-1,-1,-1,-1,-1,-1,-1,-1,-1,-1,-1,-1,-1,-1,-1,-1,-1,-1,-1,-1,-1,-1,-1,-1,-1,-1,-1,-1,-1,-1,-1,-1,-1,-1],"loss_changes":[1.7649852E-1,6.1035E-2,4.52078E-2,2.4339877E-2,4.6920706E-2,4.896283E-3,9.007782E-3,3.650062E-3,1.1529826E-2,2.6383568E-2,3.1202562E-2,6.7233015E-4,6.5549277E-4,1.210101E-3,1.5638918E-3,1.561621E-3,1.5060799E-3,1.0475364E-2,0E0,2.4719462E-3,1.3449476E-2,2.0106204E-2,2.3357853E-2,7.248055E-4,1.3734591E-3,4.8660673E-5,1.1796877E-4,9.113923E-5,1.3843179E-4,5.149804E-4,1.8889941E-3,0E0,0E0,4.6141725E-4,5.3219555E-4,1.2528513E-2,0E0,4.5189448E-4,0E0,6.0935915E-3,0E0,1.1685684E-2,2.5220606E-2,9.117126E-3,5.6711547E-3,2.68406E-4,1.6833348E-3,5.748233E-4,1.5217252E-4,6.8992376E-6,7.338356E-6,1.1883676E-5,3.0805357E-5,3.2999553E-5,2.477318E-5,7.905811E-5,2.091648E-4,0E0,3.306046E-4,1.8896274E-3,1.529511E-5,0E0,0E0,0E0,0E0,0E0,0E0,0E0,0E0,0E0,0E0,0E0,0E0,0E0,0E0,0E0,0E0,0E0,0E0,0E0,0E0,0E0,0E0,0E0,0E0,0E0,0E0,0E0,0E0,0E0,0E0,0E0,0E0,0E0,0E0,0E0,0E0,0E0,0E0,0E0,0E0,0E0,0E0,0E0,0E0,0E0,0E0,0E0,0E0],"parents":[2147483647,0,0,1,1,2,2,3,3,4,4,5,5,6,6,7,7,8,8,9,9,10,10,11,11,12,12,13,13,14,14,15,15,16,16,17,17,19,19,20,20,21,21,22,22,23,23,24,24,25,25,26,26,27,27,28,28,29,29,30,30,33,33,34,34,35,35,37,37,39,39,41,41,42,42,43,43,44,44,45,45,46,46,47,47,48,48,49,49,50,50,51,51,52,52,53,53,54,54,55,55,56,56,58,58,59,59,60,60],"right_children":[2,4,6,8,10,12,14,16,18,20,22,24,26,28,30,32,34,36,-1,38,40,42,44,46,48,50,52,54,56,58,60,-1,-1,62,64,66,-1,68,-1,70,-1,72,74,76,78,80,82,84,86,88,90,92,94,96,98,100,102,-1,104,106,108,-1,-1,-1,-1,-1,-1,-1,-1,-1,-1,-1,-1,-1,-1,-1,-1,-1,-1,-1,-1,-1,-1,-1,-1,-1,-1,-1,-1,-1,-1,-1,-1,-1,-1,-1,-1,-1,-1,-1,-1,-1,-1,-1,-1,-1,-1,-1,-1],"split_conditions":[1.082276E-1,-1.4474806E-1,1.920014E-1,7.700367E-2,-2.4947631E-1,1.482882E-1,2.610257E-1,7.494657E-2,-5.0000012E-2,-1.999998E-2,-5.032311E-2,7.138843E-2,1.6581468E-1,2.2114158E-1,3.034993E-1,-1.8133764E-1,4.1552138E-2,4.137311E-2,2.1795847E-2,3.5879843E-2,1.9860923E-1,2.4287207E-2,1.8276049E-2,-6.0000002E-2,1.2569462E-1,1.5891667E-1,1.7741196E-1,2.0330192E-1,2.4927275E-1,-3.1887323E-2,-3.6600526E-2,6.8256813E-3,-1.7720724E-3,7.331097E-2,3.817406E-2,7.60543E-2,1.6184201E-2,-7.000002E-2,2.0669956E-2,1.999998E-2,1.52064E-2,7.1773075E-2,-6.0000002E-2,2.8791523E-2,3.533203E-2,1.1452209E-1,1.1903027E-1,-6.999999E-2,1.3175128E-1,1.507307E-1,7.355297E-2,1.0411257E-1,1.4937648E-1,6.999999E-2,2.597475E-1,6.5965585E-2,-6.999999E-2,3.7304126E-3,-3.554066E-2,-3.0000001E-2,-6.999999E-2,-2.241969E-3,-8.900731E-3,1.0258657E-3,-3.597096E-3,1.267325E-2,4.274614E-3,2.1965103E-3,1.1719317E-2,3.2986829E-3,-3.2658302E-3,-5.7530974E-4,-5.3604042E-5,9.858367E-4,-2.1010348E-4,-3.0427002E-3,-1.1637438E-3,-9.915109E-4,-5.2215345E-4,2.222148E-4,4.9391756E-4,1.282247E-3,4.295582E-4,-1.384637E-4,2.4873437E-4,3.849791E-4,5.5742596E-4,6.380723E-4,7.035814E-4,8.7932585E-4,7.692877E-4,7.7571115E-4,9.123545E-4,1.0340392E-3,1.2738948E-3,1.1767511E-3,1.3584185E-3,1.3483575E-3,1.5093192E-3,1.2678512E-3,1.6818333E-3,2.3916936E-3,1.7667259E-3,2.6897716E-3,2.0948134E-3,2.298904E-3,3.9097117E-3,4.000579E-3,5.6463396E-3],"split_indices":[12,4,12,24,8,12,12,10,33,11,6,10,12,12,12,6,26,30,0,30,26,34,12,35,12,12,12,12,12,0,16,0,0,22,34,10,0,7,0,11,0,12,33,24,12,12,12,35,12,12,10,14,10,13,14,22,13,0,28,13,13,0,0,0,0,0,0,0,0,0,0,0,0,0,0,0,0,0,0,0,0,0,0,0,0,0,0,0,0,0,0,0,0,0,0,0,0,0,0,0,0,0,0,0,0,0,0,0,0],"split_type":[0,0,0,0,0,0,0,0,0,0,0,0,0,0,0,0,0,0,0,0,0,0,0,0,0,0,0,0,0,0,0,0,0,0,0,0,0,0,0,0,0,0,0,0,0,0,0,0,0,0,0,0,0,0,0,0,0,0,0,0,0,0,0,0,0,0,0,0,0,0,0,0,0,0,0,0,0,0,0,0,0,0,0,0,0,0,0,0,0,0,0,0,0,0,0,0,0,0,0,0,0,0,0,0,0,0,0,0,0],"sum_hessian":[4.9492E4,3.5095E4,1.4397E4,1.47E2,3.4948E4,1.0659E4,3.738E3,2.3E1,1.24E2,1.31E2,3.4817E4,6.767E3,3.892E3,2.711E3,1.027E3,6E0,1.7E1,1.2E2,4E0,2.1E1,1.1E2,2.3702E4,1.1115E4,2.625E3,4.142E3,2.03E3,1.862E3,1.527E3,1.184E3,6.69E2,3.58E2,3E0,3E0,9E0,8E0,1.11E2,9E0,1.5E1,6E0,1.03E2,7E0,1.6812E4,6.89E3,9.53E2,1.0162E4,1.745E3,8.8E2,1.931E3,2.211E3,1.355E3,6.75E2,1.014E3,8.48E2,6.79E2,8.48E2,8.43E2,3.41E2,2.2E1,6.47E2,3.2E2,3.8E1,2E0,7E0,3E0,5E0,1.9E1,9.2E1,1E0,1.4E1,8.9E1,1.4E1,1.0793E4,6.019E3,2.477E3,4.413E3,5.45E2,4.08E2,3.579E3,6.583E3,4.4E2,1.305E3,3.4E2,5.4E2,4.49E2,1.482E3,6.74E2,1.537E3,3.39E2,1.016E3,1.31E2,5.44E2,1.12E2,9.02E2,7.75E2,7.3E1,4.93E2,1.86E2,6.34E2,2.14E2,6.1E1,7.82E2,7.2E1,2.69E2,1.19E2,5.28E2,2.22E2,9.8E1,1.6E1,2.2E1],"tree_param":{"num_deleted":"0","num_feature":"36","num_nodes":"109","size_leaf_vector":"1"}},{"base_weights":[1.1702648E-5,-8.681924E-4,2.0170277E-3,-1.2745473E-3,1.3438985E-3,8.098278E-4,3.8471117E-3,-1.2908841E-3,2.3765596E-2,1.2053652E-3,3.92016E-3,-1.0487595E-4,1.437625E-3,-6.103885E-3,4.2502834E-3,-6.6107843E-4,-1.8363171E-3,-9.169355E-3,3.0513985E-2,-2.621604E-3,1.2509656E-3,3.1862187E-3,5.8408915E-3,-5.803779E-4,1.7395358E-4,1.1119192E-3,1.8850347E-3,-1.0449802E-2,4.2272587E-3,4.466192E-3,-8.153978E-3,1.4245651E-3,-1.128598E-3,-3.7546472E-3,-1.3074547E-3,5.0224164E-3,-7.01602E-3,3.6943074E-2,1.990946E-3,-3.0533285E-3,-2.954958E-4,1.129684E-3,1.8736965E-3,2.396811E-3,3.5259738E-3,3.1913684E-3,6.635535E-3,-1.7787302E-3,-5.1637576E-4,2.201232E-3,-3.712266E-4,8.498946E-4,1.3217439E-3,1.7716308E-3,2.2275464E-3,1.4140487E-3,-1.3204976E-2,-2.1657014E-2,6.5515414E-3,4.244805E-3,1.2365439E-2,3.7933814E-3,-1.7780835E-2,-2.941746E-4,2.4055021E-3,-3.8073966E-4,1.4854915E-3,-1.2507613E-3,1.6423247E-3,-5.5253337E-4,-2.4310808E-4,3.4139012E-3,1.30422395E-2,-2.0153225E-4,9.307333E-4,-1.0174356E-3,-6.960481E-4,4.3072857E-4,2.4787904E-4,4.929584E-4,6.653804E-4,1.0098839E-3,6.518684E-4,4.2989553E-4,1.1146311E-3,4.89408E-4,1.329672E-3,2.6091964E-3,1.7814809E-3,-1.128338E-3,-2.3123281E-4,1.7406196E-4,-1.6494846E-4,1.9380603E-4,9.1491593E-4,-4.1960267E-4,1.823823E-5,3.0618472E-4,-3.7690168E-6,3.7440276E-4,4.2894346E-4,5.001074E-4,5.7409104E-4,6.813153E-4,4.9942563E-4,1.5933103E-3,-4.9074185E-3,3.4105257E-4,-4.4662985E-3,6.5720384E-4,-1.023856E-2,-2.882579E-3,2.3306224E-3,-1.1092122E-2,1.2844295E-3,2.4625477E-3,1.1080203E-2,1.3945429E-3,4.703771E-4,1.5381151E-2,-6.4061745E-3],"categories":[],"categories_nodes":[],"categories_segments":[],"categories_sizes":[],"default_left":[0,1,0,1,0,0,0,0,0,0,0,0,0,0,0,0,1,0,0,0,0,0,0,0,0,0,0,1,0,0,0,0,1,0,0,0,0,0,0,0,0,0,0,0,0,0,0,0,0,0,0,0,0,0,0,0,1,0,0,0,0,1,0,0,0,0,0,0,0,0,0,0,0,0,0,0,0,0,0,0,0,0,0,0,0,0,0,0,0,0,0,0,0,0,0,0,0,0,0,0,0,0,0,0,0,0,0,0,0,0,0,0,0,0,0,0,0,0,0,0,0],"id":10,"left_children":[1,3,5,7,9,11,13,15,17,19,21,23,25,27,29,31,33,35,37,39,41,43,45,47,49,51,53,55,57,59,61,63,65,67,69,-1,-1,71,73,75,-1,77,79,81,83,85,87,89,91,93,95,97,99,101,103,105,107,109,111,113,115,117,119,-1,-1,-1,-1,-1,-1,-1,-1,-1,-1,-1,-1,-1,-1,-1,-1,-1,-1,-1,-1,-1,-1,-1,-1,-1,-1,-1,-1,-1,-1,-1,-1,-1,-1,-1,-1,-1,-1,-1,-1,-1,-1,-1,-1,-1,-1,-1,-1,-1,-1,-1,-1,-1,-1,-1,-1,-1,-1],"loss_changes":[8.7330945E-2,3.0923665E-2,3.3343714E-2,1.1919294E-2,1.900753E-3,5.223515E-3,2.4093673E-2,9.975884E-3,4.5026923E-3,8.877041E-4,3.6482932E-4,4.910594E-4,7.839389E-4,1.0550374E-2,1.5478864E-2,1.3146648E-2,1.578528E-2,1.8650575E-3,2.8604828E-3,3.9386563E-5,3.7619285E-4,4.4921646E-5,1.34625E-4,1.0407975E-4,2.581534E-3,1.7063227E-4,8.426327E-5,5.4120235E-3,4.3532527E-3,9.859659E-3,1.1453988E-2,3.916373E-2,9.4166845E-3,1.2889579E-2,3.2394696E-3,0E0,0E0,1.6757045E-3,1.3922576E-5,3.782654E-6,0E0,3.8840482E-4,6.1023748E-5,6.361457E-6,4.900247E-5,2.954906E-5,2.8859358E-5,1.349744E-4,4.8043934E-5,6.5122126E-4,8.1726676E-4,2.049706E-4,1.2024539E-5,2.2226479E-5,9.954674E-6,2.303123E-3,3.2507163E-3,1.8592661E-3,1.353204E-3,8.484215E-3,1.5424885E-2,7.834553E-5,1.4664745E-2,0E0,0E0,0E0,0E0,0E0,0E0,0E0,0E0,0E0,0E0,0E0,0E0,0E0,0E0,0E0,0E0,0E0,0E0,0E0,0E0,0E0,0E0,0E0,0E0,0E0,0E0,0E0,0E0,0E0,0E0,0E0,0E0,0E0,0E0,0E0,0E0,0E0,0E0,0E0,0E0,0E0,0E0,0E0,0E0,0E0,0E0,0E0,0E0,0E0,0E0,0E0,0E0,0E0,0E0,0E0,0E0,0E0,0E0],"parents":[2147483647,0,0,1,1,2,2,3,3,4,4,5,5,6,6,7,7,8,8,9,9,10,10,11,11,12,12,13,13,14,14,15,15,16,16,17,17,18,18,19,19,20,20,21,21,22,22,23,23,24,24,25,25,26,26,27,27,28,28,29,29,30,30,31,31,32,32,33,33,34,34,37,37,38,38,39,39,41,41,42,42,43,43,44,44,45,45,46,46,47,47,48,48,49,49,50,50,51,51,52,52,53,53,54,54,55,55,56,56,57,57,58,58,59,59,60,60,61,61,62,62],"right_children":[2,4,6,8,10,12,14,16,18,20,22,24,26,28,30,32,34,36,38,40,42,44,46,48,50,52,54,56,58,60,62,64,66,68,70,-1,-1,72,74,76,-1,78,80,82,84,86,88,90,92,94,96,98,100,102,104,106,108,110,112,114,116,118,120,-1,-1,-1,-1,-1,-1,-1,-1,-1,-1,-1,-1,-1,-1,-1,-1,-1,-1,-1,-1,-1,-1,-1,-1,-1,-1,-1,-1,-1,-1,-1,-1,-1,-1,-1,-1,-1,-1,-1,-1,-1,-1,-1,-1,-1,-1,-1,-1,-1,-1,-1,-1,-1,-1,-1,-1,-1,-1],"split_conditions":[7.26449E-2,9.668305E-2,1.7989884E-1,1.1508839E-1,1.8891606E-1,1.1982184E-1,3.9000002E-1,-3.88322E-2,-9.6200086E-2,3.0687038E-2,2.3034322E-1,9.4059214E-2,1.507307E-1,1.3968873E-1,1.999998E-2,-6.999999E-2,2.6052976E-2,-1.4474806E-1,6.913582E-2,-4.327803E-2,1.4547126E-1,-5.0000012E-2,-3.554066E-2,-2.5106382E-2,9.9637724E-2,1.3175128E-1,1.717114E-1,8.9999974E-2,-5.9999973E-2,1.6972716E-1,2.8857687E-1,9.668305E-2,-5.0000012E-2,-5.0000012E-2,4.7856994E-2,5.0224164E-3,-7.01602E-3,1.4723459E-1,-1.4213091E-1,1.4275521E-2,-2.954958E-4,5.8806185E-2,1.6033362E-1,-1.999998E-2,-1.3974942E-1,-6.999999E-2,-3.1887323E-2,2.696731E-2,7.3205315E-2,9.607043E-2,1.0639238E-1,1.1998826E-1,1.4277698E-1,1.6262165E-1,1.4638092E-1,8.700608E-2,1.8226659E-2,1.8891606E-1,-7.488201E-2,-2.0000002E-1,8.033401E-1,-5.0000012E-2,-1.3974942E-1,-2.941746E-4,2.4055021E-3,-3.8073966E-4,1.4854915E-3,-1.2507613E-3,1.6423247E-3,-5.5253337E-4,-2.4310808E-4,3.4139012E-3,1.30422395E-2,-2.0153225E-4,9.307333E-4,-1.0174356E-3,-6.960481E-4,4.3072857E-4,2.4787904E-4,4.929584E-4,6.653804E-4,1.0098839E-3,6.518684E-4,4.2989553E-4,1.1146311E-3,4.89408E-4,1.329672E-3,2.6091964E-3,1.7814809E-3,-1.128338E-3,-2.3123281E-4,1.7406196E-4,-1.6494846E-4,1.9380603E-4,9.1491593E-4,-4.1960267E-4,1.823823E-5,3.0618472E-4,-3.7690168E-6,3.7440276E-4,4.2894346E-4,5.001074E-4,5.7409104E-4,6.813153E-4,4.9942563E-4,1.5933103E-3,-4.9074185E-3,3.4105257E-4,-4.4662985E-3,6.5720384E-4,-1.023856E-2,-2.882579E-3,2.3306224E-3,-1.1092122E-2,1.2844295E-3,2.4625477E-3,1.1080203E-2,1.3945429E-3,4.703771E-4,1.5381151E-2,-6.4061745E-3],"split_indices":[10,12,12,24,12,12,27,4,16,10,12,12,12,26,11,33,12,4,10,4,12,7,28,28,12,12,12,7,35,10,12,12,33,1,12,0,0,26,4,34,0,10,12,11,4,1,0,34,12,12,12,10,12,12,10,22,30,12,16,9,12,7,4,0,0,0,0,0,0,0,0,0,0,0,0,0,0,0,0,0,0,0,0,0,0,0,0,0,0,0,0,0,0,0,0,0,0,0,0,0,0,0,0,0,0,0,0,0,0,0,0,0,0,0,0,0,0,0,0,0,0],"split_type":[0,0,0,0,0,0,0,0,0,0,0,0,0,0,0,0,0,0,0,0,0,0,0,0,0,0,0,0,0,0,0,0,0,0,0,0,0,0,0,0,0,0,0,0,0,0,0,0,0,0,0,0,0,0,0,0,0,0,0,0,0,0,0,0,0,0,0,0,0,0,0,0,0,0,0,0,0,0,0,0,0,0,0,0,0,0,0,0,0,0,0,0,0,0,0,0,0,0,0,0,0,0,0,0,0,0,0,0,0,0,0,0,0,0,0,0,0,0,0,0,0],"sum_hessian":[4.9492E4,3.4399E4,1.5093E4,2.9061E4,5.338E3,9.095E3,5.998E3,2.9043E4,1.8E1,5.067E3,2.71E2,3.702E3,5.393E3,2.33E2,5.765E3,1.348E4,1.5563E4,3E0,1.5E1,5.9E1,5.008E3,1.98E2,7.3E1,1.368E3,2.334E3,3.123E3,2.27E3,1.64E2,6.9E1,5.667E3,9.8E1,2.468E3,1.1012E4,3.362E3,1.2201E4,1E0,2E0,1.2E1,3E0,4.6E1,1.3E1,4.194E3,8.14E2,6.2E1,1.36E2,1.8E1,5.5E1,6.8E1,1.3E3,4.94E2,1.84E3,1.391E3,1.732E3,1.71E3,5.6E2,3.1E1,1.33E2,5E0,6.4E1,5.514E3,1.53E2,4.4E1,5.4E1,1.809E3,6.59E2,1.0764E4,2.48E2,3.218E3,1.44E2,5.879E3,6.322E3,3E0,9E0,1E0,2E0,2.9E1,1.7E1,2.086E3,2.108E3,4.91E2,3.23E2,9E0,5.3E1,1.2E1,1.24E2,9E0,9E0,1.1E1,4.4E1,2.2E1,4.6E1,3.8E1,1.262E3,1.75E2,3.19E2,5.44E2,1.296E3,1.161E3,2.3E2,1.037E3,6.95E2,9.92E2,7.18E2,5.17E2,4.3E1,2.6E1,5E0,1.4E1,1.19E2,2E0,3E0,4E0,6E1,4E0,5.51E3,1.32E2,2.1E1,3.1E1,1.3E1,2E0,5.2E1],"tree_param":{"num_deleted":"0","num_feature":"36","num_nodes":"121","size_leaf_vector":"1"}},{"base_weights":[8.7359995E-6,1.1984213E-3,-7.4200693E-4,5.5563485E-4,3.0386213E-3,-1.1564107E-3,3.6779692E-4,-4.2988342E-4,9.645828E-4,-8.044585E-3,3.7467235E-3,1.7249865E-2,-1.1788771E-3,4.623595E-5,1.1718844E-3,-1.1597485E-3,-1.8301708E-4,6.5242336E-4,1.3496659E-3,-7.130541E-3,-1.0980982E-2,-3.2889806E-2,3.895872E-3,2.811802E-3,1.0518938E-2,-1.1873852E-3,3.0304609E-2,-2.3412655E-4,2.9584172E-4,1.0108392E-3,3.6957504E-3,-6.3682464E-3,-1.0680455E-3,3.368458E-5,-4.2447387E-4,1.8207832E-3,5.570035E-4,1.2624455E-3,1.6563478E-3,-9.777102E-3,1.6534822E-3,-1.4512373E-2,-1.9825807E-2,-1.29665565E-2,4.04156E-3,2.4468208E-2,-2.0296995E-3,-1.279143E-3,1.5984472E-3,1.1966417E-2,2.2275434E-3,-2.905086E-4,6.837984E-4,6.7531195E-4,-2.0320658E-4,8.370567E-4,1.5735296E-3,1.7291055E-3,4.257251E-3,-2.5696647E-3,-1.257383E-3,-5.687522E-4,-2.7468926E-4,-1.0777972E-5,5.702449E-4,-5.6738866E-4,-1.1654317E-4,-6.1113934E-4,5.760999E-4,-1.6607184E-5,2.1719499E-4,3.2036813E-4,4.031101E-4,4.5514357E-4,6.661217E-4,1.03376545E-2,-3.1000047E-3,-2.2502649E-3,1.606864E-3,3.8350004E-4,-6.5581733E-3,3.790664E-4,-5.9594675E-3,1.4735855E-3,2.749831E-4,8.853427E-3,2.1572672E-3,1.6626226E-3,-2.055608E-3,-5.999694E-4,-2.6576206E-4,-3.2352563E-4,2.5625848E-3,-3.9260718E-5,-1.5244386E-4,2.8603597E-4,-1.7294213E-4,-1.5727714E-4,3.2888766E-4,1.4546586E-4,-2.3076413E-4,5.5195263E-4,2.4164331E-4,5.120034E-4,3.4639845E-4,7.8028144E-4,3.8813875E-4,5.0633476E-4,1.3585315E-3],"categories":[],"categories_nodes":[],"categories_segments":[],"categories_sizes":[],"default_left":[0,0,1,0,0,0,0,0,0,0,0,0,1,0,0,0,0,0,0,0,0,0,0,0,0,0,0,1,0,0,0,0,0,0,0,0,0,0,0,0,0,0,0,1,1,0,0,1,0,0,0,1,0,0,0,0,1,0,0,0,0,0,0,0,0,0,0,0,0,0,0,0,0,0,0,0,0,0,0,0,0,0,0,0,0,0,0,0,0,0,0,0,0,0,0,0,0,0,0,0,0,0,0,0,0,0,0,0,0],"id":11,"left_children":[1,3,5,7,9,11,13,15,17,19,21,23,25,27,29,31,33,35,37,39,-1,41,43,45,-1,47,49,51,53,55,57,59,61,63,65,67,69,71,73,75,77,-1,79,81,83,85,87,89,91,-1,-1,93,95,97,99,101,103,105,107,-1,-1,-1,-1,-1,-1,-1,-1,-1,-1,-1,-1,-1,-1,-1,-1,-1,-1,-1,-1,-1,-1,-1,-1,-1,-1,-1,-1,-1,-1,-1,-1,-1,-1,-1,-1,-1,-1,-1,-1,-1,-1,-1,-1,-1,-1,-1,-1,-1,-1],"loss_changes":[4.4205457E-2,2.2648817E-2,1.3956299E-2,5.720558E-3,3.8932893E-2,9.15716E-3,2.1333504E-3,7.498734E-4,1.20492E-3,7.517958E-3,2.5591694E-2,6.8455115E-3,5.947465E-3,4.1260195E-4,9.5428224E-4,4.9567095E-4,1.6284687E-4,6.1683403E-4,1.1801068E-4,6.757926E-3,0E0,2.8845035E-3,1.1456184E-2,1.7272555E-3,0E0,5.64209E-3,1.0194094E-3,1.4392081E-4,5.907947E-4,2.1547382E-4,1.4834106E-4,5.020172E-5,1.2884813E-4,2.1335429E-4,7.6987926E-5,1.6444665E-4,5.2408094E-4,5.389424E-5,7.444294E-5,5.8432464E-3,2.3451142E-3,0E0,5.4325024E-4,3.951662E-3,1.2515321E-2,4.9186172E-5,5.491644E-4,6.0530193E-3,1.3094334E-2,0E0,0E0,9.0857386E-5,5.5263627E-5,8.954255E-4,5.2537234E-4,5.2225194E-5,2.7142E-5,9.158975E-6,6.830902E-5,0E0,0E0,0E0,0E0,0E0,0E0,0E0,0E0,0E0,0E0,0E0,0E0,0E0,0E0,0E0,0E0,0E0,0E0,0E0,0E0,0E0,0E0,0E0,0E0,0E0,0E0,0E0,0E0,0E0,0E0,0E0,0E0,0E0,0E0,0E0,0E0,0E0,0E0,0E0,0E0,0E0,0E0,0E0,0E0,0E0,0E0,0E0,0E0,0E0,0E0],"parents":[2147483647,0,0,1,1,2,2,3,3,4,4,5,5,6,6,7,7,8,8,9,9,10,10,11,11,12,12,13,13,14,14,15,15,16,16,17,17,18,18,19,19,21,21,22,22,23,23,25,25,26,26,27,27,28,28,29,29,30,30,31,31,32,32,33,33,34,34,35,35,36,36,37,37,38,38,39,39,40,40,42,42,43,43,44,44,45,45,46,46,47,47,48,48,51,51,52,52,53,53,54,54,55,55,56,56,57,57,58,58],"right_children":[2,4,6,8,10,12,14,16,18,20,22,24,26,28,30,32,34,36,38,40,-1,42,44,46,-1,48,50,52,54,56,58,60,62,64,66,68,70,72,74,76,78,-1,80,82,84,86,88,90,92,-1,-1,94,96,98,100,102,104,106,108,-1,-1,-1,-1,-1,-1,-1,-1,-1,-1,-1,-1,-1,-1,-1,-1,-1,-1,-1,-1,-1,-1,-1,-1,-1,-1,-1,-1,-1,-1,-1,-1,-1,-1,-1,-1,-1,-1,-1,-1,-1,-1,-1,-1,-1,-1,-1,-1,-1,-1],"split_conditions":[-6.246229E-2,2.0997965E-1,7.71844E-2,9.465361E-2,2.9000002E-1,-1.4939795E-1,1.20491065E-1,6.577088E-2,1.4441422E-1,1.6999999E-1,-9E-2,-2.7291246E-2,9.056365E-2,9.043896E-2,2.2114158E-1,4.4279013E-2,6.460708E-2,9.9637724E-2,1.8891606E-1,7.886965E-2,-1.0980982E-2,-9.3908414E-2,-9E-2,-2.8736314E-2,1.0518938E-2,-5.0000012E-2,-6.0000002E-2,1.9000003E-1,6.1691336E-2,1.6033362E-1,-6.1154556E-2,-5.9999973E-2,-6.0000002E-2,6.375391E-2,0E0,3.2886397E-2,1.082276E-1,1.5508543E-1,1.5183249E-1,-1.6249295E-1,-7.488201E-2,-1.4512373E-2,-1.9365643E-1,-9.6373886E-2,-6.0000002E-2,-6.160596E-2,-1.8425958E-1,3.5013884E-2,7.654903E-2,1.1966417E-2,2.2275434E-3,2.0173663E-2,4.823556E-2,4.3749653E-2,1.0279934E-1,3.5549738E-2,8.0422536E-2,-6.999999E-2,-6.999999E-2,-2.5696647E-3,-1.257383E-3,-5.687522E-4,-2.7468926E-4,-1.0777972E-5,5.702449E-4,-5.6738866E-4,-1.1654317E-4,-6.1113934E-4,5.760999E-4,-1.6607184E-5,2.1719499E-4,3.2036813E-4,4.031101E-4,4.5514357E-4,6.661217E-4,1.03376545E-2,-3.1000047E-3,-2.2502649E-3,1.606864E-3,3.8350004E-4,-6.5581733E-3,3.790664E-4,-5.9594675E-3,1.4735855E-3,2.749831E-4,8.853427E-3,2.1572672E-3,1.6626226E-3,-2.055608E-3,-5.999694E-4,-2.6576206E-4,-3.2352563E-4,2.5625848E-3,-3.9260718E-5,-1.5244386E-4,2.8603597E-4,-1.7294213E-4,-1.5727714E-4,3.2888766E-4,1.4546586E-4,-2.3076413E-4,5.5195263E-4,2.4164331E-4,5.120034E-4,3.4639845E-4,7.8028144E-4,3.8813875E-4,5.0633476E-4,1.3585315E-3],"split_indices":[4,12,12,12,25,6,12,12,12,17,7,18,34,12,12,12,10,12,12,22,0,4,31,28,0,1,1,9,10,12,4,1,35,10,5,10,12,12,10,6,16,0,6,32,35,4,6,12,12,0,0,34,10,10,12,22,22,1,13,0,0,0,0,0,0,0,0,0,0,0,0,0,0,0,0,0,0,0,0,0,0,0,0,0,0,0,0,0,0,0,0,0,0,0,0,0,0,0,0,0,0,0,0,0,0,0,0,0,0],"split_type":[0,0,0,0,0,0,0,0,0,0,0,0,0,0,0,0,0,0,0,0,0,0,0,0,0,0,0,0,0,0,0,0,0,0,0,0,0,0,0,0,0,0,0,0,0,0,0,0,0,0,0,0,0,0,0,0,0,0,0,0,0,0,0,0,0,0,0,0,0,0,0,0,0,0,0,0,0,0,0,0,0,0,0,0,0,0,0,0,0,0,0,0,0,0,0,0,0,0,0,0,0,0,0,0,0,0,0,0,0],"sum_hessian":[4.9492E4,1.9148E4,3.0344E4,1.4192E4,4.956E3,2.2094E4,8.25E3,4.162E3,1.003E4,2.97E2,4.659E3,2.6E1,2.2068E4,5.894E3,2.356E3,1.051E3,3.111E3,5.541E3,4.489E3,2.89E2,8E0,1.8E1,4.641E3,1.5E1,1.1E1,2.2063E4,5E0,2.776E3,3.118E3,2.216E3,1.4E2,1.7E1,1.034E3,1.64E3,1.471E3,4.17E2,5.124E3,3.499E3,9.9E2,2.22E2,6.7E1,7E0,1.1E1,3.9E1,4.602E3,2E0,1.3E1,2.136E4,7.03E2,3E0,2E0,2.616E3,1.6E2,1.771E3,1.347E3,1.695E3,5.21E2,3.2E1,1.08E2,7E0,1E1,1.59E2,8.75E2,1.582E3,5.8E1,3.4E1,1.437E3,1E1,4.07E2,1.098E3,4.026E3,1.035E3,2.464E3,7.97E2,1.93E2,2E0,2.2E2,1.9E1,4.8E1,1E0,1E1,1.3E1,2.6E1,3.599E3,1.003E3,1E0,1E0,5E0,8E0,7.539E3,1.3821E4,5.08E2,1.95E2,1.51E3,1.106E3,1.32E2,2.8E1,4.6E2,1.311E3,6.08E2,7.39E2,5E1,1.645E3,3.93E2,1.28E2,9E0,2.3E1,1.1E1,9.7E1],"tree_param":{"num_deleted":"0","num_feature":"36","num_nodes":"109","size_leaf_vector":"1"}},{"base_weights":[6.3115212E-6,9.2534814E-4,-4.7515077E-4,4.741003E-4,2.7529688E-3,-1.0254324E-3,1.0539455E-5,-2.9812288E-4,7.2436937E-4,-4.5823986E-3,3.6485153E-3,2.151654E-2,-1.0535257E-3,-2.411299E-4,7.199796E-4,-1.366268E-3,-1.9384136E-4,4.419217E-4,9.372835E-4,-2.500318E-2,-2.7563456E-3,-2.6519408E-2,3.8291498E-3,-1.2457354E-2,4.2372756E-2,-1.1075913E-3,8.04119E-3,1.2079077E-3,-2.67758E-4,6.456177E-4,2.8960952E-3,-9.02657E-4,-2.944296E-3,-7.030878E-4,-7.424367E-5,1.3537982E-3,3.5385005E-4,7.668369E-4,1.0267792E-3,-7.4946987E-3,-3.4745213E-2,-4.575636E-3,1.0911756E-2,1.8293541E-3,-4.4725835E-2,-2.3993717E-3,4.367003E-3,-6.714078E-3,3.0606166E-3,4.685324E-2,-1.0368839E-3,-1.2792955E-3,1.5257227E-3,1.7888753E-2,-2.2038992E-3,1.6168811E-3,5.7687284E-4,-3.9062672E-4,-5.698011E-5,4.919655E-4,1.126751E-3,2.5379658E-4,3.3518178E-3,-2.412474E-4,-4.9450656E-4,-1.2581198E-3,-4.8247867E-4,-3.9384197E-4,-7.289269E-6,-1.4715624E-4,1.473129E-5,2.2900087E-4,6.488488E-4,2.3011758E-4,4.6113633E-5,1.5345248E-4,2.3600273E-4,3.4751184E-4,2.5980998E-4,2.187779E-4,-4.7520604E-3,-1.1715726E-2,-4.462365E-3,-1.1774865E-3,-8.32606E-3,1.0774388E-2,2.3741494E-3,3.8717913E-3,-2.2193429E-3,-5.736887E-3,-1.4487177E-2,-3.3320587E-3,7.005018E-4,1.7502186E-3,4.3465552E-4,1.6056747E-3,-5.72142E-4,1.5587536E-2,4.775962E-3,-3.0059053E-4,-8.350844E-4,1.3775208E-5,2.9711577E-3,2.7487571E-3,7.2746496E-3,8.678412E-5,-1.1161453E-2,8.359138E-4,3.1920557E-4,3.4840617E-4,9.090488E-5,-2.2621472E-4,-3.6424823E-5,-7.179147E-5,9.703832E-5,3.2076723E-6,2.2482818E-4,6.2148477E-4,2.0564247E-4,1.4233589E-4,-9.550197E-5,2.0024753E-3,8.4380346E-4],"categories":[],"categories_nodes":[],"categories_segments":[],"categories_sizes":[],"default_left":[0,0,1,0,0,0,0,0,0,0,0,0,1,0,0,1,0,0,0,0,0,0,0,0,0,1,1,0,0,0,0,0,0,0,0,0,0,0,1,0,0,0,0,0,0,0,0,0,0,0,0,0,1,0,0,0,0,0,0,0,0,0,0,0,0,0,0,0,0,0,0,0,0,0,0,0,0,0,0,0,0,0,0,0,0,0,0,0,0,0,0,0,0,0,0,0,0,0,0,0,0,0,0,0,0,0,0,0,0,0,0,0,0,0,0,0,0,0,0,0,0,0,0],"id":12,"left_children":[1,3,5,7,9,11,13,15,17,19,21,23,25,27,29,31,33,35,37,39,41,43,45,47,49,51,53,55,57,59,61,63,65,67,69,71,73,75,77,79,81,83,85,87,89,91,93,-1,95,97,-1,99,101,103,105,107,109,111,113,115,117,119,121,-1,-1,-1,-1,-1,-1,-1,-1,-1,-1,-1,-1,-1,-1,-1,-1,-1,-1,-1,-1,-1,-1,-1,-1,-1,-1,-1,-1,-1,-1,-1,-1,-1,-1,-1,-1,-1,-1,-1,-1,-1,-1,-1,-1,-1,-1,-1,-1,-1,-1,-1,-1,-1,-1,-1,-1,-1,-1,-1,-1],"loss_changes":[2.1900177E-2,1.4031132E-2,8.680556E-3,2.6376834E-3,2.2148235E-2,9.665621E-3,3.080599E-3,3.718818E-4,6.194189E-4,1.3616301E-2,1.646598E-2,1.3990625E-2,7.4873324E-3,4.917434E-4,7.2923256E-4,2.146248E-4,1.8540263E-4,3.5545707E-4,8.884678E-5,4.8566405E-3,8.454717E-3,9.372153E-3,1.0013666E-2,1.300364E-3,2.625972E-3,6.8384763E-3,9.119449E-3,5.8424892E-5,3.2388425E-4,3.2250746E-4,1.7856853E-4,1.5641534E-5,1.0509777E-4,2.395995E-4,1.2669698E-4,1.846528E-4,3.3423287E-4,9.865151E-6,8.0436E-5,8.351484E-4,1.0452662E-3,4.4004107E-3,2.7140472E-3,9.1312197E-4,8.0490485E-5,9.837376E-3,1.1760291E-2,0E0,5.5744575E-5,9.0996176E-4,0E0,5.9192013E-3,1.1480102E-2,2.330795E-3,3.9376263E-3,8.6908694E-5,1.4373974E-5,7.7291986E-4,3.1963666E-4,4.106278E-4,4.3929205E-4,3.0546853E-6,2.0876073E-4,0E0,0E0,0E0,0E0,0E0,0E0,0E0,0E0,0E0,0E0,0E0,0E0,0E0,0E0,0E0,0E0,0E0,0E0,0E0,0E0,0E0,0E0,0E0,0E0,0E0,0E0,0E0,0E0,0E0,0E0,0E0,0E0,0E0,0E0,0E0,0E0,0E0,0E0,0E0,0E0,0E0,0E0,0E0,0E0,0E0,0E0,0E0,0E0,0E0,0E0,0E0,0E0,0E0,0E0,0E0,0E0,0E0,0E0,0E0,0E0],"parents":[2147483647,0,0,1,1,2,2,3,3,4,4,5,5,6,6,7,7,8,8,9,9,10,10,11,11,12,12,13,13,14,14,15,15,16,16,17,17,18,18,19,19,20,20,21,21,22,22,23,23,24,24,25,25,26,26,27,27,28,28,29,29,30,30,31,31,32,32,33,33,34,34,35,35,36,36,37,37,38,38,39,39,40,40,41,41,42,42,43,43,44,44,45,45,46,46,48,48,49,49,51,51,52,52,53,53,54,54,55,55,56,56,57,57,58,58,59,59,60,60,61,61,62,62],"right_children":[2,4,6,8,10,12,14,16,18,20,22,24,26,28,30,32,34,36,38,40,42,44,46,48,50,52,54,56,58,60,62,64,66,68,70,72,74,76,78,80,82,84,86,88,90,92,94,-1,96,98,-1,100,102,104,106,108,110,112,114,116,118,120,122,-1,-1,-1,-1,-1,-1,-1,-1,-1,-1,-1,-1,-1,-1,-1,-1,-1,-1,-1,-1,-1,-1,-1,-1,-1,-1,-1,-1,-1,-1,-1,-1,-1,-1,-1,-1,-1,-1,-1,-1,-1,-1,-1,-1,-1,-1,-1,-1,-1,-1,-1,-1,-1,-1,-1,-1,-1,-1,-1,-1],"split_conditions":[-6.707103E-2,2.4927275E-1,5.291382E-2,9.465361E-2,4.2000002E-1,-6.151545E-2,1.054282E-1,5.6193516E-2,1.3974942E-1,-7.000002E-2,0E0,-3.2952763E-2,-5.0000012E-2,8.709954E-3,2.3662682E-1,-2.228338E-2,-6.0000002E-2,9.9637724E-2,1.6262165E-1,4.181179E-2,1.2556E-1,-2.2434752E-2,-1.9548515E-2,-6.470644E-2,1.999998E-2,4.7000003E-1,-8.472851E-2,6.315207E-2,7.9336554E-2,-5.0000012E-2,-6.3863866E-2,3.7510343E-2,5.2353837E-2,8.0739E-2,6.922536E-2,9.791376E-2,7.0059046E-2,-8.3697125E-2,-1.6367994E-1,-6.1877675E-2,-7.934369E-2,2.000001E-2,1.2886591E-1,-4.273581E-2,-1.5179074E-1,-7.999998E-2,-6.0000002E-2,-6.714078E-3,-6.3863866E-2,-6.999999E-2,-1.0368839E-3,4.5477483E-2,-7.000002E-2,4.8526462E-2,5.7144053E-2,7.665993E-3,-6.999999E-2,-6.0000002E-2,-3.97594E-2,1.20491065E-1,1.1903027E-1,3.712281E-1,-6.27178E-2,-2.412474E-4,-4.9450656E-4,-1.2581198E-3,-4.8247867E-4,-3.9384197E-4,-7.289269E-6,-1.4715624E-4,1.473129E-5,2.2900087E-4,6.488488E-4,2.3011758E-4,4.6113633E-5,1.5345248E-4,2.3600273E-4,3.4751184E-4,2.5980998E-4,2.187779E-4,-4.7520604E-3,-1.1715726E-2,-4.462365E-3,-1.1774865E-3,-8.32606E-3,1.0774388E-2,2.3741494E-3,3.8717913E-3,-2.2193429E-3,-5.736887E-3,-1.4487177E-2,-3.3320587E-3,7.005018E-4,1.7502186E-3,4.3465552E-4,1.6056747E-3,-5.72142E-4,1.5587536E-2,4.775962E-3,-3.0059053E-4,-8.350844E-4,1.3775208E-5,2.9711577E-3,2.7487571E-3,7.2746496E-3,8.678412E-5,-1.1161453E-2,8.359138E-4,3.1920557E-4,3.4840617E-4,9.090488E-5,-2.2621472E-4,-3.6424823E-5,-7.179147E-5,9.703832E-5,3.2076723E-6,2.2482818E-4,6.2148477E-4,2.0564247E-4,1.4233589E-4,-9.550197E-5,2.0024753E-3,8.4380346E-4],"split_indices":[4,12,12,12,27,32,12,12,12,33,5,28,35,34,12,28,35,12,12,24,24,0,0,4,5,21,6,12,12,35,4,10,12,12,12,12,10,32,6,16,4,5,26,0,6,35,35,0,4,1,0,10,9,10,10,34,7,35,4,12,12,14,4,0,0,0,0,0,0,0,0,0,0,0,0,0,0,0,0,0,0,0,0,0,0,0,0,0,0,0,0,0,0,0,0,0,0,0,0,0,0,0,0,0,0,0,0,0,0,0,0,0,0,0,0,0,0,0,0,0,0,0,0],"split_type":[0,0,0,0,0,0,0,0,0,0,0,0,0,0,0,0,0,0,0,0,0,0,0,0,0,0,0,0,0,0,0,0,0,0,0,0,0,0,0,0,0,0,0,0,0,0,0,0,0,0,0,0,0,0,0,0,0,0,0,0,0,0,0,0,0,0,0,0,0,0,0,0,0,0,0,0,0,0,0,0,0,0,0,0,0,0,0,0,0,0,0,0,0,0,0,0,0,0,0,0,0,0,0,0,0,0,0,0,0,0,0,0,0,0,0,0,0,0,0,0,0,0,0],"sum_hessian":[4.9492E4,1.7014E4,3.2478E4,1.3646E4,3.368E3,1.5226E4,1.7252E4,3.34E3,1.0306E4,3.66E2,3.002E3,1.8E1,1.5208E4,1.2735E4,4.517E3,2.96E2,3.044E3,4.431E3,5.875E3,2.9E1,3.37E2,1.7E1,2.985E3,7E0,1.1E1,1.5119E4,8.9E1,2.29E2,1.2506E4,4.369E3,1.48E2,2.3E2,6.6E1,5.78E2,2.466E3,3.89E2,4.042E3,2.026E3,3.849E3,1.1E1,1.8E1,2.98E2,3.9E1,7E0,1E1,2.37E2,2.748E3,4E0,3E0,1E1,1E0,1.4194E4,9.25E2,4.5E1,4.4E1,1.38E2,9.1E1,7.9E3,4.606E3,3.313E3,1.056E3,2.2E1,1.26E2,2.05E2,2.5E1,3.3E1,3.3E1,3.04E2,2.74E2,5.63E2,1.903E3,2.26E2,1.63E2,1.318E3,2.724E3,1.48E2,1.878E3,2.113E3,1.736E3,6E0,5E0,1.4E1,4E0,2.91E2,7E0,3E0,3.6E1,3E0,4E0,2E0,8E0,8.3E1,1.54E2,1.828E3,9.2E2,2E0,1E0,8E0,2E0,1.1986E4,2.208E3,7.87E2,1.38E2,2E1,2.5E1,4.2E1,2E0,4.3E1,9.5E1,2.8E1,6.3E1,3.361E3,4.539E3,3.114E3,1.492E3,1.155E3,2.158E3,3.35E2,7.21E2,1.6E1,6E0,1.6E1,1.1E2],"tree_param":{"num_deleted":"0","num_feature":"36","num_nodes":"123","size_leaf_vector":"1"}},{"base_weights":[4.0704113E-6,8.6207886E-4,-2.7029472E-4,4.1645125E-4,3.2862416E-3,2.7987646E-4,-5.562381E-4,6.978046E-5,6.491358E-4,2.619007E-3,2.0586714E-2,6.5352746E-5,1.2492666E-3,-3.5842237E-4,-1.409939E-3,2.438041E-3,4.2697287E-5,7.8813644E-4,5.6826934E-4,-3.6888681E-3,3.6761395E-3,4.986314E-3,3.111903E-2,-4.686414E-4,2.490821E-4,-5.3736945E-3,1.965264E-3,-6.69987E-4,-1.4215652E-4,-7.5173527E-3,-6.409872E-4,3.2193922E-3,4.2213924E-4,-2.8157344E-3,6.486717E-5,7.1963E-4,1.8527963E-3,6.119418E-4,-6.6039844E-5,-1.7720748E-2,-1.6945554E-3,6.451879E-3,4.1690224E-4,-2.0190962E-3,3.7908996E-3,1.0904835E-2,4.0114734E-2,-1.0490704E-3,-2.665941E-4,-4.8863376E-4,2.9753178E-4,-1.4522115E-2,-4.7760336E-3,1.0403555E-2,1.6989172E-3,-1.2254202E-3,-5.483453E-4,-2.005335E-4,5.5845914E-4,-4.982908E-3,-1.0266755E-2,-1.0106185E-3,7.909677E-3,1.2036816E-3,6.711409E-4,-1.7390402E-4,3.129343E-4,-1.5935069E-3,-5.599282E-4,1.3994099E-6,2.3565676E-4,5.6886295E-4,2.0103784E-4,3.9719E-4,8.71321E-4,1.902443E-4,-1.0201974E-6,-2.8085735E-4,2.6097693E-4,-1.2700346E-3,-8.392704E-3,4.06857E-3,-9.2201936E-4,4.009777E-3,8.780042E-4,7.2008325E-4,-3.4998066E-3,-6.5024535E-4,-1.9607545E-4,-4.2015444E-3,5.6914985E-3,1.3692429E-2,7.012799E-3,-6.191338E-4,-1.8495033E-4,4.5176232E-4,-1.01549784E-4,1.4890656E-5,-3.4551966E-4,8.13129E-6,1.1552957E-4,-2.387033E-3,-2.3765456E-4,-8.7534473E-4,3.7909402E-3,-1.9626953E-3,5.767783E-4,-9.4441616E-4,-3.3340897E-4,-1.4135004E-4,-3.7924474E-4,3.485253E-4,-7.055479E-5,-3.4767025E-5,2.1885846E-4,-2.8882495E-3,-7.548036E-4,-7.5660745E-4,-3.9714193E-3,4.833387E-5,-9.22306E-4,2.964812E-3,-6.5062074E-3],"categories":[],"categories_nodes":[],"categories_segments":[],"categories_sizes":[],"default_left":[0,0,0,0,1,0,0,0,0,0,0,0,0,0,0,0,0,0,0,0,0,0,0,0,0,0,0,0,1,0,0,0,0,0,0,0,0,1,1,0,0,0,1,0,0,0,0,0,0,0,0,0,0,0,0,0,0,0,0,0,0,0,1,0,0,0,0,0,0,0,0,0,0,0,0,0,0,0,0,0,0,0,0,0,0,0,0,0,0,0,0,0,0,0,0,0,0,0,0,0,0,0,0,0,0,0,0,0,0,0,0,0,0,0,0,0,0,0,0,0,0,0,0],"id":13,"left_children":[1,3,5,7,9,11,13,15,17,19,21,23,25,27,29,31,33,35,37,39,41,43,45,47,49,51,53,55,57,59,61,63,65,67,69,71,73,75,77,79,81,83,85,87,-1,89,91,93,95,97,99,-1,101,103,105,107,109,111,113,115,117,119,121,-1,-1,-1,-1,-1,-1,-1,-1,-1,-1,-1,-1,-1,-1,-1,-1,-1,-1,-1,-1,-1,-1,-1,-1,-1,-1,-1,-1,-1,-1,-1,-1,-1,-1,-1,-1,-1,-1,-1,-1,-1,-1,-1,-1,-1,-1,-1,-1,-1,-1,-1,-1,-1,-1,-1,-1,-1,-1,-1,-1],"loss_changes":[1.1651262E-2,1.2953273E-2,5.8998885E-3,8.1717107E-4,2.1440035E-2,2.667177E-3,4.1668345E-3,2.6094573E-4,6.769202E-5,1.197642E-2,1.1182107E-2,1.0305704E-3,1.1031024E-2,1.3499463E-3,2.179544E-2,7.109679E-5,2.552513E-4,1.610954E-4,1.0630465E-4,7.1898317E-3,1.3902234E-2,1.5796677E-3,7.0180297E-3,3.1507044E-4,2.7946994E-4,5.607102E-3,4.697606E-3,5.539593E-4,4.8387502E-4,3.565343E-3,1.3042282E-2,1.6724749E-5,9.314141E-6,6.3538406E-5,1.7332034E-4,1.20694865E-4,7.06749E-5,4.9043214E-5,2.027929E-4,4.307528E-3,4.8169093E-3,2.0190787E-2,1.69952E-2,1.8253777E-6,0E0,3.0789238E-3,1.5233681E-3,3.0334643E-4,2.548991E-4,1.7209523E-4,1.7366197E-4,0E0,2.8448096E-3,1.9405796E-3,3.7638447E-3,3.1973445E-4,3.7153275E-4,5.1567156E-4,1.0506244E-4,3.0922769E-3,5.6735873E-3,9.561831E-3,1.02000125E-2,0E0,0E0,0E0,0E0,0E0,0E0,0E0,0E0,0E0,0E0,0E0,0E0,0E0,0E0,0E0,0E0,0E0,0E0,0E0,0E0,0E0,0E0,0E0,0E0,0E0,0E0,0E0,0E0,0E0,0E0,0E0,0E0,0E0,0E0,0E0,0E0,0E0,0E0,0E0,0E0,0E0,0E0,0E0,0E0,0E0,0E0,0E0,0E0,0E0,0E0,0E0,0E0,0E0,0E0,0E0,0E0,0E0,0E0,0E0,0E0],"parents":[2147483647,0,0,1,1,2,2,3,3,4,4,5,5,6,6,7,7,8,8,9,9,10,10,11,11,12,12,13,13,14,14,15,15,16,16,17,17,18,18,19,19,20,20,21,21,22,22,23,23,24,24,25,25,26,26,27,27,28,28,29,29,30,30,31,31,32,32,33,33,34,34,35,35,36,36,37,37,38,38,39,39,40,40,41,41,42,42,43,43,45,45,46,46,47,47,48,48,49,49,50,50,52,52,53,53,54,54,55,55,56,56,57,57,58,58,59,59,60,60,61,61,62,62],"right_children":[2,4,6,8,10,12,14,16,18,20,22,24,26,28,30,32,34,36,38,40,42,44,46,48,50,52,54,56,58,60,62,64,66,68,70,72,74,76,78,80,82,84,86,88,-1,90,92,94,96,98,100,-1,102,104,106,108,110,112,114,116,118,120,122,-1,-1,-1,-1,-1,-1,-1,-1,-1,-1,-1,-1,-1,-1,-1,-1,-1,-1,-1,-1,-1,-1,-1,-1,-1,-1,-1,-1,-1,-1,-1,-1,-1,-1,-1,-1,-1,-1,-1,-1,-1,-1,-1,-1,-1,-1,-1,-1,-1,-1,-1,-1,-1,-1,-1,-1,-1,-1,-1,-1],"split_conditions":[-8.008015E-2,2.8857687E-1,-7.2209515E-2,1.3175128E-1,-5.0000012E-2,1.6776058E-1,1.09999985E-1,5.7607167E-3,-1.1683449E-1,4.2999998E-1,8.033401E-1,7.654903E-2,-3.9236248E-2,4.7165025E-2,3.9000005E-1,8.293496E-2,5.3613037E-2,-1.1793809E-1,2.4927275E-1,-6.0000002E-2,1.0966124E-1,-6.999999E-2,1.5602252E-1,-7.999998E-2,1.4458387E-2,-7.5645685E-2,3.2162856E-2,-5.9999973E-2,1.15266636E-1,1.5954714E-2,-5.0000012E-2,-1.8425958E-1,-9.5342085E-2,-5.9999973E-2,2.000001E-2,-7.000002E-2,2.0681684E-1,3.147379E-1,1.05932966E-1,-7.999998E-2,-1.6767344E-1,-6.999999E-2,-3.5845168E-2,6.005968E-3,3.7908996E-3,-3.5286078E-1,4.3981403E-2,5.2353837E-2,5.7607167E-3,8.831293E-2,9.465361E-2,-1.4522115E-2,3.95833E-2,-3.207767E-2,1.8285897E-2,2.2809144E-2,3.9625127E-2,8.709954E-3,9.043896E-2,2.2212002E-2,7.999998E-2,-5.9999973E-2,-4.06173E-2,1.2036816E-3,6.711409E-4,-1.7390402E-4,3.129343E-4,-1.5935069E-3,-5.599282E-4,1.3994099E-6,2.3565676E-4,5.6886295E-4,2.0103784E-4,3.9719E-4,8.71321E-4,1.902443E-4,-1.0201974E-6,-2.8085735E-4,2.6097693E-4,-1.2700346E-3,-8.392704E-3,4.06857E-3,-9.2201936E-4,4.009777E-3,8.780042E-4,7.2008325E-4,-3.4998066E-3,-6.5024535E-4,-1.9607545E-4,-4.2015444E-3,5.6914985E-3,1.3692429E-2,7.012799E-3,-6.191338E-4,-1.8495033E-4,4.5176232E-4,-1.01549784E-4,1.4890656E-5,-3.4551966E-4,8.13129E-6,1.1552957E-4,-2.387033E-3,-2.3765456E-4,-8.7534473E-4,3.7909402E-3,-1.9626953E-3,5.767783E-4,-9.4441616E-4,-3.3340897E-4,-1.4135004E-4,-3.7924474E-4,3.485253E-4,-7.055479E-5,-3.4767025E-5,2.1885846E-4,-2.8882495E-3,-7.548036E-4,-7.5660745E-4,-3.9714193E-3,4.833387E-5,-9.22306E-4,2.964812E-3,-6.5062074E-3],"split_indices":[4,12,6,12,33,12,13,34,4,21,12,12,16,12,21,10,12,4,12,33,10,1,26,31,34,32,10,35,14,34,1,6,4,1,5,7,12,14,22,1,6,33,32,30,0,8,34,12,34,12,12,0,34,16,26,12,10,34,12,10,7,1,8,0,0,0,0,0,0,0,0,0,0,0,0,0,0,0,0,0,0,0,0,0,0,0,0,0,0,0,0,0,0,0,0,0,0,0,0,0,0,0,0,0,0,0,0,0,0,0,0,0,0,0,0,0,0,0,0,0,0,0,0],"split_type":[0,0,0,0,0,0,0,0,0,0,0,0,0,0,0,0,0,0,0,0,0,0,0,0,0,0,0,0,0,0,0,0,0,0,0,0,0,0,0,0,0,0,0,0,0,0,0,0,0,0,0,0,0,0,0,0,0,0,0,0,0,0,0,0,0,0,0,0,0,0,0,0,0,0,0,0,0,0,0,0,0,0,0,0,0,0,0,0,0,0,0,0,0,0,0,0,0,0,0,0,0,0,0,0,0,0,0,0,0,0,0,0,0,0,0,0,0,0,0,0,0,0,0],"sum_hessian":[4.9492E4,1.1991E4,3.7501E4,1.013E4,1.861E3,1.2825E4,2.4676E4,4.069E3,6.061E3,1.793E3,6.8E1,1.0502E4,2.323E3,2.0035E4,4.641E3,4.5E1,4.024E3,2.226E3,3.835E3,2.57E2,1.536E3,2.8E1,4E1,2.688E3,7.814E3,2.26E2,2.097E3,8.208E3,1.1827E4,5.18E2,4.123E3,3.2E1,1.3E1,3E1,3.994E3,2.093E3,1.33E2,3.588E3,2.47E2,3.1E1,2.26E2,8.29E2,7.07E2,1.5E1,1.3E1,1.3E1,2.7E1,6.93E2,1.995E3,4.81E2,7.333E3,2E0,2.24E2,6.3E1,2.034E3,1.473E3,6.735E3,1.0918E4,9.09E2,2.71E2,2.47E2,3.953E3,1.7E2,1.6E1,1.6E1,5E0,8E0,7E0,2.3E1,3.687E3,3.07E2,8.3E1,2.01E3,9E1,4.3E1,3.463E3,1.25E2,1.28E2,1.19E2,1.4E1,1.7E1,1.8E1,2.08E2,2.79E2,5.5E2,6.08E2,9.9E1,1.3E1,2E0,3E0,1E1,1.9E1,8E0,2.06E2,4.87E2,7.7E1,1.918E3,2.66E2,2.15E2,1.794E3,5.539E3,1.24E2,1E2,9E0,5.4E1,5.3E1,1.981E3,8.1E1,1.392E3,6.081E3,6.54E2,2.7E2,1.0648E4,1.84E2,7.25E2,9.3E1,1.78E2,6.9E1,1.78E2,2.522E3,1.431E3,1.6E2,1E1],"tree_param":{"num_deleted":"0","num_feature":"36","num_nodes":"123","size_leaf_vector":"1"}},{"base_weights":[2.7009753E-6,9.666998E-4,-1.3040891E-4,3.986797E-4,4.672567E-3,2.2168673E-5,-8.1269146E-4,2.9134357E-4,1.0975704E-3,-1.098322E-2,6.099159E-3,-1.1518019E-4,7.4247416E-4,-3.9146715E-4,-3.7490393E-3,3.2786516E-4,-4.532707E-3,6.3850003E-4,4.3737623E-3,-1.2999891E-2,7.2087967E-3,2.4482548E-2,4.4213524E-3,1.5186753E-4,-4.9708993E-4,1.0741248E-4,4.985501E-3,-4.7189902E-4,7.213509E-4,-9.037247E-3,-8.995269E-4,-1.3315801E-5,4.824792E-4,-3.7879622E-4,-5.8426186E-3,5.3984957E-4,1.9481027E-3,8.033556E-3,9.420885E-4,-7.537915E-5,-1.976808E-2,2.967697E-2,-1.3640115E-2,1.0791408E-2,-8.0715644E-4,-5.5992412E-5,1.9660117E-3,-2.7873262E-3,-7.5417774E-5,2.5751572E-3,7.047544E-5,-8.111863E-3,5.764221E-3,-7.869313E-4,-2.838648E-4,-2.0622604E-3,8.4346393E-4,-1.0184729E-2,-5.3534843E-3,-4.588005E-4,-1.235766E-2,5.0369033E-4,-3.8456965E-5,1.2918281E-4,5.0915394E-4,-1.0525386E-3,-2.0371256E-3,8.632212E-4,1.1166503E-4,1.4916722E-3,2.6217508E-3,7.468346E-4,-1.0561816E-3,1.3808196E-3,-7.034127E-3,-7.749866E-3,-1.2755245E-3,1.2648682E-2,5.7160826E-3,-8.1446266E-4,-7.1659912E-3,7.0237817E-4,4.8731174E-3,-6.313322E-4,9.01066E-3,-8.2539336E-5,1.12927955E-4,-6.767731E-5,2.28843E-3,2.9571136E-4,-2.5160473E-3,-1.04737956E-4,7.093693E-5,2.4039508E-3,5.347752E-4,3.0419927E-5,-1.228014E-3,6.3061155E-4,-6.554154E-3,1.5205351E-3,4.8831226E-3,-1.9945564E-4,-4.8785922E-4,-1.4279304E-4,-2.0148824E-5,-4.1490496E-4,-8.216337E-4,1.7396567E-4,3.9666455E-4,-4.471024E-3,-2.783884E-3,1.4834831E-3,-1.8594713E-3,-3.471794E-4,1.6157869E-3,-1.6225257E-3,-4.0431265E-3],"categories":[],"categories_nodes":[],"categories_segments":[],"categories_sizes":[],"default_left":[0,0,0,0,0,0,0,0,0,0,0,1,0,0,0,0,0,1,0,0,0,1,0,0,1,0,0,0,0,1,0,0,1,0,0,0,0,0,0,0,0,1,0,0,0,0,0,0,0,0,0,0,0,0,0,1,0,0,0,1,0,0,0,0,0,0,0,0,0,0,0,0,0,0,0,0,0,0,0,0,0,0,0,0,0,0,0,0,0,0,0,0,0,0,0,0,0,0,0,0,0,0,0,0,0,0,0,0,0,0,0,0,0,0,0,0,0],"id":14,"left_children":[1,3,5,7,9,11,13,15,17,19,21,23,25,27,29,31,33,35,37,39,-1,41,43,45,47,49,51,53,55,57,59,61,63,-1,65,67,-1,69,71,73,75,77,79,81,83,85,87,89,91,93,95,97,99,101,103,105,107,109,111,113,115,-1,-1,-1,-1,-1,-1,-1,-1,-1,-1,-1,-1,-1,-1,-1,-1,-1,-1,-1,-1,-1,-1,-1,-1,-1,-1,-1,-1,-1,-1,-1,-1,-1,-1,-1,-1,-1,-1,-1,-1,-1,-1,-1,-1,-1,-1,-1,-1,-1,-1,-1,-1,-1,-1,-1,-1],"loss_changes":[6.3509573E-3,1.2638703E-2,4.527267E-3,3.903648E-4,1.7889857E-2,3.516367E-3,9.829103E-3,7.9712446E-4,1.0394811E-3,5.0431676E-3,2.2469392E-2,3.0445228E-3,1.5337034E-2,6.2258646E-4,1.5015479E-2,2.3649089E-4,1.3826118E-4,3.482623E-4,1.0599652E-3,5.596943E-3,0E0,1.2484334E-2,2.2390269E-2,6.62479E-3,1.1862804E-2,4.5119927E-4,7.6043475E-3,3.8386823E-4,1.6115974E-4,1.4207158E-3,3.2717166E-3,2.721801E-4,1.9364356E-4,0E0,2.9271585E-5,2.3403946E-4,0E0,4.5110937E-5,3.195071E-4,2.6226363E-3,3.842514E-3,6.3589923E-3,8.3071634E-4,1.3922051E-2,1.4867551E-2,1.493801E-3,2.241246E-2,4.0360983E-2,8.857204E-4,3.0034748E-4,6.287852E-4,5.938153E-3,5.0376747E-3,2.4717196E-4,1.6907335E-4,5.402646E-6,5.6018063E-5,9.935051E-4,7.7011855E-4,2.5617857E-3,1.1381041E-4,0E0,0E0,0E0,0E0,0E0,0E0,0E0,0E0,0E0,0E0,0E0,0E0,0E0,0E0,0E0,0E0,0E0,0E0,0E0,0E0,0E0,0E0,0E0,0E0,0E0,0E0,0E0,0E0,0E0,0E0,0E0,0E0,0E0,0E0,0E0,0E0,0E0,0E0,0E0,0E0,0E0,0E0,0E0,0E0,0E0,0E0,0E0,0E0,0E0,0E0,0E0,0E0,0E0,0E0,0E0,0E0],"parents":[2147483647,0,0,1,1,2,2,3,3,4,4,5,5,6,6,7,7,8,8,9,9,10,10,11,11,12,12,13,13,14,14,15,15,16,16,17,17,18,18,19,19,21,21,22,22,23,23,24,24,25,25,26,26,27,27,28,28,29,29,30,30,31,31,32,32,34,34,35,35,37,37,38,38,39,39,40,40,41,41,42,42,43,43,44,44,45,45,46,46,47,47,48,48,49,49,50,50,51,51,52,52,53,53,54,54,55,55,56,56,57,57,58,58,59,59,60,60],"right_children":[2,4,6,8,10,12,14,16,18,20,22,24,26,28,30,32,34,36,38,40,-1,42,44,46,48,50,52,54,56,58,60,62,64,-1,66,68,-1,70,72,74,76,78,80,82,84,86,88,90,92,94,96,98,100,102,104,106,108,110,112,114,116,-1,-1,-1,-1,-1,-1,-1,-1,-1,-1,-1,-1,-1,-1,-1,-1,-1,-1,-1,-1,-1,-1,-1,-1,-1,-1,-1,-1,-1,-1,-1,-1,-1,-1,-1,-1,-1,-1,-1,-1,-1,-1,-1,-1,-1,-1,-1,-1,-1,-1,-1,-1,-1,-1,-1,-1],"split_conditions":[-1.0393229E-1,3.299803E-1,-2.7729392E-2,1.4319174E-1,-7.000002E-2,1.999998E-2,1.2123881E-1,3.034993E-1,3.034993E-1,7.866723E-2,-1.999998E-2,-6.0000002E-2,8.033401E-1,8.285379E-2,2.5532085E-2,1.2922244E-1,8.810246E-2,-3.5823576E-2,1.4638092E-1,-3.1887323E-2,7.2087967E-3,-7.000002E-2,1.05932966E-1,8.033401E-1,1.9873254E-2,-3.192836E-1,-3.7666235E-2,-6.0000002E-2,5.167169E-2,1.800401E-2,1.999998E-2,5.5020947E-2,4.137311E-2,-3.7879622E-4,2.653107E-1,-1.5755047E-1,1.9481027E-3,7.16196E-2,-1.1793809E-1,1.1655908E-1,-4.4921145E-2,-4.3142248E-2,7.854885E-2,-4.986309E-2,2.000004E-2,1.1452209E-1,-7.000002E-2,9.164174E-3,6.922536E-2,-8.478608E-2,3.299803E-1,2.5347266E-2,1.3347982E-1,9E-2,3.8757026E-2,-1.2788631E-2,-6.0000002E-2,0E0,-1.880139E-2,4.7000003E-1,7.4803294E-3,5.0369033E-4,-3.8456965E-5,1.2918281E-4,5.0915394E-4,-1.0525386E-3,-2.0371256E-3,8.632212E-4,1.1166503E-4,1.4916722E-3,2.6217508E-3,7.468346E-4,-1.0561816E-3,1.3808196E-3,-7.034127E-3,-7.749866E-3,-1.2755245E-3,1.2648682E-2,5.7160826E-3,-8.1446266E-4,-7.1659912E-3,7.0237817E-4,4.8731174E-3,-6.313322E-4,9.01066E-3,-8.2539336E-5,1.12927955E-4,