{"learner":{"attributes":{"best_iteration":"99","best_score":"0.00151690902679943"},"feature_names":[],"feature_types":[],"gradient_booster":{"model":{"gbtree_model_param":{"num_parallel_tree":"1","num_trees":"100"},"iteration_indptr":[0,1,2,3,4,5,6,7,8,9,10,11,12,13,14,15,16,17,18,19,20,21,22,23,24,25,26,27,28,29,30,31,32,33,34,35,36,37,38,39,40,41,42,43,44,45,46,47,48,49,50,51,52,53,54,55,56,57,58,59,60,61,62,63,64,65,66,67,68,69,70,71,72,73,74,75,76,77,78,79,80,81,82,83,84,85,86,87,88,89,90,91,92,93,94,95,96,97,98,99,100],"tree_info":[0,0,0,0,0,0,0,0,0,0,0,0,0,0,0,0,0,0,0,0,0,0,0,0,0,0,0,0,0,0,0,0,0,0,0,0,0,0,0,0,0,0,0,0,0,0,0,0,0,0,0,0,0,0,0,0,0,0,0,0,0,0,0,0,0,0,0,0,0,0,0,0,0,0,0,0,0,0,0,0,0,0,0,0,0,0,0,0,0,0,0,0,0,0,0,0,0,0,0,0],"trees":[{"base_weights":[6.5239436E-10,-5.0493E-3,4.2067986E-2,-1.4293897E-2,2.415021E-3,3.4415677E-2,7.10493E-2,-1.7880209E-2,-9.615122E-3,-6.6786306E-3,7.5106774E-3,2.5753258E-2,4.2414915E-2,5.9385598E-2,8.610564E-2,-2.1001553E-2,-1.6125362E-2,-1.1602976E-2,-7.6992796E-3,-6.5789797E-4,-1.2101057E-2,-5.555868E-4,1.1520359E-2,2.2254407E-2,2.9822608E-2,3.75899E-2,4.7272053E-2,1.6641594E-2,1.8918525E-2,2.375667E-2,2.793834E-2,-8.344726E-3,-2.016009E-2,-1.722283E-2,-1.4921134E-2,-1.2727925E-2,-1.0556196E-2,-8.691291E-3,-6.9539757E-3,-3.2358926E-3,5.6050047E-3,-1.5794877E-2,-7.7452804E-3,-3.3379137E-3,2.29952E-3,8.7092025E-3,2.0475466E-2,2.0633161E-2,7.3084766E-3,8.308186E-3,9.572953E-3,1.0768401E-2,1.1919974E-2,1.3580361E-2,1.4948557E-2,-6.3774306E-3,-5.8335587E-3,-5.3768E-3,-4.988126E-3,-4.6542473E-3,-4.2969654E-3,-3.999676E-3,-3.657975E-3,-3.30732E-3,-3.0232372E-3,-2.7378951E-3,-2.4777087E-3,-2.2234225E-3,-1.9515365E-3,-1.289492E-3,-3.888153E-4,1.1076856E-3,2.8595868E-3,-5.7908907E-3,-4.252183E-3,-3.157089E-3,-1.4855284E-3,-1.3717215E-3,-5.467363E-4,2.8851547E-4,1.1576178E-3,-2.7465506E-3,2.8068617E-3,3.6034684E-3,9.324231E-3,5.872139E-3,6.486901E-3],"categories":[],"categories_nodes":[],"categories_segments":[],"categories_sizes":[],"default_left":[1,0,0,0,0,0,0,0,0,0,0,0,0,0,0,0,0,0,0,0,0,0,1,0,0,0,0,0,0,0,0,0,0,0,0,0,0,0,0,0,0,0,0,0,0,0,0,0,0,0,0,0,0,0,0,0,0,0,0,0,0,0,0,0,0,0,0,0,0,0,0,0,0,0,0,0,0,0,0,0,0,0,0,0,0,0,0],"id":0,"left_children":[1,3,5,7,9,11,13,15,17,19,21,23,25,27,29,31,33,35,37,39,41,43,45,47,49,51,53,-1,-1,-1,-1,-1,55,57,59,61,63,65,67,69,71,73,75,77,79,81,83,85,-1,-1,-1,-1,-1,-1,-1,-1,-1,-1,-1,-1,-1,-1,-1,-1,-1,-1,-1,-1,-1,-1,-1,-1,-1,-1,-1,-1,-1,-1,-1,-1,-1,-1,-1,-1,-1,-1,-1],"loss_changes":[1.0513213E1,3.04935E0,1.1738443E0,3.310728E-1,1.1330173E0,2.8979874E-1,1.892891E-1,6.0866594E-2,3.2541215E-2,2.8666517E-1,5.068234E-1,2.806878E-2,4.9336433E-2,5.5224895E-3,1.5987873E-2,2.2477865E-2,9.201884E-3,4.8149824E-3,3.1675696E-3,6.721666E-2,7.4211E-2,4.134742E-2,2.633202E-1,3.2176971E-3,3.248334E-3,2.5669336E-3,3.2932758E-3,0E0,0E0,0E0,0E0,0E0,2.3969412E-3,1.260519E-3,9.903908E-4,4.904866E-4,3.7820637E-4,2.760738E-4,4.646778E-4,6.0720704E-3,9.083349E-3,1.3936698E-2,1.6417518E-2,4.9231537E-3,5.3549865E-3,9.218216E-2,2.240324E-1,2.2897124E-4,0E0,0E0,0E0,0E0,0E0,0E0,0E0,0E0,0E0,0E0,0E0,0E0,0E0,0E0,0E0,0E0,0E0,0E0,0E0,0E0,0E0,0E0,0E0,0E0,0E0,0E0,0E0,0E0,0E0,0E0,0E0,0E0,0E0,0E0,0E0,0E0,0E0,0E0,0E0],"parents":[2147483647,0,0,1,1,2,2,3,3,4,4,5,5,6,6,7,7,8,8,9,9,10,10,11,11,12,12,13,13,14,14,15,15,16,16,17,17,18,18,19,19,20,20,21,21,22,22,23,23,24,24,25,25,26,26,32,32,33,33,34,34,35,35,36,36,37,37,38,38,39,39,40,40,41,41,42,42,43,43,44,44,45,45,46,46,47,47],"right_children":[2,4,6,8,10,12,14,16,18,20,22,24,26,28,30,32,34,36,38,40,42,44,46,48,50,52,54,-1,-1,-1,-1,-1,56,58,60,62,64,66,68,70,72,74,76,78,80,82,84,86,-1,-1,-1,-1,-1,-1,-1,-1,-1,-1,-1,-1,-1,-1,-1,-1,-1,-1,-1,-1,-1,-1,-1,-1,-1,-1,-1,-1,-1,-1,-1,-1,-1,-1,-1,-1,-1,-1,-1],"split_conditions":[4.652136E-2,2.1924267E-2,8.021385E-2,1.4165834E-2,5.190137E-2,6.1838016E-2,9.867552E-2,9.342891E-3,1.8300327E-2,4.5495514E-2,3.3269145E-2,5.404798E-2,7.062198E-2,8.700608E-2,1.5183249E-1,0E0,1.181622E-2,1.6224632E-2,2.0028396E-2,2.9060971E-2,2.8144E-2,2.7356016E-2,8.258738E-2,5.049498E-2,5.7637073E-2,6.562153E-2,7.5645685E-2,1.6641594E-2,1.8918525E-2,2.375667E-2,2.793834E-2,-8.344726E-3,7.4803294E-3,1.0599787E-2,1.2972777E-2,1.50667755E-2,1.731879E-2,1.9193366E-2,2.092869E-2,2.5106382E-2,3.4673102E-2,1.7724086E-2,6.885204E-2,2.4666987E-2,3.0289195E-2,3.318433E-2,2.4272079E-2,4.854424E-2,7.3084766E-3,8.308186E-3,9.572953E-3,1.0768401E-2,1.1919974E-2,1.3580361E-2,1.4948557E-2,-6.3774306E-3,-5.8335587E-3,-5.3768E-3,-4.988126E-3,-4.6542473E-3,-4.2969654E-3,-3.999676E-3,-3.657975E-3,-3.30732E-3,-3.0232372E-3,-2.7378951E-3,-2.4777087E-3,-2.2234225E-3,-1.9515365E-3,-1.289492E-3,-3.888153E-4,1.1076856E-3,2.8595868E-3,-5.7908907E-3,-4.252183E-3,-3.157089E-3,-1.4855284E-3,-1.3717215E-3,-5.467363E-4,2.8851547E-4,1.1576178E-3,-2.7465506E-3,2.8068617E-3,3.6034684E-3,9.324231E-3,5.872139E-3,6.486901E-3],"split_indices":[34,34,34,34,10,34,34,34,34,34,34,34,34,34,10,30,34,34,34,34,22,34,22,34,34,34,34,0,0,0,0,0,34,34,34,34,34,34,34,34,34,22,12,34,34,22,30,34,0,0,0,0,0,0,0,0,0,0,0,0,0,0,0,0,0,0,0,0,0,0,0,0,0,0,0,0,0,0,0,0,0,0,0,0,0,0,0],"split_type":[0,0,0,0,0,0,0,0,0,0,0,0,0,0,0,0,0,0,0,0,0,0,0,0,0,0,0,0,0,0,0,0,0,0,0,0,0,0,0,0,0,0,0,0,0,0,0,0,0,0,0,0,0,0,0,0,0,0,0,0,0,0,0,0,0,0,0,0,0,0,0,0,0,0,0,0,0,0,0,0,0,0,0,0,0,0,0],"sum_hessian":[4.9492E4,4.4189E4,5.303E3,1.974E4,2.4449E4,4.197E3,1.106E3,1.1173E4,8.567E3,8.78E3,1.5669E4,2.017E3,2.18E3,6.26E2,4.8E2,4.017E3,7.156E3,4.202E3,4.365E3,4.161E3,4.619E3,5.203E3,1.0466E4,1.088E3,9.29E2,1.098E3,1.082E3,3.11E2,3.15E2,2.48E2,2.32E2,4.38E2,3.579E3,3.737E3,3.419E3,2.02E3,2.182E3,1.868E3,2.497E3,2.948E3,1.213E3,2.498E3,2.121E3,2.635E3,2.568E3,7.967E3,2.499E3,6.21E2,4.67E2,4.67E2,4.62E2,6.23E2,4.75E2,6.17E2,4.65E2,1.4E3,2.179E3,1.705E3,2.032E3,1.704E3,1.715E3,9.37E2,1.083E3,1.092E3,1.09E3,9.21E2,9.47E2,1.229E3,1.268E3,1.904E3,1.044E3,8.17E2,3.96E2,7.86E2,1.712E3,1.062E3,1.059E3,1.451E3,1.184E3,1.383E3,1.185E3,2.78E2,7.689E3,1.391E3,1.108E3,3.1E2,3.11E2],"tree_param":{"num_deleted":"0","num_feature":"36","num_nodes":"87","size_leaf_vector":"1"}},{"base_weights":[2.281385E-6,-4.015184E-3,2.6342135E-2,-1.02409795E-2,9.055077E-4,1.9073362E-2,4.2459797E-2,-1.2731461E-2,-7.2194063E-3,-5.6880577E-3,3.950893E-3,1.4757891E-2,2.5160618E-2,3.688889E-2,6.0381413E-2,-1.510949E-2,-1.1654318E-2,-8.64378E-3,-5.8439914E-3,-1.4769033E-3,-9.161676E-3,2.0471774E-3,1.2501E-2,1.3269098E-2,1.7444195E-2,2.2635907E-2,2.7645089E-2,3.4206413E-2,4.302741E-2,5.6230955E-2,2.0333823E-2,-5.8470103E-3,-1.44167915E-2,-1.2508358E-2,-1.0867411E-2,-9.374888E-3,-7.85211E-3,-6.5443777E-3,-5.235989E-3,-3.1794282E-3,2.0421569E-3,-1.1605991E-2,-5.8772173E-3,-2.115556E-3,4.0069865E-3,5.6162025E-3,2.5429457E-2,1.1971755E-2,1.4002469E-2,4.860253E-3,5.605436E-3,6.198671E-3,7.0834993E-3,7.974372E-3,8.8946E-3,9.7796265E-3,1.0886029E-2,1.2313838E-2,1.400025E-2,1.4654749E-2,1.7526945E-2,-4.5924755E-3,-4.2203134E-3,-3.8732423E-3,-3.6292973E-3,-3.3729824E-3,-3.1252082E-3,-2.8827875E-3,-2.6805585E-3,-2.4534538E-3,-2.2386378E-3,-2.0542385E-3,-1.8553125E-3,-1.6560477E-3,-1.4740179E-3,-1.1815731E-3,-5.9112324E-4,3.290176E-4,1.4327413E-3,-4.1370057E-3,-3.1083657E-3,-1.2175704E-3,-2.707043E-3,-8.813176E-4,-1.231047E-4,8.033343E-4,2.689439E-3,5.920765E-4,2.3249465E-3,5.9331474E-3,1.47927115E-2,3.6786632E-3,2.1532762E-3,4.2383494E-3,3.084351E-3],"categories":[],"categories_nodes":[],"categories_segments":[],"categories_sizes":[],"default_left":[1,0,0,0,0,0,0,0,0,0,0,0,0,0,0,0,0,0,0,0,0,0,0,0,0,0,0,0,0,0,0,0,0,0,0,0,0,0,0,0,0,0,0,0,1,0,0,0,0,0,0,0,0,0,0,0,0,0,0,0,0,0,0,0,0,0,0,0,0,0,0,0,0,0,0,0,0,0,0,0,0,0,0,0,0,0,0,0,0,0,0,0,0,0,0],"id":1,"left_children":[1,3,5,7,9,11,13,15,17,19,21,23,25,27,29,31,33,35,37,39,41,43,45,47,49,51,53,55,57,59,-1,-1,61,63,65,67,69,71,73,75,77,79,81,83,85,87,89,91,93,-1,-1,-1,-1,-1,-1,-1,-1,-1,-1,-1,-1,-1,-1,-1,-1,-1,-1,-1,-1,-1,-1,-1,-1,-1,-1,-1,-1,-1,-1,-1,-1,-1,-1,-1,-1,-1,-1,-1,-1,-1,-1,-1,-1,-1,-1],"loss_changes":[5.2374277E0,1.3156081E0,7.665596E-1,1.425705E-1,4.8168012E-1,1.182611E-1,2.0094633E-1,2.6440024E-2,1.6735107E-2,1.10851645E-1,2.6706326E-1,1.034683E-2,1.1116505E-2,2.4133444E-2,1.0957718E-2,9.538233E-3,4.673302E-3,2.361387E-3,1.8232316E-3,2.0538636E-2,3.32731E-2,1.0950734E-1,2.6581854E-1,1.4555156E-3,1.1472106E-3,1.3108552E-3,1.2133121E-3,2.452612E-3,1.4669299E-3,2.227366E-3,0E0,0E0,6.5535307E-4,4.0990114E-4,5.1414967E-4,1.3901293E-4,1.9660592E-4,1.783818E-4,1.8738955E-4,2.1124147E-3,2.8842068E-3,6.3274205E-3,1.0114104E-2,6.023055E-3,6.011589E-2,1.5147783E-2,1.3912845E-1,7.795021E-4,3.604293E-4,0E0,0E0,0E0,0E0,0E0,0E0,0E0,0E0,0E0,0E0,0E0,0E0,0E0,0E0,0E0,0E0,0E0,0E0,0E0,0E0,0E0,0E0,0E0,0E0,0E0,0E0,0E0,0E0,0E0,0E0,0E0,0E0,0E0,0E0,0E0,0E0,0E0,0E0,0E0,0E0,0E0,0E0,0E0,0E0,0E0,0E0],"parents":[2147483647,0,0,1,1,2,2,3,3,4,4,5,5,6,6,7,7,8,8,9,9,10,10,11,11,12,12,13,13,14,14,15,15,16,16,17,17,18,18,19,19,20,20,21,21,22,22,23,23,24,24,25,25,26,26,27,27,28,28,29,29,32,32,33,33,34,34,35,35,36,36,37,37,38,38,39,39,40,40,41,41,42,42,43,43,44,44,45,45,46,46,47,47,48,48],"right_children":[2,4,6,8,10,12,14,16,18,20,22,24,26,28,30,32,34,36,38,40,42,44,46,48,50,52,54,56,58,60,-1,-1,62,64,66,68,70,72,74,76,78,80,82,84,86,88,90,92,94,-1,-1,-1,-1,-1,-1,-1,-1,-1,-1,-1,-1,-1,-1,-1,-1,-1,-1,-1,-1,-1,-1,-1,-1,-1,-1,-1,-1,-1,-1,-1,-1,-1,-1,-1,-1,-1,-1,-1,-1,-1,-1,-1,-1,-1,-1],"split_conditions":[4.2390537E-2,2.1248825E-2,7.194601E-2,1.3609374E-2,4.7768805E-2,5.6239404E-2,9.867552E-2,8.709954E-3,1.760677E-2,4.2390537E-2,1.0861636E-1,4.958791E-2,6.40243E-2,8.368494E-2,1.1752732E-1,0E0,1.12360595E-2,1.5582121E-2,1.9470556E-2,2.696731E-2,3.4812033E-2,2.9060971E-2,4.2390537E-2,4.3981403E-2,5.283921E-2,5.9445783E-2,6.8499535E-2,7.718325E-2,9.056365E-2,1.3940136E-1,2.0333823E-2,-5.8470103E-3,6.837408E-3,9.978992E-3,1.2378027E-2,1.4681534E-2,1.6801767E-2,1.8629052E-2,2.0453246E-2,2.3655217E-2,3.181337E-2,2.3582492E-2,8.000001E-2,2.5752258E-2,1.8494261E-2,3.5540715E-2,2.610257E-1,2.9454809E-2,3.2937787E-2,4.860253E-3,5.605436E-3,6.198671E-3,7.0834993E-3,7.974372E-3,8.8946E-3,9.7796265E-3,1.0886029E-2,1.2313838E-2,1.400025E-2,1.4654749E-2,1.7526945E-2,-4.5924755E-3,-4.2203134E-3,-3.8732423E-3,-3.6292973E-3,-3.3729824E-3,-3.1252082E-3,-2.8827875E-3,-2.6805585E-3,-2.4534538E-3,-2.2386378E-3,-2.0542385E-3,-1.8553125E-3,-1.6560477E-3,-1.4740179E-3,-1.1815731E-3,-5.9112324E-4,3.290176E-4,1.4327413E-3,-4.1370057E-3,-3.1083657E-3,-1.2175704E-3,-2.707043E-3,-8.813176E-4,-1.231047E-4,8.033343E-4,2.689439E-3,5.920765E-4,2.3249465E-3,5.9331474E-3,1.47927115E-2,3.6786632E-3,2.1532762E-3,4.2383494E-3,3.084351E-3],"split_indices":[34,34,34,34,10,34,34,34,34,34,10,34,34,34,34,30,34,34,34,34,10,34,34,34,34,34,34,34,34,10,0,0,34,34,34,34,34,34,34,34,34,10,13,34,30,34,12,30,30,0,0,0,0,0,0,0,0,0,0,0,0,0,0,0,0,0,0,0,0,0,0,0,0,0,0,0,0,0,0,0,0,0,0,0,0,0,0,0,0,0,0,0,0,0,0],"split_type":[0,0,0,0,0,0,0,0,0,0,0,0,0,0,0,0,0,0,0,0,0,0,0,0,0,0,0,0,0,0,0,0,0,0,0,0,0,0,0,0,0,0,0,0,0,0,0,0,0,0,0,0,0,0,0,0,0,0,0,0,0,0,0,0,0,0,0,0,0,0,0,0,0,0,0,0,0,0,0,0,0,0,0,0,0,0,0,0,0,0,0,0,0,0,0],"sum_hessian":[4.9492E4,4.2943E4,6.549E3,1.8957E4,2.3986E4,4.515E3,2.034E3,1.039E4,8.567E3,7.578E3,1.6408E4,2.644E3,1.871E3,1.554E3,4.8E2,3.235E3,7.155E3,4.206E3,4.361E3,3.426E3,4.152E3,1.3421E4,2.987E3,1.705E3,9.39E2,9.33E2,9.38E2,1.086E3,4.68E2,3.13E2,1.67E2,4.38E2,2.797E3,3.424E3,3.731E3,2.181E3,2.025E3,2.022E3,2.339E3,2.309E3,1.117E3,2.379E3,1.773E3,4.296E3,9.125E3,1.95E3,1.037E3,6.22E2,1.083E3,4.76E2,4.63E2,3.16E2,6.17E2,6.22E2,3.16E2,6.22E2,4.64E2,3.11E2,1.57E2,7.7E1,2.36E2,7.75E2,2.022E3,1.714E3,1.71E3,2.02E3,1.711E3,1.409E3,7.72E2,1.092E3,9.33E2,1.088E3,9.34E2,1.235E3,1.104E3,1.417E3,8.92E2,8.31E2,2.86E2,8.6E2,1.519E3,1.125E3,6.48E2,2.898E3,1.398E3,7.197E3,1.928E3,7.21E2,1.229E3,8.4E2,1.97E2,5.85E2,3.7E1,1.045E3,3.8E1],"tree_param":{"num_deleted":"0","num_feature":"36","num_nodes":"95","size_leaf_vector":"1"}},{"base_weights":[4.0674145E-6,-3.1703091E-3,1.6584827E-2,-5.4389257E-3,2.8947939E-3,1.1552331E-2,2.857142E-2,-7.17788E-3,-7.796087E-4,-1.150608E-3,7.5126374E-3,9.285148E-3,1.6699718E-2,2.4278322E-2,4.006013E-2,-9.12056E-3,-5.863429E-3,-2.4121222E-3,2.3529376E-3,-4.0168306E-3,5.4492016E-4,6.6876328E-3,3.6897104E-2,8.146405E-3,1.0984018E-2,4.370671E-3,1.789923E-2,2.245163E-2,2.7425231E-2,3.469269E-2,4.502724E-2,-1.066579E-2,-8.4579885E-3,-5.9671104E-3,6.6969637E-3,-3.392698E-3,-1.267019E-3,1.1247717E-3,4.3290257E-3,-4.069263E-3,-3.5176398E-3,-5.955367E-4,2.2856544E-3,3.3684138E-3,1.2076676E-2,3.0021561E-2,1.7235527E-2,8.342513E-3,5.2354634E-3,1.0310786E-2,3.7608542E-3,5.144382E-3,5.6599127E-3,6.293816E-3,7.058921E-3,7.7999835E-3,8.6315265E-3,9.934564E-3,1.1320869E-2,1.2886072E-2,1.5697297E-2,-4.0937755E-3,-3.0723428E-3,-2.6814374E-3,-2.3769308E-3,-2.1570302E-3,-1.5531249E-3,-4.648818E-4,2.5424638E-3,-1.051712E-3,-7.927297E-4,-5.864366E-4,-2.6823048E-4,1.9860729E-4,5.694963E-4,1.0497962E-3,1.5166826E-3,-1.425491E-3,-8.8749273E-4,-3.7091898E-4,1.025887E-5,7.590502E-4,2.531609E-4,1.7535656E-3,-2.4252589E-4,1.4225412E-3,5.261295E-3,1.9046515E-3,1.0107758E-2,2.262949E-3,2.6200404E-3,2.3226342E-3,8.653949E-4,2.9844516E-3,3.2326675E-3],"categories":[],"categories_nodes":[],"categories_segments":[],"categories_sizes":[],"default_left":[1,0,0,1,0,0,0,0,0,0,1,0,0,0,0,0,1,0,0,0,0,1,0,0,0,0,0,0,0,0,0,0,0,0,0,0,0,0,0,0,0,0,0,1,0,1,0,0,1,0,0,0,0,0,0,0,0,0,0,0,0,0,0,0,0,0,0,0,0,0,0,0,0,0,0,0,0,0,0,0,0,0,0,0,0,0,0,0,0,0,0,0,0,0,0],"id":2,"left_children":[1,3,5,7,9,11,13,15,17,19,21,23,25,27,29,31,33,35,37,39,41,43,45,47,49,-1,51,53,55,57,59,61,63,65,67,69,71,73,75,-1,77,79,81,83,85,87,-1,89,91,93,-1,-1,-1,-1,-1,-1,-1,-1,-1,-1,-1,-1,-1,-1,-1,-1,-1,-1,-1,-1,-1,-1,-1,-1,-1,-1,-1,-1,-1,-1,-1,-1,-1,-1,-1,-1,-1,-1,-1,-1,-1,-1,-1,-1,-1],"loss_changes":[2.605046E0,5.7159466E-1,4.7941446E-1,2.4495256E-1,2.1127245E-1,6.523228E-2,1.149838E-1,5.6165576E-2,4.20319E-2,2.9301688E-2,1.2777701E-1,7.4399114E-3,4.1150153E-3,9.237051E-3,1.5447378E-2,9.004474E-3,1.7144084E-2,6.062519E-3,6.829464E-3,1.0632813E-2,7.5234063E-3,9.1864884E-2,1.862593E-2,1.288712E-3,1.4998615E-3,0E0,4.6920776E-4,1.2364388E-3,4.5138597E-4,2.4348497E-4,2.7157068E-3,3.2289922E-3,1.527071E-3,1.254943E-2,1.5965961E-3,2.374649E-4,6.379164E-4,6.208739E-4,6.327834E-4,0E0,1.4567841E-3,9.242188E-4,5.266676E-4,3.291281E-2,7.834557E-2,9.345286E-3,0E0,6.169528E-4,8.61567E-4,7.70092E-5,0E0,0E0,0E0,0E0,0E0,0E0,0E0,0E0,0E0,0E0,0E0,0E0,0E0,0E0,0E0,0E0,0E0,0E0,0E0,0E0,0E0,0E0,0E0,0E0,0E0,0E0,0E0,0E0,0E0,0E0,0E0,0E0,0E0,0E0,0E0,0E0,0E0,0E0,0E0,0E0,0E0,0E0,0E0,0E0,0E0],"parents":[2147483647,0,0,1,1,2,2,3,3,4,4,5,5,6,6,7,7,8,8,9,9,10,10,11,11,12,12,13,13,14,14,15,15,16,16,17,17,18,18,19,19,20,20,21,21,22,22,23,23,24,24,26,26,27,27,28,28,29,29,30,30,31,31,32,32,33,33,34,34,35,35,36,36,37,37,38,38,40,40,41,41,42,42,43,43,44,44,45,45,47,47,48,48,49,49],"right_children":[2,4,6,8,10,12,14,16,18,20,22,24,26,28,30,32,34,36,38,40,42,44,46,48,50,-1,52,54,56,58,60,62,64,66,68,70,72,74,76,-1,78,80,82,84,86,88,-1,90,92,94,-1,-1,-1,-1,-1,-1,-1,-1,-1,-1,-1,-1,-1,-1,-1,-1,-1,-1,-1,-1,-1,-1,-1,-1,-1,-1,-1,-1,-1,-1,-1,-1,-1,-1,-1,-1,-1,-1,-1,-1,-1,-1,-1,-1,-1],"split_conditions":[3.95833E-2,6.492391E-2,6.8499535E-2,1.976849E-2,3.5197675E-2,5.5142995E-2,9.056365E-2,1.2609227E-2,2.791661E-2,2.3892513E-2,3.914449E-2,4.5024335E-2,6.0677927E-2,7.866723E-2,1.0974953E-1,8.243491E-3,2.0368055E-2,2.3101173E-2,3.2688573E-2,5.7607167E-3,3.102411E-2,1.5255247E-1,6.049374E-2,3.0024035E-2,5.1755115E-2,4.370671E-3,6.5029696E-2,7.317082E-2,8.368494E-2,1.3550864E-1,1.6517477E-1,0E0,1.0814953E-2,2.8854275E-2,2.7999997E-1,2.2367196E-2,2.4414718E-2,3.081045E-2,3.6420934E-2,-4.069263E-3,2.0173663E-2,2.677337E-2,1.7674094E-2,1.5E-1,2.2271127E-2,3.6999997E-1,1.7235527E-2,4.1112006E-2,8.258738E-2,4.854424E-2,3.7608542E-3,5.144382E-3,5.6599127E-3,6.293816E-3,7.058921E-3,7.7999835E-3,8.6315265E-3,9.934564E-3,1.1320869E-2,1.2886072E-2,1.5697297E-2,-4.0937755E-3,-3.0723428E-3,-2.6814374E-3,-2.3769308E-3,-2.1570302E-3,-1.5531249E-3,-4.648818E-4,2.5424638E-3,-1.051712E-3,-7.927297E-4,-5.864366E-4,-2.6823048E-4,1.9860729E-4,5.694963E-4,1.0497962E-3,1.5166826E-3,-1.425491E-3,-8.8749273E-4,-3.7091898E-4,1.025887E-5,7.590502E-4,2.531609E-4,1.7535656E-3,-2.4252589E-4,1.4225412E-3,5.261295E-3,1.9046515E-3,1.0107758E-2,2.262949E-3,2.6200404E-3,2.3226342E-3,8.653949E-4,2.9844516E-3,3.2326675E-3],"split_indices":[34,10,34,34,34,34,34,34,34,34,30,34,34,34,34,34,30,34,34,34,34,12,30,30,34,0,34,34,34,10,10,30,34,22,19,34,34,34,34,0,34,34,30,15,30,27,0,34,22,34,0,0,0,0,0,0,0,0,0,0,0,0,0,0,0,0,0,0,0,0,0,0,0,0,0,0,0,0,0,0,0,0,0,0,0,0,0,0,0,0,0,0,0,0,0],"split_type":[0,0,0,0,0,0,0,0,0,0,0,0,0,0,0,0,0,0,0,0,0,0,0,0,0,0,0,0,0,0,0,0,0,0,0,0,0,0,0,0,0,0,0,0,0,0,0,0,0,0,0,0,0,0,0,0,0,0,0,0,0,0,0,0,0,0,0,0,0,0,0,0,0,0,0,0,0,0,0,0,0,0,0,0,0,0,0,0,0,0,0,0,0,0,0],"sum_hessian":[4.9492E4,4.154E4,7.952E3,3.0232E4,1.1308E4,5.602E3,2.35E3,2.2015E4,8.217E3,6.028E3,5.28E3,3.891E3,1.711E3,1.713E3,6.37E2,8.882E3,1.3133E4,5.402E3,2.815E3,2.24E3,3.788E3,5.137E3,1.43E2,2.333E3,1.558E3,6.21E2,1.09E3,1.089E3,6.24E2,3.1E2,3.27E2,2.661E3,6.221E3,1.3026E4,1.07E2,2.909E3,2.493E3,1.737E3,1.078E3,1.1E2,2.13E3,2.289E3,1.499E3,3.18E3,1.957E3,1.09E2,3.4E1,2.184E3,1.49E2,1.092E3,4.66E2,6.24E2,4.66E2,4.69E2,6.2E2,3.13E2,3.11E2,2.12E2,9.8E1,2.6E2,6.7E1,3.28E2,2.333E3,3.27E3,2.951E3,5.109E3,7.917E3,1.9E1,8.8E1,2.525E3,3.84E2,8.75E2,1.618E3,1.088E3,6.49E2,5.06E2,5.72E2,6.62E2,1.468E3,1.134E3,1.155E3,1.281E3,2.18E2,1.996E3,1.184E3,8.36E2,1.121E3,1.5E1,9.4E1,7.24E2,1.46E3,7.1E1,7.8E1,6.26E2,4.66E2],"tree_param":{"num_deleted":"0","num_feature":"36","num_nodes":"95","size_leaf_vector":"1"}},{"base_weights":[5.501157E-6,-2.2450674E-3,1.1499952E-2,-3.6197724E-3,2.8930644E-3,7.839837E-3,1.9663494E-2,-5.194271E-3,-7.524197E-4,7.371708E-4,8.42505E-3,6.2433807E-3,1.1038829E-2,1.6769294E-2,2.8120207E-2,-6.663559E-3,-4.422689E-3,-1.7789571E-3,1.984493E-3,-1.5553848E-3,2.3191504E-3,1.4757465E-2,2.3440584E-3,5.4476275E-3,7.1759243E-3,9.54876E-3,1.2101815E-2,1.55255655E-2,1.922395E-2,2.4353227E-2,3.1606212E-2,-8.726991E-3,-6.3803447E-3,-4.5377323E-3,4.6813395E-3,-2.4850285E-3,-9.017218E-4,1.0300496E-3,2.9955436E-3,-2.9827757E-3,-4.422475E-4,1.8758845E-3,5.002101E-3,6.907017E-3,2.1944765E-2,2.8521946E-4,2.3486322E-2,5.5765277E-3,3.5768666E-3,6.8730637E-3,7.948826E-3,2.6713782E-3,2.9844092E-3,3.3912542E-3,3.8051056E-3,4.426898E-3,5.0388756E-3,5.46744E-3,6.0503674E-3,7.4959816E-3,6.0791713E-3,8.861548E-3,1.0646889E-2,-2.8728286E-3,-2.38421E-3,-2.0594238E-3,-1.7999249E-3,-1.1436918E-3,-1.596837E-3,-1.6575217E-3,2.111062E-3,-8.0974825E-4,-6.7350175E-4,-3.355687E-4,-6.461476E-5,1.778443E-4,4.784163E-4,7.803912E-4,1.0932691E-3,-2.7758845E-3,-8.4780523E-4,-3.1323466E-4,-1.9598598E-5,5.548779E-4,1.2877726E-2,2.0504626E-4,3.2935883E-3,1.0190218E-3,4.358822E-3,9.01128E-4,7.548268E-3,4.1952194E-3,-3.9257138E-4,5.297885E-3,1.5231118E-2,1.4534367E-3,1.7396484E-3,1.5936411E-3,5.0393445E-4,1.5689034E-3,2.0830263E-3,2.2946864E-3,2.5485423E-3],"categories":[],"categories_nodes":[],"categories_segments":[],"categories_sizes":[],"default_left":[1,1,0,1,0,0,0,0,0,0,0,0,0,0,0,0,1,0,0,0,0,0,1,0,0,0,0,0,0,0,0,0,0,0,0,0,0,0,0,0,0,1,0,1,0,0,0,0,1,0,0,0,0,0,0,0,0,0,0,0,0,0,0,0,0,0,0,0,0,0,0,0,0,0,0,0,0,0,0,0,0,0,0,0,0,0,0,0,0,0,0,0,0,0,0,0,0,0,0,0,0,0,0],"id":3,"left_children":[1,3,5,7,9,11,13,15,17,19,21,23,25,27,29,31,33,35,37,39,41,43,45,47,49,51,53,55,57,59,61,63,65,67,69,71,73,75,77,79,81,83,85,87,89,91,93,95,97,99,101,-1,-1,-1,-1,-1,-1,-1,-1,-1,-1,-1,-1,-1,-1,-1,-1,-1,-1,-1,-1,-1,-1,-1,-1,-1,-1,-1,-1,-1,-1,-1,-1,-1,-1,-1,-1,-1,-1,-1,-1,-1,-1,-1,-1,-1,-1,-1,-1,-1,-1,-1,-1],"loss_changes":[1.2803626E0,2.923652E-1,2.4198925E-1,1.4741722E-1,1.0419452E-1,2.851525E-2,6.0912788E-2,2.386731E-2,3.2526806E-2,2.2808775E-2,9.4308436E-2,2.7332902E-3,2.8336942E-3,5.4135323E-3,7.608354E-3,4.1846335E-3,1.44999325E-2,5.2124113E-3,3.0443557E-3,4.0789307E-3,4.415853E-3,6.755665E-2,5.4447472E-2,4.6715513E-4,3.4728646E-4,1.1202693E-4,3.592819E-4,9.7104907E-4,2.2189319E-4,2.991855E-4,1.5854836E-3,5.0180405E-4,1.1357963E-3,7.7545345E-3,4.198067E-3,2.3365393E-4,5.587498E-4,4.005048E-4,3.8256682E-4,1.0796152E-3,3.2751096E-4,3.3688731E-3,1.3594528E-2,1.5335752E-2,3.805828E-2,2.4929855E-2,1.6749777E-2,2.7902052E-4,4.2890687E-4,1.0717288E-4,1.3165176E-5,0E0,0E0,0E0,0E0,0E0,0E0,0E0,0E0,0E0,0E0,0E0,0E0,0E0,0E0,0E0,0E0,0E0,0E0,0E0,0E0,0E0,0E0,0E0,0E0,0E0,0E0,0E0,0E0,0E0,0E0,0E0,0E0,0E0,0E0,0E0,0E0,0E0,0E0,0E0,0E0,0E0,0E0,0E0,0E0,0E0,0E0,0E0,0E0,0E0,0E0,0E0,0E0],"parents":[2147483647,0,0,1,1,2,2,3,3,4,4,5,5,6,6,7,7,8,8,9,9,10,10,11,11,12,12,13,13,14,14,15,15,16,16,17,17,18,18,19,19,20,20,21,21,22,22,23,23,24,24,25,25,26,26,27,27,28,28,29,29,30,30,31,31,32,32,33,33,34,34,35,35,36,36,37,37,38,38,39,39,40,40,41,41,42,42,43,43,44,44,45,45,46,46,47,47,48,48,49,49,50,50],"right_children":[2,4,6,8,10,12,14,16,18,20,22,24,26,28,30,32,34,36,38,40,42,44,46,48,50,52,54,56,58,60,62,64,66,68,70,72,74,76,78,80,82,84,86,88,90,92,94,96,98,100,102,-1,-1,-1,-1,-1,-1,-1,-1,-1,-1,-1,-1,-1,-1,-1,-1,-1,-1,-1,-1,-1,-1,-1,-1,-1,-1,-1,-1,-1,-1,-1,-1,-1,-1,-1,-1,-1,-1,-1,-1,-1,-1,-1,-1,-1,-1,-1,-1,-1,-1,-1,-1],"split_conditions":[3.925053E-2,5.3906936E-2,6.687525E-2,1.8117798E-2,3.543382E-2,5.283921E-2,9.056365E-2,1.1591275E-2,2.8307071E-2,2.9599795E-2,-3.4777053E-2,4.362398E-2,5.9445783E-2,7.866723E-2,1.0974953E-1,6.405896E-3,2.0368055E-2,2.3000976E-2,3.3847883E-2,2.3000976E-2,1.9010361E-2,-4.4545677E-2,2.8857918E-2,2.9454809E-2,4.958791E-2,5.5142995E-2,6.285026E-2,7.4574456E-2,8.368494E-2,-6.1969217E-2,1.6081119E-1,0E0,9.087621E-3,7.999998E-2,3.6999997E-1,2.067139E-2,2.6140617E-2,3.1423636E-2,3.690548E-2,-1.6647033E-2,2.6140617E-2,3.299803E-1,3.925053E-2,0E0,-1.6064402E-2,3.9000002E-1,1.4319174E-1,4.0307492E-2,8.258738E-2,-8.501039E-2,5.1755115E-2,2.6713782E-3,2.9844092E-3,3.3912542E-3,3.8051056E-3,4.426898E-3,5.0388756E-3,5.46744E-3,6.0503674E-3,7.4959816E-3,6.0791713E-3,8.861548E-3,1.0646889E-2,-2.8728286E-3,-2.38421E-3,-2.0594238E-3,-1.7999249E-3,-1.1436918E-3,-1.596837E-3,-1.6575217E-3,2.111062E-3,-8.0974825E-4,-6.7350175E-4,-3.355687E-4,-6.461476E-5,1.778443E-4,4.784163E-4,7.803912E-4,1.0932691E-3,-2.7758845E-3,-8.4780523E-4,-3.1323466E-4,-1.9598598E-5,5.548779E-4,1.2877726E-2,2.0504626E-4,3.2935883E-3,1.0190218E-3,4.358822E-3,9.01128E-4,7.548268E-3,4.1952194E-3,-3.9257138E-4,5.297885E-3,1.5231118E-2,1.4534367E-3,1.7396484E-3,1.5936411E-3,5.0393445E-4,1.5689034E-3,2.0830263E-3,2.2946864E-3,2.5485423E-3],"split_indices":[34,22,34,34,30,34,34,34,34,34,20,34,34,34,34,34,30,34,34,34,30,16,20,30,34,34,34,34,34,4,10,30,34,13,27,34,34,34,34,30,34,12,34,28,28,21,10,34,22,16,34,0,0,0,0,0,0,0,0,0,0,0,0,0,0,0,0,0,0,0,0,0,0,0,0,0,0,0,0,0,0,0,0,0,0,0,0,0,0,0,0,0,0,0,0,0,0,0,0,0,0,0,0],"split_type":[0,0,0,0,0,0,0,0,0,0,0,0,0,0,0,0,0,0,0,0,0,0,0,0,0,0,0,0,0,0,0,0,0,0,0,0,0,0,0,0,0,0,0,0,0,0,0,0,0,0,0,0,0,0,0,0,0,0,0,0,0,0,0,0,0,0,0,0,0,0,0,0,0,0,0,0,0,0,0,0,0,0,0,0,0,0,0,0,0,0,0,0,0,0,0,0,0,0,0,0,0,0,0],"sum_hessian":[4.9492E4,4.1389E4,8.103E3,3.2653E4,8.736E3,5.596E3,2.507E3,2.1078E4,1.1575E4,6.287E3,2.449E3,3.735E3,1.861E3,1.87E3,6.37E2,7.255E3,1.3823E4,8.418E3,3.157E3,2.567E3,3.72E3,1.199E3,1.25E3,2.019E3,1.716E3,7.79E2,1.082E3,1.246E3,6.24E2,3.1E2,3.27E2,8.72E2,6.383E3,1.3651E4,1.72E2,4.663E3,3.755E3,1.625E3,1.532E3,1.124E3,1.443E3,3.194E3,5.26E2,5.74E2,6.25E2,1.14E3,1.1E2,1.887E3,1.32E2,1.24E3,4.76E2,3.07E2,4.72E2,4.65E2,6.17E2,7.84E2,4.62E2,3.13E2,3.11E2,2.64E2,4.6E1,2.19E2,1.08E2,4.12E2,4.6E2,2.801E3,3.582E3,7.098E3,6.553E3,3.2E1,1.4E2,2.459E3,2.204E3,2.853E3,9.02E2,9.17E2,7.08E2,9.56E2,5.76E2,2.6E1,1.098E3,5.55E2,8.88E2,3.193E3,1E0,3.06E2,2.2E2,3.94E2,1.8E2,9.1E1,5.34E2,1.18E2,1.022E3,9.2E1,1.8E1,4.45E2,1.442E3,6.8E1,6.4E1,5.4E1,1.186E3,3.17E2,1.59E2],"tree_param":{"num_deleted":"0","num_feature":"36","num_nodes":"103","size_leaf_vector":"1"}},{"base_weights":[6.297203E-6,-1.6074086E-3,7.883827E-3,-2.626474E-3,2.0532506E-3,5.3769653E-3,1.3786003E-2,-3.797578E-3,-7.4790214E-4,2.76235E-4,6.2932316E-3,4.2212564E-3,7.5976574E-3,1.2074818E-2,2.097207E-2,-4.293761E-3,-2.6043276E-3,-1.4789882E-3,8.65468E-4,-1.3651702E-3,1.5155493E-3,4.090489E-3,1.567526E-2,3.7464648E-3,4.9289055E-3,6.389465E-3,8.350308E-3,1.1033676E-2,1.43836E-2,2.0181002E-2,8.306314E-3,-5.0939997E-3,-3.6851843E-3,-3.9266E-3,-9.4779185E-4,-1.8280249E-3,-8.005929E-4,1.8126672E-4,1.7122605E-3,-3.7100818E-3,-1.0388878E-3,7.6830247E-3,1.296559E-3,7.121832E-3,6.633554E-4,1.0558889E-2,2.7611285E-2,3.87753E-3,2.078748E-3,4.9682045E-3,3.2708703E-3,1.8478624E-3,2.013322E-3,2.3425512E-3,2.6654212E-3,3.0400527E-3,3.5240347E-3,4.024162E-3,4.5886603E-3,6.2418063E-3,4.556821E-3,-2.195978E-3,-1.4762022E-3,-1.1938035E-3,-8.9824916E-4,-1.8217615E-3,-1.005541E-3,2.064462E-4,-1.0056961E-3,-6.140137E-4,-5.1661266E-4,-3.2445398E-4,-1.7103486E-4,8.2900035E-5,-2.9492943E-4,3.7828964E-4,6.722087E-4,-1.9967242E-3,-9.179649E-4,-5.1668176E-4,-1.6073682E-4,8.868684E-4,6.484673E-3,3.8277084E-4,1.0946067E-2,-6.7512656E-4,2.9718364E-3,-6.059884E-4,1.770642E-3,1.5136778E-3,5.344892E-3,-1.0188471E-3,9.805601E-3,1.2029344E-3,9.718127E-4,7.5210916E-4,-2.104327E-3,1.3412655E-3,1.52681E-3,3.7631855E-4,1.827346E-3],"categories":[],"categories_nodes":[],"categories_segments":[],"categories_sizes":[],"default_left":[1,1,0,1,0,0,0,0,0,0,0,0,0,0,0,1,1,0,0,0,0,0,0,0,0,0,0,0,0,0,0,0,0,0,0,0,0,0,0,0,0,0,0,0,1,1,1,1,1,0,0,0,0,0,0,0,0,0,0,0,0,0,0,0,0,0,0,0,0,0,0,0,0,0,0,0,0,0,0,0,0,0,0,0,0,0,0,0,0,0,0,0,0,0,0,0,0,0,0,0,0],"id":4,"left_children":[1,3,5,7,9,11,13,15,17,19,21,23,25,27,29,31,33,35,37,39,41,43,45,47,49,51,53,55,57,59,-1,61,63,65,67,69,71,73,75,77,79,81,83,85,87,89,91,93,95,97,99,-1,-1,-1,-1,-1,-1,-1,-1,-1,-1,-1,-1,-1,-1,-1,-1,-1,-1,-1,-1,-1,-1,-1,-1,-1,-1,-1,-1,-1,-1,-1,-1,-1,-1,-1,-1,-1,-1,-1,-1,-1,-1,-1,-1,-1,-1,-1,-1,-1,-1],"loss_changes":[6.2916845E-1,1.5324861E-1,1.24433696E-1,7.069203E-2,6.7402005E-2,1.5130669E-2,3.0586839E-2,1.1708289E-2,1.4557643E-2,1.2827806E-2,5.4535955E-2,1.2878403E-3,1.7844364E-3,4.716158E-3,1.996562E-3,6.7890584E-3,1.2735598E-2,2.009552E-3,2.2297099E-3,2.071871E-3,4.842804E-3,2.2237737E-2,3.0365162E-2,5.0145015E-4,8.526817E-5,1.6339123E-5,2.9025972E-4,7.8092515E-4,3.4929812E-4,1.0379553E-3,0E0,2.2927374E-3,1.6028807E-3,3.9687157E-3,1.0162998E-2,1.264289E-4,1.863041E-4,2.3604638E-4,4.073605E-4,6.135884E-4,8.1837573E-4,8.036429E-3,2.476518E-3,2.9666275E-2,1.4153583E-2,1.4034443E-2,2.3711003E-2,1.69307E-4,6.8743015E-4,6.883219E-5,2.1415355E-4,0E0,0E0,0E0,0E0,0E0,0E0,0E0,0E0,0E0,0E0,0E0,0E0,0E0,0E0,0E0,0E0,0E0,0E0,0E0,0E0,0E0,0E0,0E0,0E0,0E0,0E0,0E0,0E0,0E0,0E0,0E0,0E0,0E0,0E0,0E0,0E0,0E0,0E0,0E0,0E0,0E0,0E0,0E0,0E0,0E0,0E0,0E0,0E0,0E0,0E0],"parents":[2147483647,0,0,1,1,2,2,3,3,4,4,5,5,6,6,7,7,8,8,9,9,10,10,11,11,12,12,13,13,14,14,15,15,16,16,17,17,18,18,19,19,20,20,21,21,22,22,23,23,24,24,25,25,26,26,27,27,28,28,29,29,31,31,32,32,33,33,34,34,35,35,36,36,37,37,38,38,39,39,40,40,41,41,42,42,43,43,44,44,45,45,46,46,47,47,48,48,49,49,50,50],"right_children":[2,4,6,8,10,12,14,16,18,20,22,24,26,28,30,32,34,36,38,40,42,44,46,48,50,52,54,56,58,60,-1,62,64,66,68,70,72,74,76,78,80,82,84,86,88,90,92,94,96,98,100,-1,-1,-1,-1,-1,-1,-1,-1,-1,-1,-1,-1,-1,-1,-1,-1,-1,-1,-1,-1,-1,-1,-1,-1,-1,-1,-1,-1,-1,-1,-1,-1,-1,-1,-1,-1,-1,-1,-1,-1,-1,-1,-1,-1,-1,-1,-1,-1,-1,-1],"split_conditions":[3.8475856E-2,1.06931806E-1,6.687525E-2,1.7103441E-2,2.7537663E-2,5.1755115E-2,9.867552E-2,1.0099483E-2,2.6462585E-2,2.856123E-2,2.0997965E-1,4.362398E-2,5.7637073E-2,8.021385E-2,1.6972716E-1,9.799227E-3,6.0138088E-2,2.2647254E-2,3.2124646E-2,1.760677E-2,3.9000002E-1,-2.6312673E-2,-8.723901E-2,2.9454809E-2,3.4540482E-2,5.5142995E-2,6.285026E-2,7.317082E-2,8.700608E-2,-6.9389805E-2,8.306314E-3,0E0,1.4050467E-2,1.9894112E-2,-1.4704921E-2,1.8878233E-2,2.4123166E-2,2.8465621E-2,3.5375077E-2,-2.4803007E-2,2.322563E-2,8.860006E-2,3.299803E-1,4.056941E-2,-1.2810854E-2,-2.4803007E-2,7.254719E-2,8.503164E-2,1.5297851E-1,4.4542253E-2,-2.2596657E-2,1.8478624E-3,2.013322E-3,2.3425512E-3,2.6654212E-3,3.0400527E-3,3.5240347E-3,4.024162E-3,4.5886603E-3,6.2418063E-3,4.556821E-3,-2.195978E-3,-1.4762022E-3,-1.1938035E-3,-8.9824916E-4,-1.8217615E-3,-1.005541E-3,2.064462E-4,-1.0056961E-3,-6.140137E-4,-5.1661266E-4,-3.2445398E-4,-1.7103486E-4,8.2900035E-5,-2.9492943E-4,3.7828964E-4,6.722087E-4,-1.9967242E-3,-9.179649E-4,-5.1668176E-4,-1.6073682E-4,8.868684E-4,6.484673E-3,3.8277084E-4,1.0946067E-2,-6.7512656E-4,2.9718364E-3,-6.059884E-4,1.770642E-3,1.5136778E-3,5.344892E-3,-1.0188471E-3,9.805601E-3,1.2029344E-3,9.718127E-4,7.5210916E-4,-2.104327E-3,1.3412655E-3,1.52681E-3,3.7631855E-4,1.827346E-3],"split_indices":[34,12,34,34,30,34,34,30,34,34,12,34,34,34,10,34,12,34,34,34,21,20,4,30,30,34,34,34,34,4,0,30,34,22,20,34,34,30,34,0,34,22,12,26,18,28,26,22,22,34,16,0,0,0,0,0,0,0,0,0,0,0,0,0,0,0,0,0,0,0,0,0,0,0,0,0,0,0,0,0,0,0,0,0,0,0,0,0,0,0,0,0,0,0,0,0,0,0,0,0,0],"split_type":[0,0,0,0,0,0,0,0,0,0,0,0,0,0,0,0,0,0,0,0,0,0,0,0,0,0,0,0,0,0,0,0,0,0,0,0,0,0,0,0,0,0,0,0,0,0,0,0,0,0,0,0,0,0,0,0,0,0,0,0,0,0,0,0,0,0,0,0,0,0,0,0,0,0,0,0,0,0,0,0,0,0,0,0,0,0,0,0,0,0,0,0,0,0,0,0,0,0,0,0,0],"sum_hessian":[4.9492E4,4.1078E4,8.414E3,3.2133E4,8.945E3,5.907E3,2.507E3,1.9793E4,1.234E4,6.304E3,2.641E3,3.887E3,2.02E3,2.027E3,4.8E2,1.3978E4,5.815E3,8.492E3,3.848E3,2.712E3,3.592E3,2.14E3,5.01E2,2.33E3,1.557E3,7.79E2,1.241E3,1.401E3,6.26E2,4.33E2,4.7E1,6.035E3,7.943E3,3.233E3,2.582E3,5.606E3,2.886E3,2.129E3,1.719E3,3.3E2,2.382E3,1.22E2,3.47E3,1.135E3,1.005E3,3.52E2,1.49E2,2.159E3,1.71E2,1.519E3,3.8E1,4.66E2,3.13E2,6.24E2,6.17E2,6.26E2,7.75E2,3.11E2,3.15E2,3.82E2,5.1E1,4.33E2,5.602E3,5.568E3,2.375E3,6.81E2,2.552E3,1.537E3,1.045E3,1.824E3,3.782E3,1.299E3,1.587E3,1.969E3,1.6E2,9.29E2,7.9E2,5.8E1,2.72E2,1.009E3,1.373E3,9.2E1,3E1,3.469E3,1E0,2.6E2,8.75E2,6.65E2,3.4E2,2.01E2,1.51E2,2.1E1,1.28E2,1.784E3,3.75E2,1.64E2,7E0,3.05E2,1.214E3,2.3E1,1.5E1],"tree_param":{"num_deleted":"0","num_feature":"36","num_nodes":"101","size_leaf_vector":"1"}},{"base_weights":[5.8847013E-6,-1.0626937E-3,5.8589415E-3,-1.5826239E-3,2.6177666E-3,4.1629598E-3,1.00811105E-2,-2.2162197E-3,2.6515478E-4,7.505032E-3,1.158646E-3,3.3471808E-3,5.9345476E-3,8.769544E-3,1.4720168E-2,-3.0119962E-3,-1.5537693E-3,-3.0564074E-4,1.3828638E-3,3.4116018E-3,2.0687714E-2,8.071602E-4,1.4418545E-2,3.021312E-3,4.136486E-3,5.3451597E-3,6.4201048E-3,8.001456E-3,1.0082254E-2,1.37615055E-2,1.7865678E-2,-3.8831672E-3,-2.8312297E-3,-1.0116659E-3,-2.7517134E-3,-5.8303477E-4,4.6466146E-5,9.5339183E-4,1.9788675E-3,2.775289E-3,2.896936E-2,9.04274E-3,2.5751106E-2,1.0274039E-2,3.8760528E-4,-5.577541E-3,1.7368842E-2,3.2358824E-3,2.4322E-3,1.1392784E-3,4.383879E-3,5.0779027E-3,1.7163522E-3,1.8670884E-3,2.0338465E-3,2.24274E-3,2.5154634E-3,2.9218963E-3,3.486311E-3,1.4358352E-2,3.3720506E-3,6.1248923E-3,4.898448E-3,-1.3282745E-3,-1.078778E-3,-8.8214705E-4,-7.3744165E-4,-5.5693416E-4,9.902995E-5,-9.971071E-4,2.5217257E-6,-2.3231671E-4,-1.2446105E-4,2.8501849E-5,-2.2041354E-4,3.1488496E-4,-1.1265305E-5,7.5129844E-4,4.08779E-4,4.061915E-4,3.3415332E-3,9.82185E-3,4.864026E-3,4.947048E-3,-5.8974995E-4,8.955217E-3,2.1981217E-3,4.74268E-3,-1.8935087E-3,7.6704E-5,4.1697547E-3,-2.347877E-3,3.5483653E-3,-6.2482413E-3,5.542085E-3,7.342288E-4,9.933865E-4,8.072332E-4,1.7130373E-4,1.3258769E-3,1.0401555E-3,1.422348E-3,1.6013846E-3,4.339586E-3,2.7951912E-3],"categories":[],"categories_nodes":[],"categories_segments":[],"categories_sizes":[],"default_left":[1,1,0,1,0,0,0,0,0,0,1,0,0,0,0,0,1,0,0,1,0,0,0,1,0,0,0,0,0,1,0,0,0,1,1,0,0,0,0,0,0,0,0,0,0,0,0,0,0,0,0,0,0,0,0,0,0,0,0,0,0,0,0,0,0,0,0,0,0,0,0,0,0,0,0,0,0,0,0,0,0,0,0,0,0,0,0,0,0,0,0,0,0,0,0,0,0,0,0,0,0,0,0,0,0],"id":5,"left_children":[1,3,5,7,9,11,13,15,17,19,21,23,25,27,29,31,33,35,37,39,41,43,45,47,49,51,53,55,57,59,61,63,65,67,69,71,73,75,77,79,81,83,85,87,89,91,93,95,97,-1,99,101,-1,-1,-1,-1,-1,-1,-1,103,-1,-1,-1,-1,-1,-1,-1,-1,-1,-1,-1,-1,-1,-1,-1,-1,-1,-1,-1,-1,-1,-1,-1,-1,-1,-1,-1,-1,-1,-1,-1,-1,-1,-1,-1,-1,-1,-1,-1,-1,-1,-1,-1,-1,-1],"loss_changes":[3.0955774E-1,8.009332E-2,5.4673105E-2,4.293531E-2,3.6937587E-2,7.860944E-3,1.3189718E-2,1.4391601E-2,5.975137E-3,6.419862E-2,1.8589083E-2,9.4843656E-4,4.57339E-4,1.6424656E-3,1.2045875E-3,1.9425228E-3,9.676669E-3,6.055957E-4,8.0850394E-4,1.4718691E-2,1.6394727E-2,1.5442641E-2,6.173296E-3,3.2685325E-4,7.4652955E-5,4.9533322E-5,2.3972243E-5,1.5559793E-4,2.1735579E-4,3.9992481E-4,9.410083E-5,3.170073E-4,4.1170418E-4,1.1633706E-2,7.3300414E-3,1.1127547E-4,1.0370075E-4,1.7567992E-4,4.2565726E-4,1.0552192E-2,5.2719563E-4,7.1651526E-3,1.4585435E-2,1.5246823E-2,6.636329E-3,6.4052606E-4,4.182603E-3,1.0711886E-4,3.406396E-4,0E0,5.0710514E-6,1.549907E-5,0E0,0E0,0E0,0E0,0E0,0E0,0E0,2.585724E-5,0E0,0E0,0E0,0E0,0E0,0E0,0E0,0E0,0E0,0E0,0E0,0E0,0E0,0E0,0E0,0E0,0E0,0E0,0E0,0E0,0E0,0E0,0E0,0E0,0E0,0E0,0E0,0E0,0E0,0E0,0E0,0E0,0E0,0E0,0E0,0E0,0E0,0E0,0E0,0E0,0E0,0E0,0E0,0E0,0E0],"parents":[2147483647,0,0,1,1,2,2,3,3,4,4,5,5,6,6,7,7,8,8,9,9,10,10,11,11,12,12,13,13,14,14,15,15,16,16,17,17,18,18,19,19,20,20,21,21,22,22,23,23,24,24,25,25,26,26,27,27,28,28,29,29,30,30,31,31,32,32,33,33,34,34,35,35,36,36,37,37,38,38,39,39,40,40,41,41,42,42,43,43,44,44,45,45,46,46,47,47,48,48,50,50,51,51,59,59],"right_children":[2,4,6,8,10,12,14,16,18,20,22,24,26,28,30,32,34,36,38,40,42,44,46,48,50,52,54,56,58,60,62,64,66,68,70,72,74,76,78,80,82,84,86,88,90,92,94,96,98,-1,100,102,-1,-1,-1,-1,-1,-1,-1,104,-1,-1,-1,-1,-1,-1,-1,-1,-1,-1,-1,-1,-1,-1,-1,-1,-1,-1,-1,-1,-1,-1,-1,-1,-1,-1,-1,-1,-1,-1,-1,-1,-1,-1,-1,-1,-1,-1,-1,-1,-1,-1,-1,-1,-1],"split_conditions":[4.0307492E-2,6.862958E-2,7.062198E-2,2.2493994E-2,-4.580023E-2,5.6239404E-2,9.867552E-2,1.5442324E-2,3.155607E-2,-4.6352435E-2,3.2954365E-2,4.854424E-2,6.285026E-2,8.021385E-2,1.6081119E-1,7.797801E-3,-1.9202052E-2,2.6462585E-2,3.593797E-2,-3.6610756E-2,4.3000004E-1,3.9000002E-1,-6.773579E-2,8.258738E-2,5.1755115E-2,6.0677927E-2,6.687525E-2,7.4574456E-2,6.049374E-2,-3.564276E-2,-8.653068E-2,6.0472856E-3,1.3350462E-2,2.5095219E-2,7.955874E-3,2.4123166E-2,2.8465621E-2,2.4272079E-2,1.8494261E-2,1.06931806E-1,4.5999998E-1,-7.953274E-2,3.5E-1,6.544906E-3,2.5420664E-2,2.000001E-2,1.4999998E-1,4.1760866E-2,2.4272079E-2,1.1392784E-3,-3.505869E-2,8.749536E-2,1.7163522E-3,1.8670884E-3,2.0338465E-3,2.24274E-3,2.5154634E-3,2.9218963E-3,3.486311E-3,-6.707103E-2,3.3720506E-3,6.1248923E-3,4.898448E-3,-1.3282745E-3,-1.078778E-3,-8.8214705E-4,-7.3744165E-4,-5.5693416E-4,9.902995E-5,-9.971071E-4,2.5217257E-6,-2.3231671E-4,-1.2446105E-4,2.8501849E-5,-2.2041354E-4,3.1488496E-4,-1.1265305E-5,7.5129844E-4,4.08779E-4,4.061915E-4,3.3415332E-3,9.82185E-3,4.864026E-3,4.947048E-3,-5.8974995E-4,8.955217E-3,2.1981217E-3,4.74268E-3,-1.8935087E-3,7.6704E-5,4.1697547E-3,-2.347877E-3,3.5483653E-3,-6.2482413E-3,5.542085E-3,7.342288E-4,9.933865E-4,8.072332E-4,1.7130373E-4,1.3258769E-3,1.0401555E-3,1.422348E-3,1.6013846E-3,4.339586E-3,2.7951912E-3],"split_indices":[34,22,34,34,20,34,34,34,34,18,20,34,34,34,10,34,20,34,34,32,21,21,32,22,34,34,34,34,30,32,4,34,34,26,30,34,30,30,30,24,21,20,19,20,0,5,17,22,30,0,4,10,0,0,0,0,0,0,0,4,0,0,0,0,0,0,0,0,0,0,0,0,0,0,0,0,0,0,0,0,0,0,0,0,0,0,0,0,0,0,0,0,0,0,0,0,0,0,0,0,0,0,0,0,0],"split_type":[0,0,0,0,0,0,0,0,0,0,0,0,0,0,0,0,0,0,0,0,0,0,0,0,0,0,0,0,0,0,0,0,0,0,0,0,0,0,0,0,0,0,0,0,0,0,0,0,0,0,0,0,0,0,0,0,0,0,0,0,0,0,0,0,0,0,0,0,0,0,0,0,0,0,0,0,0,0,0,0,0,0,0,0,0,0,0,0,0,0,0,0,0,0,0,0,0,0,0,0,0,0,0,0,0],"sum_hessian":[4.9492E4,4.1852E4,7.64E3,3.6672E4,5.18E3,5.452E3,2.188E3,2.7308E4,9.364E3,1.19E3,3.99E3,3.735E3,1.717E3,1.708E3,4.8E2,1.2404E4,1.4904E4,6.199E3,3.165E3,9.09E2,2.81E2,3.888E3,1.02E2,2.647E3,1.088E3,7.81E2,9.36E2,1.082E3,6.26E2,3.72E2,1.08E2,2.128E3,1.0276E4,1.0262E4,4.642E3,3.467E3,2.732E3,1.841E3,1.324E3,8.88E2,2.1E1,8.6E1,1.95E2,1.64E2,3.724E3,1.3E1,8.9E1,1.937E3,7.1E2,4.66E2,6.22E2,4.65E2,3.16E2,6.17E2,3.19E2,4.65E2,6.17E2,5.18E2,1.08E2,2.97E2,7.5E1,3.6E1,7.2E1,7.3E2,1.398E3,7.943E3,2.333E3,6.297E3,3.965E3,3.845E3,7.97E2,1.62E3,1.847E3,2.573E3,1.59E2,1.678E3,1.63E2,7.13E2,6.11E2,7.6E2,1.28E2,1.5E1,6E0,5.1E1,3.5E1,1.59E2,3.6E1,1.23E2,4.1E1,3.689E3,3.5E1,1.2E1,1E0,2E0,8.7E1,1.72E2,1.765E3,6.23E2,8.7E1,5.95E2,2.7E1,2.11E2,2.54E2,2.89E2,8E0],"tree_param":{"num_deleted":"0","num_feature":"36","num_nodes":"105","size_leaf_vector":"1"}},{"base_weights":[5.827233E-6,-8.3842315E-4,3.7049411E-3,-1.2789931E-3,1.3969569E-3,2.599464E-3,6.9229323E-3,-1.8766607E-3,-3.9552993E-4,1.4051599E-4,3.8922462E-3,2.0691138E-3,3.866657E-3,5.85421E-3,9.783226E-3,-1.9289476E-3,7.546694E-3,-6.6056725E-4,4.736667E-4,5.9646065E-3,4.1201718E-5,-2.5547047E-3,5.5952836E-3,1.8113743E-3,2.474561E-3,3.3547014E-3,4.299049E-3,5.2988506E-3,6.5186797E-3,8.649412E-3,1.1306378E-2,-1.9810551E-3,5.159471E-3,2.445943E-2,5.9956135E-3,-8.2167314E-4,-2.956246E-4,-1.1769683E-3,5.4905843E-4,2.9963993E-3,2.269194E-2,-4.3429155E-4,1.0477979E-3,3.7832065E-3,-4.5292214E-3,4.8488816E-3,1.937473E-2,2.2591343E-3,1.3358492E-3,2.3520102E-3,2.715123E-3,9.4207894E-4,3.5610208E-3,1.2146281E-3,1.3441705E-3,1.4807587E-3,1.6425133E-3,6.3362075E-3,7.186913E-3,9.07084E-3,2.094673E-3,3.935404E-3,3.1013242E-3,-6.086449E-4,6.453359E-4,9.871671E-4,8.339102E-3,2.1440599E-3,7.719043E-3,1.4333037E-4,2.0574664E-3,-3.2366655E-4,-2.1647578E-4,-1.13611524E-4,-5.726218E-5,-2.5980435E-5,-1.7090293E-3,9.4823416E-5,2.910987E-4,-2.4576893E-4,2.4766698E-3,1.700472E-3,7.148246E-3,-1.3573254E-4,7.960875E-3,2.0000908E-4,4.2154404E-4,-9.5301407E-4,2.3715338E-3,5.926392E-3,-1.4376923E-3,3.2920458E-3,1.0787211E-3,3.9029427E-4,6.8916404E-3,9.0794737E-4,5.0628505E-4,4.2562865E-4,-1.2173066E-3,7.50848E-4,6.0211634E-4,7.749694E-4,8.6097035E-4,9.976559E-4,1.1228537E-3,2.0298285E-3,1.8299974E-3,1.7455018E-3,2.2578847E-3,3.3649462E-3,2.629086E-3],"categories":[],"categories_nodes":[],"categories_segments":[],"categories_sizes":[],"default_left":[1,1,0,1,0,0,0,0,0,0,0,0,0,0,0,0,0,0,0,0,1,0,0,0,0,0,0,0,0,1,0,1,1,0,1,0,0,0,0,0,0,0,0,0,0,0,0,0,1,1,1,0,0,0,0,0,0,0,0,0,0,0,0,0,0,0,0,0,0,0,0,0,0,0,0,0,0,0,0,0,0,0,0,0,0,0,0,0,0,0,0,0,0,0,0,0,0,0,0,0,0,0,0,0,0,0,0,0,0,0,0],"id":6,"left_children":[1,3,5,7,9,11,13,15,17,19,21,23,25,27,29,31,33,35,37,39,41,43,45,47,49,51,53,55,57,59,61,63,65,67,69,71,73,75,77,79,81,83,85,87,89,91,93,95,97,99,101,-1,103,-1,-1,-1,-1,105,107,109,-1,-1,-1,-1,-1,-1,-1,-1,-1,-1,-1,-1,-1,-1,-1,-1,-1,-1,-1,-1,-1,-1,-1,-1,-1,-1,-1,-1,-1,-1,-1,-1,-1,-1,-1,-1,-1,-1,-1,-1,-1,-1,-1,-1,-1,-1,-1,-1,-1,-1,-1],"loss_changes":[1.5456867E-1,3.9687943E-2,3.2699555E-2,1.7773904E-2,2.0801395E-2,4.593566E-3,7.1294084E-3,9.907834E-3,3.1298837E-3,2.552879E-3,2.441052E-2,5.001463E-4,4.3251738E-4,5.979575E-4,1.0040142E-3,7.385969E-3,2.7652155E-3,6.118659E-4,3.9575645E-4,3.6061204E-3,2.0781867E-3,5.8362894E-3,1.7987102E-2,6.2637683E-4,4.8860908E-5,2.9918738E-5,3.1424686E-5,3.3030286E-5,4.90807E-5,1.9662455E-4,3.3643097E-4,3.9167777E-3,6.0854433E-3,1.4103949E-5,4.86976E-4,1.851446E-4,2.7689413E-5,6.845315E-4,2.977681E-4,1.2910531E-3,7.758336E-5,1.4556025E-3,1.8877012E-4,3.209496E-3,2.3626732E-3,1.2770139E-2,5.821787E-3,6.6193845E-4,6.4792833E-4,5.9955753E-5,5.365815E-6,0E0,7.5073913E-6,0E0,0E0,0E0,0E0,2.148375E-5,3.0057505E-5,9.4186515E-5,0E0,0E0,0E0,0E0,0E0,0E0,0E0,0E0,0E0,0E0,0E0,0E0,0E0,0E0,0E0,0E0,0E0,0E0,0E0,0E0,0E0,0E0,0E0,0E0,0E0,0E0,0E0,0E0,0E0,0E0,0E0,0E0,0E0,0E0,0E0,0E0,0E0,0E0,0E0,0E0,0E0,0E0,0E0,0E0,0E0,0E0,0E0,0E0,0E0,0E0,0E0],"parents":[2147483647,0,0,1,1,2,2,3,3,4,4,5,5,6,6,7,7,8,8,9,9,10,10,11,11,12,12,13,13,14,14,15,15,16,16,17,17,18,18,19,19,20,20,21,21,22,22,23,23,24,24,25,25,26,26,27,27,28,28,29,29,30,30,31,31,32,32,33,33,34,34,35,35,36,36,37,37,38,38,39,39,40,40,41,41,42,42,43,43,44,44,45,45,46,46,47,47,48,48,49,49,50,50,52,52,57,57,58,58,59,59],"right_children":[2,4,6,8,10,12,14,16,18,20,22,24,26,28,30,32,34,36,38,40,42,44,46,48,50,52,54,56,58,60,62,64,66,68,70,72,74,76,78,80,82,84,86,88,90,92,94,96,98,100,102,-1,104,-1,-1,-1,-1,106,108,110,-1,-1,-1,-1,-1,-1,-1,-1,-1,-1,-1,-1,-1,-1,-1,-1,-1,-1,-1,-1,-1,-1,-1,-1,-1,-1,-1,-1,-1,-1,-1,-1,-1,-1,-1,-1,-1,-1,-1,-1,-1,-1,-1,-1,-1,-1,-1,-1,-1,-1,-1],"split_conditions":[3.7116487E-2,1.1982184E-1,6.8499535E-2,1.660627E-2,2.2271127E-2,5.283921E-2,9.056365E-2,1.0658809E-2,2.8307071E-2,3.9000002E-1,-1.5486574E-2,4.3124158E-2,6.0677927E-2,7.718325E-2,1.4937648E-1,1.00384556E-1,-4.1898258E-2,2.3492577E-2,3.7E-1,1.0768883E-1,3.181337E-2,0E0,2.8857687E-1,1.42684365E-2,4.854424E-2,5.6239404E-2,6.40243E-2,7.194601E-2,8.700608E-2,-3.1427875E-2,-8.1825204E-2,1.9339157E-2,1.7682283E-1,2.1102639E-2,3.293486E-2,-8.050016E-3,2.5591716E-2,1.0452408E-1,3.3847883E-2,3.593797E-2,-7.999998E-2,3.299803E-1,3.4933295E-2,-7.000002E-2,-1.6999999E-1,-7.999998E-2,-6.999999E-2,8.4553696E-2,1.10503785E-1,7.028006E-2,5.0805315E-2,9.4207894E-4,8.749536E-2,1.2146281E-3,1.3441705E-3,1.4807587E-3,1.6425133E-3,-1.2242767E-1,8.781183E-2,1.1778752E-1,2.094673E-3,3.935404E-3,3.1013242E-3,-6.086449E-4,6.453359E-4,9.871671E-4,8.339102E-3,2.1440599E-3,7.719043E-3,1.4333037E-4,2.0574664E-3,-3.2366655E-4,-2.1647578E-4,-1.13611524E-4,-5.726218E-5,-2.5980435E-5,-1.7090293E-3,9.4823416E-5,2.910987E-4,-2.4576893E-4,2.4766698E-3,1.700472E-3,7.148246E-3,-1.3573254E-4,7.960875E-3,2.0000908E-4,4.2154404E-4,-9.5301407E-4,2.3715338E-3,5.926392E-3,-1.4376923E-3,3.2920458E-3,1.0787211E-3,3.9029427E-4,6.8916404E-3,9.0794737E-4,5.0628505E-4,4.2562865E-4,-1.2173066E-3,7.50848E-4,6.0211634E-4,7.749694E-4,8.6097035E-4,9.976559E-4,1.1228537E-3,2.0298285E-3,1.8299974E-3,1.7455018E-3,2.2578847E-3,3.3649462E-3,2.629086E-3],"split_indices":[34,12,34,34,30,34,34,0,34,21,28,34,34,34,10,10,20,34,27,22,34,11,12,30,34,34,34,34,34,16,4,30,14,30,14,20,34,26,34,34,1,12,34,1,15,29,13,10,22,22,22,0,10,0,0,0,0,4,22,10,0,0,0,0,0,0,0,0,0,0,0,0,0,0,0,0,0,0,0,0,0,0,0,0,0,0,0,0,0,0,0,0,0,0,0,0,0,0,0,0,0,0,0,0,0,0,0,0,0,0,0],"split_type":[0,0,0,0,0,0,0,0,0,0,0,0,0,0,0,0,0,0,0,0,0,0,0,0,0,0,0,0,0,0,0,0,0,0,0,0,0,0,0,0,0,0,0,0,0,0,0,0,0,0,0,0,0,0,0,0,0,0,0,0,0,0,0,0,0,0,0,0,0,0,0,0,0,0,0,0,0,0,0,0,0,0,0,0,0,0,0,0,0,0,0,0,0,0,0,0,0,0,0,0,0,0,0,0,0,0,0,0,0,0,0],"sum_hessian":[4.9492E4,4.0296E4,9.196E3,3.3662E4,6.634E3,6.846E3,2.35E3,2.0078E4,1.3584E4,4.413E3,2.221E3,4.828E3,2.018E3,1.713E3,6.37E2,1.9968E4,1.1E2,1.041E4,3.174E3,7.3E1,4.34E3,4.64E2,1.757E3,2.955E3,1.873E3,9.28E2,1.09E3,9.38E2,7.75E2,3.69E2,2.68E2,1.9823E4,1.45E2,8E0,1.02E2,7.221E3,3.189E3,1.38E2,3.036E3,6.3E1,1E1,2.948E3,1.392E3,1.1E2,3.54E2,1.668E3,8.9E1,1.52E3,1.435E3,1.248E3,6.25E2,4.63E2,4.65E2,4.68E2,6.22E2,3.16E2,6.22E2,6.17E2,1.58E2,2.91E2,7.8E1,8.9E1,1.79E2,1.9597E4,2.26E2,1.35E2,1E1,1E0,7E0,1.4E1,8.8E1,2.02E3,5.201E3,1.777E3,1.412E3,1.12E2,2.6E1,1.956E3,1.08E3,3.7E1,2.6E1,1E0,9E0,2.947E3,1E0,6.75E2,7.17E2,4.1E1,6.9E1,3E0,3.51E2,2.82E2,1.386E3,1.5E1,7.4E1,6.47E2,8.73E2,1.414E3,2.1E1,8.64E2,3.84E2,3.47E2,2.78E2,2.11E2,2.54E2,2.09E2,4.08E2,3.5E1,1.23E2,3.2E1,2.59E2],"tree_param":{"num_deleted":"0","num_feature":"36","num_nodes":"111","size_leaf_vector":"1"}},{"base_weights":[5.93406E-6,-5.681419E-4,2.686533E-3,-1.0486168E-3,4.9428415E-4,1.8862459E-3,4.85716E-3,-1.503641E-3,-3.3514196E-4,3.5349152E-4,8.626682E-3,1.5252879E-3,2.758614E-3,4.2288075E-3,7.291238E-3,-6.7938474E-4,-1.6947851E-3,-5.0106645E-4,3.4362054E-4,2.9136788E-4,1.16886E-2,1.9185819E-2,1.8928915E-3,1.658834E-3,1.0942966E-3,2.3992683E-3,3.011679E-3,3.7851802E-3,4.841754E-3,6.9765323E-3,9.984799E-3,-8.5059734E-4,8.692936E-3,-1.6228085E-3,-6.126026E-3,-6.849753E-4,-3.0412604E-4,4.2906456E-4,-4.4279714E-4,1.8898994E-4,6.3871755E-3,7.043209E-3,9.251273E-3,1.2245263E-2,3.5075717E-2,-7.0336164E-4,2.4011282E-2,2.0469793E-3,1.5142794E-3,-5.744547E-4,1.2026896E-3,2.2606587E-3,2.5712792E-3,8.5101684E-4,3.1385536E-3,3.5954448E-3,1.210307E-3,4.776743E-3,2.2966894E-3,7.2253374E-3,1.3821E-3,3.1883733E-3,2.1509414E-3,-7.8549806E-4,-2.4219067E-5,1.689592E-4,3.7011716E-3,-5.009525E-4,1.3436142E-3,-7.660102E-4,-2.4846557E-3,-3.0368235E-4,-1.8121212E-4,-1.2149958E-4,-5.699761E-5,9.052889E-6,1.685471E-4,-1.0374638E-3,-9.67125E-5,9.027747E-4,-6.0548523E-6,-2.0932824E-4,2.6586514E-3,1.6501974E-3,3.7705482E-3,-1.12897025E-4,5.431041E-3,9.1293984E-4,1.1318656E-2,-7.040165E-4,6.779106E-3,5.538366E-3,9.981343E-3,6.873984E-4,5.402613E-4,2.9293005E-4,5.1062636E-4,-1.4076816E-3,7.339809E-5,3.722531E-4,-2.0051745E-3,5.5177405E-4,6.9198315E-4,7.9222897E-4,5.302715E-4,8.475449E-4,9.609588E-4,1.1246663E-3,1.0158501E-3,1.3523233E-3,1.5534671E-3,2.0538683E-3,2.361229E-3],"categories":[],"categories_nodes":[],"categories_segments":[],"categories_sizes":[],"default_left":[1,1,0,1,0,0,0,0,0,0,0,0,0,0,0,1,0,0,0,1,0,0,0,0,0,0,0,0,0,1,0,0,1,1,1,0,0,0,0,0,0,0,0,0,0,0,0,0,0,0,1,0,1,0,0,0,0,0,0,0,0,0,0,0,0,0,0,0,0,0,0,0,0,0,0,0,0,0,0,0,0,0,0,0,0,0,0,0,0,0,0,0,0,0,0,0,0,0,0,0,0,0,0,0,0,0,0,0,0,0,0,0,0],"id":7,"left_children":[1,3,5,7,9,11,13,15,17,19,21,23,25,27,29,31,33,35,37,39,41,43,45,47,49,51,53,55,57,59,61,63,65,67,69,71,73,75,77,79,81,-1,83,85,87,89,91,93,95,97,99,101,103,-1,105,107,-1,109,-1,111,-1,-1,-1,-1,-1,-1,-1,-1,-1,-1,-1,-1,-1,-1,-1,-1,-1,-1,-1,-1,-1,-1,-1,-1,-1,-1,-1,-1,-1,-1,-1,-1,-1,-1,-1,-1,-1,-1,-1,-1,-1,-1,-1,-1,-1,-1,-1,-1,-1,-1,-1,-1,-1],"loss_changes":[7.616469E-2,2.0809282E-2,1.5155934E-2,9.112373E-3,1.4532495E-2,2.004778E-3,3.5649277E-3,2.6991256E-3,1.2313704E-3,8.78474E-3,1.5321933E-2,2.5805552E-4,1.6246457E-4,4.9043447E-4,3.3807568E-4,5.187236E-3,4.4272244E-3,3.179761E-4,1.4452418E-4,7.7454494E-3,1.736654E-3,8.834403E-3,7.6544057E-3,1.9019283E-4,1.9441429E-4,1.268927E-5,1.5313737E-5,3.702659E-5,1.0648742E-4,2.2257864E-4,1.0696705E-5,4.3152557E-3,1.7114314E-3,3.936421E-3,1.6889684E-3,1.1970592E-4,4.878416E-5,1.026119E-4,7.550407E-5,7.202411E-3,3.6008982E-3,0E0,6.52479E-4,4.443204E-3,2.0098574E-3,4.647938E-3,1.0527391E-4,5.1920768E-5,2.5228225E-4,2.2376375E-4,3.1100493E-4,4.2393804E-6,1.4263438E-5,0E0,3.5720877E-6,7.472001E-6,0E0,5.9491023E-5,0E0,4.178658E-5,0E0,0E0,0E0,0E0,0E0,0E0,0E0,0E0,0E0,0E0,0E0,0E0,0E0,0E0,0E0,0E0,0E0,0E0,0E0,0E0,0E0,0E0,0E0,0E0,0E0,0E0,0E0,0E0,0E0,0E0,0E0,0E0,0E0,0E0,0E0,0E0,0E0,0E0,0E0,0E0,0E0,0E0,0E0,0E0,0E0,0E0,0E0,0E0,0E0,0E0,0E0,0E0,0E0],"parents":[2147483647,0,0,1,1,2,2,3,3,4,4,5,5,6,6,7,7,8,8,9,9,10,10,11,11,12,12,13,13,14,14,15,15,16,16,17,17,18,18,19,19,20,20,21,21,22,22,23,23,24,24,25,25,26,26,27,27,28,28,29,29,30,30,31,31,32,32,33,33,34,34,35,35,36,36,37,37,38,38,39,39,40,40,42,42,43,43,44,44,45,45,46,46,47,47,48,48,49,49,50,50,51,51,52,52,54,54,55,55,57,57,59,59],"right_children":[2,4,6,8,10,12,14,16,18,20,22,24,26,28,30,32,34,36,38,40,42,44,46,48,50,52,54,56,58,60,62,64,66,68,70,72,74,76,78,80,82,-1,84,86,88,90,92,94,96,98,100,102,104,-1,106,108,-1,110,-1,112,-1,-1,-1,-1,-1,-1,-1,-1,-1,-1,-1,-1,-1,-1,-1,-1,-1,-1,-1,-1,-1,-1,-1,-1,-1,-1,-1,-1,-1,-1,-1,-1,-1,-1,-1,-1,-1,-1,-1,-1,-1,-1,-1,-1,-1,-1,-1,-1,-1,-1,-1,-1,-1],"split_conditions":[3.7748158E-2,8.831293E-2,6.8499535E-2,1.5442324E-2,1.5183249E-1,5.404798E-2,9.867552E-2,3.9000005E-1,2.8102845E-2,2.5420664E-2,1.5875892E-1,1.0774691E-1,6.0677927E-2,7.866723E-2,1.6972716E-1,1.00100204E-1,6.2035225E-2,2.081228E-2,2.3789562E-2,3.5879843E-2,9E-2,1.1982831E-1,-1.20585136E-1,1.8226659E-2,3.9E-1,8.749536E-2,6.40243E-2,7.4574456E-2,-5.0000012E-2,-3.397983E-2,-8.653068E-2,3.7E-1,9.000003E-2,1.1686309E-2,6.1969075E-2,-1.9436372E-2,2.3892513E-2,2.9828692E-2,-1.4213091E-1,3.9000002E-1,3.7748158E-2,7.043209E-3,3.4027714E-2,-7.542781E-2,-1.5266827E-1,4.8000002E-1,1.999998E-2,4.2390537E-2,4.1534215E-2,3.8475856E-2,3.2954365E-2,7.26449E-2,-2.7391305E-2,8.5101684E-4,8.810246E-2,-1.0393229E-1,1.210307E-3,8.700608E-2,2.2966894E-3,7.7568345E-2,1.3821E-3,3.1883733E-3,2.1509414E-3,-7.8549806E-4,-2.4219067E-5,1.689592E-4,3.7011716E-3,-5.009525E-4,1.3436142E-3,-7.660102E-4,-2.4846557E-3,-3.0368235E-4,-1.8121212E-4,-1.2149958E-4,-5.699761E-5,9.052889E-6,1.685471E-4,-1.0374638E-3,-9.67125E-5,9.027747E-4,-6.0548523E-6,-2.0932824E-4,2.6586514E-3,1.6501974E-3,3.7705482E-3,-1.12897025E-4,5.431041E-3,9.1293984E-4,1.1318656E-2,-7.040165E-4,6.779106E-3,5.538366E-3,9.981343E-3,6.873984E-4,5.402613E-4,2.9293005E-4,5.1062636E-4,-1.4076816E-3,7.339809E-5,3.722531E-4,-2.0051745E-3,5.5177405E-4,6.9198315E-4,7.9222897E-4,5.302715E-4,8.475449E-4,9.609588E-4,1.1246663E-3,1.0158501E-3,1.3523233E-3,1.5534671E-3,2.0538683E-3,2.361229E-3],"split_indices":[34,12,34,34,10,34,34,21,34,0,26,10,34,34,10,14,10,34,30,30,7,24,6,30,21,10,34,34,35,32,4,27,7,20,26,20,34,34,6,21,34,0,0,18,4,27,5,34,34,34,20,10,16,0,10,4,0,34,0,30,0,0,0,0,0,0,0,0,0,0,0,0,0,0,0,0,0,0,0,0,0,0,0,0,0,0,0,0,0,0,0,0,0,0,0,0,0,0,0,0,0,0,0,0,0,0,0,0,0,0,0,0,0],"split_type":[0,0,0,0,0,0,0,0,0,0,0,0,0,0,0,0,0,0,0,0,0,0,0,0,0,0,0,0,0,0,0,0,0,0,0,0,0,0,0,0,0,0,0,0,0,0,0,0,0,0,0,0,0,0,0,0,0,0,0,0,0,0,0,0,0,0,0,0,0,0,0,0,0,0,0,0,0,0,0,0,0,0,0,0,0,0,0,0,0,0,0,0,0,0,0,0,0,0,0,0,0,0,0,0,0,0,0,0,0,0,0,0,0],"sum_hessian":[4.9492E4,4.0763E4,8.729E3,2.8069E4,1.2694E4,6.379E3,2.35E3,1.7138E4,1.0931E4,1.2479E4,2.15E2,4.514E3,1.865E3,1.87E3,4.8E2,3.227E3,1.3911E4,8.784E3,2.147E3,1.2412E4,6.7E1,8.3E1,1.32E2,3.444E3,1.07E3,7.75E2,1.09E3,1.089E3,7.81E2,4.33E2,4.7E1,3.17E3,5.7E1,1.369E4,2.21E2,4.541E3,4.243E3,1.937E3,2.1E2,1.2208E4,2.04E2,1E1,5.7E1,5.9E1,2.4E1,1.19E2,1.3E1,9.31E2,2.513E3,6.5E1,1.005E3,4.37E2,3.38E2,4.68E2,6.22E2,6.27E2,4.62E2,7.66E2,1.5E1,3.9E2,4.3E1,3.6E1,1.1E1,9.61E2,2.209E3,1.8E1,3.9E1,1.3586E4,1.04E2,8.4E1,1.37E2,8.98E2,3.643E3,2.251E3,1.992E3,4.84E2,1.453E3,7E0,2.03E2,8.42E2,1.1366E4,5.3E1,1.51E2,2.8E1,2.9E1,1.9E1,4E1,2E0,2.2E1,1.12E2,7E0,1E1,3E0,4.63E2,4.68E2,6.52E2,1.861E3,1E1,5.5E1,1.001E3,4E0,4.7E1,3.9E2,3.09E2,2.9E1,1.14E2,5.08E2,3.52E2,2.75E2,4.66E2,3E2,2.53E2,1.37E2],"tree_param":{"num_deleted":"0","num_feature":"36","num_nodes":"113","size_leaf_vector":"1"}},{"base_weights":[5.7292414E-6,-4.351896E-4,1.751686E-3,-5.1450887E-4,4.0090345E-3,1.218271E-3,3.340173E-3,-1.0880356E-3,-1.8678833E-4,-5.9307984E-4,8.051523E-3,9.703649E-4,1.8211846E-3,2.8267626E-3,4.840566E-3,-1.6813033E-3,-7.796952E-4,-2.222195E-4,7.3918714E-3,-3.926977E-3,4.9352524E-4,7.528531E-4,1.127026E-2,1.0962841E-3,6.399382E-4,1.6285263E-3,2.0756314E-3,2.5533312E-3,3.2093066E-3,4.5234314E-3,6.338186E-3,-2.0367156E-3,-6.265253E-4,-9.935709E-4,-4.62132E-4,-2.537601E-4,6.212339E-3,6.332576E-3,1.91644E-2,-6.189184E-3,-1.5157912E-4,2.1029334E-4,1.1787752E-2,1.2923143E-2,-2.1342353E-3,8.156597E-3,1.4676773E-2,1.5343413E-3,9.075532E-4,-1.2476556E-3,7.6010404E-4,1.5901495E-3,1.9620217E-3,2.0348052E-3,7.029979E-4,2.368783E-3,2.6896433E-3,3.35487E-3,2.910931E-3,4.7200727E-3,3.0941016E-3,2.2577133E-3,1.6948396E-3,-9.597861E-4,-5.5632E-4,-4.2532434E-4,8.335365E-4,-3.375828E-4,-2.6746918E-4,-1.8751108E-4,-7.4398806E-5,2.5365976E-4,-1.2771806E-4,3.0144695E-3,4.0138434E-4,2.0921887E-3,-2.4439527E-3,6.397079E-3,2.836235E-4,-3.6798717E-4,-2.4254988E-3,-8.6318183E-4,2.0492775E-3,1.9222818E-3,-3.4187706E-5,4.1910047E-3,1.3146513E-4,1.3434038E-3,5.8762752E-3,-4.5429845E-3,-1.1532938E-4,3.2610234E-3,4.707373E-6,4.9500302E-3,1.7165393E-3,4.0601357E-4,7.200996E-4,1.9343015E-4,3.3204185E-4,-1.0859792E-3,5.1771487E-5,2.3424519E-4,-1.5239326E-3,3.088156E-4,4.8202733E-4,5.0786696E-4,6.8718474E-4,6.1788666E-4,5.247204E-4,5.526E-4,7.2673574E-4,6.0838106E-4,8.159099E-4,9.694383E-4,1.2984795E-3,8.937821E-4,5.640176E-4,1.5056456E-3,1.244488E-3,1.054386E-3,6.582691E-4],"categories":[],"categories_nodes":[],"categories_segments":[],"categories_sizes":[],"default_left":[1,1,0,0,1,0,0,1,1,1,0,0,0,0,0,1,0,0,0,0,1,0,1,0,0,0,0,0,0,1,0,0,1,0,0,0,1,0,0,0,0,0,1,0,0,0,1,1,0,0,1,0,0,1,0,0,0,1,1,1,0,0,0,0,0,0,0,0,0,0,0,0,0,0,0,0,0,0,0,0,0,0,0,0,0,0,0,0,0,0,0,0,0,0,0,0,0,0,0,0,0,0,0,0,0,0,0,0,0,0,0,0,0,0,0,0,0,0,0,0,0],"id":8,"left_children":[1,3,5,7,9,11,13,15,17,19,21,23,25,27,29,31,33,35,37,39,41,43,45,47,49,51,53,55,57,59,61,63,65,67,69,71,73,75,77,79,81,83,85,87,89,91,93,95,97,99,101,103,105,107,-1,109,111,113,115,117,119,-1,-1,-1,-1,-1,-1,-1,-1,-1,-1,-1,-1,-1,-1,-1,-1,-1,-1,-1,-1,-1,-1,-1,-1,-1,-1,-1,-1,-1,-1,-1,-1,-1,-1,-1,-1,-1,-1,-1,-1,-1,-1,-1,-1,-1,-1,-1,-1,-1,-1,-1,-1,-1,-1,-1,-1,-1,-1,-1,-1],"loss_changes":[3.8101725E-2,1.3931599E-2,8.451361E-3,7.296834E-3,1.2897343E-2,1.1150427E-3,1.918273E-3,2.5810897E-3,6.6359877E-3,1.1792927E-3,8.660248E-3,2.1969108E-4,1.0329019E-4,1.8751062E-4,2.743462E-4,1.8082736E-3,6.305771E-4,4.992722E-3,1.3127574E-3,6.8232033E-4,7.8444683E-4,4.033165E-3,2.595611E-3,3.155833E-4,3.3301895E-4,1.2788689E-5,5.4393895E-6,2.1200161E-5,2.3936853E-5,1.3436005E-4,4.6632253E-5,7.592244E-4,3.2853489E-3,7.357309E-5,1.3034523E-4,4.6269675E-3,2.2302726E-3,1.05049E-3,3.338859E-4,4.6048674E-4,6.096515E-4,4.85018E-4,1.4248415E-4,1.1504923E-3,2.1111637E-3,3.0040955E-3,1.8812604E-3,1.7744023E-4,1.3971841E-4,2.9711158E-4,1.7053226E-4,8.777017E-6,7.0881797E-6,2.198154E-6,0E0,8.938834E-6,6.8750232E-6,4.7878362E-5,1.2857607E-5,5.843956E-5,1.7641694E-5,0E0,0E0,0E0,0E0,0E0,0E0,0E0,0E0,0E0,0E0,0E0,0E0,0E0,0E0,0E0,0E0,0E0,0E0,0E0,0E0,0E0,0E0,0E0,0E0,0E0,0E0,0E0,0E0,0E0,0E0,0E0,0E0,0E0,0E0,0E0,0E0,0E0,0E0,0E0,0E0,0E0,0E0,0E0,0E0,0E0,0E0,0E0,0E0,0E0,0E0,0E0,0E0,0E0,0E0,0E0,0E0,0E0,0E0,0E0,0E0],"parents":[2147483647,0,0,1,1,2,2,3,3,4,4,5,5,6,6,7,7,8,8,9,9,10,10,11,11,12,12,13,13,14,14,15,15,16,16,17,17,18,18,19,19,20,20,21,21,22,22,23,23,24,24,25,25,26,26,27,27,28,28,29,29,30,30,31,31,32,32,33,33,34,34,35,35,36,36,37,37,38,38,39,39,40,40,41,41,42,42,43,43,44,44,45,45,46,46,47,47,48,48,49,49,50,50,51,51,52,52,53,53,55,55,56,56,57,57,58,58,59,59,60,60],"right_children":[2,4,6,8,10,12,14,16,18,20,22,24,26,28,30,32,34,36,38,40,42,44,46,48,50,52,54,56,58,60,62,64,66,68,70,72,74,76,78,80,82,84,86,88,90,92,94,96,98,100,102,104,106,108,-1,110,112,114,116,118,120,-1,-1,-1,-1,-1,-1,-1,-1,-1,-1,-1,-1,-1,-1,-1,-1,-1,-1,-1,-1,-1,-1,-1,-1,-1,-1,-1,-1,-1,-1,-1,-1,-1,-1,-1,-1,-1,-1,-1,-1,-1,-1,-1,-1,-1,-1,-1,-1,-1,-1,-1,-1,-1,-1,-1,-1,-1,-1,-1,-1],"split_conditions":[3.593797E-2,2.1840583E-1,6.687525E-2,3.622219E-2,8.974027E-2,5.049498E-2,9.056365E-2,8.032116E-3,3.652734E-2,-1.2519476E-1,-1.2826677E-1,1.0110152E-1,6.0677927E-2,7.718325E-2,1.6081119E-1,0E0,1.3485689E-2,1.8831067E-2,6.049374E-2,-3.5617284E-2,-1.3276388E-1,1.10503785E-1,4.7000003E-1,6.005968E-3,3.9E-1,1.1778752E-1,1.297369E-1,7.194601E-2,-8.524829E-2,-3.1469025E-2,-8.653068E-2,1.2861301E-2,4.416403E-2,1.0209758E-2,1.800401E-2,3.9000002E-1,1.9010361E-2,1.9110434E-1,5.845149E-3,-9.571125E-2,9.663855E-2,2.0357946E-1,5.408553E-2,-6.418831E-2,-3.1897867E-1,1.5707842E-1,4.8555087E-2,1.5E-1,4.1534215E-2,3.8475856E-2,3.2954365E-2,5.0805315E-2,-8.9279845E-2,-2.0753337E-2,7.029979E-4,9.005062E-2,7.2221376E-2,-3.0131476E-2,1.640642E-1,-3.5617284E-2,-6.1154556E-2,2.2577133E-3,1.6948396E-3,-9.597861E-4,-5.5632E-4,-4.2532434E-4,8.335365E-4,-3.375828E-4,-2.6746918E-4,-1.8751108E-4,-7.4398806E-5,2.5365976E-4,-1.2771806E-4,3.0144695E-3,4.0138434E-4,2.0921887E-3,-2.4439527E-3,6.397079E-3,2.836235E-4,-3.6798717E-4,-2.4254988E-3,-8.6318183E-4,2.0492775E-3,1.9222818E-3,-3.4187706E-5,4.1910047E-3,1.3146513E-4,1.3434038E-3,5.8762752E-3,-4.5429845E-3,-1.1532938E-4,3.2610234E-3,4.707373E-6,4.9500302E-3,1.7165393E-3,4.0601357E-4,7.200996E-4,1.9343015E-4,3.3204185E-4,-1.0859792E-3,5.1771487E-5,2.3424519E-4,-1.5239326E-3,3.088156E-4,4.8202733E-4,5.0786696E-4,6.8718474E-4,6.1788666E-4,5.247204E-4,5.526E-4,7.2673574E-4,6.0838106E-4,8.159099E-4,9.694383E-4,1.2984795E-3,8.937821E-4,5.640176E-4,1.5056456E-3,1.244488E-3,1.054386E-3,6.582691E-4],"split_indices":[34,12,34,10,22,34,34,34,30,32,4,10,34,34,10,28,34,0,30,16,6,24,27,30,21,10,10,34,4,32,4,24,14,34,34,21,30,26,0,18,10,14,30,32,6,24,30,15,34,34,20,22,4,32,0,10,22,32,24,16,4,0,0,0,0,0,0,0,0,0,0,0,0,0,0,0,0,0,0,0,0,0,0,0,0,0,0,0,0,0,0,0,0,0,0,0,0,0,0,0,0,0,0,0,0,0,0,0,0,0,0,0,0,0,0,0,0,0,0,0,0],"split_type":[0,0,0,0,0,0,0,0,0,0,0,0,0,0,0,0,0,0,0,0,0,0,0,0,0,0,0,0,0,0,0,0,0,0,0,0,0,0,0,0,0,0,0,0,0,0,0,0,0,0,0,0,0,0,0,0,0,0,0,0,0,0,0,0,0,0,0,0,0,0,0,0,0,0,0,0,0,0,0,0,0,0,0,0,0,0,0,0,0,0,0,0,0,0,0,0,0,0,0,0,0,0,0,0,0,0,0,0,0,0,0,0,0,0,0,0,0,0,0,0,0],"sum_hessian":[4.9492E4,3.9514E4,9.978E3,3.8822E4,6.92E2,7.471E3,2.507E3,1.4116E4,2.4706E4,3.24E2,3.68E2,5.296E3,2.175E3,1.87E3,6.37E2,4.826E3,9.29E3,2.4592E4,1.14E2,7.9E1,2.45E2,1.13E2,2.55E2,3.833E3,1.463E3,1.242E3,9.33E2,1.095E3,7.75E2,5.29E2,1.08E2,3.609E3,1.217E3,5.55E3,3.74E3,2.4473E4,1.19E2,1.06E2,8E0,4.9E1,3E1,2.4E2,5E0,2.1E1,9.2E1,1.35E2,1.2E2,1.152E3,2.681E3,8.7E1,1.376E3,1.119E3,1.23E2,8.17E2,1.16E2,4.73E2,6.22E2,5.14E2,2.61E2,4.63E2,6.6E1,3.6E1,7.2E1,4.87E2,3.122E3,9.88E2,2.29E2,2.418E3,3.132E3,2.123E3,1.617E3,3.31E3,2.1163E4,6.6E1,5.3E1,1.02E2,4E0,7E0,1E0,1.4E1,3.5E1,2.2E1,8E0,1.1E1,2.29E2,4E0,1E0,1E1,1.1E1,1E1,8.2E1,1.01E2,3.4E1,9.9E1,2.1E1,9.55E2,1.97E2,1.158E3,1.523E3,3.2E1,5.5E1,1.372E3,4E0,3.4E1,1.085E3,7.1E1,5.2E1,7.46E2,7.1E1,4.7E1,4.26E2,3E1,5.92E2,4.6E2,5.4E1,2.43E2,1.8E1,2.99E2,1.64E2,4.3E1,2.3E1],"tree_param":{"num_deleted":"0","num_feature":"36","num_nodes":"121","size_leaf_vector":"1"}},{"base_weights":[4.8790566E-6,-4.2507867E-4,9.161745E-4,-5.997797E-4,4.4959463E-4,1.9894177E-4,1.7265852E-3,6.175823E-4,-6.5733923E-4,9.157037E-5,6.3552865E-4,-1.8658313E-4,6.392528E-4,2.4091944E-3,-4.3121E-4,3.6839754E-3,-3.8912485E-4,-6.703851E-4,4.6302574E-3,-7.056072E-3,1.1397576E-4,5.0756504E-4,8.6686196E-4,-3.121105E-3,-1.3398421E-4,7.4476993E-4,-4.2216017E-4,3.69235E-3,1.6550336E-3,1.0988198E-3,-3.0864964E-3,-5.115406E-4,6.628177E-3,-5.2545493E-4,4.739278E-3,-9.4677415E-4,-4.4456034E-4,6.51597E-3,1.2770495E-3,-2.382333E-3,-3.9463287E-4,-3.3325978E-4,1.7299208E-4,6.555911E-4,1.6910283E-4,9.1475446E-4,2.4420928E-4,-8.2401605E-4,-1.2974812E-3,-9.4316894E-4,-7.89092E-5,9.857981E-4,5.5661326E-4,4.3166484E-4,-3.4214158E-3,-2.5732538E-3,4.28652E-3,-4.430499E-3,1.7817046E-3,1.9587814E-3,-4.9407613E-3,-5.37357E-3,3.7379859E-3,-3.6758286E-4,-9.8980294E-5,2.3752633E-3,-1.1270362E-3,2.940777E-3,-2.10659E-4,-3.1479108E-4,5.714787E-4,-1.6822618E-4,-8.079356E-5,2.6875753E-3,1.1664612E-3,1.1560854E-3,-4.8641006E-5,-7.3284005E-5,-3.5325845E-4,5.8347705E-5,-6.603957E-5,2.445741E-5,2.2284155E-4,-3.2267915E-6,1.2239559E-4,2.532908E-4,4.419476E-4,-5.8754995E-6,2.3683459E-4,-1.0641884E-4,-4.6772565E-4,-9.211775E-5,3.011145E-5,2.4576648E-4,4.457969E-4,1.18401746E-4,2.3423535E-4,-1.03521E-3,2.0932806E-4,-7.5461424E-4,-2.6381067E-3,-1.9957777E-3,1.8604418E-4,6.244617E-4,2.0683138E-3,-2.2315057E-3,7.295158E-4,3.0479927E-5,6.4302096E-4,5.196144E-3,5.1664124E-4,-2.8030402E-3,-7.779519E-4,-5.5233913E-4,-1.8325757E-3,-1.5826599E-3,1.6856018E-3],"categories":[],"categories_nodes":[],"categories_segments":[],"categories_sizes":[],"default_left":[0,1,0,0,0,0,1,0,0,0,0,0,0,0,1,0,1,1,0,0,0,0,0,1,0,0,1,0,0,1,0,0,0,0,0,1,0,0,0,0,0,1,1,0,0,0,0,0,0,1,0,1,0,0,0,0,0,0,0,0,0,0,0,0,0,0,0,0,0,0,0,0,0,0,0,0,0,0,0,0,0,0,0,0,0,0,0,0,0,0,0,0,0,0,0,0,0,0,0,0,0,0,0,0,0,0,0,0,0,0,0,0,0,0,0,0,0],"id":9,"left_children":[1,3,5,7,9,11,13,15,17,19,21,23,25,27,29,31,33,35,37,39,41,43,45,47,49,51,53,55,57,59,61,63,65,67,-1,69,71,73,75,-1,-1,77,79,81,83,85,87,-1,-1,89,91,93,95,97,99,101,103,105,107,109,111,113,115,-1,-1,-1,-1,-1,-1,-1,-1,-1,-1,-1,-1,-1,-1,-1,-1,-1,-1,-1,-1,-1,-1,-1,-1,-1,-1,-1,-1,-1,-1,-1,-1,-1,-1,-1,-1,-1,-1,-1,-1,-1,-1,-1,-1,-1,-1,-1,-1,-1,-1,-1,-1,-1,-1],"loss_changes":[1.9392664E-2,5.1388405E-3,9.221817E-3,1.96449E-3,3.7266104E-4,1.429082E-3,1.0972898E-2,3.9095245E-3,1.8493859E-3,3.0748316E-4,1.08644366E-4,6.92471E-4,4.4046377E-4,5.4701343E-3,7.2796284E-3,3.8697063E-3,2.113528E-3,1.6660718E-3,4.0900917E-4,2.0037929E-5,5.0470564E-5,1.1887954E-4,3.8871076E-5,2.3725617E-5,1.965056E-4,1.6158144E-4,9.1313577E-4,7.8066457E-3,2.7567828E-3,5.915037E-3,1.0243388E-2,1.6446193E-5,2.4935082E-3,1.7355331E-3,0E0,3.5120621E-3,2.9909983E-4,2.3474917E-4,9.332887E-5,0E0,0E0,1.6464743E-5,1.4310241E-5,8.264958E-5,3.111113E-5,4.663365E-5,1.367941E-5,0E0,0E0,1.01289654E-4,1.6900065E-4,1.2926199E-4,7.265981E-5,2.896038E-4,3.624105E-4,2.3750328E-3,1.0985933E-2,1.5248479E-3,2.123057E-3,3.5908814E-3,1.4434457E-3,1.263584E-3,2.826656E-3,0E0,0E0,0E0,0E0,0E0,0E0,0E0,0E0,0E0,0E0,0E0,0E0,0E0,0E0,0E0,0E0,0E0,0E0,0E0,0E0,0E0,0E0,0E0,0E0,0E0,0E0,0E0,0E0,0E0,0E0,0E0,0E0,0E0,0E0,0E0,0E0,0E0,0E0,0E0,0E0,0E0,0E0,0E0,0E0,0E0,0E0,0E0,0E0,0E0,0E0,0E0,0E0,0E0,0E0],"parents":[2147483647,0,0,1,1,2,2,3,3,4,4,5,5,6,6,7,7,8,8,9,9,10,10,11,11,12,12,13,13,14,14,15,15,16,16,17,17,18,18,19,19,20,20,21,21,22,22,23,23,24,24,25,25,26,26,27,27,28,28,29,29,30,30,31,31,32,32,33,33,35,35,36,36,37,37,38,38,41,41,42,42,43,43,44,44,45,45,46,46,49,49,50,50,51,51,52,52,53,53,54,54,55,55,56,56,57,57,58,58,59,59,60,60,61,61,62,62],"right_children":[2,4,6,8,10,12,14,16,18,20,22,24,26,28,30,32,34,36,38,40,42,44,46,48,50,52,54,56,58,60,62,64,66,68,-1,70,72,74,76,-1,-1,78,80,82,84,86,88,-1,-1,90,92,94,96,98,100,102,104,106,108,110,112,114,116,-1,-1,-1,-1,-1,-1,-1,-1,-1,-1,-1,-1,-1,-1,-1,-1,-1,-1,-1,-1,-1,-1,-1,-1,-1,-1,-1,-1,-1,-1,-1,-1,-1,-1,-1,-1,-1,-1,-1,-1,-1,-1,-1,-1,-1,-1,-1,-1,-1,-1,-1,-1,-1,-1],"split_conditions":[7.1042776E-2,2.5940781E-2,5.049498E-2,-1.4999998E-1,3.102411E-2,3.4673102E-2,8.000001E-2,3.5E-1,1.428805E-2,3.5E-1,4.080653E-2,5.7607167E-3,2.5328439E-2,3.5E-1,-2.132202E-2,2.5752258E-2,1.37774525E-2,1.1083987E-2,5.643558E-2,1.1594117E-1,3.9000002E-1,1.8494261E-2,7.0059046E-2,7.6578476E-2,3.9E-1,8.099667E-2,-7.703575E-2,3.7E-1,4.3000004E-1,3.5E-1,-1.7847108E-2,-5.70177E-2,4.8E-1,-1.9999999E-1,4.739278E-3,1.1246977E-2,1.874956E-2,8.55316E-2,-1.9004641E-2,-2.382333E-3,-3.9463287E-4,8.885831E-2,6.061817E-2,3.9000005E-1,3.7748158E-2,6.830942E-2,4.7418088E-2,-8.2401605E-4,-1.2974812E-3,8.742912E-2,2.5106382E-2,1.5E-1,4.1534215E-2,3.543382E-2,1.3104343E-1,1.1209463E-1,2.6710898E-1,-2.4708971E-2,-1.9134134E-2,-1.6999999E-1,4.5999998E-1,-3.8072158E-2,-1.0527109E-1,-3.6758286E-4,-9.8980294E-5,2.3752633E-3,-1.1270362E-3,2.940777E-3,-2.10659E-4,-3.1479108E-4,5.714787E-4,-1.6822618E-4,-8.079356E-5,2.6875753E-3,1.1664612E-3,1.1560854E-3,-4.8641006E-5,-7.3284005E-5,-3.5325845E-4,5.8347705E-5,-6.603957E-5,2.445741E-5,2.2284155E-4,-3.2267915E-6,1.2239559E-4,2.532908E-4,4.419476E-4,-5.8754995E-6,2.3683459E-4,-1.0641884E-4,-4.6772565E-4,-9.211775E-5,3.011145E-5,2.4576648E-4,4.457969E-4,1.18401746E-4,2.3423535E-4,-1.03521E-3,2.0932806E-4,-7.5461424E-4,-2.6381067E-3,-1.9957777E-3,1.8604418E-4,6.244617E-4,2.0683138E-3,-2.2315057E-3,7.295158E-4,3.0479927E-5,6.4302096E-4,5.196144E-3,5.1664124E-4,-2.8030402E-3,-7.779519E-4,-5.5233913E-4,-1.8325757E-3,-1.5826599E-3,1.6856018E-3],"split_indices":[10,34,34,15,34,34,13,19,0,27,34,34,30,19,20,34,20,34,24,12,21,30,10,22,21,22,20,27,27,25,18,6,21,9,0,30,34,12,16,0,0,12,22,21,34,10,34,0,0,12,34,15,34,30,10,14,34,16,28,9,21,18,4,0,0,0,0,0,0,0,0,0,0,0,0,0,0,0,0,0,0,0,0,0,0,0,0,0,0,0,0,0,0,0,0,0,0,0,0,0,0,0,0,0,0,0,0,0,0,0,0,0,0,0,0,0,0],"split_type":[0,0,0,0,0,0,0,0,0,0,0,0,0,0,0,0,0,0,0,0,0,0,0,0,0,0,0,0,0,0,0,0,0,0,0,0,0,0,0,0,0,0,0,0,0,0,0,0,0,0,0,0,0,0,0,0,0,0,0,0,0,0,0,0,0,0,0,0,0,0,0,0,0,0,0,0,0,0,0,0,0,0,0,0,0,0,0,0,0,0,0,0,0,0,0,0,0,0,0,0,0,0,0,0,0,0,0,0,0,0,0,0,0,0,0,0,0],"sum_hessian":[4.9492E4,3.3627E4,1.5865E4,2.8029E4,5.598E3,8.417E3,7.448E3,1.265E3,2.6764E4,1.914E3,3.684E3,4.488E3,3.929E3,5.658E3,1.79E3,3.12E2,9.53E2,2.6699E4,6.5E1,5E0,1.909E3,2.374E3,1.31E3,7.8E1,4.41E3,3.574E3,3.55E2,2.093E3,3.565E3,1.136E3,6.54E2,1.29E2,1.83E2,9.46E2,7E0,1.2004E4,1.4695E4,4.1E1,2.4E1,4E0,1E0,2.22E2,1.687E3,1.651E3,7.23E2,1.216E3,9.4E1,6.2E1,1.6E1,2.8E2,4.13E3,1.565E3,2.009E3,2.77E2,7.8E1,1.81E2,1.912E3,7.2E1,3.493E3,9.95E2,1.41E2,4.9E2,1.64E2,2.5E1,1.04E2,1.63E2,2E1,1.5E1,9.31E2,1.1588E4,4.16E2,8.835E3,5.86E3,2E1,2.1E1,8E0,1.6E1,2.02E2,2E1,1.6E3,8.7E1,2.18E2,1.433E3,4.13E2,3.1E2,1.082E3,1.34E2,6.4E1,3E1,1.44E2,1.36E2,1.817E3,2.313E3,1.176E3,3.89E2,1.168E3,8.41E2,1.7E1,2.6E2,6.8E1,1E1,7.9E1,1.02E2,1.037E3,8.75E2,5E1,2.2E1,6.19E2,2.874E3,1.4E1,9.81E2,4.8E1,9.3E1,8.5E1,4.05E2,2.8E1,1.36E2],"tree_param":{"num_deleted":"0","num_feature":"36","num_nodes":"117","size_leaf_vector":"1"}},{"base_weights":[3.5218213E-6,-2.1198968E-4,9.356887E-4,-3.6445635E-4,5.2879995E-4,2.1127399E-4,1.7740639E-3,-4.1663705E-4,1.1044025E-3,1.003187E-3,4.8051486E-4,1.9879553E-5,7.006671E-4,2.3912245E-3,-1.3355672E-4,-5.811389E-4,-1.05356754E-4,-5.323613E-5,5.3304704E-3,7.4250594E-4,1.8232208E-3,3.7607437E-4,6.899201E-4,-1.6500294E-3,1.1587377E-4,6.818697E-4,4.898063E-4,4.0649655E-3,1.586742E-3,1.3645734E-3,-2.1789102E-3,-1.3010225E-3,-3.242155E-4,-4.254575E-4,1.4855918E-3,-3.2406097E-4,2.163649E-3,4.5573147E-4,8.5009E-3,-1.4693466E-4,8.6452125E-4,3.9642898E-4,2.3466623E-3,4.7586655E-4,2.5162933E-4,6.647516E-4,1.5373671E-3,-1.1252267E-3,-5.0179698E-3,-2.3424455E-3,1.4442432E-4,7.098341E-4,-5.1481824E-4,1.9269586E-3,6.3675265E-3,-1.084023E-3,2.2212453E-3,2.2576046E-3,-4.2437487E-3,-2.9620905E-3,7.712472E-3,-7.281303E-4,-1.052858E-4,-1.2511699E-4,-2.1292553E-5,-8.759158E-5,-4.8321596E-4,-7.3870215E-5,1.039958E-3,-1.5641956E-4,1.3708427E-5,-7.827689E-5,1.5812743E-3,-1.8611725E-4,2.2618915E-3,2.9324766E-3,3.289441E-4,-2.4049143E-4,1.2915675E-4,3.267854E-4,1.7849467E-4,-4.0622057E-5,1.4664888E-4,7.2996307E-4,2.7846333E-4,9.341864E-5,2.2208043E-4,1.8089008E-6,1.0990633E-4,2.699502E-4,1.8285919E-4,2.4830425E-4,4.806277E-4,-1.273669E-4,-4.982713E-4,-2.3969917E-3,-6.917511E-4,-7.1416254E-4,-1.3421816E-4,4.7796788E-5,-7.8767305E-4,1.8702049E-4,2.539867E-4,-2.0576922E-4,-8.256063E-5,4.525897E-4,9.0587285E-4,-1.8908032E-3,2.2928114E-3,1.761807E-4,-2.2919953E-3,4.964535E-4,1.3914728E-3,-3.2124014E-3,7.6659967E-4,3.1540304E-4,-1.9906613E-3,2.264991E-3,-1.0293741E-3,-3.6881902E-5,5.136949E-3],"categories":[],"categories_nodes":[],"categories_segments":[],"categories_sizes":[],"default_left":[0,1,0,0,0,0,1,1,0,1,0,0,1,0,1,1,1,0,0,0,0,0,0,1,0,1,0,0,0,1,0,0,0,1,0,0,0,0,0,0,0,0,0,0,0,0,0,0,0,1,1,0,0,0,0,1,0,0,0,0,0,0,0,0,0,0,0,0,0,0,0,0,0,0,0,0,0,0,0,0,0,0,0,0,0,0,0,0,0,0,0,0,0,0,0,0,0,0,0,0,0,0,0,0,0,0,0,0,0,0,0,0,0,0,0,0,0,0,0,0,0],"id":10,"left_children":[1,3,5,7,9,11,13,15,17,19,21,23,25,27,29,31,33,35,37,39,41,43,45,47,49,51,-1,53,55,57,59,61,63,65,67,69,71,73,75,77,79,81,83,85,87,89,91,93,95,97,99,101,103,105,107,109,111,113,115,117,119,-1,-1,-1,-1,-1,-1,-1,-1,-1,-1,-1,-1,-1,-1,-1,-1,-1,-1,-1,-1,-1,-1,-1,-1,-1,-1,-1,-1,-1,-1,-1,-1,-1,-1,-1,-1,-1,-1,-1,-1,-1,-1,-1,-1,-1,-1,-1,-1,-1,-1,-1,-1,-1,-1,-1,-1,-1,-1,-1,-1],"loss_changes":[9.9429805E-3,4.5406106E-3,5.6441613E-3,2.5557643E-3,1.566977E-4,4.6710402E-4,5.072167E-3,1.6485727E-3,5.5970284E-3,1.3396092E-4,1.35993E-4,5.750328E-4,2.344913E-5,4.376393E-3,3.2326458E-3,3.8954695E-3,5.670266E-3,5.404496E-4,3.7980606E-3,5.2436255E-5,1.1258974E-4,5.152938E-5,4.3171574E-5,3.3901708E-4,2.3841055E-4,4.641281E-5,0E0,5.1863007E-3,3.7305476E-3,3.0597006E-3,3.4778896E-3,5.926135E-3,3.6498043E-4,1.4660283E-3,6.3989847E-3,5.854311E-5,7.396864E-4,7.517461E-4,1.3948567E-3,2.265085E-5,2.503887E-5,2.1301535E-6,1.1368247E-5,1.0009267E-4,5.2208758E-5,2.5596237E-5,1.38412E-6,6.310154E-5,1.9114855E-4,1.7505517E-6,1.3883211E-4,1.5374098E-5,1.123025E-6,2.463765E-4,8.255804E-3,4.6392665E-3,2.4263859E-3,2.0578373E-3,1.0708144E-3,2.06767E-3,2.4354144E-3,0E0,0E0,0E0,0E0,0E0,0E0,0E0,0E0,0E0,0E0,0E0,0E0,0E0,0E0,0E0,0E0,0E0,0E0,0E0,0E0,0E0,0E0,0E0,0E0,0E0,0E0,0E0,0E0,0E0,0E0,0E0,0E0,0E0,0E0,0E0,0E0,0E0,0E0,0E0,0E0,0E0,0E0,0E0,0E0,0E0,0E0,0E0,0E0,0E0,0E0,0E0,0E0,0E0,0E0,0E0,0E0,0E0,0E0,0E0,0E0],"parents":[2147483647,0,0,1,1,2,2,3,3,4,4,5,5,6,6,7,7,8,8,9,9,10,10,11,11,12,12,13,13,14,14,15,15,16,16,17,17,18,18,19,19,20,20,21,21,22,22,23,23,24,24,25,25,27,27,28,28,29,29,30,30,31,31,32,32,33,33,34,34,35,35,36,36,37,37,38,38,39,39,40,40,41,41,42,42,43,43,44,44,45,45,46,46,47,47,48,48,49,49,50,50,51,51,52,52,53,53,54,54,55,55,56,56,57,57,58,58,59,59,60,60],"right_children":[2,4,6,8,10,12,14,16,18,20,22,24,26,28,30,32,34,36,38,40,42,44,46,48,50,52,-1,54,56,58,60,62,64,66,68,70,72,74,76,78,80,82,84,86,88,90,92,94,96,98,100,102,104,106,108,110,112,114,116,118,120,-1,-1,-1,-1,-1,-1,-1,-1,-1,-1,-1,-1,-1,-1,-1,-1,-1,-1,-1,-1,-1,-1,-1,-1,-1,-1,-1,-1,-1,-1,-1,-1,-1,-1,-1,-1,-1,-1,-1,-1,-1,-1,-1,-1,-1,-1,-1,-1,-1,-1,-1,-1,-1,-1,-1,-1,-1,-1,-1,-1],"split_conditions":[9.1547675E-2,3.0462857E-2,6.5029696E-2,-5.0000012E-2,-1.3974942E-1,4.1774217E-2,8.000001E-2,0E0,2.8086802E-2,1.5000004E-1,4.4542253E-2,3.9E-1,-2.3249941E-2,-4.580023E-2,-3.2887828E-2,5.7607167E-3,4.3000004E-1,3.0289195E-2,1.999998E-2,3.7000003E-1,-1.5755047E-1,1.8494261E-2,6.8499535E-2,1.3674259E-1,5.7607167E-3,-2.3644352E-2,4.898063E-4,-5.0000012E-2,-2.2745136E-2,3.2999998E-1,-2.2850163E-2,-6.999999E-2,2.067139E-2,-1.2325021E-2,3.0462857E-2,2.0348776E-2,8.527519E-3,7.07426E-2,5E-1,1.1903027E-1,8.430478E-2,-4.273581E-2,1.507307E-1,3.5540715E-2,3.817406E-2,4.652136E-2,-1.4671616E-1,1.05076544E-1,1.4441422E-1,-9.867552E-2,3.2954365E-2,-6.0000002E-2,9.428467E-2,9.867552E-2,5.098575E-2,-1.09999985E-1,1.1752732E-1,-7.000002E-2,3.8501836E-2,-1.9387138E-1,8.8075034E-2,-7.281303E-4,-1.052858E-4,-1.2511699E-4,-2.1292553E-5,-8.759158E-5,-4.8321596E-4,-7.3870215E-5,1.039958E-3,-1.5641956E-4,1.3708427E-5,-7.827689E-5,1.5812743E-3,-1.8611725E-4,2.2618915E-3,2.9324766E-3,3.289441E-4,-2.4049143E-4,1.2915675E-4,3.267854E-4,1.7849467E-4,-4.0622057E-5,1.4664888E-4,7.2996307E-4,2.7846333E-4,9.341864E-5,2.2208043E-4,1.8089008E-6,1.0990633E-4,2.699502E-4,1.8285919E-4,2.4830425E-4,4.806277E-4,-1.273669E-4,-4.982713E-4,-2.3969917E-3,-6.917511E-4,-7.1416254E-4,-1.3421816E-4,4.7796788E-5,-7.8767305E-4,1.8702049E-4,2.539867E-4,-2.0576922E-4,-8.256063E-5,4.525897E-4,9.0587285E-4,-1.8908032E-3,2.2928114E-3,1.761807E-4,-2.2919953E-3,4.964535E-4,1.3914728E-3,-3.2124014E-3,7.6659967E-4,3.1540304E-4,-1.9906613E-3,2.264991E-3,-1.0293741E-3,-3.6881902E-5,5.136949E-3],"split_indices":[10,34,34,1,4,34,13,28,30,15,34,21,32,20,20,34,21,34,5,27,4,30,34,12,34,32,0,35,20,25,16,29,34,20,34,34,30,10,21,12,22,0,12,34,34,34,6,10,12,20,20,1,10,34,26,15,34,7,30,8,30,0,0,0,0,0,0,0,0,0,0,0,0,0,0,0,0,0,0,0,0,0,0,0,0,0,0,0,0,0,0,0,0,0,0,0,0,0,0,0,0,0,0,0,0,0,0,0,0,0,0,0,0,0,0,0,0,0,0,0,0],"split_type":[0,0,0,0,0,0,0,0,0,0,0,0,0,0,0,0,0,0,0,0,0,0,0,0,0,0,0,0,0,0,0,0,0,0,0,0,0,0,0,0,0,0,0,0,0,0,0,0,0,0,0,0,0,0,0,0,0,0,0,0,0,0,0,0,0,0,0,0,0,0,0,0,0,0,0,0,0,0,0,0,0,0,0,0,0,0,0,0,0,0,0,0,0,0,0,0,0,0,0,0,0,0,0,0,0,0,0,0,0,0,0,0,0,0,0,0,0,0,0,0,0],"sum_hessian":[4.9492E4,4.0199E4,9.293E3,3.3338E4,6.861E3,4.986E3,4.307E3,3.2195E4,1.143E3,6.32E2,6.229E3,3.585E3,1.401E3,3.254E3,1.053E3,2.1063E4,1.1132E4,8.98E2,2.45E2,4.81E2,1.51E2,4.158E3,2.071E3,1.94E2,3.391E3,1.375E3,2.6E1,1.055E3,2.199E3,6.08E2,4.45E2,5.539E3,1.5524E4,9.268E3,1.864E3,8.01E2,9.7E1,9.7E1,1.48E2,5.8E1,4.23E2,4.1E1,1.1E2,2.306E3,1.852E3,2.013E3,5.8E1,1.69E2,2.5E1,3.8E1,3.353E3,1.344E3,3.1E1,5.48E2,5.07E2,4.22E2,1.777E3,5.25E2,8.3E1,4.13E2,3.2E1,2.534E3,3.005E3,1.1359E4,4.165E3,8.331E3,9.37E2,9.95E2,8.69E2,5.22E2,2.79E2,5.5E1,4.2E1,8.5E1,1.2E1,1.26E2,2.2E1,2.7E1,3.1E1,2.29E2,1.94E2,6E0,3.5E1,1.03E2,7E0,1.423E3,8.83E2,5.9E2,1.262E3,3.8E2,1.633E3,6E0,5.2E1,7.4E1,9.5E1,1.1E1,1.4E1,3.7E1,1E0,3.336E3,1.7E1,8.27E2,5.17E2,1.7E1,1.4E1,3.98E2,1.5E2,4.6E1,4.61E2,3.37E2,8.5E1,1.441E3,3.36E2,1.1E1,5.14E2,2.6E1,5.7E1,1.7E1,3.96E2,1.8E1,1.4E1],"tree_param":{"num_deleted":"0","num_feature":"36","num_nodes":"121","size_leaf_vector":"1"}},{"base_weights":[2.633164E-6,-1.4816337E-4,6.548838E-4,-2.9713436E-4,2.451448E-4,2.3085838E-4,1.3909001E-3,2.3159801E-3,-3.2109095E-4,6.675834E-5,4.1104938E-4,-6.5391694E-5,4.896745E-4,1.9686255E-3,-1.620705E-4,6.919011E-4,7.7359844E-3,-3.3478037E-4,3.5085464E-3,7.2831564E-5,-4.5558303E-3,4.3597425E-4,-9.386301E-5,-1.4636995E-3,1.1275002E-5,3.3585663E-4,6.6728314E-4,1.5322316E-3,5.0016167E-3,1.9635657E-2,-3.1318623E-4,4.25005E-3,1.2830517E-4,1.1883589E-2,-1.3607852E-3,5.57303E-4,-3.8826742E-4,1.0584063E-2,1.9868272E-3,-2.787548E-4,1.20916746E-4,-5.384332E-3,6.2277264E-5,7.6406717E-4,4.033548E-4,7.677859E-5,-2.625597E-4,-6.889676E-4,-3.5119855E-3,7.181193E-5,-8.97591E-4,-1.1411431E-3,3.5693235E-4,9.314564E-4,5.9671665E-4,-4.7459225E-3,1.7441671E-3,2.2736392E-3,1.0108152E-2,6.389541E-3,1.4488165E-3,1.1735252E-3,-1.903227E-3,2.1203596E-3,1.3651293E-4,-2.3958224E-3,1.0822188E-4,-1.7799333E-3,4.505355E-3,1.5909482E-3,-1.3786678E-3,-1.8137075E-4,6.152468E-4,-5.79199E-5,-2.1234866E-4,3.362157E-3,-1.3623387E-6,2.4202098E-4,1.2488316E-3,-3.9704064E-5,-3.3832772E-4,4.03832E-5,-1.8355205E-4,-1.8054621E-3,-3.3224412E-4,3.119454E-4,1.5236269E-4,1.1178165E-4,2.0113909E-4,-5.2506653E-5,1.0519239E-4,-1.757843E-4,-4.3738924E-6,-9.4177504E-4,-1.6051829E-4,-7.372868E-4,-2.3942525E-3,-7.5226075E-5,8.602006E-5,-3.2357602E-5,-1.4614522E-3,5.740577E-5,-1.0149693E-3,-1.2888642E-5,1.2601349E-4,3.1098796E-4,9.00003E-6,2.1778226E-4,1.6046512E-4,-4.2105824E-4,-4.8443056E-3,1.7652203E-3,4.1341197E-4,3.5736986E-4,1.4554681E-3,1.3911121E-3,5.299399E-3,-5.8718683E-4,8.146655E-4,-7.875228E-4,1.7577732E-3],"categories":[],"categories_nodes":[],"categories_segments":[],"categories_sizes":[],"default_left":[0,1,0,0,0,0,1,1,0,1,1,0,0,1,0,0,0,0,0,0,0,0,0,0,1,0,0,0,0,1,1,1,0,1,0,1,1,0,0,1,0,0,0,0,0,0,0,0,0,0,0,0,0,1,0,1,0,0,1,0,0,0,0,0,0,0,0,0,0,0,0,0,0,0,0,0,0,0,0,0,0,0,0,0,0,0,0,0,0,0,0,0,0,0,0,0,0,0,0,0,0,0,0,0,0,0,0,0,0,0,0,0,0,0,0,0,0,0,0,0,0],"id":11,"left_children":[1,3,5,7,9,11,13,15,17,19,21,23,25,27,29,31,33,35,37,39,41,43,45,47,49,51,53,55,57,59,61,63,65,67,69,71,73,75,77,79,81,83,-1,85,87,89,91,93,95,97,99,101,103,105,107,109,111,113,115,-1,-1,117,119,-1,-1,-1,-1,-1,-1,-1,-1,-1,-1,-1,-1,-1,-1,-1,-1,-1,-1,-1,-1,-1,-1,-1,-1,-1,-1,-1,-1,-1,-1,-1,-1,-1,-1,-1,-1,-1,-1,-1,-1,-1,-1,-1,-1,-1,-1,-1,-1,-1,-1,-1,-1,-1,-1,-1,-1,-1,-1],"loss_changes":[4.868087E-3,2.3554515E-3,2.9002395E-3,1.8260116E-3,3.2682123E-4,4.5225697E-4,3.048075E-3,2.327314E-3,1.5159033E-3,1.4976993E-4,7.205142E-5,2.949337E-4,8.577731E-5,3.2695169E-3,2.7645414E-3,4.1055313E-4,2.3176894E-3,1.3739762E-3,1.0879672E-3,8.99234E-5,2.8743278E-5,5.8050966E-5,7.792562E-6,2.245032E-4,1.4361154E-4,5.29839E-5,2.6661204E-5,2.8902781E-3,4.309407E-3,6.948202E-5,2.1675949E-3,2.962054E-4,3.3859978E-4,2.4344735E-3,4.554981E-4,2.828009E-3,1.6942574E-3,1.1881557E-4,2.1747357E-4,7.9403355E-5,4.7022884E-5,9.600873E-6,0E0,3.4229248E-5,4.050508E-5,9.370812E-6,1.0897809E-5,3.791735E-5,1.641461E-4,1.6971333E-4,5.110223E-4,7.2349125E-5,4.2065192E-5,2.8979586E-5,8.84055E-6,2.683089E-3,3.1688628E-3,5.6345365E-4,4.3830816E-3,0E0,0E0,2.2936917E-3,2.4976563E-3,0E0,0E0,0E0,0E0,0E0,0E0,0E0,0E0,0E0,0E0,0E0,0E0,0E0,0E0,0E0,0E0,0E0,0E0,0E0,0E0,0E0,0E0,0E0,0E0,0E0,0E0,0E0,0E0,0E0,0E0,0E0,0E0,0E0,0E0,0E0,0E0,0E0,0E0,0E0,0E0,0E0,0E0,0E0,0E0,0E0,0E0,0E0,0E0,0E0,0E0,0E0,0E0,0E0,0E0,0E0,0E0,0E0,0E0],"parents":[2147483647,0,0,1,1,2,2,3,3,4,4,5,5,6,6,7,7,8,8,9,9,10,10,11,11,12,12,13,13,14,14,15,15,16,16,17,17,18,18,19,19,20,20,21,21,22,22,23,23,24,24,25,25,26,26,27,27,28,28,29,29,30,30,31,31,32,32,33,33,34,34,35,35,36,36,37,37,38,38,39,39,40,40,41,41,43,43,44,44,45,45,46,46,47,47,48,48,49,49,50,50,51,51,52,52,53,53,54,54,55,55,56,56,57,57,58,58,61,61,62,62],"right_children":[2,4,6,8,10,12,14,16,18,20,22,24,26,28,30,32,34,36,38,40,42,44,46,48,50,52,54,56,58,60,62,64,66,68,70,72,74,76,78,80,82,84,-1,86,88,90,92,94,96,98,100,102,104,106,108,110,112,114,116,-1,-1,118,120,-1,-1,-1,-1,-1,-1,-1,-1,-1,-1,-1,-1,-1,-1,-1,-1,-1,-1,-1,-1,-1,-1,-1,-1,-1,-1,-1,-1,-1,-1,-1,-1,-1,-1,-1,-1,-1,-1,-1,-1,-1,-1,-1,-1,-1,-1,-1,-1,-1,-1,-1,-1,-1,-1,-1,-1,-1,-1],"split_conditions":[9.1547675E-2,2.3892513E-2,7.4574456E-2,-1.5E-1,3.3847883E-2,3.7116487E-2,8.000001E-2,5.489589E-2,1.428805E-2,1.1482561E-1,-1.2788631E-2,3.9E-1,5.7637073E-2,-9.342868E-2,2.430003E-2,4.8E-1,1.3125978E-1,-1.999998E-2,9E-2,3.9000002E-1,6.544906E-3,-1.7624608E-1,2.3789562E-2,3.4673102E-2,2.0997965E-1,-7.000002E-2,-2.911012E-2,3.7E-1,8.8075034E-2,2.3789562E-2,-3.5689738E-2,-6.999999E-2,-9.614139E-2,-9E-2,-1.5450418E-1,4.1000003E-1,3.9000005E-1,7.999998E-2,1.10000014E-1,8.742912E-2,2.8465621E-2,1.1594117E-1,6.2277264E-5,3.95833E-2,5.9445783E-2,4.7054816E-2,4.9776442E-2,-9.021926E-2,-3.5823576E-2,2.8854288E-2,6.005968E-3,-6.999999E-2,-6.942561E-2,9.000003E-2,-1.0393229E-1,1.2184216E-1,3.9000002E-1,-5.0000012E-2,3.9000005E-1,6.389541E-3,1.4488165E-3,-7.000002E-2,6.544906E-3,2.1203596E-3,1.3651293E-4,-2.3958224E-3,1.0822188E-4,-1.7799333E-3,4.505355E-3,1.5909482E-3,-1.3786678E-3,-1.8137075E-4,6.152468E-4,-5.79199E-5,-2.1234866E-4,3.362157E-3,-1.3623387E-6,2.4202098E-4,1.2488316E-3,-3.9704064E-5,-3.3832772E-4,4.03832E-5,-1.8355205E-4,-1.8054621E-3,-3.3224412E-4,3.119454E-4,1.5236269E-4,1.1178165E-4,2.0113909E-4,-5.2506653E-5,1.0519239E-4,-1.757843E-4,-4.3738924E-6,-9.4177504E-4,-1.6051829E-4,-7.372868E-4,-2.3942525E-3,-7.5226075E-5,8.602006E-5,-3.2357602E-5,-1.4614522E-3,5.740577E-5,-1.0149693E-3,-1.2888642E-5,1.2601349E-4,3.1098796E-4,9.00003E-6,2.1778226E-4,1.6046512E-4,-4.2105824E-4,-4.8443056E-3,1.7652203E-3,4.1341197E-4,3.5736986E-4,1.4554681E-3,1.3911121E-3,5.299399E-3,-5.8718683E-4,8.146655E-4,-7.875228E-4,1.7577732E-3],"split_indices":[10,34,34,15,34,34,13,22,0,22,32,21,34,8,14,27,14,11,7,21,20,6,30,34,12,13,28,27,30,30,20,31,4,7,6,21,21,13,7,12,30,12,0,34,34,10,10,20,16,34,30,1,20,13,4,12,21,35,27,0,0,9,20,0,0,0,0,0,0,0,0,0,0,0,0,0,0,0,0,0,0,0,0,0,0,0,0,0,0,0,0,0,0,0,0,0,0,0,0,0,0,0,0,0,0,0,0,0,0,0,0,0,0,0,0,0,0,0,0,0,0],"split_type":[0,0,0,0,0,0,0,0,0,0,0,0,0,0,0,0,0,0,0,0,0,0,0,0,0,0,0,0,0,0,0,0,0,0,0,0,0,0,0,0,0,0,0,0,0,0,0,0,0,0,0,0,0,0,0,0,0,0,0,0,0,0,0,0,0,0,0,0,0,0,0,0,0,0,0,0,0,0,0,0,0,0,0,0,0,0,0,0,0,0,0,0,0,0,0,0,0,0,0,0,0,0,0,0,0,0,0,0,0,0,0,0,0,0,0,0,0,0,0,0,0],"sum_hessian":[4.9492E4,4.0199E4,9.293E3,2.9156E4,1.1043E4,5.897E3,3.396E3,2.64E2,2.8892E4,5.322E3,5.721E3,2.75E3,3.147E3,2.475E3,9.21E2,2.04E2,6E1,2.879E4,1.02E2,5.316E3,6E0,5.452E3,2.69E2,1.42E2,2.608E3,1.688E3,1.459E3,2.165E3,3.1E2,6E0,9.15E2,2.7E1,1.77E2,4.1E1,1.9E1,1.628E3,2.7162E4,1.7E1,8.5E1,6.39E2,4.677E3,5E0,1E0,4.91E2,4.961E3,1.34E2,1.35E2,1.04E2,3.8E1,2.446E3,1.62E2,2.3E1,1.665E3,3.05E2,1.154E3,7E1,2.095E3,2.03E2,1.07E2,5E0,1E0,4.73E2,4.42E2,1.5E1,1.2E1,4E0,1.73E2,6E0,3.5E1,6E0,1.3E1,9.16E2,7.12E2,1.6863E4,1.0299E4,1.6E1,1E0,5.6E1,2.9E1,5.46E2,9.3E1,4.592E3,8.5E1,4E0,1E0,2.35E2,2.56E2,4.451E3,5.1E2,7E1,6.4E1,5.8E1,7.7E1,5E0,9.9E1,3.2E1,6E0,9.78E2,1.468E3,1.36E2,2.6E1,1.5E1,8E0,2.27E2,1.438E3,2.73E2,3.2E1,3.7E2,7.84E2,5.5E1,1.5E1,1.69E2,1.926E3,1.44E2,5.9E1,6.3E1,4.4E1,1.56E2,3.17E2,4.05E2,3.7E1],"tree_param":{"num_deleted":"0","num_feature":"36","num_nodes":"121","size_leaf_vector":"1"}},{"base_weights":[2.1378587E-6,-6.009413E-5,8.727066E-4,-1.610989E-4,2.88311E-4,3.1001068E-4,1.962779E-3,-3.8138716E-3,-1.5137876E-4,2.810351E-4,1.1105448E-3,9.2070724E-5,4.6800033E-4,5.2946243E-3,1.1734281E-3,-1.4265367E-3,-1.0441348E-2,-1.0015251E-3,-1.0993786E-4,2.2330547E-4,5.1229226E-4,1.7910852E-4,-1.5985084E-3,1.9174472E-4,5.880164E-4,-8.145432E-3,5.9899706E-3,-1.1300278E-2,1.5240705E-3,-4.983792E-4,-4.585929E-3,-8.42868E-3,-6.756877E-3,-2.9898183E-3,8.325761E-5,-1.3282456E-4,2.9364983E-3,-6.572115E-5,2.6075167E-4,4.507703E-4,1.0022402E-3,2.1557706E-4,-2.989685E-3,-2.2637553E-4,-1.38619E-3,2.6940164E-5,4.1032204E-4,5.115181E-4,1.6249678E-3,-2.832209E-3,-4.1864575E-3,8.768922E-3,1.7146061E-3,-2.195083E-3,-1.4060072E-2,2.4395133E-3,-2.676976E-3,-5.6195434E-4,4.4677134E-5,-7.596743E-4,-3.7923406E-3,5.7056063E-4,-2.6360108E-3,-1.084409E-3,6.489968E-4,5.9612023E-5,-1.5617774E-3,-7.119619E-5,1.2960301E-4,-3.2585685E-4,2.2746066E-3,-1.4726397E-4,7.997453E-5,1.0177131E-4,5.0836366E-5,-6.7692477E-4,1.373692E-4,5.8034866E-4,2.6218218E-4,1.4700368E-4,1.4265122E-5,-1.2457935E-3,-6.212513E-5,1.0403575E-4,-1.0172413E-3,-6.0457027E-5,1.15578485E-4,1.555105E-4,2.1271444E-5,1.3150249E-4,2.499917E-4,2.494298E-4,5.418091E-4,4.516041E-4,-1.1418079E-3,-5.027487E-3,2.862098E-3,7.4007077E-4,-5.675449E-3,-1.305943E-3,1.5352434E-4,-4.729007E-3,8.356795E-5,-2.162754E-3,8.4642915E-4,-2.134809E-3,3.5214087E-4],"categories":[],"categories_nodes":[],"categories_segments":[],"categories_sizes":[],"default_left":[0,1,0,0,0,0,0,0,0,0,0,0,0,0,0,1,0,1,1,0,0,1,1,0,0,0,1,0,1,0,0,0,0,1,0,1,1,0,0,0,0,0,1,1,0,0,0,1,0,0,0,0,1,0,0,0,0,0,0,0,0,0,0,0,0,0,0,0,0,0,0,0,0,0,0,0,0,0,0,0,0,0,0,0,0,0,0,0,0,0,0,0,0,0,0,0,0,0,0,0,0,0,0,0,0,0,0],"id":12,"left_children":[1,3,5,7,9,11,13,15,17,19,-1,21,23,25,27,29,31,33,35,37,39,41,43,45,47,49,51,53,55,57,59,-1,61,63,65,67,69,71,73,75,77,79,81,83,-1,85,87,89,91,93,-1,95,97,99,101,103,105,-1,-1,-1,-1,-1,-1,-1,-1,-1,-1,-1,-1,-1,-1,-1,-1,-1,-1,-1,-1,-1,-1,-1,-1,-1,-1,-1,-1,-1,-1,-1,-1,-1,-1,-1,-1,-1,-1,-1,-1,-1,-1,-1,-1,-1,-1,-1,-1,-1,-1],"loss_changes":[2.6814456E-3,1.6255699E-3,2.0247705E-3,1.2709098E-3,2.568098E-4,7.4984826E-5,2.9499023E-3,1.4881955E-3,1.2582294E-3,1.3820897E-4,0E0,1.3521759E-4,4.1762134E-5,2.058072E-3,3.99739E-3,2.0591587E-4,1.436326E-3,3.580647E-3,2.3750118E-3,8.97719E-5,6.191316E-5,1.0152952E-4,1.8555805E-4,1.38216E-5,6.89748E-5,3.0001142E-4,2.4205758E-3,5.9734867E-4,3.413925E-3,5.0114108E-5,2.3267482E-4,0E0,4.0337746E-4,1.8947893E-3,6.574632E-4,1.995375E-3,4.754858E-3,1.3463081E-4,5.2551914E-5,3.653436E-5,2.581923E-5,3.981784E-5,3.1500596E-5,5.9215177E-5,0E0,1.8087589E-5,6.014252E-6,1.8967039E-5,7.1191607E-6,3.529729E-5,0E0,2.6016627E-3,1.3194695E-3,4.3118238E-5,4.6842312E-4,2.7030208E-3,2.7262694E-3,0E0,0E0,0E0,0E0,0E0,0E0,0E0,0E0,0E0,0E0,0E0,0E0,0E0,0E0,0E0,0E0,0E0,0E0,0E0,0E0,0E0,0E0,0E0,0E0,0E0,0E0,0E0,0E0,0E0,0E0,0E0,0E0,0E0,0E0,0E0,0E0,0E0,0E0,0E0,0E0,0E0,0E0,0E0,0E0,0E0,0E0,0E0,0E0,0E0,0E0],"parents":[2147483647,0,0,1,1,2,2,3,3,4,4,5,5,6,6,7,7,8,8,9,9,11,11,12,12,13,13,14,14,15,15,16,16,17,17,18,18,19,19,20,20,21,21,22,22,23,23,24,24,25,25,26,26,27,27,28,28,29,29,30,30,32,32,33,33,34,34,35,35,36,36,37,37,38,38,39,39,40,40,41,41,42,42,43,43,45,45,46,46,47,47,48,48,49,49,51,51,52,52,53,53,54,54,55,55,56,56],"right_children":[2,4,6,8,10,12,14,16,18,20,-1,22,24,26,28,30,32,34,36,38,40,42,44,46,48,50,52,54,56,58,60,-1,62,64,66,68,70,72,74,76,78,80,82,84,-1,86,88,90,92,94,-1,96,98,100,102,104,106,-1,-1,-1,-1,-1,-1,-1,-1,-1,-1,-1,-1,-1,-1,-1,-1,-1,-1,-1,-1,-1,-1,-1,-1,-1,-1,-1,-1,-1,-1,-1,-1,-1,-1,-1,-1,-1,-1,-1,-1,-1,-1,-1,-1,-1,-1,-1,-1,-1,-1],"split_conditions":[1.24817856E-1,3.081045E-2,9.056365E-2,2.6E-1,7.123481E-2,4.2016905E-2,-7.835145E-2,1.870626E-2,-1.5854733E-1,5.9445783E-2,1.1105448E-3,3.4540482E-2,1.6999999E-1,-8.767518E-2,-1.5266827E-1,9.5217645E-2,-1.7975595E-2,0E0,1.5268393E-1,3.9000002E-1,8.368494E-2,4.9999997E-1,-7.549638E-2,-1.0971991E-1,4.243179E-2,-6.0000002E-2,4.0027816E-2,-7.999998E-2,1.5000004E-1,0E0,2.9060971E-2,-8.42868E-3,2.6E-1,-1.9534638E-2,4.0027816E-2,4.5000002E-1,-1.1224149E-1,3.8888816E-2,1.8494261E-2,8.9879975E-2,-2.911012E-2,9.987939E-2,-6.912939E-2,-3.4662187E-2,-1.38619E-3,4.243179E-2,7.5645685E-2,-4.1898258E-2,1.8999997E-1,6.005968E-3,-4.1864575E-3,3.4613725E-2,0E0,-5.0000012E-2,-3.9236248E-2,7.198107E-2,1.6219032E-1,-5.6195434E-4,4.4677134E-5,-7.596743E-4,-3.7923406E-3,5.7056063E-4,-2.6360108E-3,-1.084409E-3,6.489968E-4,5.9612023E-5,-1.5617774E-3,-7.119619E-5,1.2960301E-4,-3.2585685E-4,2.2746066E-3,-1.4726397E-4,7.997453E-5,1.0177131E-4,5.0836366E-5,-6.7692477E-4,1.373692E-4,5.8034866E-4,2.6218218E-4,1.4700368E-4,1.4265122E-5,-1.2457935E-3,-6.212513E-5,1.0403575E-4,-1.0172413E-3,-6.0457027E-5,1.15578485E-4,1.555105E-4,2.1271444E-5,1.3150249E-4,2.499917E-4,2.494298E-4,5.418091E-4,4.516041E-4,-1.1418079E-3,-5.027487E-3,2.862098E-3,7.4007077E-4,-5.675449E-3,-1.305943E-3,1.5352434E-4,-4.729007E-3,8.356795E-5,-2.162754E-3,8.4642915E-4,-2.134809E-3,3.5214087E-4],"split_indices":[10,34,34,25,30,34,20,30,6,34,0,30,23,16,4,26,0,30,26,21,34,27,20,4,30,1,30,31,15,0,34,0,19,28,30,27,8,34,30,12,28,22,32,16,0,30,34,20,17,30,0,14,8,13,16,22,26,0,0,0,0,0,0,0,0,0,0,0,0,0,0,0,0,0,0,0,0,0,0,0,0,0,0,0,0,0,0,0,0,0,0,0,0,0,0,0,0,0,0,0,0,0,0,0,0,0,0],"split_type":[0,0,0,0,0,0,0,0,0,0,0,0,0,0,0,0,0,0,0,0,0,0,0,0,0,0,0,0,0,0,0,0,0,0,0,0,0,0,0,0,0,0,0,0,0,0,0,0,0,0,0,0,0,0,0,0,0,0,0,0,0,0,0,0,0,0,0,0,0,0,0,0,0,0,0,0,0,0,0,0,0,0,0,0,0,0,0,0,0,0,0,0,0,0,0,0,0,0,0,0,0,0,0,0,0,0,0],"sum_hessian":[4.9492E4,4.6191E4,3.301E3,3.581E4,1.0381E4,2.178E3,1.123E3,9.4E1,3.5716E4,1.036E4,2.1E1,9.16E2,1.262E3,2.14E2,9.09E2,7E1,2.4E1,1.659E3,3.4057E4,8.292E3,2.068E3,8.72E2,4.4E1,3.83E2,8.79E2,1E1,2.04E2,2.4E1,8.85E2,5.5E1,1.5E1,3E0,2.1E1,5.85E2,1.074E3,3.3804E4,2.53E2,9.51E2,7.341E3,1.839E3,2.29E2,8.63E2,9E0,3.1E1,1.3E1,2.19E2,1.64E2,8.2E2,5.9E1,6E0,4E0,1.23E2,8.1E1,6E0,1.8E1,7.27E2,1.58E2,1.7E1,3.8E1,1.3E1,2E0,4E0,1.7E1,5.22E2,6.3E1,1.052E3,2.2E1,2.8527E4,5.277E3,1.36E2,1.17E2,4.17E2,5.34E2,3.946E3,3.395E3,4E0,1.835E3,2.6E1,2.03E2,3.27E2,5.36E2,6E0,3E0,2.7E1,4E0,1.34E2,8.5E1,1.24E2,4E1,6.7E2,1.5E2,1.2E1,4.7E1,1E0,5E0,3E0,1.2E2,7.9E1,2E0,3E0,3E0,1.6E1,2E0,2.7E1,7E2,7.3E1,8.5E1],"tree_param":{"num_deleted":"0","num_feature":"36","num_nodes":"107","size_leaf_vector":"1"}},{"base_weights":[7.5077674E-7,-2.2014846E-4,1.5010404E-4,-5.6231156E-4,-9.472901E-5,6.320964E-4,2.5077277E-5,3.0123545E-5,-1.3438566E-3,-3.274727E-4,-4.891217E-5,6.834827E-5,1.585449E-3,-3.258969E-3,4.2251733E-5,-9.37303E-4,8.595806E-4,-8.607059E-4,-2.709353E-3,-4.5070224E-4,-6.067582E-6,-1.5573573E-4,5.4002907E-5,-2.3027197E-4,3.1089174E-4,1.1025146E-3,7.262566E-3,-6.4129033E-4,-7.4224714E-3,2.2530586E-3,-1.5913894E-5,-1.4614675E-3,-3.8895532E-4,1.5748013E-4,3.8616261E-3,-3.5723488E-4,-2.0061175E-3,1.6369441E-3,-3.3298251E-3,-3.4288247E-4,-1.0226645E-3,4.9868966E-5,-3.1284508E-4,1.4995199E-5,-2.2371285E-4,4.889039E-4,1.5481048E-5,-1.7365311E-4,-2.7228915E-3,2.2569377E-4,6.17707E-4,1.0057403E-2,9.0443983E-4,1.4958262E-2,5.328217E-3,-1.9374018E-4,-2.6094595E-3,-8.2761806E-4,-1.1131967E-2,1.5128055E-4,5.615246E-3,-7.2214556E-5,1.6548923E-3,-1.6919468E-4,-6.179612E-4,-2.4448117E-4,1.9921197E-4,-6.7202677E-4,1.7278934E-4,-1.237677E-4,1.3702594E-3,-4.482423E-4,2.4104428E-4,-8.209572E-4,2.3393704E-4,-3.2969646E-4,1.9099091E-3,-1.2488922E-3,-9.04606E-5,1.5190806E-6,-1.474712E-4,-2.7120914E-4,-4.2721082E-4,-3.394715E-5,5.558967E-5,-1.168348E-4,1.08974906E-4,8.39943E-6,-5.044608E-4,-6.285115E-5,-2.7955195E-4,1.6402395E-4,-5.958915E-5,1.0625819E-5,-1.9287983E-4,-3.8487E-5,-2.9163927E-4,-8.438823E-5,-1.1516891E-3,-2.2141996E-5,9.2564114E-5,9.692224E-5,2.4705473E-4,7.162359E-3,1.9273978E-3,-2.2449254E-4,5.3447706E-4,9.927053E-4,4.9063945E-3,5.015048E-4,2.1828362E-3,-1.753259E-6,-2.3838531E-4,-1.106151E-3,-1.6739528E-4,-1.0394894E-3,8.706557E-4,-3.8809234E-3,-5.2743894E-4,-1.8003382E-4,6.6591245E-5,2.3781902E-3,-1.0667028E-3,2.3338442E-5,-5.192247E-4,7.0429037E-6,1.3257947E-3],"categories":[],"categories_nodes":[],"categories_segments":[],"categories_sizes":[],"default_left":[0,1,0,1,0,0,0,0,0,0,0,0,0,0,0,0,0,1,1,0,1,0,0,0,1,0,0,0,0,0,1,0,1,0,1,1,0,1,0,0,1,0,0,0,1,1,1,0,1,0,0,0,0,0,0,1,0,0,0,0,0,0,0,0,0,0,0,0,0,0,0,0,0,0,0,0,0,0,0,0,0,0,0,0,0,0,0,0,0,0,0,0,0,0,0,0,0,0,0,0,0,0,0,0,0,0,0,0,0,0,0,0,0,0,0,0,0,0,0,0,0,0,0,0,0,0,0],"id":13,"left_children":[1,3,5,7,9,11,13,15,17,19,21,23,25,27,29,31,33,35,37,39,41,43,45,47,49,51,53,55,57,59,61,63,65,67,69,71,73,75,77,79,81,83,85,87,89,91,93,95,97,99,101,103,105,107,109,111,113,115,117,119,121,123,125,-1,-1,-1,-1,-1,-1,-1,-1,-1,-1,-1,-1,-1,-1,-1,-1,-1,-1,-1,-1,-1,-1,-1,-1,-1,-1,-1,-1,-1,-1,-1,-1,-1,-1,-1,-1,-1,-1,-1,-1,-1,-1,-1,-1,-1,-1,-1,-1,-1,-1,-1,-1,-1,-1,-1,-1,-1,-1,-1,-1,-1,-1,-1,-1],"loss_changes":[1.632907E-3,8.567228E-4,1.779459E-3,2.4794843E-3,1.5578954E-4,3.2686668E-3,1.3226451E-3,2.4458368E-3,1.5210095E-3,9.517191E-5,1.3423117E-4,2.7696532E-4,6.188179E-3,1.324883E-3,2.9997241E-3,4.0383765E-4,3.4581893E-3,9.836784E-4,1.6315943E-3,1.0676813E-4,1.146137E-5,6.953369E-5,1.0418055E-4,2.4142273E-4,5.5016077E-5,3.6873724E-3,2.5551505E-3,6.6439374E-5,1.1405752E-3,4.2249598E-3,2.1382736E-3,3.849829E-4,3.0959686E-4,1.3367428E-3,9.4022416E-4,1.5675952E-3,1.0622882E-3,9.903888E-4,1.3308972E-3,7.569151E-5,1.1807104E-5,1.2495388E-5,5.4760176E-6,3.7703197E-5,4.291958E-5,2.0231586E-5,7.503436E-5,6.061866E-5,1.02470076E-4,4.1041283E-5,2.7506132E-5,2.1053483E-3,2.9587387E-3,5.152216E-4,1.0063653E-3,7.1082122E-6,2.8895156E-5,1.8711809E-4,4.8469263E-4,1.9733081E-5,4.9050306E-3,5.471151E-3,3.3417505E-3,0E0,0E0,0E0,0E0,0E0,0E0,0E0,0E0,0E0,0E0,0E0,0E0,0E0,0E0,0E0,0E0,0E0,0E0,0E0,0E0,0E0,0E0,0E0,0E0,0E0,0E0,0E0,0E0,0E0,0E0,0E0,0E0,0E0,0E0,0E0,0E0,0E0,0E0,0E0,0E0,0E0,0E0,0E0,0E0,0E0,0E0,0E0,0E0,0E0,0E0,0E0,0E0,0E0,0E0,0E0,0E0,0E0,0E0,0E0,0E0,0E0,0E0,0E0,0E0],"parents":[2147483647,0,0,1,1,2,2,3,3,4,4,5,5,6,6,7,7,8,8,9,9,10,10,11,11,12,12,13,13,14,14,15,15,16,16,17,17,18,18,19,19,20,20,21,21,22,22,23,23,24,24,25,25,26,26,27,27,28,28,29,29,30,30,31,31,32,32,33,33,34,34,35,35,36,36,37,37,38,38,39,39,40,40,41,41,42,42,43,43,44,44,45,45,46,46,47,47,48,48,49,49,50,50,51,51,52,52,53,53,54,54,55,55,56,56,57,57,58,58,59,59,60,60,61,61,62,62],"right_children":[2,4,6,8,10,12,14,16,18,20,22,24,26,28,30,32,34,36,38,40,42,44,46,48,50,52,54,56,58,60,62,64,66,68,70,72,74,76,78,80,82,84,86,88,90,92,94,96,98,100,102,104,106,108,110,112,114,116,118,120,122,124,126,-1,-1,-1,-1,-1,-1,-1,-1,-1,-1,-1,-1,-1,-1,-1,-1,-1,-1,-1,-1,-1,-1,-1,-1,-1,-1,-1,-1,-1,-1,-1,-1,-1,-1,-1,-1,-1,-1,-1,-1,-1,-1,-1,-1,-1,-1,-1,-1,-1,-1,-1,-1,-1,-1,-1,-1,-1,-1,-1,-1,-1,-1,-1,-1],"split_conditions":[4.089565E-2,6.624433E-3,-3.1369027E-2,8.000001E-2,3.9000002E-1,2.6710898E-1,3.7E-1,2.9954508E-2,4.7940213E-2,2.1147909E-2,1.3485689E-2,3.6420934E-2,-2.0910937E-2,6.285026E-2,3.9000002E-1,2.1562483E-2,-2.6549606E-2,-8.592267E-3,3.2067157E-2,4.331321E-2,7.4167475E-2,4.5000002E-1,1.9763574E-2,3.4540482E-2,2.2114158E-1,-7.000002E-2,-6.349439E-2,1.1078897E-1,5.6217935E-2,2.6710898E-1,8.932577E-3,6.624433E-3,-2.7685251E-2,3.6999997E-1,2.218509E-2,-3.999999E-2,0E0,-3.9095964E-2,1.999998E-2,3.7E-1,6.139617E-2,2.7529337E-2,8.0511965E-2,1.0303182E-2,8.831293E-2,-7.2152936E-3,5.2E-1,2.9454809E-2,1.06931806E-1,-7.433471E-2,7.194601E-2,-7.237401E-2,-6.999999E-2,4.473296E-2,-6.0000002E-2,1.3674259E-1,1.1594117E-1,2.0726742E-2,-3.808848E-2,2.2032328E-2,6.544906E-3,2.6710898E-1,2.6710898E-1,-1.6919468E-4,-6.179612E-4,-2.4448117E-4,1.9921197E-4,-6.7202677E-4,1.7278934E-4,-1.237677E-4,1.3702594E-3,-4.482423E-4,2.4104428E-4,-8.209572E-4,2.3393704E-4,-3.2969646E-4,1.9099091E-3,-1.2488922E-3,-9.04606E-5,1.5190806E-6,-1.474712E-4,-2.7120914E-4,-4.2721082E-4,-3.394715E-5,5.558967E-5,-1.168348E-4,1.08974906E-4,8.39943E-6,-5.044608E-4,-6.285115E-5,-2.7955195E-4,1.6402395E-4,-5.958915E-5,1.0625819E-5,-1.9287983E-4,-3.8487E-5,-2.9163927E-4,-8.438823E-5,-1.1516891E-3,-2.2141996E-5,9.2564114E-5,9.692224E-5,2.4705473E-4,7.162359E-3,1.9273978E-3,-2.2449254E-4,5.3447706E-4,9.927053E-4,4.9063945E-3,5.015048E-4,2.1828362E-3,-1.753259E-6,-2.3838531E-4,-1.106151E-3,-1.6739528E-4,-1.0394894E-3,8.706557E-4,-3.8809234E-3,-5.2743894E-4,-1.8003382E-4,6.6591245E-5,2.3781902E-3,-1.0667028E-3,2.3338442E-5,-5.192247E-4,7.0429037E-6,1.3257947E-3],"split_indices":[22,34,20,13,21,34,27,10,10,34,34,34,16,34,27,10,4,20,14,10,12,27,22,30,12,13,4,26,22,34,20,34,8,21,26,9,18,20,11,27,12,22,10,20,12,18,21,30,12,18,34,20,1,22,31,12,12,18,4,34,20,34,34,0,0,0,0,0,0,0,0,0,0,0,0,0,0,0,0,0,0,0,0,0,0,0,0,0,0,0,0,0,0,0,0,0,0,0,0,0,0,0,0,0,0,0,0,0,0,0,0,0,0,0,0,0,0,0,0,0,0,0,0,0,0,0,0],"split_type":[0,0,0,0,0,0,0,0,0,0,0,0,0,0,0,0,0,0,0,0,0,0,0,0,0,0,0,0,0,0,0,0,0,0,0,0,0,0,0,0,0,0,0,0,0,0,0,0,0,0,0,0,0,0,0,0,0,0,0,0,0,0,0,0,0,0,0,0,0,0,0,0,0,0,0,0,0,0,0,0,0,0,0,0,0,0,0,0,0,0,0,0,0,0,0,0,0,0,0,0,0,0,0,0,0,0,0,0,0,0,0,0,0,0,0,0,0,0,0,0,0,0,0,0,0,0,0],"sum_hessian":[4.9492E4,1.9964E4,2.9528E4,5.354E3,1.461E4,6.081E3,2.3447E4,3.046E3,2.308E3,2.402E3,1.2208E4,3.822E3,2.259E3,1.21E2,2.3326E4,1.406E3,1.64E3,1.706E3,6.02E2,1.736E3,6.66E2,5.99E3,6.218E3,1.713E3,2.109E3,2.083E3,1.76E2,7.5E1,4.6E1,5.97E2,2.2729E4,7.18E2,6.88E2,1.33E3,3.1E2,1.186E3,5.2E2,7.5E1,5.27E2,1.462E3,2.74E2,5.64E2,1.02E2,1.706E3,4.284E3,5.05E2,5.713E3,1.676E3,3.7E1,1.652E3,4.57E2,4.4E1,2.039E3,3.4E1,1.42E2,6.2E1,1.3E1,1.7E1,2.9E1,3.68E2,2.29E2,2.1989E4,7.4E2,2.88E2,4.3E2,4.9E2,1.98E2,1.97E2,1.133E3,4.4E1,2.66E2,5.99E2,5.87E2,4.12E2,1.08E2,4.8E1,2.7E1,4.13E2,1.14E2,4.38E2,1.024E3,2.14E2,6E1,2.56E2,3.08E2,9.2E1,1E1,1.694E3,1.2E1,4.201E3,8.3E1,4.66E2,3.9E1,5.546E3,1.67E2,1.587E3,8.9E1,1.2E1,2.5E1,3.58E2,1.294E3,1.89E2,2.68E2,8E0,3.6E1,7.07E2,1.332E3,4E0,3E1,5E1,9.2E1,4.8E1,1.4E1,8E0,5E0,1E1,7E0,2.4E1,5E0,3.1E1,3.37E2,1.83E2,4.6E1,2.0166E4,1.823E3,4.66E2,2.74E2],"tree_param":{"num_deleted":"0","num_feature":"36","num_nodes":"127","size_leaf_vector":"1"}},{"base_weights":[7.354876E-7,-4.978131E-5,4.574773E-4,-6.939215E-4,-2.1237222E-5,1.2732375E-3,2.0606974E-4,9.870401E-5,-1.7226249E-3,-3.460368E-5,1.709886E-3,2.659153E-4,3.0631286E-3,-1.6505296E-4,5.560432E-4,-2.6680506E-3,5.850579E-4,-1.511575E-4,-3.8459187E-3,-1.5992079E-4,1.5278334E-4,3.9711583E-4,6.3537653E-3,5.604518E-5,6.6338887E-4,-3.5382493E-3,4.9369475E-3,-5.3635146E-3,5.0969807E-6,1.0874756E-4,1.0153775E-3,-5.445923E-4,-5.3904313E-3,4.7900677E-3,2.5055467E-4,-3.1443857E-4,8.002673E-5,-1.630715E-3,-6.8232697E-3,-2.8410707E-6,-6.017543E-4,3.4576595E-5,1.9165374E-3,1.1087277E-3,-1.0731933E-3,4.336501E-3,4.655919E-3,1.0146394E-4,-3.6095057E-3,7.383039E-4,-3.1387844E-4,-8.854547E-4,-8.567468E-3,1.015525E-2,2.9648219E-3,-8.828624E-4,-1.8149195E-2,1.7535576E-4,-1.5026674E-3,3.572477E-4,-2.091566E-3,3.964811E-4,3.5116773E-3,-3.2664364E-5,-4.280726E-4,3.8375994E-4,-2.317125E-3,-7.696221E-4,2.9457447E-3,-3.240468E-5,4.74983E-4,1.8636337E-4,-1.1332842E-4,3.6882695E-5,-1.9704398E-4,-7.679739E-4,4.7283855E-4,-2.132943E-3,2.8474848E-3,-1.3835588E-5,4.3386154E-4,-2.5543455E-5,-4.7326056E-4,-7.533034E-5,4.8521226E-5,1.4634642E-3,3.0237777E-4,7.627207E-5,1.715962E-3,-2.0934083E-5,-1.9644012E-3,2.7776493E-3,8.0012804E-4,-1.8030187E-5,8.082524E-5,1.1124574E-4,-1.3439205E-3,2.378655E-4,-8.146746E-5,-1.6297394E-4,4.7079157E-5,2.523917E-5,-2.554693E-3,-3.210548E-3,7.395169E-4,4.6828967E-3,1.5513236E-3,1.8488496E-3,2.8295332E-4,-4.015176E-5,-2.009543E-3,-2.9816949E-3,-6.7555015E-3,3.0898664E-5,1.0785277E-3,-3.084229E-5,-1.2695569E-3,7.317351E-5,3.0057912E-4,9.002463E-4,-1.6609514E-3,-1.10399604E-4,1.4282818E-4,3.016059E-3,6.5189763E-4],"categories":[],"categories_nodes":[],"categories_segments":[],"categories_sizes":[],"default_left":[1,0,0,1,1,0,0,0,0,1,0,0,0,0,1,0,0,0,0,1,0,0,0,1,0,0,0,0,1,0,0,1,0,0,0,0,1,0,0,1,0,0,0,0,0,0,0,0,0,1,1,0,0,0,0,0,0,1,0,0,0,0,0,0,0,0,0,0,0,0,0,0,0,0,0,0,0,0,0,0,0,0,0,0,0,0,0,0,0,0,0,0,0,0,0,0,0,0,0,0,0,0,0,0,0,0,0,0,0,0,0,0,0,0,0,0,0,0,0,0,0,0,0,0,0],"id":14,"left_children":[1,3,5,7,9,11,13,15,17,19,21,23,25,27,29,31,33,35,37,39,41,43,45,47,49,51,53,55,57,59,61,63,65,67,69,71,73,75,77,79,81,83,85,87,89,-1,91,93,95,97,99,101,103,105,107,109,111,113,115,117,119,121,123,-1,-1,-1,-1,-1,-1,-1,-1,-1,-1,-1,-1,-1,-1,-1,-1,-1,-1,-1,-1,-1,-1,-1,-1,-1,-1,-1,-1,-1,-1,-1,-1,-1,-1,-1,-1,-1,-1,-1,-1,-1,-1,-1,-1,-1,-1,-1,-1,-1,-1,-1,-1,-1,-1,-1,-1,-1,-1,-1,-1,-1,-1],"loss_changes":[1.1419813E-3,8.193749E-4,1.0106177E-3,1.5420469E-3,9.875152E-4,2.0924648E-3,4.896212E-4,1.4400305E-3,2.7455126E-3,9.944976E-4,1.990982E-3,6.2025676E-5,5.1880395E-3,1.6186953E-3,3.9847835E-4,9.2200225E-4,1.278796E-3,1.7917719E-5,2.2972766E-3,1.7613096E-3,3.5383857E-3,2.6903994E-4,9.230338E-4,8.161081E-5,1.9047227E-5,1.2331721E-3,3.3248058E-3,3.306691E-3,4.5541057E-4,5.3877704E-4,1.4771259E-3,3.482822E-5,1.0992461E-3,2.5036053E-3,4.0349705E-4,1.6705611E-5,6.310266E-6,6.059528E-4,7.6403795E-4,1.174208E-3,3.3551396E-3,5.778943E-4,2.8637038E-3,6.8019447E-4,4.6099673E-4,0E0,5.337235E-4,1.3122561E-5,2.2443935E-5,1.3388824E-5,2.1370338E-6,4.5939977E-4,7.7989604E-4,2.338808E-3,1.5329137E-3,1.9076877E-4,3.1426502E-4,3.940696E-4,6.8725157E-4,6.4418826E-5,1.77091E-3,4.6917536E-5,1.6420751E-3,0E0,0E0,0E0,0E0,0E0,0E0,0E0,0E0,0E0,0E0,0E0,0E0,0E0,0E0,0E0,0E0,0E0,0E0,0E0,0E0,0E0,0E0,0E0,0E0,0E0,0E0,0E0,0E0,0E0,0E0,0E0,0E0,0E0,0E0,0E0,0E0,0E0,0E0,0E0,0E0,0E0,0E0,0E0,0E0,0E0,0E0,0E0,0E0,0E0,0E0,0E0,0E0,0E0,0E0,0E0,0E0,0E0,0E0,0E0,0E0,0E0,0E0],"parents":[2147483647,0,0,1,1,2,2,3,3,4,4,5,5,6,6,7,7,8,8,9,9,10,10,11,11,12,12,13,13,14,14,15,15,16,16,17,17,18,18,19,19,20,20,21,21,22,22,23,23,24,24,25,25,26,26,27,27,28,28,29,29,30,30,31,31,32,32,33,33,34,34,35,35,36,36,37,37,38,38,39,39,40,40,41,41,42,42,43,43,44,44,46,46,47,47,48,48,49,49,50,50,51,51,52,52,53,53,54,54,55,55,56,56,57,57,58,58,59,59,60,60,61,61,62,62],"right_children":[2,4,6,8,10,12,14,16,18,20,22,24,26,28,30,32,34,36,38,40,42,44,46,48,50,52,54,56,58,60,62,64,66,68,70,72,74,76,78,80,82,84,86,88,90,-1,92,94,96,98,100,102,104,106,108,110,112,114,116,118,120,122,124,-1,-1,-1,-1,-1,-1,-1,-1,-1,-1,-1,-1,-1,-1,-1,-1,-1,-1,-1,-1,-1,-1,-1,-1,-1,-1,-1,-1,-1,-1,-1,-1,-1,-1,-1,-1,-1,-1,-1,-1,-1,-1,-1,-1,-1,-1,-1,-1,-1,-1,-1,-1,-1,-1,-1,-1,-1,-1,-1,-1,-1,-1],"split_conditions":[1.7369255E-1,3.7E-1,3.5E-1,1.5E-1,2.4589593E-2,2.6710898E-1,2.1840583E-1,8.9999974E-2,8.021385E-2,0E0,8.8075034E-2,8.021385E-2,4.5299273E-2,-3.3498943E-1,-3.9703842E-2,6.285026E-2,-1.0571443E-1,-2.3317976E-2,5.190137E-2,3.3000004E-1,7.7568345E-2,-8.1634605E-3,3.9000002E-1,4.8E-1,-6.0000002E-2,-2.9366948E-2,-7.237401E-2,3.652734E-2,1.3799901E-1,8.8075034E-2,2.6710898E-1,7.71844E-2,1.4999998E-1,-1.23951204E-1,4.374764E-2,-1.4497875E-1,1.6246575E-1,5.9720792E-2,1.4999998E-1,4.5000002E-1,9.867552E-2,8.527519E-3,1.2999997E-1,2.6710898E-1,1.1752732E-1,4.336501E-3,1.3E-1,-8.653068E-2,-7.721042E-2,-7.355957E-2,-8.472851E-2,3.712281E-1,1.3E-1,2.597475E-1,1.1655908E-1,7.317082E-2,1.0768883E-1,1.3006409E-1,3.0024035E-2,4.243179E-2,-7.3673405E-2,3.4390733E-2,-3.932245E-2,-3.2664364E-5,-4.280726E-4,3.8375994E-4,-2.317125E-3,-7.696221E-4,2.9457447E-3,-3.240468E-5,4.74983E-4,1.8636337E-4,-1.1332842E-4,3.6882695E-5,-1.9704398E-4,-7.679739E-4,4.7283855E-4,-2.132943E-3,2.8474848E-3,-1.3835588E-5,4.3386154E-4,-2.5543455E-5,-4.7326056E-4,-7.533034E-5,4.8521226E-5,1.4634642E-3,3.0237777E-4,7.627207E-5,1.715962E-3,-2.0934083E-5,-1.9644012E-3,2.7776493E-3,8.0012804E-4,-1.8030187E-5,8.082524E-5,1.1124574E-4,-1.3439205E-3,2.378655E-4,-8.146746E-5,-1.6297394E-4,4.7079157E-5,2.523917E-5,-2.554693E-3,-3.210548E-3,7.395169E-4,4.6828967E-3,1.5513236E-3,1.8488496E-3,2.8295332E-4,-4.015176E-5,-2.009543E-3,-2.9816949E-3,-6.7555015E-3,3.0898664E-5,1.0785277E-3,-3.084229E-5,-1.2695569E-3,7.317351E-5,3.0057912E-4,9.002463E-4,-1.6609514E-3,-1.10399604E-4,1.4282818E-4,3.016059E-3,6.5189763E-4],"split_indices":[12,27,19,9,20,34,12,7,34,28,30,34,26,8,16,34,8,16,10,19,30,16,27,27,31,32,20,30,24,30,34,12,17,6,30,6,14,14,15,27,34,30,9,34,34,0,9,4,32,8,6,14,15,14,10,34,22,24,30,30,16,34,18,0,0,0,0,0,0,0,0,0,0,0,0,0,0,0,0,0,0,0,0,0,0,0,0,0,0,0,0,0,0,0,0,0,0,0,0,0,0,0,0,0,0,0,0,0,0,0,0,0,0,0,0,0,0,0,0,0,0,0,0,0,0],"split_type":[0,0,0,0,0,0,0,0,0,0,0,0,0,0,0,0,0,0,0,0,0,0,0,0,0,0,0,0,0,0,0,0,0,0,0,0,0,0,0,0,0,0,0,0,0,0,0,0,0,0,0,0,0,0,0,0,0,0,0,0,0,0,0,0,0,0,0,0,0,0,0,0,0,0,0,0,0,0,0,0,0,0,0,0,0,0,0,0,0,0,0,0,0,0,0,0,0,0,0,0,0,0,0,0,0,0,0,0,0,0,0,0,0,0,0,0,0,0,0,0,0,0,0,0,0],"sum_hessian":[4.9492E4,4.4564E4,4.928E3,1.89E3,4.2674E4,1.16E3,3.768E3,1.068E3,8.22E2,4.2348E4,3.26E2,7.43E2,4.17E2,1.829E3,1.939E3,1.59E2,9.09E2,4.73E2,3.49E2,2.5377E4,1.6971E4,2.55E2,7.1E1,4.87E2,2.56E2,9.2E1,3.25E2,5.7E1,1.772E3,9.83E2,9.56E2,9E1,6.9E1,6.6E1,8.43E2,2.77E2,1.96E2,2.01E2,1.48E2,1.8722E4,6.655E3,1.5906E4,1.065E3,1.72E2,8.3E1,1.1E1,6E1,4.82E2,5E0,2.38E2,1.8E1,6.1E1,3.1E1,8.8E1,2.37E2,4.3E1,1.4E1,1.593E3,1.79E2,8.84E2,9.9E1,7.67E2,1.89E2,6.1E1,2.9E1,1.8E1,5.1E1,2.7E1,3.9E1,6.65E2,1.78E2,1.7E1,2.6E2,1.86E2,1E1,1.56E2,4.5E1,1.46E2,2E0,1.818E4,5.42E2,4.352E3,2.303E3,4.899E3,1.1007E4,2.49E2,8.16E2,1.46E2,2.6E1,7.1E1,1.2E1,1.7E1,4.3E1,2.46E2,2.36E2,1E0,4E0,2.26E2,1.2E1,1.2E1,6E0,5.5E1,6E0,2.6E1,5E0,4.1E1,4.7E1,9.1E1,1.46E2,3.9E1,4E0,6E0,8E0,1.561E3,3.2E1,1.19E2,6E1,7.53E2,1.31E2,4E1,5.9E1,7.2E1,6.95E2,3.1E1,1.58E2],"tree_param":{"num_deleted":"0","num_feature":"36","num_nodes":"125","size_leaf_vector":"1"}},{"base_weights":[5.8584914E-7,-3.92769E-5,4.1282355E-4,3.5728165E-4,-7.976461E-5,1.2780385E-4,2.405639E-3,5.576951E-5,2.210584E-3,2.7243648E-5,-2.8493244E-4,1.6313223E-3,8.776728E-5,3.5875868E-3,-2.9672717E-3,-7.537914E-5,4.5002962E-4,3.5949082E-3,-3.1578692E-4,-1.8729257E-5,1.4267538E-3,-1.0554687E-3,-4.4511207E-6,5.6605967E-4,6.3935565E-3,3.9416485E-5,7.6180155E-4,1.1066799E-3,7.2411527E-3,-3.6602959E-3,4.3696677E-3,5.928461E-5,-3.841927E-4,4.062786E-4,5.266548E-3,7.1097217E-3,6.570199E-4,-7.227347E-3,8.443394E-4,-5.4724638E-5,1.1926934E-3,-2.1280245E-4,4.1061915E-3,-1.93902E-3,3.355146E-4,-1.579608E-4,5.1213236E-4,-2.3506705E-4,8.8234746E-4,1.2048706E-2,6.645657E-4,5.0485356E-5,-4.761099E-3,1.0821336E-3,6.887128E-4,1.0727663E-2,4.938641E-4,6.796968E-3,4.799107E-3,-1.876961E-3,-5.364059E-3,7.472362E-3,1.5729269E-3,2.2029906E-5,-5.4982543E-4,-2.8637127E-4,-1.1763059E-5,-3.905551E-4,1.5216868E-4,9.510108E-5,2.4518624E-3,1.4188514E-3,